NEGATIVE incredibly 0.000734662
A-GENERAL wonderful 5.03829e-006
NEUTRAL job 0.0101878
E-OVERALL NULL 6.55263e-005
E-SUPPORT extension 7.94359e-007
E-CPU processor 0.412305
A-GENERAL macbook 0.00717352
E-OVERALL this 0.0387256
A-GENERAL . 1.25813e-006
; drive 7.79459e-007
POSITIVE ... 4.30523e-005
A-MISCELLANEOUS social 0.00175265
; replacement 1.58628e-008
E-DISPLAY baby 0.0318004
E-OVERALL already 0.000991423
POSITIVE wonderful 0.002749
A-GENERAL NULL 0.0541507
E-SUPPORT complaints 3.1198e-005
E-OVERALL computer 0.0220152
E-SUPPORT finally 0.00150787
E-OVERALL is 0.0549711
E-OVERALL portability 3.11807e-007
POSITIVE macbook 0.000690555
A-GENERAL this 0.0169477
NEGATIVE fixed 0.000790439
E-COMPANY looking 0.0428768
E-OVERALL absolutely 0.000842861
NEGATIVE times 0.00511405
E-OVERALL amazing 0.000239218
A-OPERATION_PERFORMANCE 10 0.0158045
E-OVERALL processing 3.03445e-006
POSITIVE viruses 3.89578e-005
A-GENERAL computer 0.00181362
E-OVERALL laptop 0.0234806
A-QUALITY brought 0.00162663
POSITIVE literally 5.30366e-006
A-GENERAL is 0.00202774
E-OVERALL was 0.0105212
; within 1.69487e-008
POSITIVE dynamo 1.03504e-006
A-GENERAL absolutely 0.000180994
E-OVERALL good 0.00461472
POSITIVE watching 0.00204619
A-GENERAL amazing 0.0033386
POSITIVE plan 3.05946e-007
POSITIVE online 1.4986e-006
A-GENERAL ! 0.00321558
A-QUALITY receipt 1.71939e-006
POSITIVE . 0.000183342
A-MISCELLANEOUS short 0.000615476
; ... 0.00267695
; wonderful 7.00917e-007
A-QUALITY list 0.00161335
POSITIVE NULL 0.467892
A-PORTABILITY portability 0.0852344
; macbook 1.8001e-007
A-QUALITY tirring 4.01779e-008
POSITIVE this 0.00159324
A-MISCELLANEOUS wal-mart 0.00376892
POSITIVE computer 0.00117506
E-SOFTWARE music-management 0.00593592
A-GENERAL laptop 0.000618675
POSITIVE is 0.00330513
A-OPERATION_PERFORMANCE lower 0.000113884
E-SOFTWARE essential 1.0015e-006
A-GENERAL was 0.0176477
A-QUALITY plan 1.29515e-006
E-SOFTWARE ipod 0.0118652
A-GENERAL good 0.000736153
; watching 1.86888e-007
A-QUALITY wear 0.00101355
POSITIVE amazing 0.0044672
A-QUALITY contacting 1.63696e-005
POSITIVE ! 0.00209095
A-QUALITY work 5.32691e-007
; . 0.227047
POSITIVE already 6.24321e-006
A-QUALITY left 9.16506e-007
; NULL 0.00119484
; left 1.75279e-007
POSITIVE portability 2.22798e-005
NEGATIVE decides 2.168e-005
; this 0.000103898
A-MISCELLANEOUS 720p 3.0046e-006
; `` 2.00851e-006
A-QUALITY done 2.87119e-005
POSITIVE processing 0.000165625
A-QUALITY '' 0.017958
; computer 0.00159593
A-MISCELLANEOUS 1080p 0.0016068
A-PORTABILITY anywhere 0.0716001
POSITIVE laptop 0.000532411
A-QUALITY button 0.000191246
A-MISCELLANEOUS game 0.000454027
; is 0.016017
E-SOFTWARE skype 0.0114939
A-PRICE spent 0.0116077
; '' 1.17091e-006
POSITIVE was 2.30026e-005
A-QUALITY snapped 0.000342567
A-PRICE alot 0.000346902
POSITIVE good 0.00976122
; amazing 2.64485e-007
A-PRICE money 0.121303
; ! 0.0347763
NEGATIVE short 2.48061e-007
A-OPERATION_PERFORMANCE ... 7.02488e-007
A-QUALITY two 0.00185733
; already 3.8691e-006
; just 0.00020641
E-BATTERY 10 2.46513e-006
A-QUALITY worse 0.00126591
A-MISCELLANEOUS chat 2.98978e-006
; way 0.000372849
E-WARRANTY ownership 0.000669461
; thought 2.94041e-007
E-WARRANTY applecare 0.0801516
E-BATTERY hours 0.127606
A-QUALITY crack 3.9553e-005
; would 1.89543e-005
NEGATIVE holds 0.000367856
A-QUALITY did 0.0230815
; run 5.61928e-008
E-BATTERY battery 0.557654
NEGATIVE list 1.70446e-005
A-OPERATION_PERFORMANCE NULL 2.57812e-005
A-OPERATION_PERFORMANCE hours 0.00203062
E-OVERALL reinstalling 0.00014633
NEGATIVE stick 0.00113403
A-OPERATION_PERFORMANCE of 3.26997e-005
E-OVERALL drivers 5.14094e-007
NEGATIVE recomended 0.000323222
A-OPERATION_PERFORMANCE battery 0.00592736
A-GENERAL just 0.000265461
A-QUALITY installing 9.36922e-005
POSITIVE plus 0.00244086
; apple 4.95116e-007
POSITIVE hours 2.09055e-007
A-GENERAL would 0.000330224
A-QUALITY stick 0.000490802
POSITIVE of 0.00157484
NEGATIVE left 0.00294157
E-SUPPORT list 2.32502e-006
A-QUALITY recomended 0.000100512
; 2 5.19957e-005
POSITIVE just 0.00187903
; 10 1.90575e-007
E-KEYBOARD stick 0.00245323
A-QUALITY of 5.32257e-005
A-MISCELLANEOUS add 0.00383078
; old 3.96882e-008
POSITIVE way 6.39819e-005
POSITIVE thought 0.000644675
A-QUALITY opinion 0.000269091
; hours 1.39912e-006
A-QUALITY might 0.0074143
; of 0.038125
POSITIVE would 9.21854e-006
A-QUALITY serial 0.00160065
POSITIVE run 0.000260244
A-QUALITY rarely 0.00245897
NEGATIVE slow 0.00209973
NEGATIVE refund 0.000733921
A-OPERATION_PERFORMANCE fast 0.0475849
A-OPERATION_PERFORMANCE processor 7.35908e-005
NEGATIVE complaints 1.09081e-005
A-OPERATION_PERFORMANCE and 8.07461e-007
NEGATIVE finally 0.00149374
A-OPERATION_PERFORMANCE really 3.62422e-006
NEGATIVE relating 0.000367977
NEGATIVE ? 0.000989812
NEGATIVE date 2.9945e-006
A-OPERATION_PERFORMANCE card.. 3.8067e-008
A-GENERAL recommend 0.0172865
; replaced 9.56871e-007
A-GENERAL any 0.000476147
A-QUALITY crapy 0.00082623
POSITIVE fast 3.72695e-005
A-GENERAL person 1.61077e-006
; manufacturer 9.74494e-008
A-QUALITY extension 0.000825944
A-GENERAL out 3.67364e-006
A-QUALITY complaints 0.00161674
POSITIVE and 0.0229325
A-QUALITY finally 0.000286341
POSITIVE really 0.0044202
; parts 0.000177253
POSITIVE nice 0.00323781
A-GENERAL its 1.6995e-006
POSITIVE graphics 1.08853e-005
A-GENERAL worth 0.0139757
; outstanding 1.70447e-008
POSITIVE card.. 1.68951e-005
A-QUALITY proving 4.09447e-007
POSITIVE recommend 0.00049393
A-QUALITY incredibly 0.00082394
; super 5.28527e-005
A-QUALITY and 1.30284e-005
; works 1.6793e-007
E-KEYBOARD bindings 0.0115072
A-QUALITY dealing 1.70348e-007
POSITIVE any 0.00512947
; fast 1.27338e-008
; incredibly 3.41767e-009
A-QUALITY drone 0.000334817
A-QUALITY geek 0.00082623
; slow 2.02609e-008
A-QUALITY end 0.000309314
POSITIVE out 1.6245e-006
A-QUALITY squad 0.00082623
; and 0.108303
; really 1.08216e-005
A-QUALITY sheer 0.00082439
POSITIVE cause 7.18824e-009
A-QUALITY fixed 0.00193174
A-PRICE worth 0.0125755
; nice 5.11821e-006
A-QUALITY times 8.43455e-005
A-PRICE cheap 0.0657537
A-QUALITY must 5.84881e-005
POSITIVE its 3.23293e-006
; card.. 8.13224e-005
A-QUALITY his 0.000526763
POSITIVE worth 3.15125e-006
E-DISPLAY husband 0.00705437
POSITIVE purposes 3.22791e-006
NEGATIVE person 0.00261519
NEGATIVE out 0.0141964
POSITIVE e-mail 0.000201174
NEGATIVE there 0.0110303
POSITIVE familiar 7.39195e-009
E-SUPPORT fixed 0.00806292
NEGATIVE worth 1.25201e-007
E-GRAPHICS graphics 0.586686
NEGATIVE you 0.00183583
E-COMPANY date 0.0107151
A-DESIGN_FEATURES search 4.96301e-006
E-OVERALL recommend 0.00100717
A-DESIGN_FEATURES : 1.33969e-005
E-OVERALL any 0.00191537
NEUTRAL field 0.00241983
E-OVERALL person 0.000130617
A-DESIGN_FEATURES documents 2.62794e-006
E-OVERALL out 3.24601e-005
A-GENERAL and 3.38985e-007
E-COMPANY if 1.57026e-005
A-DESIGN_FEATURES by 2.71035e-005
E-OVERALL there 1.82331e-006
A-PRICE finally 0.0216419
A-GENERAL really 0.00217893
E-OVERALL cause 3.64791e-009
A-GENERAL nice 0.00591044
E-OVERALL its 0.00732257
A-GENERAL graphics 0.0020284
A-DESIGN_FEATURES keyword 0.000362162
E-OVERALL worth 0.000138311
POSITIVE outstanding 0.00111473
A-USABILITY you 4.85228e-006
A-OPERATION_PERFORMANCE explorer 1.04499e-005
A-GENERAL card.. 0.000388129
A-DESIGN_FEATURES wonderful 5.35255e-007
E-HARD_DISC plenty 0.0588303
E-OVERALL let 0.00130515
E-HARD_DISC storage 0.0346744
E-HARD_DISC 250 0.0226472
E-OVERALL no 0.00319307
E-OVERALL guarantee 5.84574e-006
E-OVERALL purchase 0.000195845
E-OVERALL breaking 0.000146477
; 16 1.10074e-006
E-OVERALL 1 0.000539797
E-HARD_DISC ram.. 1.52132e-005
E-OVERALL year 6.9969e-007
A-DESIGN_FEATURES NULL 5.57345e-006
A-DESIGN_FEATURES and 1.62018e-006
A-DESIGN_FEATURES plenty 8.80381e-006
A-DESIGN_FEATURES of 6.23728e-006
A-DESIGN_FEATURES storage 0.00331798
E-SHIPPING forget 0.040916
E-SHIPPING i'v 0.040938
A-DESIGN_FEATURES 250 3.96504e-005
A-DESIGN_FEATURES gb 0.00460732
A-DESIGN_FEATURES ( 1.0676e-005
A-DESIGN_FEATURES though 0.000133113
NEUTRAL though- 1.77372e-006
A-DESIGN_FEATURES i 4.02164e-006
A-GENERAL guarantee 0.00060544
NEUTRAL flat 0.000186077
A-GENERAL purchase 0.0112015
NEUTRAL panel 6.58324e-005
A-DESIGN_FEATURES upgrade 0.0150464
A-DESIGN_FEATURES the 3.11754e-006
NEUTRAL instead 3.92035e-005
A-DESIGN_FEATURES ram.. 0.00186974
NEUTRAL separate 0.00339597
A-DESIGN_FEATURES ) 2.0516e-006
; value 1.26138e-007
POSITIVE plenty 0.000999441
A-GENERAL you 0.00210739
; top 0.00112745
POSITIVE storage 8.20387e-007
POSITIVE operation 1.78661e-007
POSITIVE with 0.0700299
A-PORTABILITY science 0.00760101
A-GENERAL regret 0.000962333
A-PORTABILITY student 0.0446616
A-GENERAL buying 0.00427418
POSITIVE ( 2.49935e-005
POSITIVE though 0.00176219
A-PRICE cost 0.059011
POSITIVE i 0.001361
A-PRICE winner 0.00248379
POSITIVE will 8.14652e-007
POSITIVE upgrade 0.000111692
; pro 6.24519e-006
A-QUALITY bar 9.53079e-007
POSITIVE the 0.0023566
; blazing 1.88443e-008
POSITIVE ram.. 6.53823e-005
; little 8.07509e-005
POSITIVE ) 0.000239944
A-QUALITY third 0.000677235
; plenty 7.81851e-006
A-QUALITY language 0.00203557
POSITIVE you 0.0016294
A-QUALITY swore 1.80807e-007
POSITIVE wont 2.43616e-006
; with 0.000681848
; arent 3.28514e-008
A-QUALITY turing 3.2633e-006
POSITIVE regret 2.06994e-005
A-PRICE pricey 0.0112828
; friendly 1.03174e-008
A-QUALITY test 0.00163728
POSITIVE buying 2.39317e-007
A-QUALITY failing 0.000108719
POSITIVE science 4.87911e-007
A-QUALITY sound 0.000145138
; ( 0.0113234
; wheel 3.24127e-006
A-QUALITY disconnected 5.45536e-005
POSITIVE student 3.23364e-005
; though 5.2686e-006
A-QUALITY denied 2.64513e-005
POSITIVE in 7.66468e-005
; i 0.000954722
E-KEYBOARD bar 0.0233122
A-QUALITY the 0.000696561
POSITIVE college 0.0020598
; will 1.01381e-005
A-QUALITY managed 0.00126334
POSITIVE , 0.0113516
E-BATTERY suffice 0.00867785
; upgrade 1.27694e-007
A-QUALITY scanned 1.20348e-005
; the 0.169997
POSITIVE that 0.000159134
A-QUALITY except 0.00247494
A-QUALITY hoops 3.21399e-007
A-QUALITY plastic 0.002474
; ) 0.00571386
A-GENERAL replacement/repair 1.66334e-005
E-OVERALL really 0.00370788
E-OVERALL fast 0.000278503
A-GENERAL covers 0.0014447
E-OVERALL and 0.00229274
E-BATTERY blinking 0.00799207
A-DESIGN_FEATURES , 4.07505e-005
E-MOUSE typewriter 8.58709e-007
E-OVERALL i 0.103069
E-OVERALL 'm 0.00454301
A-USABILITY to 0.000169386
E-OVERALL shocked 9.6795e-005
A-OPERATION_PERFORMANCE fuction 0.00150485
E-OVERALL as 6.34655e-005
A-USABILITY easy 0.118792
A-GENERAL took 6.83041e-007
E-OVERALL to 0.0337007
A-QUALITY matter 0.00152521
POSITIVE far 6.38356e-005
A-OPERATION_PERFORMANCE freezes 0.00328274
A-GENERAL box 1.28474e-005
E-OVERALL how 0.000285096
A-GENERAL pre-loaded 2.44803e-005
E-OVERALL easy 0.00052222
A-USABILITY used 0.0585696
A-GENERAL norton 0.000426234
A-DESIGN_FEATURES more 3.65239e-005
E-OVERALL it 0.101609
E-BATTERY usually 0.0173136
A-GENERAL firewall/security 0.000294039
E-OVERALL get 0.000763782
A-DESIGN_FEATURES without 1.57972e-007
E-OVERALL used 4.42616e-008
E-OVERALL transferring 2.41523e-007
NEGATIVE game 9.23221e-007
E-OVERALL block 0.000122138
NEGATIVE ones 2.28939e-005
NEGATIVE click 0.000888754
A-OPERATION_PERFORMANCE as 0.000171103
E-OVERALL fuction 6.92337e-006
A-OPERATION_PERFORMANCE how 7.71786e-006
NEGATIVE course 2.71425e-007
A-OPERATION_PERFORMANCE it 4.8826e-006
A-QUALITY ones 0.000123988
A-QUALITY click 0.0014015
POSITIVE shocked 5.17122e-006
POSITIVE as 0.0108681
; took 4.06558e-008
POSITIVE to 0.00279452
A-QUALITY comes 0.00818366
POSITIVE how 7.27069e-007
POSITIVE easy 0.000776684
POSITIVE it 0.000899329
POSITIVE get 9.56024e-005
POSITIVE used 4.09381e-006
A-QUALITY as 0.000112481
A-QUALITY questions 1.71402e-005
POSITIVE ease 5.44327e-006
; 'm 6.83668e-008
A-QUALITY invalidate 7.72025e-005
POSITIVE use 0.00318218
; shocked 6.22188e-005
A-MISCELLANEOUS half 0.0073659
A-QUALITY courier 1.32005e-007
POSITIVE make 1.44942e-006
; as 0.00580268
; usb 5.79619e-008
A-PORTABILITY carry 0.135339
A-QUALITY post 0.000735734
POSITIVE me 0.000230186
A-QUALITY wires 0.00163777
; to 0.0687707
; port 3.60308e-006
POSITIVE shockingly 1.11587e-008
A-QUALITY come 0.00897939
; how 0.000328426
E-KEYBOARD transcription 0.0116257
A-QUALITY expense 0.000806157
POSITIVE want 3.25288e-007
A-MISCELLANEOUS promotion/offer 0.00396537
; easy 8.2025e-007
; come 1.58188e-006
E-KEYBOARD flatline 1.99693e-005
POSITIVE do 1.19038e-005
A-QUALITY apparently 0.00300069
A-PRICE more 3.50213e-006
A-MISCELLANEOUS course 8.7547e-006
; it 0.00336379
A-QUALITY specific 0.000317209
POSITIVE homework 0.000831407
A-QUALITY defective 0.00129448
; get 0.00041833
A-QUALITY packaging 0.000311433
POSITIVE more 0.000512585
A-QUALITY securely 2.21596e-005
; used 6.60661e-006
A-OPERATION_PERFORMANCE bye 1.43841e-005
E-OVERALL ( 2.03851e-005
A-GENERAL little 0.00117976
E-OVERALL ) 0.00522757
A-USABILITY shocked 1.05707e-005
E-OVERALL of 0.00505506
A-DESIGN_FEATURES big 0.0199783
E-OVERALL 've 0.00404033
A-DESIGN_FEATURES ol 3.356e-006
E-OVERALL only 5.448e-005
E-DISPLAY blank 7.64016e-005
A-DESIGN_FEATURES ' 4.86107e-007
E-OVERALL had 0.0134368
A-DESIGN_FEATURES clunky 0.00219044
E-OVERALL mine 0.000252602
E-OVERALL a 0.0326464
A-USABILITY already 0.000487021
E-DISPLAY three 0.000414277
E-OVERALL day 3.89936e-007
E-DISPLAY quit 0.0151981
A-DESIGN_FEATURES backpack 1.37889e-005
E-OVERALL but 0.000621736
; connect 1.08288e-008
A-PORTABILITY big 3.5101e-005
POSITIVE 've 0.000529627
; system 7.26679e-007
POSITIVE had 9.49429e-005
A-QUALITY team 3.2471e-007
A-QUALITY assists 0.000819204
POSITIVE a 0.00132147
A-QUALITY NULL 7.85251e-005
A-QUALITY choosing 0.000333301
A-PORTABILITY backpack 2.47779e-005
POSITIVE but 6.74199e-007
E-KEYBOARD primary 1.16176e-005
A-QUALITY instructions 1.12571e-005
POSITIVE ; 2.00319e-005
A-QUALITY attached 2.72312e-008
; 've 1.84034e-005
; only 3.1965e-005
A-QUALITY a 5.26732e-005
; had 0.000312083
; mine 0.000624467
; a 0.0526007
; day 4.75427e-007
A-QUALITY called 1.89098e-005
; but 0.00116387
A-MISCELLANEOUS networking 0.00618425
; part 5.12677e-008
E-DISPLAY electronics 1.66967e-007
A-DESIGN_FEATURES like 5.1789e-006
E-OVERALL for 0.0345569
E-OVERALL want 0.000107355
; many 0.000897836
NEUTRAL papers 5.77903e-005
A-DESIGN_FEATURES spotlight 1.57443e-006
E-OVERALL . 1.88375e-008
; new 2.4964e-005
A-QUALITY computer 2.12891e-006
POSITIVE for 0.00210071
A-QUALITY weeks 0.000949513
; for 0.00579572
A-QUALITY think 0.000216782
; processing 6.27506e-007
NEGATIVE defective 0.000895413
E-MULTIMEDIA_DEVICES similar 0.0185228
NEGATIVE mouse 2.37776e-008
E-SUPPORT tirring 0.00229443
A-MISCELLANEOUS programming 0.00792592
E-MULTIMEDIA_DEVICES video-chat 8.48699e-005
NEGATIVE done 9.32002e-005
A-OPERATION_PERFORMANCE processing 0.00246081
E-MULTIMEDIA_DEVICES loud 0.000184388
NEGATIVE '' 0.000520805
NEGATIVE weeks 0.000111105
NEGATIVE while 1.40229e-008
NEGATIVE think 2.74279e-006
E-SUPPORT done 5.36333e-006
E-CPU processing 0.179404
A-OPERATION_PERFORMANCE goes 0.00948276
NEGATIVE old 0.00326389
A-GENERAL dang 0.000719566
E-SUPPORT contacting 0.00224891
E-OVERALL flaws 0.000133686
E-MULTIMEDIA_DEVICES built-in 0.0258167
NEGATIVE contacting 2.62736e-008
E-OVERALL the 0.0114762
E-OVERALL just 0.00850595
E-OVERALL way 1.16492e-007
A-GENERAL buyer 4.46086e-005
E-OVERALL thought 0.00123157
A-QUALITY holds 2.97723e-007
A-GENERAL of 5.56174e-006
A-GENERAL beware 0.000845834
NEUTRAL stuff 0.00829098
E-OVERALL would 0.0135457
A-DESIGN_FEATURES feature 0.0109498
E-OVERALL run 0.000330745
A-GENERAL winner 0.000241862
NEUTRAL funny 0.000677717
E-OVERALL find 3.60673e-006
POSITIVE pro 0.0062338
A-GENERAL the 0.000128514
A-GENERAL come 1.52715e-007
E-OVERALL do 0.0113034
A-PRICE course 0.0290638
A-GENERAL it 0.000398769
E-OVERALL in 0.00206326
POSITIVE bar- 0.000413587
A-GENERAL i 0.0199582
A-QUALITY suffer 9.97946e-007
; laptop 0.000127333
; was 0.00384477
A-MISCELLANEOUS actual 0.00396629
; good 2.82254e-006
A-MISCELLANEOUS live 0.0118842
A-OPERATION_PERFORMANCE the 7.54017e-006
A-MISCELLANEOUS anywhere 1.19793e-007
E-OVERALL scratches 0.000128294
A-MISCELLANEOUS highly 6.1346e-007
E-OVERALL operated 6.53729e-009
A-MISCELLANEOUS students 0.0118006
NEGATIVE result 0.000716488
A-OPERATION_PERFORMANCE just 2.21121e-005
E-OVERALL month 8.8808e-008
NEGATIVE chat 1.23568e-005
A-OPERATION_PERFORMANCE way 0.0376184
NEGATIVE giving 0.00108522
NEGATIVE serial 1.50535e-007
A-OPERATION_PERFORMANCE run 0.0223847
NEGATIVE receipt 2.05979e-006
E-COMPANY careful 0.00485838
E-OVERALL me 2.5751e-005
POSITIVE took 6.89379e-006
A-USABILITY want 0.0536171
A-GENERAL to 9.21746e-006
E-COMPANY house 0.00883946
A-GENERAL get 0.0104915
A-QUALITY fourth 0.000101526
; recommend 2.95589e-006
A-QUALITY ive 5.48224e-005
; any 0.000843081
A-QUALITY waiting 2.22724e-005
; out 9.03445e-006
; there 1.03612e-007
; its 7.45434e-006
A-DESIGN_FEATURES rather 0.00598894
E-OVERALL cheap 0.000151095
A-GENERAL *if 0.000554685
A-DESIGN_FEATURES than 0.0038321
E-OVERALL you 0.0144919
A-DESIGN_FEATURES parsing 3.53076e-006
E-OVERALL wont 0.000430213
A-MISCELLANEOUS organizing 0.00392941
A-DESIGN_FEATURES tens 2.11755e-005
E-OVERALL regret 0.00067451
A-DESIGN_FEATURES file 0.00221728
E-OVERALL buying 1.92405e-008
E-MOUSE left 4.56953e-005
; cheap 3.76818e-006
; you 0.01027
; wont 1.14599e-005
; regret 1.56435e-007
; buying 3.77094e-006
A-MISCELLANEOUS allows 0.00299674
E-MOUSE though- 0.0105531
A-DESIGN_FEATURES folders 0.00216654
E-OVERALL science 6.87145e-005
A-DESIGN_FEATURES document 0.00213022
E-OVERALL student 0.000214417
E-OVERALL college 0.00011039
A-QUALITY typewriter 0.000826163
E-COMPANY company 0.0119685
E-OVERALL , 0.0124024
A-GENERAL anymore 0.000610241
E-OVERALL that 0.00434679
E-COMPANY buy 0.00421443
A-GENERAL major 0.00136967
E-OVERALL longevity 0.000146589
E-HARDWARE running 3.83177e-005
; report 6.47066e-008
E-MOUSE with- 4.02927e-006
E-OVERALL ease 0.0012987
; damaged 7.79222e-009
A-GENERAL plastic 2.02578e-007
E-OVERALL use 0.000246597
A-GENERAL piece 0.00285963
A-DESIGN_FEATURES heavy 0.00336498
E-OVERALL make 0.000920644
A-DESIGN_FEATURES has 0.000563797
E-OVERALL shockingly 0.000143196
E-COMPANY nasty 1.0633e-006
E-OVERALL more 7.45724e-005
A-CONNECTIVITY connected 0.000288863
A-QUALITY in 0.000292437
A-QUALITY owning 2.35009e-006
A-QUALITY , 2.70671e-006
A-QUALITY hardrive 8.09871e-007
; in 0.00197542
A-QUALITY find 8.61538e-007
A-QUALITY failed 0.0023791
A-QUALITY that 0.000981939
A-QUALITY replacing 0.000868629
; , 0.106133
A-QUALITY longevity 4.60868e-008
A-QUALITY stopped 0.00441022
; find 0.00018176
A-OPERATION_PERFORMANCE blazing 5.11054e-005
; that 0.025591
A-QUALITY forced 3.11679e-007
A-QUALITY go 6.48969e-006
; use 0.000298652
A-QUALITY hardware 0.000125803
; make 1.04153e-006
; me 3.50445e-006
A-QUALITY running 0.0015487
; shockingly 2.19659e-007
A-QUALITY tip 1.17017e-007
; want 3.78394e-006
; do 2.14103e-006
; homework 9.7383e-009
; more 0.00423633
; ; 0.00191722
A-QUALITY make 0.00802069
A-QUALITY me 0.0474213
E-KEYBOARD type 0.0466394
A-QUALITY ( 2.93643e-007
A-QUALITY ) 1.3891e-005
A-QUALITY to 0.000134637
A-QUALITY do 0.002811
POSITIVE assistance 0.000181978
POSITIVE bellying 0.000408363
POSITIVE genius 0.000413749
A-OPERATION_PERFORMANCE sudden 0.000927222
POSITIVE beat 0.000831428
A-GENERAL will 0.00501776
A-USABILITY find 6.39945e-006
E-MEMORY areas 0.033733
E-POWER_SUPPLY charger 0.171979
POSITIVE blazing 9.07164e-007
A-USABILITY ease 0.00520513
POSITIVE little 6.64223e-005
A-GENERAL ) 7.72828e-008
A-USABILITY use 0.205742
A-GENERAL 'm 7.19817e-006
A-USABILITY shockingly 5.38945e-005
A-GENERAL how 0.00637445
E-OVERALL without 0.00129386
E-COMPANY toshiba 0.117405
E-OVERALL ol 0.000146376
E-OVERALL ' 0.000439685
A-GENERAL stay 3.43112e-006
E-OVERALL clunky 2.64169e-007
E-OVERALL machine 0.00381635
E-OVERALL my 0.0296412
E-OVERALL backpack 3.47712e-006
E-OVERALL feel 3.54378e-009
E-OVERALL like 0.00739999
E-OVERALL can 0.00792636
E-OVERALL programming 2.41064e-007
E-OVERALL anywhere 3.49821e-008
A-GENERAL hassle 9.99343e-008
A-DESIGN_FEATURES a 3.2786e-006
A-PRICE paid 0.0441659
A-MISCELLANEOUS mostly 0.00396629
E-KEYBOARD secondary 0.0115401
A-QUALITY follow 2.82297e-006
POSITIVE without 0.00131884
A-MISCELLANEOUS confident 3.11516e-005
; barely 5.97426e-007
A-QUALITY comply 2.15575e-005
A-MISCELLANEOUS appreciate 2.13325e-005
A-QUALITY screw 8.57323e-005
POSITIVE ' 2.14645e-007
A-MISCELLANEOUS truly 3.53444e-006
; stay 3.54278e-007
POSITIVE clunky 4.86415e-006
A-QUALITY repair 0.000198839
POSITIVE machine 0.00128289
; properly 2.68698e-008
A-QUALITY children 0.00165043
POSITIVE my 0.00302803
A-MISCELLANEOUS everyday 9.9899e-007
POSITIVE backpack 0.000815601
A-MISCELLANEOUS bound 0.00354366
; two 1.80428e-005
A-QUALITY contacted 8.48876e-007
POSITIVE feel 4.00336e-005
; weeks 5.11934e-008
A-QUALITY situation 0.000415911
POSITIVE like 0.000564021
; while 0.000558733
A-QUALITY given 0.00408628
POSITIVE can 0.00361091
A-MISCELLANEOUS biggest 2.77165e-006
A-QUALITY excuses 0.000114497
POSITIVE programming 1.49021e-008
A-MISCELLANEOUS previously 0.00396621
A-QUALITY results 6.29085e-006
POSITIVE anywhere 2.62519e-006
A-QUALITY went 0.0107643
A-QUALITY bad 8.08321e-007
; machine 1.66624e-007
A-QUALITY three 0.0103732
; my 9.17418e-005
A-MISCELLANEOUS temp 0.00132566
; backpack 1.23612e-006
A-QUALITY baby 4.36723e-007
; feel 5.96375e-009
A-QUALITY electronics 0.00165244
; like 3.96095e-005
A-QUALITY fact 1.84549e-006
A-MISCELLANEOUS given 1.76837e-005
; can 0.000175486
E-OVERALL expectations 0.000147449
E-OVERALL jumped 0.000146411
E-SOFTWARE closing 0.00591997
A-GENERAL spent 3.30489e-006
E-OVERALL highly 0.00180995
E-SOFTWARE browser 0.000100961
E-OVERALL students 1.64442e-006
E-SOFTWARE reopening 1.3545e-005
A-GENERAL money 9.32486e-005
E-OVERALL looking 0.00106279
A-GENERAL nightmare 0.000730764
E-OVERALL solid 1.68317e-007
E-OVERALL through 6.7454e-005
E-OVERALL iworks 0.000146403
A-MISCELLANEOUS for 8.53465e-006
E-OVERALL durrable 1.82231e-008
E-OVERALL carved 0.000146528
A-MISCELLANEOUS college 0.0170239
; spent 3.39839e-009
A-QUALITY try 3.19286e-005
POSITIVE highly 0.000157567
NEUTRAL takes 1.3923e-006
A-QUALITY assist 1.13262e-005
POSITIVE students 5.63244e-006
; money 3.97906e-008
POSITIVE looking 0.00192698
NEUTRAL getting 0.0325714
POSITIVE solid 6.02401e-005
NEUTRAL smaller 6.20738e-006
A-QUALITY rough 0.00082623
POSITIVE them 5.56916e-008
A-QUALITY reprecutions 0.000821697
POSITIVE through 0.00156083
A-QUALITY although 6.71966e-008
; looking 0.000754681
; solid 1.27831e-007
; through 4.71225e-005
A-QUALITY looking 2.14302e-007
A-QUALITY solid 0.00483614
A-QUALITY get 0.0327622
A-QUALITY them 0.0198071
A-QUALITY through 0.0018167
NEGATIVE lived 0.000367923
NEGATIVE did 0.000243964
NEGATIVE work 0.000178698
E-OS spotlight 0.0121044
NEGATIVE fourth 0.000392213
A-GENERAL daughter 0.00144454
E-OS search 0.024197
NEGATIVE should 0.000798858
NEGATIVE name 0.000367045
A-GENERAL emachines 0.000720363
A-GENERAL january 0.000687815
E-OS keyword 0.0089853
A-GENERAL dissatisfied 1.94346e-006
E-OS parsing 0.012099
E-OS tens 0.0120027
NEGATIVE keeps 7.16554e-006
A-USABILITY reinstalling 4.47201e-006
POSITIVE z0j80001 0.000764516
NEGATIVE pricey 0.000541074
POSITIVE integral 1.83791e-008
E-OS folders 0.000167962
POSITIVE completing 5.89919e-005
NEGATIVE owning 0.00103359
E-OS document 6.93614e-006
NEGATIVE might 2.83234e-006
A-USABILITY literally 1.05552e-005
A-DESIGN_FEATURES is 0.00014868
A-GENERAL many 9.28618e-007
POSITIVE great 0.0292067
; did 5.18527e-006
POSITIVE feature 0.000443168
A-MISCELLANEOUS supplementary 0.00396629
; work 0.000706402
POSITIVE spotlight 1.83584e-007
POSITIVE search 4.28579e-007
A-MISCELLANEOUS uses 0.00142149
POSITIVE : 5.81779e-007
A-MISCELLANEOUS tasks 0.00396625
POSITIVE one 0.000966402
A-QUALITY past 2.07504e-008
POSITIVE documents 0.00166231
A-QUALITY four 0.00155273
POSITIVE by 0.000603395
A-QUALITY virus 0.0024242
POSITIVE simply 1.27577e-008
POSITIVE typing 9.91931e-009
POSITIVE keyword 3.96714e-005
A-QUALITY reliable 0.00330456
POSITIVE than 3.72436e-005
A-QUALITY bright 0.00247768
POSITIVE file 5.88926e-007
POSITIVE folders 4.32651e-006
POSITIVE document 1.66503e-005
; great 6.24218e-005
A-MISCELLANEOUS write 0.0118947
; feature 2.33968e-007
A-MISCELLANEOUS papers 0.00786511
A-MISCELLANEOUS check 0.0119858
A-MISCELLANEOUS play 0.0486263
; : 0.00202526
A-MISCELLANEOUS field 0.0051002
; one 5.1652e-006
; documents 1.34748e-008
; by 0.00157108
; than 0.00395018
E-OVERALL oh 0.000391012
E-OVERALL goodness-i 0.000140673
E-OVERALL am 0.00745537
E-OVERALL not 0.000217245
E-OVERALL happy 3.15929e-005
A-USABILITY about 7.91107e-006
E-SOFTWARE graphic 0.000105758
A-GENERAL my 0.000736686
E-DISPLAY high 1.05904e-005
A-GENERAL goodness-i 2.91993e-005
A-GENERAL am 0.00298319
A-GENERAL not 2.2438e-007
A-GENERAL a 0.00555582
A-GENERAL happy 0.017896
A-GENERAL camper 2.20331e-007
NEGATIVE NULL 0.0705702
POSITIVE update 0.000828489
NEGATIVE oh 4.57896e-006
NEGATIVE my 9.05352e-006
E-OVERALL both 1.00535e-005
NEGATIVE am 1.73027e-008
NEGATIVE not 0.0547505
POSITIVE shine 5.13649e-008
NEGATIVE a 0.000859249
NEGATIVE happy 6.65169e-009
NEGATIVE camper 0.000735865
E-HARD_DISC keeps 0.00022483
NEGATIVE . 0.000372733
E-BATTERY replacing 0.0169062
; am 1.8831e-006
; not 0.000332786
A-MISCELLANEOUS videos 0.00709288
E-OVERALL very 0.0170643
E-OVERALL heavy 6.36237e-009
NEGATIVE hp 0.00938591
NEGATIVE is 1.3441e-005
NEGATIVE very 5.54671e-008
NEGATIVE heavy 0.000546275
; very 1.58446e-005
E-OVERALL carry 7.94928e-005
E-SUPPORT took 0.00304916
POSITIVE durrable 1.72587e-006
NEGATIVE to 0.00080018
POSITIVE everywhere 0.000411642
; carry 5.69241e-008
NEGATIVE ergonomics 0.000367705
A-OPERATION_PERFORMANCE running 0.000558929
A-QUALITY are 0.0115577
A-QUALITY going 3.44032e-006
E-BATTERY worked 4.30189e-005
A-OPERATION_PERFORMANCE 5-6 5.72905e-007
A-QUALITY has 1.54944e-005
A-QUALITY never 3.11676e-005
A-QUALITY worked 0.00259355
A-QUALITY well 6.39142e-007
POSITIVE criteria 1.58092e-007
NEGATIVE the 0.00353643
E-SUPPORT having 0.000237069
NEGATIVE battery 5.01071e-009
E-MULTIMEDIA_DEVICES turns 0.00263021
POSITIVE sky 9.44314e-006
NEGATIVE never 0.000227234
NEGATIVE worked 0.000471276
NEGATIVE well 5.44525e-006
; has 0.00256071
; never 0.000124959
; worked 1.07445e-008
E-BATTERY 5-6 0.00863344
; well 2.44348e-006
A-OPERATION_PERFORMANCE has 3.34163e-006
NEGATIVE turns 1.32888e-007
A-OPERATION_PERFORMANCE never 4.91884e-006
A-OPERATION_PERFORMANCE worked 0.00725457
NEGATIVE lot 1.35282e-007
A-OPERATION_PERFORMANCE well 2.92502e-007
NEGATIVE until 0.00132276
A-OPERATION_PERFORMANCE hour 0.0120994
A-QUALITY since 0.0018764
NEGATIVE brought 1.14974e-005
A-OPERATION_PERFORMANCE literally 0.000792552
A-QUALITY gets 0.00967083
A-QUALITY so 1.11612e-005
A-QUALITY hot 0.00376119
A-QUALITY it 9.39002e-006
A-QUALITY is 1.62425e-005
A-QUALITY scary 6.87909e-006
NEGATIVE gets 6.18507e-006
NEGATIVE so 0.000327568
NEGATIVE hot 0.00163545
POSITIVE continues 0.00082732
NEGATIVE it 0.00135526
NEGATIVE scary 0.000364925
E-BATTERY hour 0.000473113
; so 0.00484823
; hot 4.45789e-007
A-PORTABILITY books 2.07887e-006
E-OVERALL product 0.00237708
E-OVERALL wifi 0.000249101
E-SUPPORT yet 3.48238e-005
E-OVERALL blazing 0.000141538
E-SUPPORT hp 0.00471452
E-SUPPORT wo 0.0181961
E-OVERALL where 6.34876e-006
E-SUPPORT n't 5.01361e-006
E-SUPPORT do 9.5155e-006
E-SUPPORT anything 0.000717218
E-SUPPORT problem 0.000182329
A-QUALITY yet 0.00606642
A-QUALITY hp 0.000122187
A-QUALITY wo 3.3658e-005
A-QUALITY n't 0.00154979
A-QUALITY anything 0.0076577
A-QUALITY about 0.000143089
A-QUALITY problem 0.00270206
NEGATIVE yet 0.000233777
POSITIVE block 1.41951e-007
NEGATIVE , 2.00268e-005
NEGATIVE wo 1.06958e-005
NEGATIVE n't 0.0289397
NEGATIVE do 0.00015677
NEGATIVE anything 0.000522243
POSITIVE ports 3.55263e-008
NEGATIVE about 0.000704337
NEGATIVE problem 0.00943897
; yet 1.23082e-007
; n't 6.50882e-006
A-CONNECTIVITY hook 0.0545495
; about 0.000112509
A-CONNECTIVITY wireless 0.113609
E-OVERALL price 0.000485939
; snow 4.55955e-008
E-SUPPORT returned 9.03635e-005
E-OVERALL we 0.00101946
E-SUPPORT they 0.202471
E-SUPPORT kept 0.000255006
A-DESIGN_FEATURES many 0.000782564
E-SUPPORT 3 0.000265904
A-QUALITY returned 9.39853e-008
A-QUALITY they 0.0107697
A-QUALITY kept 0.00235947
A-QUALITY 3 0.0160802
A-QUALITY months 0.00103794
NEGATIVE i 2.62499e-005
POSITIVE thank 5.41143e-008
NEGATIVE returned 0.00199218
NEGATIVE computer 7.42085e-005
POSITIVE family 5.02856e-008
NEGATIVE and 1.68474e-006
NEGATIVE they 0.000266034
POSITIVE space 8.10942e-006
NEGATIVE kept 1.21143e-005
E-SUPPORT techs 0.00682464
NEGATIVE for 3.12303e-006
NEGATIVE 3 0.000154399
NEGATIVE months 0.0138886
A-CONNECTIVITY network 0.0117069
; returned 9.06809e-009
A-MISCELLANEOUS serious 2.795e-005
; they 3.67267e-007
A-MISCELLANEOUS gaming 0.0396267
A-CONNECTIVITY networks 0.018519
A-MISCELLANEOUS media 0.0158643
; 3 7.793e-008
A-MISCELLANEOUS niece 0.000329942
; months 1.91075e-007
E-SUPPORT back 0.00303405
E-OVERALL 2 2.05156e-007
E-SUPPORT realizwed 0.00229448
E-OVERALL old 1.90936e-005
E-SUPPORT still 0.000221913
E-OVERALL part 0.00158336
E-OVERALL buyer 0.000109708
E-SUPPORT correct 5.33674e-005
E-OVERALL beware 6.53835e-005
E-SUPPORT told 0.0275081
E-SUPPORT me 0.000370324
E-OVERALL features 0.000548748
; definition 8.95078e-008
E-SUPPORT warranty 0.000115134
E-OVERALL might 2.73545e-006
E-OVERALL own 3.01845e-008
A-QUALITY when 0.00038804
A-QUALITY got 0.013319
A-QUALITY back 0.0124196
A-QUALITY realizwed 2.07706e-008
A-QUALITY still 0.0296324
E-KEYBOARD number 0.000508904
A-QUALITY was 0.00385892
A-QUALITY not 5.90108e-006
A-QUALITY correct 0.00162784
A-QUALITY told 9.31235e-006
A-QUALITY out 0.0149913
A-OPERATION_PERFORMANCE did 3.70778e-005
A-QUALITY warranty 0.005073
A-OPERATION_PERFORMANCE work 0.0520108
A-QUALITY now 2.70347e-006
A-QUALITY my 1.30781e-006
NEGATIVE when 0.000554707
NEGATIVE got 0.00475897
NEGATIVE back 0.00465354
NEGATIVE still 1.30812e-006
NEGATIVE was 0.00740453
NEGATIVE correct 2.40646e-006
NEGATIVE told 7.1393e-008
NEGATIVE me 0.0142397
NEGATIVE of 0.0102067
POSITIVE slows 3.65209e-006
E-MULTIMEDIA_DEVICES downfall 0.000295582
NEGATIVE warranty 0.00654596
POSITIVE sixteen 8.03491e-007
NEGATIVE now 4.03952e-006
A-MISCELLANEOUS nephew 0.00386535
; when 0.00438574
; got 2.49114e-007
A-MISCELLANEOUS require 0.000497689
; back 4.023e-008
A-MISCELLANEOUS dedicated 0.00123644
; still 1.07862e-006
; warranty 1.07717e-008
E-OVERALL so 0.0111783
E-OVERALL imagine 6.3561e-005
A-USABILITY friendly 0.0122256
E-OVERALL with 0.00139471
E-OVERALL item 1.15595e-005
A-QUALITY shipped 0.00506622
POSITIVE lightweight 0.000274818
A-GENERAL so 0.00554562
A-QUALITY unless 1.12065e-005
A-GENERAL , 7.52615e-005
A-GENERAL can 0.0002141
A-GENERAL imagine 0.0011317
A-GENERAL unhappy 4.38411e-007
POSITIVE apple- 4.75545e-008
A-GENERAL with 0.00668423
NEGATIVE can 1.3959e-005
POSITIVE 2yrs 1.49075e-006
NEGATIVE imagine 1.10736e-008
NEGATIVE how 0.00497556
NEGATIVE unhappy 0.000367765
NEGATIVE with 8.65657e-005
NEGATIVE this 2.99859e-006
POSITIVE headaches 3.26744e-008
E-OVERALL currently 0.000316213
E-OVERALL if 0.00813809
E-OVERALL ca 0.00307788
E-OVERALL n't 0.00430843
E-OVERALL sit 6.66531e-007
E-OVERALL on 2.67996e-006
E-OVERALL lap 2.31846e-007
E-OVERALL because 0.00118306
E-BATTERY sudden 1.65931e-005
E-OVERALL will 0.00134567
E-OVERALL burn 0.000304041
A-QUALITY currently 0.0002159
A-QUALITY sit 0.00201114
A-QUALITY on 0.000182848
A-QUALITY lap 5.98886e-007
A-QUALITY will 1.2631e-007
NEGATIVE place 1.93197e-005
A-QUALITY burn 0.000763826
NEGATIVE connections 5.23796e-007
A-OPERATION_PERFORMANCE convienent 5.04241e-005
A-QUALITY legs 0.000384888
POSITIVE addicted 5.95637e-005
NEGATIVE currently 0.000132975
POSITIVE booth 9.94745e-005
NEGATIVE if 3.57998e-006
POSITIVE routed 1.63494e-007
POSITIVE transferring 8.92777e-008
NEGATIVE laptop 1.16779e-005
NEGATIVE ca 3.43494e-007
NEGATIVE sit 0.000942389
NEGATIVE on 0.0487778
POSITIVE favor 7.22954e-006
NEGATIVE because 0.00548821
NEGATIVE will 0.000515082
NEGATIVE burn 5.69095e-007
NEGATIVE legs 0.000196566
A-MISCELLANEOUS transition 0.00390792
; if 1.68646e-005
; ca 2.84701e-008
A-MISCELLANEOUS refurbished 0.000316847
A-MISCELLANEOUS cae 0.0039597
; on 3.26441e-005
; because 0.00320571
E-SUPPORT care 0.00641711
E-SUPPORT bunch 0.000442092
A-QUALITY care 2.71223e-005
A-QUALITY bunch 0.00212939
E-HARD_DISC moth 0.023059
POSITIVE blown 1.58703e-005
NEGATIVE bunch 0.00045266
E-OVERALL after 6.89215e-007
E-SUPPORT same 0.00124021
E-OVERALL etc 5.75193e-005
E-SUPPORT time 3.99614e-006
E-MULTIMEDIA_DEVICES sound 0.224073
E-OVERALL functions 3.16406e-008
E-SUPPORT company 0.0123937
E-OVERALL into 7.13994e-006
E-OVERALL winner 4.74766e-005
A-QUALITY but 9.78286e-008
A-QUALITY at 4.0259e-006
A-QUALITY same 0.014269
A-QUALITY time 5.76721e-006
NEGATIVE mention 0.00182798
A-OPERATION_PERFORMANCE replacing 6.99878e-007
A-QUALITY company 0.00195972
NEGATIVE handed 2.32758e-009
A-OPERATION_PERFORMANCE stopped 0.00356753
A-QUALITY could 0.00159558
E-SUPPORT support 0.000346603
POSITIVE enjoyable 1.54286e-007
NEGATIVE but 0.000268059
E-HARD_DISC owning 9.29689e-005
NEGATIVE at 0.0162769
E-HARD_DISC hardrive 0.0460953
NEGATIVE same 0.00042038
E-HARD_DISC failed 6.76871e-005
NEGATIVE time 0.0178369
NEGATIVE ( 5.85015e-006
NEGATIVE company 6.39064e-007
POSITIVE charm 3.00387e-005
NEGATIVE ) 3.1808e-005
NEGATIVE would 7.917e-006
NEGATIVE could 0.00888654
; at 0.0010039
; same 1.61691e-006
; time 9.80559e-006
E-SOFTWARE included 0.00645284
; could 0.000298443
E-OVERALL say 6.46358e-005
E-OVERALL buy 2.50531e-006
E-OVERALL one 0.00579664
E-OVERALL these 4.84453e-005
E-OVERALL be 0.000167871
A-GENERAL say 0.0133939
A-GENERAL if 0.00788557
A-QUALITY lose 7.78298e-007
A-GENERAL want 0.000186263
A-GENERAL buy 0.0319274
E-SOFTWARE freezing 7.17423e-005
A-GENERAL one 0.0252726
A-GENERAL these 0.000159401
A-GENERAL machines 8.20749e-006
A-GENERAL be 0.000103781
A-GENERAL careful 0.000665609
NEGATIVE say 5.05881e-006
NEGATIVE want 2.55423e-005
NEGATIVE buy 0.000370817
E-SUPPORT waiting 0.00682176
NEGATIVE one 0.000414907
NEGATIVE these 0.00274111
NEGATIVE machines 0.000363808
NEGATIVE be 0.0187443
NEGATIVE careful 6.46776e-005
; say 9.45838e-007
; buy 2.20081e-007
A-CONNECTIVITY printers 0.0580293
; be 0.00412323
A-CONNECTIVITY headsets 0.00180072
A-GENERAL product 0.0240326
E-PORTS wires 0.00127331
A-PRICE influence 0.00699778
A-GENERAL we 0.00850126
E-COMPANY hp 0.0012864
A-GENERAL are 0.00337724
A-GENERAL going 9.89665e-008
A-USABILITY benefits 1.81296e-005
A-GENERAL deal 8.75909e-007
A-GENERAL hp 3.78351e-005
NEGATIVE are 0.000616091
NEGATIVE going 6.28614e-006
; are 0.00716018
; going 2.72239e-006
A-GENERAL own 1.58953e-006
A-GENERAL were 8.12841e-007
A-GENERAL in 3.34651e-006
A-GENERAL house 0.000976204
A-USABILITY mac 0.0535888
A-GENERAL nasty 0.000116123
POSITIVE devised 0.000410646
NEGATIVE in 0.044206
NEGATIVE house 3.37358e-007
NEGATIVE nasty 0.000308771
NEGATIVE word 0.000962128
E-OVERALL since 0.000373026
E-OVERALL purchased 0.0016221
E-OVERALL toshiba 6.81155e-007
E-OVERALL netbook 0.00406451
E-OVERALL have 0.0180493
POSITIVE unnecessary 3.23151e-008
E-OVERALL been 0.00390945
E-OVERALL pleased 3.15018e-005
E-OVERALL laptob 9.74249e-008
E-OVERALL desktop 7.27528e-005
A-GENERAL since 3.2146e-007
A-GENERAL purchased 8.53032e-006
A-GENERAL toshiba 0.0172493
A-GENERAL netbook 5.71657e-005
A-GENERAL have 0.00877798
A-USABILITY set 0.000634404
A-GENERAL been 0.000488964
A-GENERAL very 0.000795713
A-GENERAL pleased 0.00245708
A-GENERAL laptob 0.000721603
NEUTRAL whole 1.14631e-006
POSITIVE since 0.00576942
POSITIVE purchased 1.34727e-005
POSITIVE toshiba 2.76149e-006
NEUTRAL adapt 9.94189e-005
POSITIVE netbook 4.00316e-005
POSITIVE have 0.00175193
NEUTRAL finding 0.000367396
POSITIVE been 1.69969e-005
; go 9.75597e-007
A-QUALITY noise 0.000782271
POSITIVE very 0.00391316
POSITIVE pleased 0.000575457
POSITIVE laptob 2.33869e-007
POSITIVE desktop 0.00187191
; since 2.2707e-006
A-MISCELLANEOUS homeschool 2.7623e-007
; toshiba 0.00236012
; netbook 1.61867e-005
A-MISCELLANEOUS illustrating 0.00337752
; have 0.00333407
A-MISCELLANEOUS skipping 0.00396622
; been 3.71716e-005
E-OVERALL easier 4.06905e-005
E-OVERALL take 0.00107478
E-OVERALL bed 3.49588e-006
E-OVERALL around 0.00160376
A-MISCELLANEOUS sites 6.44048e-005
; fact 3.4284e-007
A-PORTABILITY take 0.000843489
; overall 4.19974e-008
A-PORTABILITY bed 0.0139955
A-PORTABILITY around 8.62724e-005
; needed 2.7201e-008
POSITIVE easier 0.000130829
POSITIVE take 0.00552975
POSITIVE bed 4.26925e-008
A-QUALITY seem 0.00149713
POSITIVE carry 7.83823e-006
POSITIVE around 0.000379848
; easier 2.25679e-006
; take 1.58572e-005
A-MISCELLANEOUS her 0.00974082
; around 8.87709e-006
POSITIVE product 0.000214896
E-DISPLAY screen 0.485085
A-PORTABILITY vacation 7.68995e-005
E-SOFTWARE incorporate 0.00593216
A-GENERAL looking 0.000160985
A-PORTABILITY whatever 0.00942122
E-DISPLAY smaller 0.000359551
A-QUALITY noon 0.000819969
POSITIVE performance 3.35687e-006
A-QUALITY tue 7.57235e-006
A-USABILITY takes 0.0194527
A-USABILITY some 4.92798e-006
A-USABILITY getting 0.00588288
; product 4.53389e-008
A-MISCELLANEOUS occassionaly 0.000174163
NEUTRAL the 5.25641e-007
; we 5.24612e-006
; were 2.71244e-008
A-MISCELLANEOUS doing 0.0276136
; screen 8.98831e-009
A-MISCELLANEOUS focused 0.0014268
; takes 3.57797e-008
A-MISCELLANEOUS activity 7.7222e-007
; some 0.000375693
; getting 3.70643e-008
E-OVERALL when 0.000236311
E-COMPANY last 6.09765e-005
A-DESIGN_FEATURES screen 7.01664e-007
A-DESIGN_FEATURES some 0.0136892
A-DESIGN_FEATURES to 2.90486e-006
A-DESIGN_FEATURES because 0.000814378
A-GENERAL far 0.00696147
A-DESIGN_FEATURES it 2.79363e-005
E-OVERALL still 6.74384e-007
A-DESIGN_FEATURES smaller 0.00211597
E-OVERALL problems 0.00103172
A-GENERAL problems 0.0139198
; stopped 3.91758e-006
POSITIVE problems 0.000704729
A-MISCELLANEOUS massive 2.1709e-005
; problems 5.37394e-008
E-MOUSE babyed 0.0105583
E-OVERALL notebook 0.00206646
E-OVERALL pc 0.000317122
A-DESIGN_FEATURES most 8.30279e-005
E-OVERALL qosmio 0.0001368
NEUTRAL frills 6.0977e-006
E-OVERALL best 0.000556857
NEUTRAL important 0.00340861
E-OVERALL gift 5.93674e-009
E-OVERALL father 1.30194e-008
E-OVERALL could 7.06329e-006
A-DESIGN_FEATURES capacity 0.00111001
E-OVERALL ever 6.71624e-006
E-MOUSE didnt 0.00350604
E-OVERALL gotten 1.81642e-007
A-GENERAL notebook 0.00162461
A-GENERAL pc 2.25478e-007
A-GENERAL qosmio 4.82851e-005
A-GENERAL best 0.0117154
A-GENERAL gift 0.00361226
E-SOFTWARE verion 0.00593584
A-PRICE laptops 6.29279e-006
A-GENERAL father 0.000722053
A-GENERAL could 1.23581e-005
E-SOFTWARE asks 0.000251827
A-GENERAL ever 0.0201516
A-GENERAL gotten 3.46262e-006
A-QUALITY loose 3.09421e-006
E-SOFTWARE seemlessly 0.00576621
A-GENERAL me 2.49641e-007
POSITIVE notebook 0.000272174
POSITIVE pc 0.00699887
POSITIVE best 0.0020728
A-QUALITY previous 1.62862e-005
POSITIVE gift 9.53348e-008
POSITIVE father 2.14761e-007
A-QUALITY died 0.00239005
POSITIVE could 0.000126837
POSITIVE ever 9.55136e-006
A-QUALITY clean 0.00166191
POSITIVE gotten 0.00124462
A-MISCELLANEOUS spreadsheets 3.12426e-005
; notebook 1.04617e-007
A-MISCELLANEOUS graphics-intensive 0.00391803
; pc 1.15082e-008
A-MISCELLANEOUS aimed 0.00396427
A-MISCELLANEOUS segment 6.06004e-006
; ever 0.000117969
E-OVERALL he 0.000348494
E-OVERALL about 0.00261631
E-OVERALL 3 2.92737e-007
E-OVERALL years 1.57541e-005
A-DESIGN_FEATURES pages 1.59678e-005
E-OVERALL ago 4.14728e-006
E-OVERALL up 0.00686299
E-OVERALL point 4.49633e-006
A-PORTABILITY met 2.26754e-006
E-OVERALL im 0.000221872
A-PORTABILITY exceeded 6.78719e-006
E-OVERALL sitting 0.000656262
A-PORTABILITY compact 2.17505e-006
E-OVERALL using 1.39571e-005
A-QUALITY he 0.000301869
A-QUALITY gave 0.00244174
A-QUALITY years 0.012858
A-QUALITY up 4.31171e-005
A-QUALITY sitting 0.000110085
A-QUALITY here 5.38874e-005
; three 1.25681e-008
POSITIVE about 0.000350758
POSITIVE years 0.000548773
POSITIVE ago 0.00129238
POSITIVE up 0.000139576
POSITIVE point 0.000124069
POSITIVE im 0.00102112
NEUTRAL solve 0.00174132
POSITIVE still 8.91921e-006
POSITIVE sitting 0.000162188
POSITIVE using 0.00023642
; years 4.02744e-008
; ago 1.56938e-006
; up 0.000232877
; using 2.19989e-006
E-OVERALL going 0.00145068
E-KEYBOARD letter 0.0116622
POSITIVE going 0.000860054
E-OVERALL condition 0.000137038
A-DESIGN_FEATURES are 0.000446641
E-OVERALL has 0.0107562
E-OVERALL high 0.000965057
E-OVERALL quality 2.92268e-005
A-QUALITY condition 5.38768e-005
A-QUALITY high 1.42567e-005
A-QUALITY quality 0.0196488
; running 6.05448e-009
A-QUALITY fan 3.18134e-006
POSITIVE has 0.000440873
POSITIVE high 5.66537e-008
POSITIVE quality 8.01974e-006
; high 5.06391e-005
NEGATIVE talk 1.02367e-006
A-OPERATION_PERFORMANCE completely 0.000110247
; quality 2.41058e-008
E-OVERALL something 4.19729e-006
E-OVERALL deffinately 4.26936e-009
E-OVERALL reccomend 8.42704e-005
E-OVERALL someone 9.75339e-006
A-GENERAL deffinately 0.000672335
A-GENERAL reccomend 0.00280849
A-GENERAL someone 4.08536e-007
NEUTRAL learn 0.0125695
E-KEYBOARD sticking 2.30156e-006
POSITIVE deffinately 2.88465e-005
E-KEYBOARD shift 0.0115738
POSITIVE reccomend 0.000223433
E-MOUSE clicking 2.34271e-005
A-PORTABILITY taken 1.20185e-005
E-KEYBOARD lines 0.000118649
POSITIVE someone 0.0018169
; something 8.36538e-009
; reccomend 8.6884e-008
NEUTRAL buttons 1.30262e-007
A-DESIGN_FEATURES hooked 1.60644e-006
E-OVERALL such 0.00168715
E-OVERALL great 0.000884794
E-OVERALL thing 0.00271579
A-GENERAL such 4.86771e-007
A-PORTABILITY heavier 4.63838e-007
A-GENERAL great 0.0349569
A-GENERAL thing 6.8595e-008
A-GENERAL like 1.82705e-006
E-MOUSE buttons 0.00129987
E-KEYBOARD tapping 0.00777694
POSITIVE such 0.000569559
POSITIVE thing 6.10373e-005
NEGATIVE enemies 6.97215e-009
; such 3.7432e-006
A-MISCELLANEOUS useful 0.0154341
; thing 0.00145017
E-OVERALL better 3.54934e-005
A-GENERAL ca 2.54077e-006
A-GENERAL n't 4.04115e-005
A-GENERAL better 0.00669263
A-QUALITY headache 0.000789751
NEUTRAL 's 1.50551e-006
A-PORTABILITY headsets 1.02329e-005
POSITIVE better 2.82883e-005
A-MISCELLANEOUS designers 0.00393337
; better 0.000117786
A-DESIGN_FEATURES sleek 0.00952434
E-OVERALL getting 9.04765e-007
A-DESIGN_FEATURES look 0.0199488
E-OVERALL change 2.34992e-008
A-GENERAL but 2.16585e-005
A-GENERAL has 1.26225e-007
A-GENERAL change 0.00530145
POSITIVE on 1.57761e-005
A-QUALITY unit 3.11356e-005
POSITIVE change 3.70937e-005
A-DESIGN_FEATURES dependability 0.00217889
E-OVERALL benefits 0.000584995
A-DESIGN_FEATURES shown 0.000865594
E-OVERALL love 0.000914349
E-OVERALL mac 0.000945253
A-QUALITY durability 0.000416888
POSITIVE benefits 3.36103e-007
A-QUALITY unparalleled 2.92991e-006
POSITIVE love 0.00681925
POSITIVE mac 0.00676888
; benefits 5.64891e-009
; love 8.95114e-009
; mac 6.19431e-007
E-OVERALL meets 8.56868e-005
E-OVERALL every 0.00165572
E-OVERALL windows 2.9658e-009
A-PORTABILITY transport 0.00759416
E-OVERALL 7 1.94149e-006
A-USABILITY user 0.0189903
A-GENERAL meets 0.00363825
A-USABILITY whole 1.99071e-005
A-GENERAL every 9.60393e-005
A-GENERAL expectation 0.000721757
A-GENERAL windows 0.000850076
A-USABILITY adapt 0.00237445
A-GENERAL 7 0.0131816
A-QUALITY plug 1.27437e-005
POSITIVE meets 0.00015788
POSITIVE every 0.000258606
POSITIVE expectation 4.21514e-007
POSITIVE windows 2.17446e-006
NEUTRAL extra 0.034358
POSITIVE 7 1.29586e-005
; every 0.000756974
; windows 1.76613e-007
; 7 0.000159197
A-GENERAL graduation 7.60875e-007
A-GENERAL obsessed 0.000716547
NEGATIVE covers 1.09385e-007
E-OS windows 0.240135
E-OS 7 0.000180547
E-OVERALL 's 0.00964612
E-OVERALL set 3.72102e-005
A-DESIGN_FEATURES unibody 2.57552e-006
E-OVERALL hook 2.64568e-005
A-DESIGN_FEATURES design 0.0114459
E-OVERALL wireless 1.80181e-005
A-DESIGN_FEATURES edgy 7.97933e-006
E-OVERALL network 0.000790538
A-OPERATION_PERFORMANCE 's 2.28169e-006
NEGATIVE managed 5.49999e-007
A-OPERATION_PERFORMANCE , 2.56996e-006
E-SOFTWARE proprietary 0.0110872
A-OPERATION_PERFORMANCE up 8.68309e-005
NEGATIVE install 1.46863e-007
NEGATIVE children 8.90106e-007
NEGATIVE downside 0.000192836
NEUTRAL dollars 0.000258245
POSITIVE 's 1.99901e-005
POSITIVE set 0.00393451
POSITIVE wireless 1.97059e-006
POSITIVE network 8.40692e-007
; 's 3.17593e-005
; set 4.30851e-006
; wireless 4.08978e-008
; network 5.90161e-008
A-USABILITY up 2.11327e-006
A-QUALITY during 0.00143831
NEGATIVE turned 1.60541e-007
A-QUALITY improvement 2.77839e-006
A-QUALITY bar- 4.22755e-006
A-QUALITY damaged 1.39184e-006
A-QUALITY tech 1.81984e-005
A-QUALITY keeps 0.00245455
E-OVERALL even 1.00054e-005
A-DESIGN_FEATURES led 0.00679881
E-OVERALL other 0.00365881
E-SHIPPING paperwork 0.000151606
A-DESIGN_FEATURES backlit 0.0060706
E-OVERALL networks 6.31543e-008
POSITIVE even 3.48827e-007
NEUTRAL concerned 0.000263032
POSITIVE other 1.71784e-005
A-QUALITY external 4.74418e-007
POSITIVE networks 1.76126e-005
; even 1.01606e-007
NEGATIVE crashing 8.59445e-006
A-OPERATION_PERFORMANCE lasts 0.00124269
; other 3.21873e-008
NEGATIVE unconcerned 1.10662e-006
A-OPERATION_PERFORMANCE lighted 3.09312e-006
A-QUALITY have 2.37365e-005
A-QUALITY makes 4.21062e-007
E-BATTERY last 0.00251366
E-BATTERY long 0.000738153
NEGATIVE verginia 1.07699e-007
A-OPERATION_PERFORMANCE quit 0.000140802
A-OPERATION_PERFORMANCE does 0.000820814
NEGATIVE removes 3.29353e-006
A-OPERATION_PERFORMANCE last 0.0183261
A-MISCELLANEOUS pictures 0.000251267
A-OPERATION_PERFORMANCE long 0.0364045
A-OPERATION_PERFORMANCE sure 0.000813137
A-OPERATION_PERFORMANCE upgrade 3.7068e-006
A-OPERATION_PERFORMANCE solve 0.000772872
NEGATIVE jump 0.000709707
A-OPERATION_PERFORMANCE that 3.50187e-006
; all 0.000100055
POSITIVE when 0.000493886
; performance 1.40021e-008
; although 1.9187e-007
; after 7.70258e-006
NEUTRAL but 0.380133
; away 5.40018e-006
NEUTRAL sure 6.90383e-005
NEUTRAL upgrade 1.18938e-006
; purchase 3.1598e-007
NEUTRAL that 0.000984987
; does 1.70454e-005
; last 5.44492e-005
; long 3.00748e-005
A-MISCELLANEOUS users 0.00377
NEGATIVE 175 0.00105255
; an 4.3344e-005
E-BATTERY life 1.61927e-005
NEGATIVE page 1.09495e-006
NEGATIVE invalidate 0.000333604
NEGATIVE denied 0.000675041
NEGATIVE general 0.000681682
A-OPERATION_PERFORMANCE needs 1.12923e-007
A-OPERATION_PERFORMANCE life 0.0729286
NEGATIVE customers 0.000253381
NEGATIVE post 3.00417e-007
POSITIVE needs 0.00548091
POSITIVE long 0.000748082
POSITIVE life 1.66206e-006
POSITIVE so 0.00291069
POSITIVE perfect 0.00557498
; needs 7.5761e-007
A-MISCELLANEOUS microsoft 0.00011123
A-MISCELLANEOUS apps 0.0041032
; perfect 2.24918e-005
A-DESIGN_FEATURES allow 0.00888151
E-OVERALL most 6.6671e-005
A-DESIGN_FEATURES quicker 0.00068861
E-OVERALL everything 0.00285442
A-DESIGN_FEATURES browsing 4.58173e-006
E-OVERALL fine 2.75439e-005
E-OVERALL : 0.00118655
E-OVERALL speed 0.000101431
A-DESIGN_FEATURES contributor 2.68617e-005
E-OVERALL build 3.12251e-005
A-GENERAL most 2.74361e-006
A-GENERAL everything 0.00408819
E-SOFTWARE core 2.74825e-005
A-GENERAL machine 0.00713843
E-SOFTWARE quitting 0.00585526
A-GENERAL : 0.000939168
POSITIVE most 0.00477655
POSITIVE everything 0.00118967
POSITIVE fine 0.00182225
POSITIVE speed 7.29822e-005
POSITIVE capacity 7.63456e-008
POSITIVE build 6.59082e-005
A-MISCELLANEOUS bookkeeping 0.00394131
; most 2.659e-006
A-MISCELLANEOUS frills 0.003191
; everything 1.25848e-006
A-MISCELLANEOUS important 0.00395265
; fine 8.09654e-009
; speed 9.68102e-007
A-MISCELLANEOUS player 0.00793126
A-MISCELLANEOUS warcraft 0.00396321
; build 1.07024e-006
A-OPERATION_PERFORMANCE most 3.69726e-007
A-OPERATION_PERFORMANCE fine 0.00702211
NEGATIVE consider 0.000876147
NEGATIVE repair 0.00276572
A-OPERATION_PERFORMANCE speed 0.0255719
E-SOFTWARE salesman 0.00593592
NEGATIVE player 1.50573e-008
E-SOFTWARE talked 0.0059354
E-OVERALL works 3.12403e-005
E-HARD_DISC capacity 0.0115274
E-MOUSE quicker 4.39057e-007
A-QUALITY everything 1.64691e-008
A-QUALITY with 2.49139e-006
NEGATIVE maybe 1.39936e-007
A-OPERATION_PERFORMANCE works 0.0338174
A-QUALITY : 2.32738e-007
A-QUALITY build 0.00381958
POSITIVE price 4.78498e-006
A-OPERATION_PERFORMANCE screams 8.51224e-007
E-DISPLAY resolution 0.0140092
POSITIVE features 1.28163e-005
NEUTRAL concern 0.00339198
A-QUALITY only 2.65417e-006
A-QUALITY thing 9.80262e-005
A-QUALITY understand 0.000575322
A-QUALITY resolution 0.0018494
NEGATIVE noon 1.45275e-006
A-OPERATION_PERFORMANCE performance 0.0177497
A-QUALITY screen 3.16518e-007
A-QUALITY some 3.45672e-006
A-QUALITY yahoo 3.43081e-008
E-KEYBOARD yea 0.0116508
A-QUALITY mail 8.29193e-005
NEGATIVE only 0.023705
POSITIVE honestly 8.39095e-006
NEGATIVE thing 0.00282632
NEGATIVE understand 0.00127959
NEGATIVE that 0.00682462
NEGATIVE screen 3.79498e-008
NEGATIVE high 4.98228e-005
NEGATIVE some 0.00385523
E-MULTIMEDIA_DEVICES webcam 8.50462e-006
POSITIVE abrupt 9.87149e-007
POSITIVE definatly 3.9786e-005
NEGATIVE as 2.17727e-005
NEGATIVE yahoo 0.000576354
NEGATIVE ! 1.56973e-006
A-MISCELLANEOUS wonderfully 5.05714e-005
A-MISCELLANEOUS aside 5.2562e-005
A-MISCELLANEOUS trial 0.00893101
; enough 3.27335e-006
; mail 6.53092e-006
E-OVERALL bought 0.00362852
E-COMPANY dell 0.0376516
E-OVERALL also 0.0032998
A-QUALITY techs 2.12366e-005
POSITIVE bought 0.000267344
POSITIVE also 0.00534333
; bought 4.83326e-006
; also 0.00010968
A-GENERAL bought 0.00747553
A-GENERAL for 8.6687e-005
A-GENERAL also 0.00292744
A-USABILITY os 4.73336e-005
A-GENERAL 's 0.000711781
E-OVERALL recommended 0.000555421
E-OVERALL people 7.70644e-008
E-OVERALL first 0.000807827
A-MISCELLANEOUS recommended 3.39899e-006
E-SOFTWARE utilizing 4.92552e-006
A-MISCELLANEOUS people 0.0101209
E-OVERALL definatly 4.5084e-009
E-SOFTWARE tools 0.00162882
A-MISCELLANEOUS their 0.00178035
POSITIVE recommended 3.27809e-005
POSITIVE their 2.1952e-005
NEUTRAL lacking 0.00625039
A-QUALITY hack 8.76014e-009
; their 1.64076e-005
; first 0.000770485
E-OVERALL plain 0.000146515
E-OVERALL simple 0.000408098
E-OVERALL runs 0.00156842
E-OVERALL loads 1.01307e-007
A-OPERATION_PERFORMANCE plain 8.98007e-007
NEGATIVE glary 6.87772e-007
A-OPERATION_PERFORMANCE runs 0.0020446
NEGATIVE stuff 0.000892528
A-OPERATION_PERFORMANCE loads 0.004755
NEUTRAL improving 0.00339503
POSITIVE simple 0.000790529
A-QUALITY glary 0.000822565
POSITIVE loads 1.90194e-007
; simple 1.1818e-007
; runs 2.26026e-006
E-OVERALL taken 0.000293072
E-OVERALL hooked 0.000293024
E-OVERALL printers 3.25348e-008
; hardware 9.00119e-008
POSITIVE be 2.62474e-005
A-QUALITY buttons 4.70951e-005
POSITIVE hooked 1.6297e-007
POSITIVE printers 5.61241e-008
A-QUALITY terrible 0.00164557
POSITIVE headsets 0.000376725
; hooked 1.06797e-008
A-PRICE expensive 0.0221234
E-OVERALL sleek 5.61551e-005
E-OVERALL look 6.03851e-007
A-DESIGN_FEATURES wish 9.46275e-007
E-OVERALL dependability 1.71715e-006
NEUTRAL terrific 8.33744e-005
E-OVERALL shown 1.7462e-006
NEUTRAL ones 0.00568335
A-GENERAL tell 0.00925782
A-DESIGN_FEATURES on 5.42576e-007
A-DESIGN_FEATURES that 0.000126417
A-QUALITY cheapest 0.000536919
POSITIVE sleek 0.000136142
A-QUALITY planning 7.41227e-008
POSITIVE look 4.84108e-006
A-QUALITY listen 1.2943e-005
POSITIVE dependability 2.06991e-007
POSITIVE shown 5.20716e-006
; sleek 5.91969e-009
NEGATIVE 18000 2.8699e-005
A-OPERATION_PERFORMANCE force 0.00310672
A-MISCELLANEOUS listen 1.97904e-006
A-QUALITY already 2.40153e-006
A-QUALITY dependability 5.36522e-006
A-QUALITY shown 0.000483948
A-GENERAL applecare 6.28375e-005
E-OS pc 2.06999e-006
A-GENERAL primary 0.000721452
E-OS user 0.00744167
NEGATIVE properly 6.22944e-005
E-OS whole 0.0210786
NEGATIVE norton 2.67658e-007
A-GENERAL disappointment 0.000665621
E-OS taking 3.39601e-006
NEGATIVE took 7.05329e-006
E-OS os 0.205775
NEGATIVE support 0.00287746
A-GENERAL enjoyable 0.000722194
A-GENERAL snow 2.54283e-008
A-GENERAL review 1.60029e-005
A-GENERAL mac 0.000258533
A-GENERAL warranty 1.54212e-005
A-USABILITY pc 1.15828e-006
A-USABILITY finding 6.79152e-007
A-QUALITY usps 5.7587e-008
NEUTRAL being 0.00581635
A-CONNECTIVITY lived 3.41679e-006
; features 3.00643e-009
; being 2.24853e-007
A-PRICE $ 0.0994406
; bit 7.97337e-007
A-PRICE extra 2.16747e-005
A-PRICE dollars 0.0215578
A-DESIGN_FEATURES all 2.54045e-006
E-OVERALL unibody 0.000293025
A-DESIGN_FEATURES power 8.05298e-007
E-OVERALL design 0.00100311
E-OVERALL edgy 6.34513e-009
NEUTRAL believe 9.4381e-005
E-OVERALL durable 4.42813e-005
A-QUALITY wonderfull 0.000810276
POSITIVE design 1.0368e-006
POSITIVE edgy 0.000412881
POSITIVE durable 4.67968e-005
; design 1.69902e-008
; edgy 6.12215e-007
; durable 2.38081e-008
A-QUALITY durable 0.00378847
E-DISPLAY led 0.00745919
A-OPERATION_PERFORMANCE rare 2.46795e-007
E-DISPLAY display 0.0801208
E-DISPLAY pictures 0.0370849
E-DISPLAY pop 5.73372e-007
E-OVERALL does 0.000271585
E-OVERALL last 8.22068e-008
A-DESIGN_FEATURES pictures 4.30947e-005
A-DESIGN_FEATURES pop 0.00221353
E-OVERALL an 0.00619126
POSITIVE led 3.01021e-008
POSITIVE backlit 1.01249e-008
A-QUALITY passed 7.64118e-005
POSITIVE display 2.52512e-008
POSITIVE makes 1.38437e-006
POSITIVE pictures 0.000936589
A-PORTABILITY trip 0.00565479
POSITIVE pop 1.26081e-006
POSITIVE much 0.00619052
; makes 0.00168148
; much 5.937e-006
E-MOUSE finger 0.021034
E-MOUSE options 0.0105514
E-MOUSE mousepad 0.0211172
NEGATIVE adjust 2.04957e-005
A-DESIGN_FEATURES options 1.50802e-006
E-OVERALL perfect 0.000405765
A-PORTABILITY pleasant 0.000117496
POSITIVE learning 1.88605e-005
A-MISCELLANEOUS playing 0.0118868
A-PORTABILITY surprise 0.0143355
A-QUALITY suggestions 3.61347e-005
POSITIVE allow 3.48596e-008
POSITIVE quicker 0.00028667
POSITIVE browsing 0.00136955
POSITIVE web 5.26429e-007
POSITIVE pages 2.8243e-005
; quicker 4.79227e-008
A-PRICE price 0.199517
A-MISCELLANEOUS menu 6.86775e-008
; browsing 1.78816e-007
; web 2.06589e-006
E-OVERALL learning 5.96144e-006
A-DESIGN_FEATURES size 0.0399614
A-DESIGN_FEATURES keyboard 1.61711e-005
E-OVERALL web 0.00155048
E-OVERALL pages 5.07608e-006
A-USABILITY learning 0.000218707
POSITIVE many 3.04207e-005
A-GENERAL perfect 0.00267236
A-USABILITY pages 0.0119617
E-COMPANY purchase 9.39687e-007
E-OVERALL contributor 0.000144824
A-DESIGN_FEATURES concerned 0.00204851
E-OVERALL art 1.19403e-005
E-OVERALL aspect 2.02121e-007
NEUTRAL cable 0.00175364
A-DESIGN_FEATURES art 6.12823e-005
A-DESIGN_FEATURES aspect 0.00218281
A-QUALITY due 1.57823e-007
POSITIVE art 0.000786083
POSITIVE aspect 6.46852e-006
; art 5.76968e-009
A-DESIGN_FEATURES 18-inch 2.53965e-005
E-SOFTWARE developed 0.0107036
E-SOFTWARE software 0.159787
E-SOFTWARE editing 0.000444164
A-DESIGN_FEATURES family 7.05896e-005
NEGATIVE situation 3.00354e-008
A-OPERATION_PERFORMANCE like 0.000106051
A-DESIGN_FEATURES elegant 0.00221148
NEGATIVE numeric 2.28483e-006
A-OPERATION_PERFORMANCE bought 6.73211e-006
E-OVERALL exception 4.62316e-007
A-MISCELLANEOUS editing 0.00137311
A-MISCELLANEOUS video 0.0315685
E-OVERALL family 0.000288517
E-OVERALL review 0.00014335
A-MISCELLANEOUS forward 9.97132e-006
A-MISCELLANEOUS utilizing 0.00395446
A-MISCELLANEOUS tools 3.01656e-007
E-OVERALL criteria 5.94431e-009
E-OVERALL shiny 8.76869e-005
A-MISCELLANEOUS regular 0.000312455
POSITIVE developed 1.99426e-007
POSITIVE excellent 0.00305698
POSITIVE software 6.17005e-008
POSITIVE editing 0.00107212
POSITIVE forward 8.173e-007
POSITIVE utilizing 8.94924e-007
POSITIVE tools 0.000717281
; academic 3.63436e-007
POSITIVE regular 0.000382965
; excellent 0.000140429
; software 1.26995e-006
; video 5.6936e-008
E-OVERALL excited 1.40411e-007
E-OVERALL learn 4.32312e-007
E-OVERALL what 0.00436201
E-OVERALL powerful 1.25901e-006
A-PORTABILITY knapsack 7.09141e-005
E-OVERALL same 5.67441e-006
A-GENERAL excited 0.00135335
A-GENERAL more 0.000140059
A-GENERAL about 0.0257458
A-GENERAL what 0.000242217
A-GENERAL others 0.000662179
A-QUALITY actually 1.43779e-005
POSITIVE come 5.24536e-006
A-GENERAL do 0.00146143
A-GENERAL same 5.54795e-008
POSITIVE excited 5.23234e-005
A-QUALITY issue 7.78688e-008
POSITIVE learn 1.61619e-006
POSITIVE what 0.000537421
POSITIVE powerful 1.98586e-006
POSITIVE encourage 0.000224569
POSITIVE others 0.000450389
NEUTRAL their 1.0521e-006
A-QUALITY paying 6.96484e-006
; learn 2.41103e-007
; what 0.000158677
; powerful 1.22966e-008
NEGATIVE issue 0.00257139
NEGATIVE packaging 0.000229183
A-OPERATION_PERFORMANCE more 1.90409e-006
NEGATIVE removed 9.7976e-006
NEGATIVE fixing 0.000125535
A-OPERATION_PERFORMANCE powerful 0.00473553
NEGATIVE limited 0.000317814
A-OPERATION_PERFORMANCE encourage 0.00072906
NEGATIVE paying 0.00146576
A-PORTABILITY text 1.87571e-006
E-OVERALL expensive 1.23448e-008
E-OVERALL well 0.00198833
A-QUALITY support 0.00580801
NEGATIVE more 0.00774859
POSITIVE beast 6.2569e-007
NEGATIVE expensive 2.54485e-007
POSITIVE ipod 2.99729e-007
POSITIVE reformatting 0.000109457
NEGATIVE run 4.09762e-008
POSITIVE 5-6 1.97725e-006
A-GENERAL well 5.78307e-005
POSITIVE well 0.0101136
A-QUALITY lost 0.00361207
E-SOFTWARE final 1.71517e-005
POSITIVE ask 0.00202936
NEGATIVE during 6.14353e-005
E-KEYBOARD drawback 0.000731299
POSITIVE spectacular 5.39015e-006
NEGATIVE hung 0.000597091
E-KEYBOARD keys 0.0695314
E-KEYBOARD backlit 0.00310223
E-OVERALL being 0.000978383
A-DESIGN_FEATURES were 2.16914e-006
POSITIVE speechless 2.69917e-005
NEGATIVE drawback 3.6975e-006
POSITIVE qousmio 3.80669e-005
NEGATIVE wish 4.4916e-006
NEGATIVE keys 0.000382045
NEGATIVE were 0.00784127
; wish 3.53998e-006
E-OVERALL glad 7.81314e-005
E-OVERALL few 0.000436241
E-OVERALL $ 1.50506e-006
E-OVERALL 100 3.90089e-006
E-COMPANY loyal 0.00982174
E-OVERALL extra 0.00012845
E-COMPANY apple 0.113623
E-OVERALL dollars 2.0604e-007
A-GENERAL glad 0.00393688
A-GENERAL few 1.77678e-006
A-GENERAL 100 0.00286419
A-GENERAL extra 1.73773e-007
POSITIVE glad 7.47703e-006
POSITIVE few 0.00343696
POSITIVE 100 3.6315e-006
; few 6.68098e-005
; $ 9.6668e-007
; 100 6.2362e-008
; extra 2.65545e-008
A-QUALITY warm 0.000346592
E-MOUSE mouse 0.200613
A-QUALITY bellying 1.4611e-005
E-FANS_COOLING cooling 0.0237475
E-GRAPHICS routed 5.34644e-007
A-QUALITY little 7.86115e-006
; see 8.07276e-007
NEUTRAL ( 9.28809e-006
; into 0.00226753
E-OVERALL all 0.0118204
E-OVERALL wanted 0.000878953
E-SOFTWARE tons 1.02492e-006
A-GENERAL made 4.1953e-005
A-DESIGN_FEATURES features 0.049351
E-OVERALL returned 9.54499e-005
POSITIVE all 0.00152306
A-MISCELLANEOUS development 1.00639e-005
A-QUALITY crystal 0.000434405
POSITIVE power 1.23575e-006
A-QUALITY clear 0.00812052
POSITIVE wanted 4.89706e-007
; power 6.70082e-006
; replace 1.24159e-007
A-OPERATION_PERFORMANCE all 5.8115e-005
A-OPERATION_PERFORMANCE power 0.036381
A-OPERATION_PERFORMANCE wanted 4.7159e-007
A-OPERATION_PERFORMANCE replace 8.87147e-008
A-OPERATION_PERFORMANCE desktop 3.96231e-007
E-OVERALL hard 1.23808e-006
E-OVERALL or 0.000200165
E-OVERALL trip 0.000219348
E-OVERALL which 1.37236e-007
A-QUALITY listed 2.378e-006
E-OVERALL pleasant 0.000145396
A-QUALITY recalled 0.000820917
E-OVERALL surprise 3.43169e-008
NEUTRAL with- 3.9383e-005
A-DESIGN_FEATURES as 6.21498e-007
A-DESIGN_FEATURES large 0.0177631
A-DESIGN_FEATURES but 0.0001388
A-DESIGN_FEATURES hard 3.27597e-006
E-OVERALL makes 1.11312e-005
E-OVERALL months 1.10997e-007
A-DESIGN_FEATURES trip 1.02523e-005
E-OVERALL much 0.000418861
A-DESIGN_FEATURES which 0.000299457
A-MISCELLANEOUS via 0.00347467
; hard 0.000364523
; another 8.56179e-007
NEUTRAL as 8.38205e-007
NEUTRAL trip 0.000343419
E-MOUSE caused 0.000239158
POSITIVE an 0.000184206
; large 1.19852e-008
; or 0.00491115
; which 0.00342034
; too 5.8188e-008
A-QUALITY single 6.01268e-007
POSITIVE hard 1.24824e-005
POSITIVE or 0.000159513
POSITIVE trip 1.52488e-006
POSITIVE which 1.17707e-005
POSITIVE happy 6.08458e-006
A-QUALITY claim 6.17284e-007
E-MULTIMEDIA_DEVICES volume 0.129139
E-OVERALL size 1.05158e-007
E-MULTIMEDIA_DEVICES wheel 0.0269937
A-DESIGN_FEATURES love 0.00431412
POSITIVE size 8.36425e-007
POSITIVE keyboard 3.56827e-007
POSITIVE functions 1.3273e-005
; size 1.54465e-008
; keyboard 1.70633e-008
E-KEYBOARD keyboard 0.384771
A-GENERAL love 0.0313678
A-PRICE reason 0.00737637
A-GENERAL keyboard 3.39819e-007
A-OPERATION_PERFORMANCE functions 0.00787707
E-OVERALL complaint 0.000270562
A-GENERAL complaint 0.00158963
POSITIVE complaint 6.08022e-006
A-GENERAL company 3.79898e-007
E-MOUSE button 0.000683687
A-QUALITY took 0.00869251
E-OVERALL trifecta 3.75854e-005
E-COMPANY will 0.212103
A-GENERAL trifecta 0.000528595
POSITIVE trifecta 4.98266e-006
E-SOFTWARE us 0.0116015
A-DESIGN_FEATURES realized 5.06848e-007
NEGATIVE flat 0.000116546
A-GENERAL talked 6.33664e-008
; havent 2.44047e-008
A-GENERAL into 1.12224e-005
A-GENERAL away 0.0033395
; came 6.60375e-006
E-PORTS usb 0.501911
A-GENERAL from 0.00071217
A-PRICE driving 0.000619343
A-GENERAL another 0.0204227
A-GENERAL had 0.000276971
A-GENERAL nothing 5.43146e-006
A-GENERAL software 1.74711e-005
NEGATIVE us 1.67594e-005
NEGATIVE into 5.69744e-005
NEGATIVE away 0.00123267
NEGATIVE from 0.0099673
NEGATIVE another 1.91603e-005
POSITIVE elegant 8.53128e-007
NEGATIVE we 0.00265247
NEGATIVE have 0.000434088
NEGATIVE had 0.000945036
POSITIVE 'old 2.72485e-005
NEGATIVE nothing 0.0041923
NEGATIVE problems 1.11631e-008
NEGATIVE software 1.85615e-005
POSITIVE errors 0.000831187
NEGATIVE just 4.72e-007
A-MISCELLANEOUS vpn 0.00396602
; from 0.000170997
E-OVERALL from 0.0037423
E-OVERALL another 0.000392117
E-OVERALL were 0.000100031
E-OVERALL at 0.00125031
E-OVERALL nothing 4.0987e-005
E-SUPPORT heard 0.00229388
E-SUPPORT their 0.0439168
E-SUPPORT customer 2.97276e-005
E-SUPPORT service 0.0296893
; creativity 1.08756e-008
A-QUALITY first 0.000103487
A-QUALITY heard 2.35163e-007
A-QUALITY their 0.00178321
A-QUALITY customer 0.00822407
A-QUALITY service 0.000152499
A-QUALITY lacking 0.00013232
A-QUALITY were 4.94177e-006
A-QUALITY working 5.42684e-005
A-QUALITY improving 5.35528e-007
POSITIVE time 7.58464e-006
; dell 6.79282e-007
A-PRICE tag 6.50498e-005
A-PRICE however 7.60092e-007
A-CONNECTIVITY connect 0.107513
A-CONNECTIVITY wifi 0.0445134
; working 1.10344e-007
E-OVERALL ask 1.63843e-005
A-PORTABILITY criteria 0.0143329
POSITIVE awe 3.06343e-005
NEGATIVE what 1.22788e-005
E-OVERALL opened 0.000401284
E-OPTICAL_DRIVES dvd 0.795133
E-OVERALL world 0.000289457
E-OPTICAL_DRIVES burner 1.21568e-005
E-OPTICAL_DRIVES burning 0.204855
E-OVERALL packing 3.51321e-009
NEGATIVE product 1.53726e-006
E-SUPPORT within 0.00953332
E-OVERALL friend 0.00100681
A-QUALITY dvd 2.02964e-006
A-QUALITY broke 0.00180076
A-QUALITY after 0.032772
A-QUALITY burning 1.52825e-007
A-QUALITY 'd 0.000213701
POSITIVE syncing 0.000102663
NEGATIVE dvd 4.29904e-005
POSITIVE forever 0.000413814
NEGATIVE burner 0.000735923
POSITIVE desktops 1.02998e-007
NEGATIVE broke 0.000669672
NEGATIVE after 0.00672973
A-MISCELLANEOUS onto 0.00411521
; 'd 0.000181754
E-SUPPORT sent 0.0182742
E-SUPPORT part 0.000313476
E-OVERALL however 0.000352819
E-SUPPORT informing 0.00229171
E-OVERALL port 0.000450688
E-SUPPORT requiring 0.00229397
E-SUPPORT days 7.96512e-007
E-SUPPORT contact 0.00287607
E-OVERALL online 8.26712e-006
; month 0.000454824
E-SUPPORT them 0.00055886
E-OVERALL piece 2.58989e-007
E-SUPPORT later 5.9252e-005
A-QUALITY sent 2.95798e-005
A-QUALITY part 1.84208e-005
A-QUALITY without 1.45833e-007
A-QUALITY informing 1.01961e-006
A-QUALITY requiring 2.05269e-007
A-QUALITY return 2.17672e-007
A-QUALITY within 0.00316694
A-QUALITY days 0.00622767
A-QUALITY or 0.000148394
A-QUALITY contact 0.00061683
A-OPERATION_PERFORMANCE extremely 0.000122985
E-KEYBOARD typers 2.52056e-006
A-QUALITY broken 0.00184841
A-QUALITY be 0.000254697
A-QUALITY later 0.00632752
NEGATIVE replacement 0.000248879
NEGATIVE part 9.4522e-006
NEGATIVE return 0.00168486
NEGATIVE within 3.22267e-006
NEGATIVE days 0.00201003
NEGATIVE or 0.0119221
NEGATIVE them 0.000656272
NEGATIVE know 0.00331144
NEGATIVE broken 0.000280716
NEGATIVE later 0.000170911
A-MISCELLANEOUS facebook 0.0114805
; later 0.000549329
E-OVERALL able 0.000493478
E-SUPPORT improvement 0.00228682
A-GENERAL performed 0.000361189
E-WARRANTY manufacturer 0.0813346
E-SUPPORT then 6.60978e-007
E-WARRANTY covers 8.41587e-006
E-WARRANTY replacement/repair 0.0857657
E-HARD_DISC hard 0.139004
A-PRICE exact 0.0080422
A-QUALITY then 5.55543e-005
E-OS via 0.0052489
A-QUALITY too 6.75664e-005
A-QUALITY see 0.00867903
A-QUALITY what 9.05907e-007
A-QUALITY before 2.98869e-008
POSITIVE superior 2.52568e-006
NEGATIVE an 2.72202e-005
NEGATIVE customer 9.4084e-009
NEGATIVE service 0.000322466
NEGATIVE then 0.0128437
NEGATIVE hate 0.00158905
NEGATIVE too 0.00760924
NEGATIVE see 0.000916803
NEGATIVE before 0.00367843
; then 5.53538e-006
; before 3.44228e-008
E-SUPPORT spoke 0.00458814
E-SUPPORT 4 0.0031765
E-SUPPORT people 2.57571e-007
E-SUPPORT transfer 0.00647941
E-SUPPORT 5th 0.000220598
A-QUALITY spoke 3.3772e-007
A-QUALITY 4 0.00949997
A-QUALITY people 0.00531229
A-QUALITY transfer 9.03594e-005
A-QUALITY 5th 0.00157226
NEGATIVE 4 4.31839e-005
NEGATIVE different 0.00324736
NEGATIVE people 6.65144e-006
NEGATIVE transfer 2.45588e-005
NEGATIVE 5th 3.42851e-007
; different 2.10394e-005
A-MISCELLANEOUS storing 0.00360468
E-SUPPORT needless 3.56941e-005
E-OVERALL anymore 1.00483e-007
E-SUPPORT say 3.6414e-006
E-SUPPORT hung 0.000810733
NEGATIVE cords 0.000938982
A-QUALITY no 3.28322e-005
A-QUALITY nice 2.71079e-008
A-QUALITY day 0.0171439
A-QUALITY hung 1.99021e-005
NEGATIVE needless 1.92984e-007
NEGATIVE no 0.00735979
E-SUPPORT tech 7.9093e-006
NEGATIVE day 9.02887e-005
NEGATIVE up 0.00129992
A-MISCELLANEOUS photos 2.82092e-005
; no 4.29212e-005
A-GENERAL dell 0.00195194
NEGATIVE guarantee 4.49433e-005
NEGATIVE last 0.000683729
POSITIVE indeed 2.46064e-006
NEGATIVE dell 0.000845249
POSITIVE particular 0.000815853
NEGATIVE ever 0.000157137
NEGATIVE purchase 4.337e-005
A-QUALITY block 0.000137572
POSITIVE book 1.62435e-007
E-OVERALL within 4.29212e-007
E-OVERALL speaking 3.71064e-007
A-QUALITY breaking 6.78487e-007
A-QUALITY 1 0.000657943
A-QUALITY year 0.00957541
A-QUALITY speaking 0.0033002
A-QUALITY 4+ 0.000244138
A-QUALITY report 5.58176e-007
A-QUALITY late 0.00160811
NEGATIVE 1 0.000269178
NEGATIVE year 0.000120702
NEGATIVE speaking 2.2191e-007
NEGATIVE 4+ 0.000259254
NEGATIVE report 0.000367616
NEGATIVE late 1.97082e-005
; 1 0.000922754
E-HARDWARE hardware 0.697874
E-SUPPORT 1 5.66388e-007
E-SUPPORT year 0.000178865
E-SUPPORT speaking 5.93305e-006
E-SUPPORT damaged 0.00229058
E-COMPANY products 0.0166706
A-GENERAL their 9.13502e-007
A-GENERAL products 0.0020964
NEGATIVE their 4.18091e-005
E-OVERALL far 0.000763929
NEGATIVE tag 0.000364743
NEGATIVE however 0.000586271
E-OVERALL trying 0.00135187
; sharp 3.49056e-006
E-PORTS attached 0.0718175
A-USABILITY trying 0.00149664
A-USABILITY learn 0.0104983
; trying 1.80101e-008
E-OVERALL made 0.00214719
A-GENERAL worst 0.000326551
NEGATIVE worst 0.00351352
NEGATIVE made 0.00184023
A-MISCELLANEOUS experts 0.00787984
; worst 2.3573e-008
A-CONNECTIVITY devices 0.0193431
E-COMPANY stay 1.95019e-006
E-OVERALL hassle 1.13845e-008
A-QUALITY hard 0.000689238
A-QUALITY fix 0.0100668
A-QUALITY hassle 0.000825987
A-QUALITY own 1.70457e-007
A-OPERATION_PERFORMANCE incredibly 7.23304e-006
POSITIVE consuming 3.27294e-007
NEGATIVE hard 0.00743272
NEGATIVE fix 0.000207066
NEGATIVE makes 6.48059e-005
NEGATIVE hassle 2.89362e-008
NEGATIVE own 0.00147099
E-SOFTWARE bloatware 7.85034e-008
A-GENERAL makes 1.91483e-007
E-OVERALL breaks 9.34423e-006
E-OVERALL easily 0.00139534
A-QUALITY breaks 0.00100845
A-QUALITY easily 8.04292e-006
NEGATIVE breaks 0.000263376
NEGATIVE easily 0.000530202
; easily 7.40503e-008
E-OVERALL are 0.00151412
E-OVERALL many 0.00115988
E-OVERALL wonderful 0.000641576
E-OVERALL new 5.66432e-007
E-OVERALL macbook 0.00460449
A-GENERAL manufacturer 0.000774754
A-USABILITY online 0.00862414
POSITIVE are 0.00372757
POSITIVE new 2.01322e-006
POSITIVE extremely 1.08273e-008
A-GENERAL benefits 9.19576e-007
A-GENERAL new 1.45418e-005
E-OVERALL viruses 0.000446163
A-QUALITY viruses 0.00401782
POSITIVE no 0.000808729
E-OVERALL literally 7.08191e-005
E-OVERALL dynamo 1.54559e-006
A-GENERAL should 0.000171686
E-OVERALL by 0.000770929
E-OVERALL watching 7.46868e-008
E-OVERALL tutorials 0.000269222
NEGATIVE language 0.000154512
NEGATIVE given 1.31731e-005
NEGATIVE store 3.30098e-007
A-OPERATION_PERFORMANCE dynamo 0.0015286
A-OPERATION_PERFORMANCE by 2.96868e-005
A-QUALITY just 2.89529e-006
NEGATIVE aprehensive 8.83957e-008
A-OPERATION_PERFORMANCE watching 1.98964e-005
NEGATIVE lou 1.99843e-007
A-USABILITY dynamo 5.60681e-005
A-USABILITY watching 9.75972e-008
A-GENERAL loyal 0.0008486
A-GENERAL apple 0.00595424
POSITIVE am 2.13336e-006
A-QUALITY cheaply 9.56699e-005
A-QUALITY interesting 0.000825456
POSITIVE apple 0.000265411
NEGATIVE any 0.000206195
E-DISPLAY example 0.00795234
E-HARD_DISC drive 0.454528
A-QUALITY having 0.00253706
A-QUALITY drive 1.1532e-005
A-QUALITY replaced 0.0023545
NEGATIVE having 1.61195e-005
NEGATIVE drive 1.05799e-005
NEGATIVE replaced 0.00189343
E-SUPPORT acer 8.59623e-005
E-SUPPORT replace 0.00438303
A-QUALITY replace 0.00388227
POSITIVE resturant 1.64046e-007
NEGATIVE replace 0.000143633
A-GENERAL stuck 3.32454e-007
A-GENERAL parts 2.8661e-005
NEGATIVE manufacturer 2.40539e-007
NEGATIVE parts 0.000382801
E-MOUSE moving 0.0105538
E-OVERALL lemon 3.91083e-009
A-QUALITY lemon 0.000576803
NEGATIVE lemon 0.000479069
E-OVERALL outstanding 4.24189e-005
E-OVERALL value 1.44454e-006
A-GENERAL an 1.51034e-005
A-GENERAL outstanding 2.0616e-005
A-GENERAL value 0.00201517
POSITIVE value 5.0764e-007
E-OVERALL top 0.000456265
A-PORTABILITY attest 0.0119595
A-PORTABILITY restricted 0.0143313
A-PORTABILITY width 0.0117952
A-QUALITY site 0.000932458
POSITIVE winner 1.93736e-006
POSITIVE top 4.49508e-005
NEUTRAL negligible 2.16598e-005
POSITIVE from 0.000212427
E-SUPPORT phone 0.0206477
A-QUALITY top 0.00321963
A-QUALITY from 1.70377e-006
A-QUALITY apple- 0.000826136
A-QUALITY phone 7.61672e-007
A-QUALITY assistance 0.00046455
A-QUALITY genius 3.90543e-006
NEGATIVE opened 3.89502e-008
A-QUALITY opened 1.9225e-005
POSITIVE say 1.19222e-007
E-OVERALL pro 0.00237326
E-OVERALL little 0.00289402
E-OVERALL warm 8.5102e-005
E-OVERALL negligible 3.21286e-007
A-QUALITY does 0.016126
A-QUALITY negligible 0.000819152
A-QUALITY concern 1.27693e-006
NEUTRAL little 0.035769
E-OVERALL took 0.000163243
A-PORTABILITY first-person 0.0143387
E-OVERALL box 0.00157112
NEGATIVE since 0.00305194
A-QUALITY had 0.00950046
A-QUALITY nothing 0.000258235
A-QUALITY problems 2.70128e-007
A-QUALITY box 1.8176e-007
NEGATIVE decision 0.000435549
A-OPERATION_PERFORMANCE time 0.000615754
E-SOFTWARE pre-loaded 0.0057348
E-SOFTWARE norton 0.0024297
E-SOFTWARE program 0.0411842
NEGATIVE first 0.00749128
NEGATIVE firewall/security 0.000218224
E-OVERALL connect 0.00050421
NEGATIVE connect 1.26318e-006
NEGATIVE where 0.00365793
E-OVERALL barely 0.000438279
E-SUPPORT toshiba 0.000233423
E-SUPPORT calls 0.0029311
A-QUALITY toshiba 3.62138e-005
A-QUALITY calls 0.00137692
NEGATIVE toshiba 0.000330036
NEGATIVE tech 0.002556
NEGATIVE calls 2.06295e-005
A-QUALITY new 0.00664756
E-HARD_DISC vibration 0.0230154
E-MOUSE snapped 9.31412e-006
A-QUALITY `` 0.000424441
POSITIVE similar 1.00666e-007
NEGATIVE `` 0.00458982
NEGATIVE button 0.00173094
NEGATIVE snapped 0.00021509
POSITIVE household 3.02352e-005
NEGATIVE being 0.00315756
NEGATIVE 2 0.00841168
NEGATIVE buyer 1.69373e-007
NEGATIVE beware 0.000509028
POSITIVE chose 0.000403056
NEGATIVE opinion 0.00172009
E-OVERALL rarely 0.000111346
E-OVERALL incredibly 2.5919e-007
E-OVERALL slow 1.08546e-005
E-MULTIMEDIA_DEVICES speaker- 2.81312e-005
NEGATIVE does 0.00551494
A-OPERATION_PERFORMANCE rarely 0.000369374
A-OPERATION_PERFORMANCE when 0.0482863
NEGATIVE edge 4.71218e-007
A-OPERATION_PERFORMANCE slow 0.0162047
E-OVERALL guys 0.000146598
E-OVERALL times 8.68024e-008
E-MOUSE lauded 0.0098318
A-QUALITY even 0.00442152
POSITIVE track 4.13625e-008
NEGATIVE get 0.000814315
NEGATIVE even 0.01235
E-OVERALL *if 3.40485e-005
E-OVERALL operation 9.91951e-005
A-OPERATION_PERFORMANCE operation 0.00209763
E-OVERALL some 5.89406e-005
E-OVERALL arent 5.82528e-010
A-USABILITY arent 0.000856653
A-USABILITY wheel 0.000987054
NEGATIVE arent 0.000239047
NEGATIVE volume 1.71756e-008
NEGATIVE wheel 0.000196695
NEGATIVE sound 5.47566e-005
NEGATIVE etc 2.00035e-006
A-GENERAL without 9.90123e-007
A-GENERAL that 3.33254e-005
A-QUALITY technician 2.74466e-007
POSITIVE anymore 6.43019e-005
E-OVERALL plastic 3.67558e-007
E-COMPANY name 2.9761e-006
E-OVERALL usb 1.79055e-006
; put 2.6607e-007
E-OVERALL come 5.45283e-008
E-OVERALL off 3.23693e-007
A-GENERAL 've 4.20858e-005
A-GENERAL all 4.22683e-005
A-QUALITY knew 0.0024666
A-QUALITY wrong 0.000859435
A-QUALITY half 3.33508e-006
POSITIVE piece 1.67181e-005
A-QUALITY 've 3.03289e-006
POSITIVE fingers 1.89847e-008
NEGATIVE 've 1.52119e-006
NEGATIVE major 3.83556e-005
NEGATIVE except 2.76439e-008
NEGATIVE plastic 1.06386e-006
NEGATIVE usb 1.54935e-008
NEGATIVE port 4.16803e-007
NEGATIVE wires 2.14512e-008
POSITIVE desinged 5.39067e-005
NEGATIVE all 3.27595e-005
POSITIVE airports 0.00041516
NEGATIVE come 4.07326e-005
NEGATIVE off 0.0058862
E-PORTS apparently 0.00471696
E-PORTS securely 1.42952e-005
NEGATIVE securely 0.000358046
NEGATIVE attached 5.7397e-008
E-OVERALL devices 2.99892e-008
E-SUPPORT been 1.13835e-006
E-OVERALL connected 0.000291006
NEGATIVE barely 1.51206e-008
NEGATIVE stay 0.00183738
E-SUPPORT called 0.0190995
E-SUPPORT weeks 0.0219096
NEGATIVE called 0.00134434
NEGATIVE two 0.00301069
E-SUPPORT suffer 0.00229177
E-SUPPORT fix 0.00517024
A-QUALITY rather 4.49686e-007
A-QUALITY something 6.40951e-005
NEGATIVE rather 0.00268318
NEGATIVE something 0.00547989
POSITIVE abilitiy 1.40964e-006
NEGATIVE bought 8.43232e-005
E-OVERALL spent 0.000941376
E-OVERALL alot 7.32519e-005
E-OVERALL money 0.00091365
E-MULTIMEDIA_DEVICES skype 0.0274559
NEGATIVE alot 0.0013919
NEGATIVE money 4.59551e-008
NEGATIVE been 2.17611e-005
NEGATIVE nightmare 0.00109975
E-SUPPORT even 1.86742e-005
NEGATIVE correctly 0.000713446
A-OPERATION_PERFORMANCE start 0.00151746
A-QUALITY been 0.00112487
NEGATIVE worse 0.000907981
E-SUPPORT crack 0.00218469
E-SUPPORT did 0.00309955
NEGATIVE huge 0.00147172
; stops 2.63857e-007
E-SUPPORT fourth 0.00415608
NEGATIVE : 3.15803e-005
A-QUALITY there 5.14984e-006
E-COMPANY anyones 0.00538045
A-PRICE 8 0.000145691
A-GENERAL name 1.45186e-006
A-GENERAL ... 4.47492e-007
POSITIVE heck 4.71445e-007
E-OVERALL saved 0.000290528
E-OVERALL tell 2.70525e-005
A-GENERAL saved 1.3146e-005
POSITIVE overall 1.29501e-006
A-GENERAL personally 0.000101961
POSITIVE tell 7.04719e-007
POSITIVE personally 0.000357047
A-OPERATION_PERFORMANCE fingers 3.99553e-005
A-OPERATION_PERFORMANCE crawl 6.47181e-006
A-GENERAL display 0.00139066
A-GENERAL seen 5.39542e-005
A-GENERAL time 3.1887e-005
POSITIVE seen 1.22448e-006
POSITIVE convienent 0.000402494
NEGATIVE direction 0.00018218
A-OPERATION_PERFORMANCE go 6.59618e-007
NEGATIVE cae 6.04611e-007
A-OPERATION_PERFORMANCE on 3.05784e-007
A-OPERATION_PERFORMANCE very 1.51983e-006
E-OVERALL pricey 8.41044e-009
NEGATIVE little 0.000164279
A-QUALITY which 2.97064e-005
POSITIVE blogs 3.77798e-006
POSITIVE aesthetics 1.36936e-008
NEGATIVE failed 0.000411266
POSITIVE expansion 2.51138e-005
NEGATIVE which 0.00516863
NEGATIVE priority 0.000735519
A-OPERATION_PERFORMANCE poor 9.69939e-007
NEGATIVE replacing 1.37275e-008
NEGATIVE stopped 0.000144234
NEGATIVE working 0.00016988
POSITIVE heartily 9.43086e-007
NEGATIVE frustrating 0.00136781
A-OPERATION_PERFORMANCE after 1.6639e-006
A-OPERATION_PERFORMANCE hard 1.14977e-005
A-OPERATION_PERFORMANCE working 0.0324606
NEGATIVE coming 7.84564e-005
POSITIVE theapple 9.95251e-006
NEGATIVE charger 5.78122e-006
POSITIVE capable 5.80567e-006
NEGATIVE forced 0.00110383
POSITIVE classroom 0.00041482
NEGATIVE go 0.000504723
NEGATIVE new 0.00765267
POSITIVE terms 0.000415542
NEGATIVE hardware 0.000563139
NEGATIVE keep 0.00010045
POSITIVE quarter 7.39793e-006
NEGATIVE running 0.000641985
NEGATIVE messy 4.72596e-008
NEGATIVE y'all 0.000168019
A-OPERATION_PERFORMANCE keep 0.0137638
NEGATIVE 18-inch 0.000363779
A-OPERATION_PERFORMANCE ask 1.04789e-005
NEGATIVE usually 1.65054e-006
NEGATIVE bags 6.4564e-005
E-OVERALL tip 0.000146577
E-OVERALL save 2.54073e-006
E-OVERALL bit 0.00107768
A-QUALITY into 8.89132e-006
POSITIVE watt 5.15647e-006
POSITIVE lightbulb 0.000414271
NEGATIVE save 0.00220151
NEGATIVE bit 0.00170544
A-QUALITY until 6.62415e-008
E-OVERALL lightweight 0.000182082
A-DESIGN_FEATURES lightweight 0.0157581
E-OVERALL paid 2.8266e-007
A-GENERAL much 0.00738337
A-GENERAL paid 2.51215e-008
A-QUALITY june 9.99044e-007
POSITIVE paid 2.73616e-008
E-OVERALL bad 1.79231e-007
NEGATIVE totally 6.79149e-005
A-OPERATION_PERFORMANCE blank 0.00309823
A-QUALITY netbook 3.30743e-007
NEGATIVE netbook 2.9991e-006
NEGATIVE went 0.00219754
POSITIVE intuitive 3.25158e-007
NEGATIVE bad 0.00648533
; bad 0.00103456
NEGATIVE sheer 7.85032e-009
A-OPERATION_PERFORMANCE there 9.37294e-006
NEGATIVE doing 7.56256e-008
A-OPERATION_PERFORMANCE screen 2.11488e-007
NEGATIVE blank 1.34017e-005
POSITIVE gestures 1.61461e-007
NEGATIVE start 0.00178301
E-DISPLAY working 7.85087e-007
E-KEYBOARD numeric 0.00097807
POSITIVE older 1.64417e-006
NEGATIVE three 0.000143694
POSITIVE powerbooks 1.80753e-005
NEGATIVE quit 1.95916e-008
NEGATIVE next 5.93161e-008
NEGATIVE baby 3.26375e-008
NEGATIVE fact 4.76201e-006
E-OVERALL overall 0.00172824
E-OVERALL poor 2.56057e-007
E-OVERALL performance 0.000556719
E-MOUSE glare 0.00265738
E-OVERALL work 4.78582e-006
A-QUALITY feel 0.00344601
NEGATIVE poor 0.00147109
NEGATIVE although 0.000734321
NEGATIVE life 1.36653e-008
NEGATIVE included 4.70012e-009
NEGATIVE tue 0.000364529
POSITIVE work 3.69064e-006
E-OVERALL vacation 0.000145769
E-OVERALL whatever 0.000185259
E-OVERALL heavier 3.07798e-009
A-PORTABILITY lugging 0.0134582
A-QUALITY ship 0.00145555
POSITIVE vacation 1.20491e-007
POSITIVE able 0.000728714
A-QUALITY miles 4.26769e-005
POSITIVE whatever 3.2844e-005
A-QUALITY air 0.000771964
POSITIVE lugging 2.54627e-005
A-QUALITY louisville 7.2773e-005
POSITIVE heavier 3.97714e-006
; able 4.4585e-005
NEUTRAL ship 0.000142238
A-DESIGN_FEATURES able 4.00186e-005
A-DESIGN_FEATURES whatever 5.17126e-007
A-DESIGN_FEATURES lugging 3.70909e-007
A-DESIGN_FEATURES heavier 0.0021829
A-GENERAL wanted 2.05143e-006
A-GENERAL heavier 5.25887e-006
A-PORTABILITY everyday 7.20568e-007
E-MOUSE combined 0.0105272
E-OVERALL hate 3.0549e-008
POSITIVE areas 2.89753e-009
A-GENERAL hate 0.00193742
E-DISPLAY image 0.00791383
E-DISPLAY soud 0.000904154
E-DISPLAY excelent 5.9634e-006
A-QUALITY image 2.57842e-006
A-QUALITY soud 0.000731897
A-QUALITY excelent 0.000530473
A-QUALITY ky 0.000401023
A-QUALITY reaction 1.0098e-007
POSITIVE soud 5.37892e-008
A-QUALITY powerless 0.000808631
POSITIVE excelent 1.69449e-007
POSITIVE froze 1.11821e-008
E-MULTIMEDIA_DEVICES image 4.45015e-005
POSITIVE hotel 2.1737e-006
POSITIVE navigate 8.71573e-006
POSITIVE vivid 0.000783451
E-MULTIMEDIA_DEVICES soud 8.98351e-006
POSITIVE typers 4.35476e-006
E-MULTIMEDIA_DEVICES excelent 0.00921556
A-GENERAL ths 9.00796e-005
POSITIVE ths 0.000363883
E-MOUSE glass 0.00104372
E-MOUSE touchpad 0.0527903
A-DESIGN_FEATURES glass 0.00199556
A-DESIGN_FEATURES touchpad 5.32658e-007
POSITIVE glass 1.00546e-006
POSITIVE touchpad 9.27964e-009
E-OVERALL curve 0.000122275
A-USABILITY curve 0.00261653
POSITIVE curve 3.99939e-005
E-DISPLAY exceptional 0.000210756
A-GENERAL exceptional 0.000659619
POSITIVE exceptional 2.5158e-005
E-OVERALL loved 1.85436e-007
A-PRICE technical 1.12572e-006
A-GENERAL loved 0.00359733
A-QUALITY technical 0.000121715
POSITIVE loved 8.17524e-006
POSITIVE box 0.00011006
E-OVERALL needs 0.0010539
A-DESIGN_FEATURES needs 4.64384e-006
A-DESIGN_FEATURES better 5.6616e-007
A-QUALITY 3rd 1.93511e-005
POSITIVE studies 2.21481e-006
A-QUALITY continues 1.95007e-006
POSITIVE routes 0.000414271
POSITIVE upon 0.000821932
POSITIVE files 1.06709e-005
E-MULTIMEDIA_DEVICES speakers 0.205246
A-GENERAL needs 0.00478218
NEGATIVE needs 5.57027e-007
POSITIVE proclaimed 1.76804e-006
NEGATIVE better 0.00361144
NEGATIVE speakers 7.45134e-009
E-OVERALL small 2.2582e-007
E-OVERALL light 0.000402256
E-OVERALL weight 0.000811334
A-DESIGN_FEATURES small 0.0375209
A-DESIGN_FEATURES light 0.0335928
A-DESIGN_FEATURES weight 0.00540854
A-QUALITY bother 2.44892e-005
A-QUALITY idiots 4.96491e-007
POSITIVE light 5.27417e-005
POSITIVE weight 1.13759e-005
; light 3.81066e-008
; weight 4.53916e-007
A-QUALITY american 3.30821e-005
POSITIVE response 1.09366e-007
A-QUALITY durrable 0.000822698
POSITIVE equipment 0.00152439
POSITIVE attractive 0.00040068
A-QUALITY definition 6.99597e-008
POSITIVE library 0.00038079
POSITIVE presentations 2.26473e-008
E-MULTIMEDIA_DEVICES real 0.0993731
POSITIVE traveling 4.02152e-006
NEGATIVE small 1.14665e-008
NEGATIVE real 3.44132e-006
; real 1.76555e-006
A-USABILITY real 1.29136e-007
E-KEYBOARD wasy 0.0116443
NEUTRAL basic 0.00526636
A-DESIGN_FEATURES sized 0.00813825
NEUTRAL walmart.com 1.88844e-006
POSITIVE sized 0.000139171
A-MISCELLANEOUS basic 0.00770276
; sized 9.24198e-009
A-MISCELLANEOUS walmart.com 0.000283772
; wasy 1.10383e-008
A-USABILITY wasy 3.7444e-006
E-OVERALL perfectly 0.000429916
E-OVERALL enough 0.000218072
E-OVERALL senior 1.37241e-006
E-OVERALL affecting 2.18617e-008
A-GENERAL perfectly 2.01792e-005
A-GENERAL enough 5.01465e-008
A-GENERAL senior 0.000706092
A-GENERAL affecting 0.000636242
A-GENERAL arthritis 5.86349e-008
POSITIVE perfectly 7.69496e-008
POSITIVE enough 0.00676319
POSITIVE senior 5.46204e-006
POSITIVE affecting 4.9312e-005
POSITIVE arthritis 2.50222e-006
A-MISCELLANEOUS exchanged 0.00396201
; perfectly 7.55938e-006
A-MISCELLANEOUS make/model 5.58186e-005
; senior 3.7682e-008
A-MISCELLANEOUS handles 2.84501e-005
; affecting 9.56156e-008
; arthritis 7.15407e-009
NEUTRAL plug 1.93768e-006
NEUTRAL exchanged 3.663e-006
A-DESIGN_FEATURES enough 0.00716383
NEUTRAL make/model 0.00334942
A-DESIGN_FEATURES arthritis 0.00110457
A-PORTABILITY enough 1.58217e-006
A-PORTABILITY affecting 1.58025e-006
A-PORTABILITY arthritis 0.00711788
E-OVERALL needless 0.000437326
E-OVERALL awesome 2.31048e-006
E-OVERALL unprecedented 3.42644e-008
POSITIVE awesome 0.00345401
POSITIVE unprecedented 0.000410267
; awesome 8.20834e-008
A-QUALITY unprecedented 1.06335e-005
E-OVERALL apparently 4.43522e-005
E-OVERALL well-built 0.000146595
E-OVERALL gorgeous 7.38579e-006
E-OVERALL i5 2.63677e-005
E-OVERALL winning 6.54628e-005
E-OVERALL combination 0.000292569
A-QUALITY well-built 1.45678e-008
A-QUALITY hanging 0.000824433
POSITIVE gorgeous 0.000221598
POSITIVE at 9.66057e-006
POSITIVE i5 5.41558e-006
POSITIVE winning 9.06057e-006
A-MISCELLANEOUS prodcut 2.81283e-005
; gorgeous 3.98371e-009
A-MISCELLANEOUS handle 9.09068e-005
; i5 0.00015549
; winning 0.000102424
; combination 2.50749e-007
A-DESIGN_FEATURES combination 6.59923e-006
E-FANS_COOLING malfunction 0.224701
NEGATIVE hanging 1.88933e-007
NEGATIVE planning 0.000609402
NEGATIVE prolems 0.000366693
E-OVERALL greatest 0.000144727
E-OVERALL investments 2.12975e-007
A-GENERAL by 2.10013e-006
A-GENERAL greatest 8.97589e-006
A-GENERAL investments 0.000574407
A-QUALITY noticed 3.69162e-008
POSITIVE greatest 1.38442e-007
A-QUALITY electronic 0.00165172
POSITIVE investments 8.46016e-005
POSITIVE made 0.000120396
E-OVERALL low 0.000146417
; low 9.23909e-008
A-PRICE low 5.56842e-006
A-QUALITY very 4.49441e-008
A-QUALITY made 3.90695e-006
E-OVERALL pick 0.000280058
E-OVERALL affordability 7.16413e-005
E-MOUSE stuff 0.000132661
A-QUALITY headphones 0.000915215
POSITIVE pick 3.68091e-005
A-QUALITY likely 1.26255e-008
POSITIVE affordability 6.14589e-006
; pick 1.98088e-007
A-PRICE affordability 0.00366254
E-OVERALL black 5.47117e-006
E-OVERALL model 8.72736e-005
E-OVERALL nice 5.77433e-007
E-OVERALL seamless 3.10559e-006
E-OVERALL appearance 5.54269e-005
E-OVERALL - 2.01502e-005
A-DESIGN_FEATURES black 0.00126322
A-DESIGN_FEATURES model 3.77392e-007
A-DESIGN_FEATURES also 2.76315e-005
A-DESIGN_FEATURES nice 6.14993e-007
A-DESIGN_FEATURES appearance 0.00138091
A-DESIGN_FEATURES - 6.56909e-005
A-DESIGN_FEATURES looking 1.21764e-005
A-DESIGN_FEATURES notebooks 0.00221937
NEUTRAL place 1.53481e-006
A-QUALITY grounding 0.000798136
A-QUALITY isolation 0.000825866
A-QUALITY between 0.000659288
POSITIVE seamless 0.000821654
A-QUALITY components 0.00164976
A-QUALITY hoping 0.000540704
POSITIVE - 0.00715137
A-QUALITY ground 0.000443512
POSITIVE notebooks 1.9701e-007
; black 1.00869e-008
; - 0.0014699
E-DISPLAY resolutions 4.18544e-006
A-QUALITY resolutions 0.000577219
NEGATIVE lack 0.000735925
NEGATIVE resolutions 0.000110712
; lack 2.70636e-008
E-OVERALL need 0.00166265
E-OVERALL affordable 0.000146361
E-OVERALL entry-level 5.24016e-009
E-OVERALL fit 5.6017e-005
E-OVERALL bill 1.44384e-007
A-PRICE affordable 1.19055e-005
A-PRICE entry-level 0.00734721
POSITIVE if 0.000196338
POSITIVE need 0.00440682
POSITIVE entry-level 1.6287e-006
POSITIVE fit 6.51276e-005
POSITIVE bill 1.44873e-006
; need 2.00705e-007
A-MISCELLANEOUS semi-decent 0.00392106
A-MISCELLANEOUS need 9.07742e-006
E-OVERALL superior 8.42109e-009
E-OVERALL ridiculously 7.94712e-007
E-OVERALL shot 0.000141432
E-OVERALL canon 3.97919e-007
A-MISCELLANEOUS bill 0.00394856
A-PORTABILITY dislike 0.0149801
A-PORTABILITY weight 5.73686e-007
POSITIVE 5d 0.000263545
NEGATIVE dislike 0.000351474
POSITIVE mkii 0.000406397
NEGATIVE cubersome 0.000367988
POSITIVE alerts 4.50395e-005
POSITIVE incredible 7.0448e-007
E-MULTIMEDIA_DEVICES dislike 4.06757e-006
E-MULTIMEDIA_DEVICES placement 6.15566e-007
A-QUALITY speakers 4.40872e-005
POSITIVE 7th 0.000402793
NEGATIVE placement 0.000203518
A-DESIGN_FEATURES placement 0.000992357
E-OVERALL ok 5.70971e-008
A-GENERAL overall 0.00376249
A-GENERAL ok 0.000204614
E-SHIPPING priority 4.32986e-005
NEUTRAL ok 0.00583102
E-OVERALL advertised 1.26951e-005
E-OVERALL 15 0.000384109
E-OVERALL '' 0.000123333
E-OVERALL looks 4.03701e-007
A-DESIGN_FEATURES advertised 0.00414003
NEUTRAL loud 0.000452006
A-DESIGN_FEATURES casing 0.000153107
A-DESIGN_FEATURES looks 0.00697614
A-DESIGN_FEATURES 17 0.00473697
NEGATIVE advertised 1.26043e-005
POSITIVE spyware 4.59342e-006
NEGATIVE casing 0.000342614
NEGATIVE looks 0.000159892
NEGATIVE like 0.000326655
POSITIVE vmware 5.61388e-008
NEGATIVE 17 0.000318912
E-OVERALL fits 0.000586318
E-OVERALL carrying 5.24859e-009
NEGATIVE large 2.46378e-008
NEGATIVE carrying 3.17267e-007
POSITIVE extend 5.32027e-007
NEGATIVE cases 0.000367848
; fits 3.7903e-008
A-PORTABILITY barely 0.000102992
A-PORTABILITY carrying 0.014326
A-PORTABILITY cases 5.46772e-006
E-OVERALL peformance 1.47406e-007
NEGATIVE stock 8.34114e-007
A-OPERATION_PERFORMANCE peformance 0.00150402
A-MISCELLANEOUS stock 6.93591e-006
A-PRICE peformance 4.55995e-007
NEUTRAL peformance 0.000171168
NEUTRAL good 2.37619e-005
NEUTRAL for 1.9214e-005
NEUTRAL price 0.0157142
E-OVERALL 're 0.000733866
E-OVERALL wanting 1.00726e-007
E-OVERALL mobile 9.16998e-007
E-OVERALL desk 0.00042104
A-PORTABILITY wanting 0.0143017
A-PORTABILITY mobile 0.0124086
A-PORTABILITY sit 5.98849e-006
NEGATIVE wanting 5.38279e-008
NEGATIVE mobile 4.69661e-005
A-MISCELLANEOUS glossy 0.000881292
; 're 2.98418e-006
; desk 9.52051e-009
A-GENERAL wanting 1.27e-006
A-GENERAL mobile 5.30889e-007
A-GENERAL desk 9.23644e-005
A-QUALITY glossy 0.000183605
POSITIVE 're 0.00165385
A-QUALITY expect 0.00329592
POSITIVE desk 1.33653e-008
E-OVERALL repaired 1.38554e-007
E-OVERALL 5 0.00204976
E-OVERALL purchasing 8.28523e-005
A-QUALITY repaired 0.00517568
A-QUALITY twice 0.0030626
A-QUALITY 5 9.33475e-006
A-QUALITY purchasing 3.09818e-005
NEGATIVE repaired 0.000587132
NEGATIVE twice 0.000107927
NEGATIVE 5 2.31364e-006
NEGATIVE purchasing 0.0023535
; repaired 5.12672e-007
; purchasing 3.36909e-007
E-OVERALL who 1.88841e-005
E-OVERALL gets 2.34037e-006
E-OVERALL daily 1.33317e-005
E-OVERALL blue 2.95676e-005
E-OVERALL purposes 3.07165e-005
A-MISCELLANEOUS person 2.96561e-007
E-OVERALL flicking 0.000146586
A-MISCELLANEOUS who 1.26749e-005
A-MISCELLANEOUS online 4.94859e-006
A-MISCELLANEOUS daily 0.0154616
NEGATIVE online 0.00162393
; who 0.00256083
E-OVERALL may 0.00117198
E-OVERALL occasional 1.04127e-007
E-OVERALL grabage 1.67381e-009
A-MISCELLANEOUS occasional 0.00395391
A-MISCELLANEOUS web 0.000101003
A-MISCELLANEOUS surfer 2.613e-006
NEUTRAL may 7.77049e-006
NEUTRAL occasional 8.19435e-006
NEUTRAL web 0.00131166
NEUTRAL surfer 0.00339499
; may 4.90981e-007
E-OVERALL got 0.000284951
A-QUALITY played 2.43121e-006
A-USABILITY so 4.4357e-006
A-USABILITY easier 0.0131988
A-USABILITY consuming 0.000610994
A-GENERAL largest 7.54398e-008
POSITIVE largest 4.02898e-008
A-OPERATION_PERFORMANCE 7 1.47474e-006
E-HARD_DISC largest 0.00392684
A-DESIGN_FEATURES largest 0.00184185
A-DESIGN_FEATURES drive 0.000536431
A-GENERAL definetly 2.29301e-007
A-GENERAL computer/printer 3.23375e-008
NEUTRAL drive 2.83993e-007
NEUTRAL 7 0.0127784
E-SUPPORT supplier 0.00137595
A-QUALITY supplier 0.000329639
POSITIVE supplier 5.69832e-007
E-KEYBOARD nature 0.000201157
E-KEYBOARD feel 0.043536
A-QUALITY keyboard 2.61413e-008
A-QUALITY nature 0.00163681
POSITIVE nature 7.02624e-007
E-KEYBOARD reasonable 1.53591e-006
A-DESIGN_FEATURES reasonable 0.00062354
POSITIVE reasonable 0.00111663
; reasonable 6.32227e-006
A-OPERATION_PERFORMANCE die 0.000513767
A-DESIGN_FEATURES somewhat 0.00108084
A-DESIGN_FEATURES limiting 2.41041e-008
NEGATIVE somewhat 0.000188821
NEGATIVE limiting 2.14808e-005
; somewhat 2.0898e-008
; limiting 0.000181345
A-MISCELLANEOUS enabling 7.63183e-006
E-OVERALL limiting 4.39816e-008
E-OVERALL travel 3.22062e-008
A-PORTABILITY travel 0.0716495
POSITIVE travel 1.21414e-006
E-POWER_SUPPLY seems 0.00500705
A-DESIGN_FEATURES class 1.98638e-005
NEGATIVE seems 6.96393e-007
NEGATIVE class 0.000732237
A-MISCELLANEOUS timer 0.00394794
; seems 6.83773e-008
A-MISCELLANEOUS useless 0.00333545
E-OVERALL games 0.00145917
A-GENERAL action 2.48273e-006
A-GENERAL games 5.09277e-006
POSITIVE works 0.000190528
POSITIVE action 0.000463865
POSITIVE games 2.27093e-005
A-MISCELLANEOUS remaining 0.000241951
A-MISCELLANEOUS span 0.00793148
A-MISCELLANEOUS thinking 4.6016e-005
A-PRICE action 1.67896e-005
A-PRICE pack 2.52998e-006
NEUTRAL action 0.00298433
NEUTRAL pack 0.00339606
NEUTRAL games 4.18227e-006
E-OVERALL 2200 2.11851e-007
E-OVERALL playing 4.47249e-007
E-OVERALL accessories 7.01549e-009
E-OVERALL satisfactory 1.73927e-007
A-MISCELLANEOUS games 0.0118141
A-USABILITY switch 0.00504296
E-KEYBOARD key 0.110649
E-KEYBOARD broad 4.87218e-006
E-KEYBOARD dark 1.48911e-006
E-KEYBOARD letters 0.0116573
A-USABILITY rebooting 0.00244603
E-KEYBOARD lighter 1.70456e-005
A-DESIGN_FEATURES broad 0.00221812
NEUTRAL upgraded 2.79335e-005
A-DESIGN_FEATURES little 4.58976e-005
A-DESIGN_FEATURES dark 0.000474322
NEGATIVE key 0.000188619
NEGATIVE broad 2.28034e-007
NEGATIVE dark 0.00139323
NEGATIVE help 0.00195567
NEGATIVE lighter 2.28116e-008
A-MISCELLANEOUS intel 0.000130628
A-MISCELLANEOUS processors 0.000162783
; help 5.95102e-005
A-MISCELLANEOUS comfortable 3.15699e-005
A-USABILITY key 1.93867e-007
A-USABILITY little 0.000101426
A-USABILITY dark 3.0631e-007
A-USABILITY letters 1.16295e-006
A-USABILITY lighter 0.0024423
E-OVERALL give 1.73118e-005
E-OVERALL stars 1.78131e-005
A-GENERAL give 0.00629785
A-GENERAL hafe 1.9698e-006
A-GENERAL stars 0.001496
POSITIVE give 6.44468e-005
POSITIVE hafe 0.000414581
A-MISCELLANEOUS edges 1.6604e-006
; give 1.06318e-006
A-MISCELLANEOUS hurt 0.0039658
A-MISCELLANEOUS wrists 7.50294e-008
; stars 5.86363e-008
E-OVERALL computing 1.12281e-007
A-MISCELLANEOUS computing 0.0197949
A-MISCELLANEOUS browsing 2.92341e-006
POSITIVE computing 3.47791e-006
; computing 1.44229e-008
E-OVERALL home 1.49839e-006
E-OVERALL business 0.000562619
A-MISCELLANEOUS home 0.0118003
A-MISCELLANEOUS business 0.00454819
A-QUALITY mother 2.71693e-006
POSITIVE home 0.00333157
A-QUALITY board 2.71251e-007
POSITIVE business 6.3583e-006
; home 9.50924e-008
; business 1.5439e-008
E-OVERALL think 0.00142642
E-OVERALL designed 9.53141e-008
E-OVERALL disapeared 0.000143433
E-OVERALL hateful 6.06147e-006
A-MISCELLANEOUS avid 0.00391301
E-OVERALL 1,700 1.01091e-005
A-MISCELLANEOUS gamer 0.00370791
E-OVERALL s-video 1.27013e-006
E-OVERALL bluetooth 4.82683e-008
E-OVERALL awe 2.57733e-008
E-OVERALL w/o 1.18348e-005
NEUTRAL avid 4.56371e-005
NEUTRAL gamer 0.000221308
NEUTRAL what 0.00929732
NEUTRAL computer 1.35118e-006
; designed 3.9293e-009
E-DISPLAY crisp 2.02405e-005
A-OPERATION_PERFORMANCE thats 6.58205e-007
A-QUALITY crisp 0.000824039
A-QUALITY crap 0.00247459
POSITIVE crisp 4.46218e-008
E-WARRANTY selling 6.15195e-006
E-WARRANTY warranties 0.00233923
NEGATIVE crap 1.59936e-006
NEGATIVE research 0.00100743
E-OVERALL loves 0.00029279
E-OVERALL schools 3.14806e-008
E-OVERALL start 2.88198e-005
E-OVERALL teaching 8.96456e-006
E-OVERALL computers 1.31463e-006
E-OVERALL started 0.000770365
E-SOFTWARE cancel 5.03513e-007
A-GENERAL he 0.000356542
A-GENERAL loves 1.99693e-006
A-GENERAL schools 5.182e-008
A-GENERAL start 7.52743e-007
A-GENERAL computers 0.00537646
A-GENERAL him 1.64071e-006
A-GENERAL started 2.35532e-005
POSITIVE schools 4.83931e-007
E-KEYBOARD slick 6.4956e-007
A-QUALITY correctly 2.36636e-005
POSITIVE start 2.64731e-008
A-QUALITY thicker 0.000822893
POSITIVE teaching 0.000805519
POSITIVE kids 4.9681e-007
A-QUALITY droped 2.88643e-008
POSITIVE early 0.000342371
A-QUALITY thetable 0.000825961
POSITIVE computers 0.000219053
A-QUALITY girl 0.000397086
POSITIVE him 0.000830064
A-QUALITY grabed 2.65441e-005
; computers 2.46232e-008
; started 3.83733e-006
A-USABILITY schools 0.00244248
A-USABILITY him 2.46952e-006
E-OVERALL recomend 0.000420956
E-OVERALL acer 2.27604e-005
E-OVERALL parents 0.000428091
E-OVERALL grandparents 2.85651e-006
E-OVERALL help 3.90047e-006
E-OVERALL school 3.84134e-007
E-OVERALL immediate 7.5803e-009
A-MISCELLANEOUS recomend 0.000194169
A-MISCELLANEOUS parents 0.00031442
A-MISCELLANEOUS grandparents 0.00387022
E-OVERALL forth 7.81357e-007
A-MISCELLANEOUS school 0.0277276
POSITIVE acer 0.00295575
POSITIVE parents 2.28271e-007
POSITIVE grandparents 1.96941e-006
POSITIVE help 1.0482e-005
POSITIVE school 2.73342e-006
; recomend 4.8073e-008
E-OVERALL switch 4.38738e-006
E-OVERALL html 0.000121814
A-MISCELLANEOUS reg 0.00396518
E-OVERALL anybody 1.64342e-005
POSITIVE accident 4.60806e-006
NEGATIVE reg 1.03515e-007
E-OVERALL keep 6.83012e-006
E-OVERALL saying 0.000291783
E-OVERALL cant 1.41294e-007
E-OVERALL energy 0.000146079
A-MISCELLANEOUS saying 3.41628e-005
E-OVERALL rocks 2.59599e-008
A-MISCELLANEOUS error 0.0106608
POSITIVE innovation 0.000358189
NEGATIVE saying 3.7615e-007
POSITIVE rocks 2.03414e-007
NEGATIVE error 0.000482855
E-OVERALL than 0.00182738
E-OVERALL wonder 0.000153759
A-PRICE along 0.000113655
A-GENERAL wonder 9.09154e-005
POSITIVE wonder 0.000758808
E-OVERALL excellent 0.00072082
NEGATIVE came 1.50172e-007
A-OPERATION_PERFORMANCE excellent 5.74352e-007
A-QUALITY shows 0.00247534
A-QUALITY colors 7.35671e-006
POSITIVE shows 1.68602e-006
POSITIVE colors 0.00124343
E-OVERALL surprised 0.000159799
A-OPERATION_PERFORMANCE surprised 2.05072e-008
POSITIVE surprised 0.000378272
A-QUALITY those 1.42466e-006
A-DESIGN_FEATURES way 3.60801e-007
A-DESIGN_FEATURES bigger 0.00660391
A-DESIGN_FEATURES an 8.11573e-006
POSITIVE bigger 9.75939e-006
POSITIVE hdmi 5.23816e-008
A-MISCELLANEOUS pleasure 0.00785297
E-GRAPHICS stellar 0.0301393
A-CONNECTIVITY bigger 7.28857e-006
A-CONNECTIVITY hdmi 0.0386917
E-OVERALL anyone 2.67465e-005
A-GENERAL anyone 0.0121169
A-GENERAL searching 0.00033756
POSITIVE anyone 1.45114e-005
POSITIVE searching 0.000221485
; anyone 4.96825e-008
NEGATIVE wear 0.000284561
E-BATTERY charge 0.0693499
E-BATTERY dose 4.04764e-007
NEGATIVE waste 2.93639e-006
NEGATIVE bus 5.51246e-008
A-OPERATION_PERFORMANCE charge 5.44706e-006
A-OPERATION_PERFORMANCE dose 0.00158537
NEGATIVE serious 0.00108228
A-OPERATION_PERFORMANCE 2 3.04934e-005
NEGATIVE top 1.11996e-005
POSITIVE beautifully 4.56314e-005
NEGATIVE charge 1.67331e-006
POSITIVE fails 8.32584e-008
NEGATIVE dose 3.82744e-008
NEGATIVE hours 2.50995e-006
E-OVERALL ideal 5.47796e-005
E-OVERALL g60-244dx 0.000146244
A-MISCELLANEOUS ideal 0.0104097
E-OVERALL fires 0.000146595
A-MISCELLANEOUS companion 6.99001e-005
POSITIVE companion 0.000408388
E-OVERALL enable 1.0905e-007
E-OVERALL things 7.16384e-007
A-OPERATION_PERFORMANCE software 5.64096e-008
A-OPERATION_PERFORMANCE things 4.06476e-008
POSITIVE enable 7.66727e-008
POSITIVE things 0.00162745
; enable 0.000168119
