regret A-PRICE 3.19639e-005
. POSITIVE 1.24569e-006
this NULL 0.109517
this E-OVERALL 0.568118
hard A-QUALITY 8.66455e-005
and ; 0.0095622
do E-SUPPORT 0.00352735
!!! A-GENERAL 0.0733635
move A-PORTABILITY 0.167706
computer NULL 0.145522
read E-DISPLAY 1
command A-QUALITY 0.00102584
few A-PRICE 0.00163118
this A-GENERAL 0.262359
cut A-GENERAL 0.294828
save E-OVERALL 0.345507
do E-COMPANY 0.00262191
!!! POSITIVE 0.00052048
use A-USABILITY 0.437651
week NULL 0.0800549
blink A-OPERATION_PERFORMANCE 1
upgrade E-HARD_DISC 0.0726467
this POSITIVE 0.00638176
battery E-BATTERY 0.898863
and A-OPERATION_PERFORMANCE 0.0560488
long NULL 0.000191555
!!! ; 0.822677
self E-COMPANY 0.262682
make NEGATIVE 0.00145772
computer E-OVERALL 0.369902
... POSITIVE 2.06449e-005
upgrade A-DESIGN_FEATURES 0.00014611
warrenty E-HARD_DISC 0.121419
specification A-DESIGN_FEATURES 1
yahoo A-OPERATION_PERFORMANCE 1
this ; 0.0334229
pass E-SUPPORT 0.409213
hard NEGATIVE 0.281124
perfect E-OVERALL 1.80886e-005
$ A-PRICE 0.49276
computer A-GENERAL 0.0750153
... ; 0.996699
new E-POWER_SUPPLY 0.0107877
have A-USABILITY 7.64914e-007
while NULL 8.82411e-005
one E-KEYBOARD 9.50059e-005
the E-HARD_DISC 2.29238e-005
computer POSITIVE 0.0292946
... E-BATTERY 0.00323881
build E-OVERALL 0.000125081
really A-OPERATION_PERFORMANCE 2.56078e-005
new E-HARDWARE 0.00905401
dell NEUTRAL 0.217335
the A-DESIGN_FEATURES 0.067832
make E-DISPLAY 0.00120673
table E-OVERALL 0.999312
preformed A-OPERATION_PERFORMANCE 1
computer ; 0.284367
probably A-GENERAL 0.579252
how A-USABILITY 0.191425
wt A-DESIGN_FEATURES 0.0016585
-lrb- E-HARD_DISC 0.0136648
10 E-BATTERY 0.196022
look E-COMPANY 0.0497765
be NULL 0.531021
be E-OVERALL 0.239806
or A-QUALITY 0.144448
100 A-PRICE 0.213706
be A-GENERAL 0.00505133
everything NULL 0.00058521
already A-USABILITY 0.372928
replace A-QUALITY 0.204372
plus POSITIVE 0.231479
more E-DISPLAY 4.77093e-007
plus ; 0.00245157
ram E-HARD_DISC 0.177069
be POSITIVE 0.112829
hear NEUTRAL 1
even NULL 0.0116657
cant A-OPERATION_PERFORMANCE 0.335525
be ; 0.0113187
or NEGATIVE 0.016703
everything E-OVERALL 0.676712
super A-OPERATION_PERFORMANCE 0.0177843
easy A-USABILITY 0.780144
though E-HARD_DISC 0.0407388
plus E-BATTERY 0.125572
dangerous A-QUALITY 1
trip A-PORTABILITY 1
becase E-COMPANY 1
team E-SUPPORT 1
machine NEGATIVE 0.00182594
with POSITIVE 0.147784
absolutely NULL 0.000264282
fast POSITIVE 0.223904
-rrb- NEGATIVE 0.0403306
absolutely E-OVERALL 0.16055
extra A-PRICE 0.124879
-rrb- E-SUPPORT 0.00465553
absolutely A-GENERAL 0.755372
for A-PORTABILITY 0.0181104
can A-CONNECTIVITY 4.38504e-005
need NULL 0.0448657
tower A-OPERATION_PERFORMANCE 1
hour ; 0.533415
absolutely POSITIVE 9.15826e-005
it A-USABILITY 0.00559916
hour E-BATTERY 0.399597
fine E-OVERALL 3.34835e-005
fast A-OPERATION_PERFORMANCE 0.744027
other NULL 0.060808
fuction A-OPERATION_PERFORMANCE 1
they E-COMPANY 0.0324657
which A-QUALITY 0.197977
my E-COMPANY 0.0139092
want NEGATIVE 0.139305
satisfied A-GENERAL 0.252012
amazing E-OVERALL 7.81525e-005
of POSITIVE 0.00232983
my E-DISPLAY 0.000189774
want E-SUPPORT 0.0178324
dollar A-PRICE 1
satisfied POSITIVE 0.747988
amazing A-GENERAL 0.000439982
portability A-PORTABILITY 1
life NULL 0.000248287
of ; 0.113293
a A-USABILITY 5.19277e-005
amazing POSITIVE 0.999407
get A-USABILITY 0.097327
lasting E-BATTERY 1
equip A-DESIGN_FEATURES 0.0098642
will E-HARD_DISC 0.00842159
of E-BATTERY 0.00169554
a A-PORTABILITY 4.34897e-006
which NEGATIVE 0.174997
my A-CONNECTIVITY 5.56353e-005
webpage A-OPERATION_PERFORMANCE 0.731274
amazing ; 4.01704e-005
heat A-QUALITY 1
pleasant A-PORTABILITY 1
and E-OVERALL 0.00257214
all A-DESIGN_FEATURES 0.129633
put NEGATIVE 0.000187804
do A-MISCELLANEOUS 6.3259e-005
short A-QUALITY 0.458141
and POSITIVE 0.44586
put E-COMPANY 0.246606
do NEGATIVE 0.484536
lift A-QUALITY 1
surprise A-PORTABILITY 0.136458
really E-OVERALL 0.371374
-lrb- POSITIVE 0.047751
couldnt A-USABILITY 1
power A-DESIGN_FEATURES 0.153485
-lrb- A-DESIGN_FEATURES 0.000720684
build POSITIVE 0.234468
really E-GRAPHICS 5.46081e-007
13 E-CPU 0.0895359
10 A-OPERATION_PERFORMANCE 0.269409
though POSITIVE 0.588659
recovey A-USABILITY 1
plus NULL 0.000134126
also ; 0.000159216
storage E-HARD_DISC 1
or E-SUPPORT 0.103155
super E-CPU 0.0502601
though A-DESIGN_FEATURES 0.0981005
nice E-GRAPHICS 0.000764668
replace NEGATIVE 0.223647
15 E-SUPPORT 0.000454299
from A-QUALITY 0.0336239
i POSITIVE 0.0842896
disk A-USABILITY 0.595014
i A-DESIGN_FEATURES 1.11076e-005
graphic E-GRAPHICS 0.712121
contact E-SUPPORT 0.999888
will POSITIVE 0.000231463
wouldnt A-USABILITY 1
large A-DESIGN_FEATURES 0.574482
of NULL 0.640456
forget A-DESIGN_FEATURES 0.626433
card E-GRAPHICS 0.563781
of A-OPERATION_PERFORMANCE 0.0187275
processing E-CPU 0.147648
nothing A-QUALITY 0.00280023
upgrade POSITIVE 0.00177962
pass A-USABILITY 0.590669
dell A-QUALITY 0.132602
the POSITIVE 0.142301
recovery A-USABILITY 1
today NEGATIVE 0.718783
warranty E-WARRANTY 0.177234
powerful A-OPERATION_PERFORMANCE 0.000142974
even E-OVERALL 0.284907
be A-OPERATION_PERFORMANCE 0.0001615
or E-COMPANY 0.0735295
everything POSITIVE 0.190243
also NULL 0.0255691
blinking E-BATTERY 0.999698
machine A-MISCELLANEOUS 0.00933369
spend E-OVERALL 0.000293267
shock A-USABILITY 1
fine A-GENERAL 0.000497079
fast E-CPU 0.0227603
with A-DESIGN_FEATURES 0.000143198
fine POSITIVE 0.735847
jobs E-COMPANY 1
crash A-OPERATION_PERFORMANCE 0.722169
with ; 0.201413
encourage A-OPERATION_PERFORMANCE 0.941184
in A-USABILITY 4.59707e-006
service A-QUALITY 0.188459
sudden E-BATTERY 1
hand ; 0.0437021
as POSITIVE 0.394263
which A-DESIGN_FEATURES 0.000520323
one-year NEGATIVE 0.999779
my A-MISCELLANEOUS 0.00177367
as A-USABILITY 4.83524e-006
first ; 2.53857e-005
250 E-HARD_DISC 1
processor E-CPU 1
maybe E-BATTERY 0.14546
certain A-MISCELLANEOUS 0.537363
a A-QUALITY 0.0146434
my E-SOFTWARE 0.000144945
in A-QUALITY 0.183147
donation E-COMPANY 1
as A-OPERATION_PERFORMANCE 0.25594
first NULL 0.00226926
my E-SUPPORT 0.00148162
red E-BATTERY 1
to POSITIVE 0.00231703
and NULL 0.390202
money E-OVERALL 2.24556e-005
to A-USABILITY 0.134082
gb E-HARD_DISC 0.392707
and E-CPU 0.000363243
all NEGATIVE 0.019843
car POSITIVE 0.00148074
long E-OVERALL 0.00188755
and E-GRAPHICS 0.00101138
bit E-OVERALL 0.409174
to A-OPERATION_PERFORMANCE 9.95024e-005
and A-GENERAL 0.000135848
, A-USABILITY 3.16047e-005
circle E-BATTERY 1
how POSITIVE 0.00267361
registration/1st A-USABILITY 1
really NULL 0.000475267
really POSITIVE 0.545794
, A-QUALITY 0.0124307
how A-OPERATION_PERFORMANCE 1.05539e-005
wt E-BATTERY 0.998342
-lrb- ; 0.0186186
especially POSITIVE 0.493825
really A-GENERAL 0.0323581
find A-USABILITY 0.114932
middle E-BATTERY 0.461218
easy POSITIVE 0.108881
size A-DESIGN_FEATURES 0.871802
like A-MISCELLANEOUS 0.000288583
acknowledge NEGATIVE 0.25715
cheap A-PRICE 0.454472
nice POSITIVE 0.951977
nice ; 0.000285863
forever E-OVERALL 0.0064754
though ; 0.000364383
that A-USABILITY 0.000162721
add A-MISCELLANEOUS 0.349222
it POSITIVE 0.0363572
i E-OVERALL 0.509119
you A-PRICE 1.12934e-006
less ; 6.52207e-005
from NEGATIVE 0.0232323
i A-OPERATION_PERFORMANCE 0.000335087
less E-BATTERY 0.111602
type A-MISCELLANEOUS 0.27288
that A-QUALITY 0.000984452
it A-OPERATION_PERFORMANCE 0.020886
beginning A-OPERATION_PERFORMANCE 0.0152584
i ; 0.0256578
job E-COMPANY 0.249261
can E-SUPPORT 6.58644e-007
break A-QUALITY 0.469313
get POSITIVE 0.000835502
programming A-MISCELLANEOUS 0.580502
bluray A-MISCELLANEOUS 0.447061
wont A-PRICE 0.609026
april A-QUALITY 0.010376
large A-PORTABILITY 0.000150736
of E-OVERALL 0.0158774
without E-SUPPORT 0.111652
of A-GENERAL 0.00135375
satisfy A-GENERAL 0.434678
design E-OVERALL 0.117916
get A-OPERATION_PERFORMANCE 2.02567e-005
will ; 0.00123258
after A-QUALITY 0.403151
use POSITIVE 0.114907
anywhere A-MISCELLANEOUS 5.51145e-005
. ; 0.999997
after NEGATIVE 0.388988
use A-OPERATION_PERFORMANCE 0.0251875
upgrade ; 0.00156995
cover E-PORTS 0.366402
car ; 0.000525549
!!! E-CPU 0.0337136
and E-HARD_DISC 7.56936e-006
and A-DESIGN_FEATURES 0.00548471
torture E-SUPPORT 0.409283
one NEGATIVE 0.0399163
nb A-GENERAL 1
the E-OVERALL 0.124067
during A-QUALITY 0.398386
possible E-BATTERY 1
have POSITIVE 0.0138244
highly A-MISCELLANEOUS 0.0563433
disappointed E-OVERALL 0.0179522
plenty E-HARD_DISC 0.660659
computer A-OPERATION_PERFORMANCE 0.00105851
application E-SUPPORT 0.0494277
the A-OPERATION_PERFORMANCE 0.0402063
life ; 0.0999333
of E-HARD_DISC 0.000818162
smooth A-OPERATION_PERFORMANCE 0.384084
life E-BATTERY 0.636106
of A-DESIGN_FEATURES 0.0469323
send A-QUALITY 0.431639
usually E-BATTERY 1
look A-MISCELLANEOUS 0.0651018
replacement A-QUALITY 7.0856e-005
with NULL 0.402725
part A-QUALITY 0.00257092
a POSITIVE 0.101018
hand A-GENERAL 0.388134
as E-OVERALL 0.0728699
they A-MISCELLANEOUS 0.0684063
to E-OVERALL 0.091101
through A-MISCELLANEOUS 0.232645
but POSITIVE 0.000522371
how E-OVERALL 7.42741e-005
-lrb- NULL 0.308555
within A-QUALITY 0.668191
test E-SUPPORT 0.343154
though NULL 7.82403e-005
15 A-QUALITY 0.130902
hp E-COMPANY 0.244537
for POSITIVE 0.155579
it E-OVERALL 0.303757
i NULL 0.0485174
get E-OVERALL 0.367803
will NULL 0.0548667
use E-OVERALL 0.150099
upgrade NULL 0.000422501
warrenty A-QUALITY 0.580689
this E-HARD_DISC 0.00841724
few NEUTRAL 0.00235371
this A-DESIGN_FEATURES 5.21348e-006
1/2 E-BATTERY 1
laptop POSITIVE 0.0534529
have E-OVERALL 0.335393
the NULL 0.238887
the ; 0.043736
broken A-QUALITY 1
discharge E-BATTERY 1
good POSITIVE 0.561581
only E-OVERALL 0.0881563
lame A-QUALITY 0.999114
science A-PORTABILITY 1
information A-OPERATION_PERFORMANCE 0.471369
this A-OPERATION_PERFORMANCE 2.66695e-007
* E-OVERALL 1
this A-USABILITY 6.78938e-007
computer A-USABILITY 1.83655e-005
be A-USABILITY 0.00137573
fine A-OPERATION_PERFORMANCE 0.26362
usb E-OVERALL 0.205501
and A-USABILITY 0.000430028
it A-PRICE 1.08218e-005
five A-GENERAL 0.75755
i A-USABILITY 3.27681e-005
later A-QUALITY 0.826396
go POSITIVE 0.000495956
jump E-SUPPORT 0.186328
mine E-OVERALL 0.478401
student A-PORTABILITY 0.420725
blinking A-OPERATION_PERFORMANCE 0.000302076
else ; 0.000145461
just POSITIVE 0.26476
hoop E-SUPPORT 1
a E-OVERALL 0.150088
as NULL 0.159732
pile A-QUALITY 0.000193017
in A-PORTABILITY 0.00186671
as ; 0.00132409
then A-QUALITY 0.13296
way POSITIVE 0.248045
proclaim E-COMPANY 1
question E-SUPPORT 0.999642
not NEGATIVE 0.640446
day E-OVERALL 0.0333906
to NULL 0.460269
crap A-QUALITY 0.54166
college A-PORTABILITY 0.192847
to ; 0.0385056
but E-OVERALL 0.301391
how NULL 0.000744809
whim A-QUALITY 1
, A-PORTABILITY 3.52692e-006
how ; 7.21823e-005
via A-MISCELLANEOUS 0.565154
too A-QUALITY 0.0662777
would POSITIVE 7.29722e-006
already E-OVERALL 0.373444
freak A-QUALITY 0.479671
find A-PORTABILITY 0.0756975
os NULL 5.09952e-005
see A-QUALITY 0.179075
run POSITIVE 4.42772e-005
hp NEGATIVE 0.00585193
for E-OVERALL 0.159174
it NULL 0.0395398
i A-GENERAL 0.100947
it ; 0.366867
very NEGATIVE 0.000559445
get NULL 0.197511
design NULL 0.000108801
get ; 0.00206461
plan ; 0.00187413
any POSITIVE 0.000671368
use NULL 0.0271838
let NEGATIVE 5.99438e-005
processing A-OPERATION_PERFORMANCE 0.401785
quickly E-BATTERY 0.259015
use ; 0.137282
4 A-QUALITY 0.114996
laptop E-OVERALL 0.444671
have NULL 0.393477
know NEGATIVE 0.523179
laptop A-OPERATION_PERFORMANCE 4.34515e-005
the A-GENERAL 0.0103243
have ; 0.0234737
different A-QUALITY 0.194943
out POSITIVE 0.000555815
good E-OVERALL 0.201091
only NULL 0.0344518
allow E-OVERALL 0.437295
good A-OPERATION_PERFORMANCE 7.98009e-006
only ; 0.000190935
work NEGATIVE 0.00814554
go E-OVERALL 0.0168901
later NEGATIVE 0.000576826
go A-OPERATION_PERFORMANCE 0.000663064
mine ; 0.398761
cause POSITIVE 0.0162024
well NEGATIVE 0.0127039
else A-GENERAL 0.259838
just E-OVERALL 0.0786399
a NULL 0.632304
just A-OPERATION_PERFORMANCE 0.283049
display NULL 5.02826e-005
a ; 0.0249599
its POSITIVE 0.517715
comply E-SUPPORT 1
so NEGATIVE 0.194062
way E-OVERALL 6.04586e-005
day NULL 0.00544798
to A-GENERAL 0.000467037
then NEGATIVE 0.509496
lower E-GRAPHICS 0.497381
way A-OPERATION_PERFORMANCE 0.0723926
no A-QUALITY 0.0978006
worth POSITIVE 0.000151996
hot NEGATIVE 0.000539633
think E-OVERALL 0.75055
but NULL 0.0258507
hate NEGATIVE 0.78435
but ; 0.0250761
hd A-MISCELLANEOUS 0.297269
hang A-QUALITY 0.522713
scary NEGATIVE 0.00306208
world E-SUPPORT 0.0554238
would E-OVERALL 0.38008
too NEGATIVE 0.383244
webcam A-GENERAL 0.278566
much NULL 0.0440689
you POSITIVE 0.00129657
yet NEGATIVE 0.168572
run E-OVERALL 0.00918252
for NULL 0.401367
see NEGATIVE 0.000190203
run A-OPERATION_PERFORMANCE 0.532842
professional POSITIVE 0.880307
it A-GENERAL 0.000433878
for ; 0.0228001
1 A-QUALITY 0.490897
finally ; 0.000820498
anything NEGATIVE 0.395213
recommend E-OVERALL 0.133849
both POSITIVE 0.860254
get A-GENERAL 0.0321832
very E-DISPLAY 0.0067289
and A-PORTABILITY 0.000249572
convert A-MISCELLANEOUS 0.475686
+ A-QUALITY 0.998223
situation E-SUPPORT 1
about NEGATIVE 0.11653
any E-OVERALL 0.220801
occassionaly A-MISCELLANEOUS 1
report A-QUALITY 0.29482
? ; 0.00434109
buy POSITIVE 1.08948e-005
excuse E-SUPPORT 1
problem NEGATIVE 0.187961
laptop NULL 0.0326864
laptop A-GENERAL 0.133655
laptop ; 0.32189
vpn A-MISCELLANEOUS 1
damaged A-QUALITY 1
return NEGATIVE 0.953372
out E-OVERALL 0.289454
good NULL 0.00970691
out ; 0.00642647
good A-GENERAL 0.00104972
allow NULL 0.000107325
good ; 0.0970252
late A-QUALITY 0.733592
keep NEGATIVE 0.522515
there E-OVERALL 0.124674
go NULL 0.305232
software NULL 0.000359809
there ; 0.000336674
work E-SUPPORT 6.87023e-007
go A-GENERAL 0.0100324
work E-DISPLAY 2.09516e-007
honest E-OVERALL 0.0595103
go ; 0.0611349
in POSITIVE 0.00348874
3 NEGATIVE 0.130353
cause E-OVERALL 0.000396299
just NULL 0.0986087
well E-SUPPORT 0.011691
just A-GENERAL 0.113509
else E-BATTERY 0.126447
just ; 0.0053286
college POSITIVE 0.276852
month NEGATIVE 0.320914
short A-GENERAL 0.30047
its E-OVERALL 0.145309
way NULL 0.00192275
its ; 0.179404
so E-DISPLAY 0.00106177
way ; 0.468553
, POSITIVE 0.385194
superior E-COMPANY 1
when NEGATIVE 0.000523056
refund A-GENERAL 1
worth E-OVERALL 0.00410446
think NULL 3.75557e-005
when E-DISPLAY 0.00262783
worth ; 4.90576e-005
think ; 0.110949
back NEGATIVE 0.48083
cheap E-OVERALL 0.146204
would NULL 0.0259996
would A-GENERAL 0.310375
would ; 0.00053237
if E-COMPANY 0.0576293
that POSITIVE 0.00219385
you E-OVERALL 0.248761
run NULL 8.3419e-005
you ; 0.00600716
child E-COMPANY 0.261051
yet E-SUPPORT 8.1614e-005
run ; 0.243642
still NEGATIVE 0.00253127
recommend A-GENERAL 0.810048
twenty A-OPERATION_PERFORMANCE 0.538676
mail E-SUPPORT 0.24226
regret E-OVERALL 0.133413
any NULL 0.00143979
about E-SUPPORT 0.00158158
plan POSITIVE 0.0004188
any A-GENERAL 0.474727
sixteen A-OPERATION_PERFORMANCE 1
any ; 0.000630434
play E-SUPPORT 0.037254
tell NEGATIVE 0.00180461
? A-GENERAL 0.00603249
buy E-OVERALL 0.285821
2yrs E-OVERALL 1
what NULL 0.000809222
? E-BATTERY 0.115419
buy ; 0.0383307
problem E-SUPPORT 0.00010251
person A-GENERAL 0.507128
warranty NEGATIVE 0.227469
out NULL 0.13314
return E-SUPPORT 7.96403e-006
out A-GENERAL 0.006364
arent E-MULTIMEDIA_DEVICES 1
there NULL 0.00248527
friendly E-MULTIMEDIA_DEVICES 0.187289
in E-OVERALL 0.0769684
research E-BATTERY 0.362382
in ; 0.0132441
3 E-SUPPORT 0.0304319
cause A-GENERAL 0.544794
volume E-MULTIMEDIA_DEVICES 0.659223
consider A-GENERAL 0.716173
college E-OVERALL 6.14329e-005
its NULL 0.0228454
consider E-BATTERY 0.152286
month E-SUPPORT 0.00783687
its A-GENERAL 0.000211209
wheel E-MULTIMEDIA_DEVICES 1
w-o-w A-GENERAL 1
, E-OVERALL 0.0612127
product NULL 0.0407481
, ; 0.00886
when E-SUPPORT 0.041478
worth A-GENERAL 0.568144
and A-PRICE 0.00087508
available A-MISCELLANEOUS 0.000202755
especially A-QUALITY 0.2396
really A-PRICE 0.0126093
sound E-MULTIMEDIA_DEVICES 0.700322
insane A-GENERAL 1
find E-OVERALL 0.00011592
find ; 0.0004098
back E-SUPPORT 0.0874267
etc. E-MULTIMEDIA_DEVICES 0.0533046
if NEGATIVE 0.000251834
that E-OVERALL 0.199302
you NULL 0.289188
that ; 0.00807353
realizw E-SUPPORT 0.989304
you A-GENERAL 0.217617
still E-SUPPORT 0.011586
correct E-SUPPORT 1
regret A-GENERAL 0.806952
buy NULL 0.0087086
tell E-SUPPORT 0.304464
buy A-GENERAL 0.322726
as A-QUALITY 0.0241986
computer A-QUALITY 0.0176512
lame E-OVERALL 0.000473012
pile E-OVERALL 0.447392
in NULL 0.591448
, NULL 0.439554
i A-PORTABILITY 2.55662e-008
monitor A-MISCELLANEOUS 0.242091
i A-QUALITY 0.00190736
find NULL 0.000509094
that NULL 0.33432
the A-QUALITY 0.0466634
the A-USABILITY 4.82794e-005
sit NEGATIVE 0.000236102
longevity A-PORTABILITY 1
configure E-BATTERY 1
capacity E-HARD_DISC 1
seal A-MISCELLANEOUS 1
and A-QUALITY 0.0650781
on A-MISCELLANEOUS 0.00928095
on NEGATIVE 0.252943
bright E-DISPLAY 1
on E-COMPANY 7.84616e-006
fix A-QUALITY 0.61925
on E-DISPLAY 0.000930506
few NULL 0.567338
ease A-USABILITY 1
of A-PORTABILITY 1.69203e-006
flaw E-OS 1
of A-QUALITY 0.0350588
of A-USABILITY 0.02646
use A-PORTABILITY 4.1904e-006
smoothly A-OPERATION_PERFORMANCE 0.708749
use A-QUALITY 1.03254e-005
this A-QUALITY 0.000515315
make NULL 0.101652
lap NEGATIVE 0.703471
make E-OVERALL 0.4684
make POSITIVE 0.0544354
$ NULL 0.172068
make ; 0.118857
make A-QUALITY 7.42772e-005
make A-USABILITY 0.0457016
-lrb- E-OVERALL 0.206868
stay A-GENERAL 0.00394085
-lrb- A-PORTABILITY 6.90257e-006
because NEGATIVE 0.379631
shockingly A-PORTABILITY 1
own A-QUALITY 0.240683
-rrb- NULL 0.0108446
burn NEGATIVE 6.41715e-005
-rrb- E-OVERALL 0.000527358
-rrb- A-PORTABILITY 6.7191e-007
easily A-QUALITY 0.410702
-rrb- POSITIVE 0.108387
extra NULL 4.39619e-005
-rrb- ; 0.739432
-rrb- A-QUALITY 0.000286947
many A-DESIGN_FEATURES 0.338298
want NULL 0.000488486
want E-OVERALL 0.642201
want A-PORTABILITY 0.0363393
click E-BATTERY 0.12312
want A-USABILITY 0.1008
brief ; 0.00331661
money A-GENERAL 0.404422
to A-PORTABILITY 0.0142269
money ; 2.78016e-005
to A-QUALITY 0.102611
wonderful A-DESIGN_FEATURES 0.1637
do NULL 0.13029
quite A-GENERAL 0.257227
do E-OVERALL 0.198267
put A-QUALITY 0.494823
do POSITIVE 0.00186272
all NULL 0.0337959
do ; 0.146105
do A-QUALITY 0.000481897
all A-OPERATION_PERFORMANCE 0.135166
do A-USABILITY 4.38758e-006
homework A-PORTABILITY 1
new A-QUALITY 5.61813e-005
promotion/offer A-MISCELLANEOUS 1
power A-OPERATION_PERFORMANCE 0.38342
more NULL 0.00845731
at NEGATIVE 0.489761
course A-GENERAL 0.461349
more E-OVERALL 0.205911
more POSITIVE 0.00137791
more ; 0.307913
replace E-HARD_DISC 0.104888
course A-MISCELLANEOUS 0.228069
more A-QUALITY 0.0398955
replace A-OPERATION_PERFORMANCE 0.134189
same NEGATIVE 0.107275
social A-MISCELLANEOUS 1
virus A-QUALITY 0.893128
; POSITIVE 0.0989227
; ; 0.861892
without NULL 5.26408e-005
time NEGATIVE 0.44635
time E-OPTICAL_DRIVES 4.62606e-007
without A-DESIGN_FEATURES 0.000264609
without POSITIVE 0.751595
those NEUTRAL 0.176796
without A-PORTABILITY 0.104309
a A-DESIGN_FEATURES 0.000525939
display A-DESIGN_FEATURES 0.214588
a A-MISCELLANEOUS 0.0065016
big A-DESIGN_FEATURES 0.524089
company E-COMPANY 0.615639
hard NULL 0.000543649
big A-PORTABILITY 0.0697455
could NEGATIVE 0.461867
ol' A-PORTABILITY 1
say NEGATIVE 0.527942
choose A-GENERAL 0.394424
or NULL 0.125683
clunky A-PORTABILITY 1
machine NULL 0.048993
these NEGATIVE 0.609853
machine E-OVERALL 0.270125
machine POSITIVE 0.328156
machine ; 0.202553
in A-DESIGN_FEATURES 0.0206721
in A-MISCELLANEOUS 4.15993e-006
my NULL 0.324912
my E-OVERALL 0.189068
my A-DESIGN_FEATURES 5.74381e-005
careful E-COMPANY 0.265416
my POSITIVE 0.226618
which NULL 0.19246
one-year A-OPERATION_PERFORMANCE 0.000221221
my ; 0.00147726
deal NEGATIVE 0.000195558
apple A-QUALITY 0.0976701
deal E-COMPANY 0.0879089
manufacturing A-QUALITY 1
backpack A-PORTABILITY 1
, A-DESIGN_FEATURES 0.0163805
, A-MISCELLANEOUS 2.21182e-005
feel E-OVERALL 0.37824
p-e-r-f-e-c-t A-USABILITY 0.651351
feel A-DESIGN_FEATURES 0.278219
house E-COMPANY 0.693672
p-e-r-f-e-c-t ; 0.205434
defect A-QUALITY 1
like NULL 0.114115
like E-OVERALL 0.404868
easy-to-function A-USABILITY 1
like A-DESIGN_FEATURES 0.20585
nasty E-COMPANY 1
like POSITIVE 0.00838704
coffee E-OVERALL 0.00254653
like ; 0.0869911
can NULL 0.0916602
can E-OVERALL 0.451204
can A-DESIGN_FEATURES 0.000178918
word E-COMPANY 0.19843
can POSITIVE 0.00285547
can ; 0.0381232
thermal A-QUALITY 1
can A-PORTABILITY 0.00487796
paste A-QUALITY 1
programming A-PORTABILITY 0.419498
purchase NEGATIVE 0.0400493
purchase E-COMPANY 0.00687027
complaint NULL 0.000327645
anywhere A-PORTABILITY 0.573581
sense A-USABILITY 0.381961
toshiba NEGATIVE 2.24033e-005
highly E-OVERALL 0.364829
toshiba E-COMPANY 0.202026
happen E-OS 1.05586e-005
actual A-MISCELLANEOUS 1
aspect A-DESIGN_FEATURES 1
recommend A-MISCELLANEOUS 0.0561022
this A-MISCELLANEOUS 2.09013e-007
computer A-MISCELLANEOUS 0.00152888
learn A-DESIGN_FEATURES 0.111453
for A-MISCELLANEOUS 0.123975
for A-QUALITY 0.0115921
student A-MISCELLANEOUS 0.579275
look NULL 0.00180775
netbook NEGATIVE 0.000226169
result A-GENERAL 0.568081
look E-OVERALL 0.381753
lemon A-QUALITY 1
look POSITIVE 0.00578247
netbook E-DISPLAY 0.0984272
look ; 0.0780194
look A-QUALITY 0.000421901
solid POSITIVE 0.731331
chat A-MISCELLANEOUS 0.723683
solid A-QUALITY 0.000509215
machine A-QUALITY 0.00110922
to A-MISCELLANEOUS 4.1816e-005
break E-OPTICAL_DRIVES 0.049028
design A-DESIGN_FEATURES 0.829429
get A-MISCELLANEOUS 8.86234e-005
get A-QUALITY 0.239447
they NULL 0.0181258
they E-OVERALL 0.0365334
they POSITIVE 0.0023315
they ; 0.106267
they A-QUALITY 0.0841459
through NULL 0.00446261
we NULL 0.000251424
through A-QUALITY 0.000504384
crap NEGATIVE 0.348463
college A-MISCELLANEOUS 0.53024
part E-WARRANTY 0.022038
a E-OS 0.00413011
great NULL 0.000190827
receipt NEGATIVE 0.000168391
great E-OS 2.52438e-005
great A-DESIGN_FEATURES 6.47195e-005
begin E-BATTERY 0.123752
great POSITIVE 0.885785
great ; 8.88831e-005
feature A-DESIGN_FEATURES 0.939856
phone A-QUALITY 0.453851
diminish E-BATTERY 1
feature POSITIVE 0.000507765
be E-OS 0.000259862
be A-DESIGN_FEATURES 0.00287215
the E-OS 0.0154894
from A-USABILITY 0.00193098
spotlight E-OS 1
company-wide E-BATTERY 1
from NULL 0.404668
recall E-SUPPORT 0.472668
search E-OS 0.64254
store A-MISCELLANEOUS 0.154086
recall E-BATTERY 0.527332
another NULL 0.0019532
: NULL 0.168979
: E-OS 0.000308459
: A-DESIGN_FEATURES 0.136875
particular E-BATTERY 0.21563
: POSITIVE 0.209866
nothing NULL 0.000104779
screen E-DISPLAY 0.704809
: ; 0.267544
one NULL 0.392591
torture A-USABILITY 0.590717
one A-DESIGN_FEATURES 0.0857595
photo A-MISCELLANEOUS 0.194669
one POSITIVE 0.00189106
some E-DISPLAY 0.0445226
one ; 0.00366248
manufacturer E-WARRANTY 0.411312
can E-OS 8.68063e-005
learn A-USABILITY 0.550928
for E-OS 3.577e-005
for A-DESIGN_FEATURES 0.000263577
document E-OS 0.0486683
document A-DESIGN_FEATURES 0.00242955
document ; 0.894962
by NULL 0.187847
by A-DESIGN_FEATURES 0.143276
by POSITIVE 0.0114997
customer NULL 0.000505127
by ; 0.445611
simply E-OS 0.122339
simply POSITIVE 0.164272
swear NEGATIVE 0.00766065
typing E-OS 0.302236
extend E-SUPPORT 0.272561
keyword E-OS 1
little NEUTRAL 0.082454
little A-QUALITY 0.0321155
whistle A-PRICE 1
product A-USABILITY 0.00284504
, E-OS 0.00202708
warm NEUTRAL 1
rather A-DESIGN_FEATURES 0.46194
test E-BATTERY 0.384692
than NULL 0.000133487
negligible NEUTRAL 1
than A-DESIGN_FEATURES 0.278015
than POSITIVE 3.81053e-005
parse E-OS 1
concern NEUTRAL 1
ever E-COMPANY 0.000309953
ten E-OS 0.225625
box A-QUALITY 0.0645684
after NULL 0.000922067
6 E-BATTERY 0.528535
life A-USABILITY 0.023313
shipping NEGATIVE 0.471209
of E-OS 5.21391e-007
file ; 0.653486
scan NEGATIVE 0.525293
folder ; 1
reboot A-OPERATION_PERFORMANCE 1
oh E-OVERALL 0.00644392
oh A-GENERAL 0.534035
attach E-PORTS 1
my A-GENERAL 0.163046
emit A-QUALITY 1
which A-PORTABILITY 2.8173e-006
assist E-SUPPORT 1
my NEGATIVE 0.0180136
up NEGATIVE 0.0704601
honestly POSITIVE 0.0142173
pray E-COMPANY 1
up E-SUPPORT 0.00888276
goodness-i A-GENERAL 1
part NULL 0.010108
cant E-COMPANY 0.139718
be NEGATIVE 0.063745
not NULL 0.10138
not E-OVERALL 0.144608
not A-GENERAL 0.0531823
not ; 0.00283542
certain POSITIVE 0.0227708
a A-GENERAL 0.00837361
a NEGATIVE 0.0133885
pleasantly POSITIVE 0.00308802
happy A-GENERAL 0.947102
depot E-SHIPPING 0.410788
force E-HARDWARE 0.073645
require NULL 0.116309
camper A-GENERAL 1
hardware E-HARDWARE 0.28412
warrenty E-SUPPORT 0.197031
. NEGATIVE 2.1627e-006
hp NULL 0.000560834
hp E-OVERALL 0.126158
15 NULL 0.000417951
very NULL 0.0391551
open E-SUPPORT 0.0663738
office A-GENERAL 4.62126e-005
very E-OVERALL 0.14827
very A-DESIGN_FEATURES 0.00154133
high E-DISPLAY 0.259199
very ; 0.000582541
heavy A-DESIGN_FEATURES 0.844917
let NULL 0.179097
premium A-PRICE 0.353168
easy A-PORTABILITY 0.0698785
to NEGATIVE 0.107479
something NEGATIVE 0.433237
carry A-PORTABILITY 0.89456
know NULL 7.89527e-005
the E-BATTERY 0.0173212
the NEGATIVE 0.0962429
battery NEGATIVE 0.0677229
have E-BATTERY 1.16194e-006
have A-QUALITY 0.131186
have NEGATIVE 0.0437048
have A-OPERATION_PERFORMANCE 0.000557127
never NULL 8.20537e-005
never E-BATTERY 0.0208576
never A-QUALITY 0.000392003
never ; 0.000109498
call NEGATIVE 0.0927468
never A-OPERATION_PERFORMANCE 0.106922
work NULL 0.0209852
work A-QUALITY 0.0547225
work ; 0.318797
leave NEGATIVE 0.939905
work A-OPERATION_PERFORMANCE 0.378628
well NULL 0.0163553
well A-QUALITY 0.018434
well ; 0.00345008
`` NEGATIVE 0.347737
well A-OPERATION_PERFORMANCE 0.164244
effective E-CPU 1
get E-BATTERY 0.00050676
get NEGATIVE 0.0400575
so NULL 0.0358892
so E-BATTERY 4.7925e-006
so A-QUALITY 0.0293918
then NULL 0.000595221
such E-DISPLAY 0.00037921
so ; 0.0387736
hot A-QUALITY 0.845428
than NEUTRAL 0.0489886
it E-BATTERY 4.37335e-005
huge ; 0.549332
it A-QUALITY 0.060138
it NEGATIVE 0.158454
be E-BATTERY 1.5519e-005
be A-QUALITY 0.00374889
scary E-BATTERY 0.982126
world A-MISCELLANEOUS 0.0610742
scary A-QUALITY 0.0072387
hsn E-OVERALL 0.000900619
too NULL 0.00353879
child A-MISCELLANEOUS 0.351516
yet A-QUALITY 0.539352
see NULL 0.00196945
product A-PRICE 0.076891
, E-SUPPORT 1.05482e-005
, NEGATIVE 0.00773368
tv ; 0.999494
for A-GENERAL 0.00591127
hp E-SUPPORT 0.308827
hp A-QUALITY 0.113157
will E-SUPPORT 0.000194783
will A-QUALITY 5.04204e-005
will NEGATIVE 0.508341
not E-SUPPORT 5.16183e-006
not A-QUALITY 0.000255338
temp A-MISCELLANEOUS 0.997359
anything A-QUALITY 0.370788
before NULL 0.0069835
about NULL 0.203751
about A-QUALITY 0.210114
about ; 0.00181009
the E-SUPPORT 0.00126486
problem NULL 0.0193182
problem A-QUALITY 0.226704
4 NULL 0.000171782
problem ; 0.427279
i E-SUPPORT 0.0309155
i NEGATIVE 0.169416
turn A-MISCELLANEOUS 0.0513137
return A-QUALITY 5.2163e-005
computer E-SUPPORT 1.64128e-006
computer NEGATIVE 0.0546991
to E-SUPPORT 0.0377801
and E-SUPPORT 0.00720528
and NEGATIVE 0.00395332
they E-SUPPORT 0.3002
upon E-SUPPORT 0.297467
they NEGATIVE 0.264804
keep NULL 0.000227021
keep ; 0.000672891
it E-SUPPORT 0.000727298
for E-SUPPORT 0.000770605
hotline E-SUPPORT 1
for NEGATIVE 0.00640531
3 NULL 0.00315638
3 A-QUALITY 0.62418
month NULL 0.0682792
month A-QUALITY 0.458671
month ; 0.000176763
when NULL 0.117242
when A-QUALITY 0.283167
no NULL 0.0424119
when ; 0.00110888
get E-SUPPORT 5.56986e-005
back NULL 0.000201773
write A-MISCELLANEOUS 0.657125
back A-QUALITY 0.373915
generous A-OPERATION_PERFORMANCE 1
papers A-MISCELLANEOUS 1
realizw A-QUALITY 0.0106965
snail A-OPERATION_PERFORMANCE 1
still NULL 0.00442949
check A-MISCELLANEOUS 0.323108
still A-QUALITY 0.316693
motorola E-OVERALL 0.00055672
crawl A-OPERATION_PERFORMANCE 1
still ; 0.253031
be E-SUPPORT 0.000530166
mail A-MISCELLANEOUS 0.317264
mail E-BATTERY 0.271575
play A-MISCELLANEOUS 0.582825
tell A-QUALITY 0.10767
tell ; 0.0022702
out E-SUPPORT 0.0296863
out A-QUALITY 0.132576
out NEGATIVE 0.271586
of E-SUPPORT 0.00492433
shipping E-SUPPORT 2.26562e-005
of NEGATIVE 0.0833069
warranty E-SUPPORT 0.560575
field A-MISCELLANEOUS 1
warranty A-QUALITY 0.000299721
be E-DISPLAY 0.00406917
now NULL 3.83635e-005
now E-SUPPORT 0.068507
now A-QUALITY 0.137181
be E-KEYBOARD 0.000343264
now ; 7.81732e-005
which E-HARD_DISC 0.0251893
my A-QUALITY 0.0545124
so E-OVERALL 0.116902
so A-GENERAL 0.281596
tag A-PRICE 1
, A-GENERAL 0.00443352
you NEGATIVE 0.110901
can A-GENERAL 0.0402059
can NEGATIVE 0.323208
imagine A-GENERAL 1
four E-BATTERY 0.223125
how A-GENERAL 0.28385
how NEGATIVE 0.368457
last NEGATIVE 0.193096
market A-GENERAL 0.784397
unhappy A-GENERAL 1
with E-OVERALL 0.0656058
crash ; 0.00168453
with A-GENERAL 0.131833
with NEGATIVE 0.00128673
english E-SUPPORT 1
this NEGATIVE 0.00394919
fun POSITIVE 0.999458
item A-GENERAL 0.671458
segment NEUTRAL 1
currently E-OVERALL 0.502257
currently A-QUALITY 0.0101051
if NULL 0.00318353
if E-OVERALL 0.691362
if A-QUALITY 0.0329223
try NULL 0.0826814
if ; 0.00591133
quickly E-SUPPORT 0.000289057
use NEGATIVE 8.22478e-005
fail ; 0.000378725
laptop A-QUALITY 0.005362
laptop NEGATIVE 0.00172756
job A-MISCELLANEOUS 0.335619
can A-QUALITY 0.000101934
need NEGATIVE 0.00190256
sit A-QUALITY 0.790019
of E-DISPLAY 1.33444e-005
on NULL 0.658461
on E-OVERALL 0.00160259
on A-QUALITY 0.00265006
on ; 0.0156803
myself A-GENERAL 0.341763
because NULL 0.00208587
because E-OVERALL 0.25725
own E-HARD_DISC 0.0768527
because ; 0.0004994
will E-OVERALL 0.123014
burn E-OVERALL 0.000194677
surf A-MISCELLANEOUS 0.44675
burn A-QUALITY 0.573995
six E-SOFTWARE 1
leg A-QUALITY 1
many NULL 0.116703
edit A-OPERATION_PERFORMANCE 1
piece E-PORTS 0.0982446
quite POSITIVE 0.413503
do A-GENERAL 7.48888e-005
care E-SUPPORT 0.220613
care A-QUALITY 0.228989
final A-OPERATION_PERFORMANCE 0.999875
certain E-COMPANY 0.133049
a E-SUPPORT 1.2207e-005
and E-DISPLAY 0.00310502
usb E-PORTS 0.147139
bunch E-SUPPORT 1
new NULL 0.0728059
but E-SUPPORT 5.48263e-005
but A-QUALITY 4.4934e-005
but NEGATIVE 0.396805
at NULL 0.184317
port E-PORTS 0.0996786
at E-SUPPORT 0.00430898
at A-QUALITY 0.0580659
at ; 0.079603
same NULL 0.0442227
wire E-PORTS 0.536302
same A-QUALITY 0.173107
same ; 0.634548
time NULL 0.280257
come E-PORTS 7.56038e-005
without A-GENERAL 0.000264121
time E-SUPPORT 0.0488048
time A-QUALITY 0.0847403
resolution E-DISPLAY 1
time ; 0.0756641
-lrb- E-SUPPORT 0.00116617
-lrb- NEGATIVE 0.00199236
company E-SUPPORT 0.384361
enough E-DISPLAY 0.110044
would E-SUPPORT 0.00397822
list E-SUPPORT 1
would NEGATIVE 0.258569
could NULL 0.233607
apparently E-PORTS 0.130389
could E-SUPPORT 0.0364542
could A-QUALITY 3.23627e-005
page E-DISPLAY 0.117178
could ; 0.00849119
say NULL 0.107909
say E-OVERALL 0.0298203
say A-GENERAL 0.224312
frustrated E-OVERALL 0.00213144
yahoo!mail E-DISPLAY 1
say ; 3.04826e-005
if A-GENERAL 0.110444
plastic E-PORTS 0.201449
want A-GENERAL 0.0487052
buy NEGATIVE 0.219467
some NEGATIVE 0.153726
one E-OVERALL 0.0952216
one A-GENERAL 0.337679
these NULL 0.000144538
these A-GENERAL 0.322836
securely E-PORTS 1
machine A-GENERAL 0.136421
people A-MISCELLANEOUS 0.0698413
sub-par E-OVERALL 1
people NEGATIVE 0.262305
people E-SUPPORT 2.81668e-005
careful A-GENERAL 0.734584
and E-COMPANY 4.53462e-007
, E-COMPANY 3.73404e-005
internal NEUTRAL 1
you E-COMPANY 0.0325815
even A-QUALITY 4.89053e-005
be E-COMPANY 1.28305e-005
country E-SUPPORT 1
go NEGATIVE 0.459469
to E-COMPANY 2.35876e-005
deal A-GENERAL 0.241631
apple NULL 0.0395083
requirement A-MISCELLANEOUS 0.358998
people A-QUALITY 0.418911
crash NEUTRAL 0.0834604
with E-COMPANY 9.20129e-006
hp A-GENERAL 0.161159
in E-COMPANY 0.000292667
in A-GENERAL 0.0554861
research E-SUPPORT 0.323242
in NEGATIVE 0.041898
a E-COMPANY 0.00507693
simple E-SUPPORT 0.0578883
acer NULL 0.00021861
i E-DISPLAY 7.71169e-006
since NULL 0.000161633
beginning E-SOFTWARE 0.984742
i A-CONNECTIVITY 2.76002e-007
since E-OVERALL 0.507371
i E-MOUSE 0.00581756
since A-GENERAL 9.21232e-005
i E-SOFTWARE 0.000613757
since POSITIVE 0.169333
i E-KEYBOARD 0.00697165
since ; 0.000823915
purchase NULL 0.00790341
version E-SOFTWARE 1
purchase E-OVERALL 0.140101
purchase A-GENERAL 0.270419
two A-QUALITY 0.453832
purchase POSITIVE 0.104313
purchase ; 0.423021
toshiba NULL 0.0598088
toshiba E-OVERALL 0.0259157
gaming POSITIVE 0.545473
toshiba A-GENERAL 0.376367
week A-QUALITY 0.506779
toshiba POSITIVE 0.044192
toshiba ; 0.000328961
the E-DISPLAY 0.042135
netbook NULL 0.000135565
netbook E-OVERALL 0.563657
the E-MOUSE 0.0204758
netbook A-GENERAL 0.0524888
while A-QUALITY 0.264974
the E-SOFTWARE 0.0175319
netbook POSITIVE 0.00176369
the E-KEYBOARD 0.0272249
rare A-OPERATION_PERFORMANCE 1
netbook ; 0.142193
have A-GENERAL 0.0501491
office POSITIVE 0.371626
very A-GENERAL 0.0328712
very POSITIVE 0.664135
pleased A-GENERAL 0.00273718
pleased POSITIVE 0.997263
nephew A-GENERAL 0.70155
spend A-PRICE 0.462481
laptob A-GENERAL 0.968304
laptob POSITIVE 0.0316958
as E-DISPLAY 0.000271187
desktop E-OVERALL 0.000260574
alot A-PRICE 0.154911
desktop POSITIVE 0.821466
top NULL 0.00163227
netbook A-PORTABILITY 0.0350641
be A-PORTABILITY 6.01736e-007
to A-CONNECTIVITY 0.00903573
easier A-PORTABILITY 0.113985
1080p A-MISCELLANEOUS 1
fantasic E-KEYBOARD 1
to E-SOFTWARE 9.01778e-005
- NULL 0.0103108
take NULL 0.0146563
take E-OVERALL 0.552959
take A-PORTABILITY 0.0639306
take POSITIVE 8.83233e-006
dreamweaver A-OPERATION_PERFORMANCE 1
longer E-BATTERY 0.397647
take ; 0.00614185
easy A-CONNECTIVITY 0.011046
bed A-PORTABILITY 1
photoshop A-OPERATION_PERFORMANCE 0.999474
downfall E-BATTERY 0.335109
it E-DISPLAY 3.40269e-008
it A-CONNECTIVITY 8.25078e-008
around A-PORTABILITY 0.183506
it E-SOFTWARE 0.00125712
safari A-OPERATION_PERFORMANCE 0.681645
1.5-2 E-BATTERY 1
around ; 5.86885e-005
with A-PORTABILITY 5.34262e-008
the NEUTRAL 0.000427957
get E-DISPLAY 7.94857e-005
screen NULL 2.09903e-005
screen NEUTRAL 0.0186436
msn A-OPERATION_PERFORMANCE 1
.0 E-BATTERY 1
screen A-DESIGN_FEATURES 2.90043e-005
take A-USABILITY 0.0683176
longer A-USABILITY 0.256027
after E-HARDWARE 0.00616915
some NULL 0.000505415
some A-USABILITY 0.150993
messenger A-OPERATION_PERFORMANCE 1
hr E-BATTERY 0.701578
some ; 0.000690198
some A-DESIGN_FEATURES 0.316514
both A-CONNECTIVITY 0.036759
get NEUTRAL 0.0214253
both A-USABILITY 0.0617386
quickly A-USABILITY 0.167777
to NEUTRAL 0.000107672
lack NEUTRAL 0.326137
to A-DESIGN_FEATURES 0.000223271
desinge E-OVERALL 0.000592326
windows NULL 0.000486882
, E-DISPLAY 0.00790532
, NEUTRAL 0.000529483
because A-USABILITY 0.00087548
because A-DESIGN_FEATURES 0.26547
it NEUTRAL 0.0057311
everywhere A-PORTABILITY 1
it A-DESIGN_FEATURES 1.00084e-005
ton A-PORTABILITY 0.465164
be NEUTRAL 0.0134931
smaller NEUTRAL 1
freezing A-OPERATION_PERFORMANCE 0.999978
year NULL 0.0821586
laptop NEUTRAL 1.04437e-005
laptop A-DESIGN_FEATURES 6.43246e-006
charger E-POWER_SUPPLY 0.561148
not POSITIVE 5.13364e-006
problem E-OVERALL 0.0158501
problem A-GENERAL 0.107568
problem POSITIVE 2.54452e-005
only E-DISPLAY 0.000211233
anybody E-OVERALL 1
notebook NULL 2.92784e-005
notebook E-OVERALL 0.295565
notebook A-GENERAL 0.233238
notebook POSITIVE 0.377239
lead E-DISPLAY 0.226067
least E-BATTERY 0.101926
notebook ; 3.92017e-005
pc NULL 0.00277869
pc E-OVERALL 0.403978
pc A-GENERAL 0.000984248
pc POSITIVE 0.25652
backlit E-DISPLAY 0.370034
relax A-OPERATION_PERFORMANCE 1
transition E-BATTERY 1
pc ; 0.00111916
a E-DISPLAY 5.72306e-007
qosmio A-GENERAL 1
display E-DISPLAY 0.586545
enraged A-OPERATION_PERFORMANCE 1
picture A-MISCELLANEOUS 0.230284
best NULL 0.000196688
headache A-GENERAL 0.018937
best E-OVERALL 0.217955
best A-GENERAL 0.295904
best POSITIVE 0.310063
little NULL 0.00825305
picture E-DISPLAY 0.423265
cursing A-OPERATION_PERFORMANCE 1
best ; 0.175789
gift A-GENERAL 1
but E-SOFTWARE 6.53519e-007
pop E-DISPLAY 0.369152
god A-OPERATION_PERFORMANCE 1
father A-GENERAL 1
much E-DISPLAY 0.000197469
door A-OPERATION_PERFORMANCE 1
could E-OVERALL 0.0082992
could A-GENERAL 0.099485
apparently A-QUALITY 0.647633
could POSITIVE 0.00726533
tv A-CONNECTIVITY 0.000490761
for E-DISPLAY 0.000443306
ever NULL 1.13903e-005
ever E-OVERALL 0.151369
pricey A-PRICE 1
tv E-KEYBOARD 1.55226e-005
ever A-GENERAL 0.76916
ever POSITIVE 0.0597811
ever ; 0.000307222
exception POSITIVE 0.0251292
waste A-GENERAL 0.997139
he E-OVERALL 0.561918
box NULL 0.000163335
give NULL 0.000137604
0 A-GENERAL 1
give E-OVERALL 0.462835
give A-QUALITY 0.191885
about E-OVERALL 0.182464
about POSITIVE 0.211438
3 E-OVERALL 0.172516
might A-QUALITY 0.566798
imo A-GENERAL 1
year E-OVERALL 8.82107e-005
year A-QUALITY 0.69727
year POSITIVE 0.0175209
year ; 2.79324e-005
ago NULL 0.000562154
dont A-GENERAL 0.65234
ago POSITIVE 0.246019
ago ; 0.000364343
up NULL 0.0879346
up E-OVERALL 4.69237e-005
up A-QUALITY 0.175342
up POSITIVE 0.00158076
up ; 0.0661595
shiny E-OVERALL 0.509772
shiny POSITIVE 0.000500176
point A-QUALITY 0.794814
just E-SOFTWARE 0.0154788
decision A-GENERAL 0.574962
im E-OVERALL 0.153872
im A-QUALITY 2.03043e-005
im POSITIVE 0.845749
check A-GENERAL 2.74027e-005
still E-OVERALL 0.0456555
squad A-QUALITY 1
still POSITIVE 0.262573
completely A-GENERAL 0.344978
here A-QUALITY 0.475421
hardware A-QUALITY 5.13922e-005
here ; 0.000182149
three ; 0.000460607
month E-POWER_SUPPLY 0.0342075
its A-QUALITY 8.07634e-005
work E-POWER_SUPPLY 0.0143535
go A-QUALITY 0.0287484
would A-CONNECTIVITY 1.01874e-005
condition A-QUALITY 1
tip A-QUALITY 1
port ; 0.387392
level E-BATTERY 1
build E-HARD_DISC 0.0773375
high E-OVERALL 0.213574
high A-QUALITY 0.182759
high POSITIVE 6.78592e-005
lightweight A-DESIGN_FEATURES 0.220751
quality E-OVERALL 0.0391781
quality A-QUALITY 0.380845
quality POSITIVE 0.286931
quality ; 0.00020574
something NULL 0.0291931
any A-CONNECTIVITY 0.0350003
something E-OVERALL 0.00588616
pay A-PRICE 0.289244
something A-GENERAL 0.0582859
something ; 0.000366189
deffinately A-GENERAL 1
call NULL 3.22157e-005
reccomend A-GENERAL 1
memory NEUTRAL 1.35238e-005
there E-DISPLAY 0.0260009
software NEGATIVE 1.90887e-005
someone E-OVERALL 0.230472
someone A-GENERAL 0.564959
someone POSITIVE 0.000231394
will A-GENERAL 0.192862
experiece NEGATIVE 0.999646
editing A-MISCELLANEOUS 0.705448
such NULL 0.0669933
music POSITIVE 0.686145
such A-GENERAL 0.00188616
such POSITIVE 0.902286
such ; 3.26737e-005
great E-OVERALL 0.0217548
great A-GENERAL 0.0318327
video A-MISCELLANEOUS 0.446324
thing NULL 0.0588123
fall A-GENERAL 0.392594
thing E-OVERALL 0.363691
fall POSITIVE 0.00136266
three A-QUALITY 0.522083
thing POSITIVE 0.00241325
'' NULL 0.0885312
thing ; 0.00258003
like A-GENERAL 6.77572e-006
believer A-GENERAL 1
! A-GENERAL 9.63216e-005
! POSITIVE 7.78277e-005
! ; 0.999824
staple NEGATIVE 0.713075
better NULL 0.00015546
netboook A-GENERAL 1
better E-OVERALL 0.0430475
better A-GENERAL 0.254461
mostly A-MISCELLANEOUS 1
baby A-QUALITY 0.227791
better POSITIVE 0.000358995
better ; 0.368095
tool A-MISCELLANEOUS 0.374748
wait E-OVERALL 0.309141
wait A-GENERAL 0.27323
confident A-MISCELLANEOUS 1
electronics A-QUALITY 0.599451
2 NULL 0.00120292
wait ; 0.000579849
winner A-PRICE 1
of E-MOUSE 0.000222098
on A-GENERAL 0.000135037
on POSITIVE 0.000865708
but A-GENERAL 0.000530537
regular A-MISCELLANEOUS 0.000237101
change A-GENERAL 0.222051
next ; 0.4176
change POSITIVE 0.681465
old NULL 0.000145681
next E-BATTERY 0.0784164
change ; 0.000395056
just A-USABILITY 0.0446489
one A-USABILITY 4.034e-005
benefit POSITIVE 1
love NULL 5.03477e-006
what NEGATIVE 0.106273
love E-OVERALL 0.0562801
love POSITIVE 0.685694
love ; 2.19852e-005
about A-USABILITY 0.0137712
which A-OPERATION_PERFORMANCE 0.0518245
my A-USABILITY 0.000209821
mac NULL 7.43639e-005
mac E-OVERALL 0.146846
mac A-USABILITY 0.0463619
mac POSITIVE 0.637057
mac ; 0.000586885
this E-OS 0.00290103
laptop E-OS 4.54869e-005
meet E-OVERALL 0.00024952
amaze POSITIVE 0.735834
meet POSITIVE 0.966938
in E-DISPLAY 6.65567e-005
every NULL 0.0102925
every E-OVERALL 0.302946
every A-GENERAL 0.285741
every POSITIVE 0.0826625
every ; 0.0464918
every E-OS 0.00286159
she POSITIVE 0.444143
expectation E-OS 0.280558
and E-OS 8.78566e-006
product NEGATIVE 0.000199345
, E-MOUSE 5.42378e-005
product E-COMPANY 0.104248
, E-KEYBOARD 0.000112704
windows E-OS 0.37239
7 NULL 0.0124066
7 E-OVERALL 3.63636e-005
7 POSITIVE 0.224705
focus E-BATTERY 1
7 E-OS 0.277413
even NEGATIVE 0.412337
be A-CONNECTIVITY 8.78537e-006
product E-OVERALL 0.0418662
, A-OPERATION_PERFORMANCE 0.0513855
wish NEGATIVE 0.146245
activity E-BATTERY 1
set A-USABILITY 0.574123
complain A-GENERAL 0.000432424
up A-OPERATION_PERFORMANCE 0.371537
willing A-PRICE 1
up A-USABILITY 0.156374
reurn E-SUPPORT 1
part E-OVERALL 0.139566
up A-CONNECTIVITY 0.0256717
unit A-GENERAL 0.403487
hook A-CONNECTIVITY 0.595019
which E-OVERALL 0.000331885
my A-OPERATION_PERFORMANCE 2.62655e-005
wireless A-CONNECTIVITY 0.793304
operation A-OPERATION_PERFORMANCE 0.636739
network A-USABILITY 0.219155
network A-CONNECTIVITY 0.780845
average A-GENERAL 0.70154
even A-CONNECTIVITY 0.026504
be E-GRAPHICS 0.00235724
even POSITIVE 0.0618913
even ; 0.000374777
other E-OVERALL 0.482971
other A-CONNECTIVITY 0.0148644
other POSITIVE 0.28411
other ; 0.000586432
do E-BATTERY 1.7794e-005
easly A-GENERAL 1
all E-OVERALL 0.162638
do A-OPERATION_PERFORMANCE 1.96161e-005
do NEUTRAL 0.030386
not E-BATTERY 0.0023207
not A-OPERATION_PERFORMANCE 0.000114537
not NEUTRAL 0.0518041
last E-BATTERY 0.402541
long E-BATTERY 0.262461
long A-OPERATION_PERFORMANCE 7.43817e-006
long ; 0.139731
ghz E-CPU 0.246028
require NEGATIVE 0.192463
but NEUTRAL 0.186751
i E-BATTERY 1.06545e-005
i NEUTRAL 0.00741375
sure NEUTRAL 0.547616
semprom E-CPU 1
a E-BATTERY 0.0014004
part NEGATIVE 0.321643
a A-OPERATION_PERFORMANCE 0.000169741
a NEUTRAL 0.0365603
nothing NEGATIVE 0.765797
upgrade NEUTRAL 0.190652
would NEUTRAL 0.0140679
osx E-CPU 0.459992
solve NEUTRAL 0.653453
that E-BATTERY 1.26901e-006
that A-OPERATION_PERFORMANCE 0.000163637
that NEUTRAL 0.057212
problem A-OPERATION_PERFORMANCE 1.46663e-005
use E-BATTERY 0.00894191
in A-OPERATION_PERFORMANCE 5.75781e-005
away NEGATIVE 0.509226
forever POSITIVE 0.0109631
need E-BATTERY 0.0323806
need POSITIVE 0.439964
need ; 0.00316991
long POSITIVE 0.401474
life POSITIVE 0.0664348
then E-OVERALL 2.18499e-005
so A-OPERATION_PERFORMANCE 5.96349e-005
so POSITIVE 0.189907
hard NEUTRAL 0.109446
perfect POSITIVE 0.853726
most A-GENERAL 0.000723803
most POSITIVE 0.682306
probably E-BATTERY 0.0569116
most A-DESIGN_FEATURES 0.259485
used E-OS 1
= A-OPERATION_PERFORMANCE 1
everything ; 0.000109809
everything A-OPERATION_PERFORMANCE 7.08755e-005
long-life E-BATTERY 1
unexpected A-DESIGN_FEATURES 1
or E-POWER_SUPPLY 0.0197221
10-11 E-BATTERY 0.325417
thigh E-COMPANY 1
with A-OPERATION_PERFORMANCE 0.000261999
with A-QUALITY 0.0005522
machine A-OPERATION_PERFORMANCE 3.19373e-006
screen NEGATIVE 0.0308397
particular POSITIVE 0.78437
: E-OVERALL 0.000144901
: A-GENERAL 0.0926163
nothing E-OVERALL 0.00025557
: A-OPERATION_PERFORMANCE 0.00326766
: A-QUALITY 0.00304376
death A-OPERATION_PERFORMANCE 1
toy POSITIVE 0.00221272
speed A-OPERATION_PERFORMANCE 0.953354
depend E-BATTERY 0.540153
compact A-DESIGN_FEATURES 0.710817
product ; 0.00203856
, E-HARD_DISC 3.05074e-006
and A-MISCELLANEOUS 0.00180926
build ; 0.00297318
build A-DESIGN_FEATURES 0.299906
build A-QUALITY 0.385191
only A-QUALITY 0.0297211
only NEGATIVE 0.664863
thing NEGATIVE 0.435438
understand NEGATIVE 0.775011
why E-BATTERY 0.00075911
that NEGATIVE 0.230297
include A-MISCELLANEOUS 0.156311
those A-GENERAL 0.287044
time E-OVERALL 0.00693087
truely E-COMPANY 1
come NULL 0.0908439
screen A-QUALITY 0.0440383
strong A-MISCELLANEOUS 0.191436
off NULL 0.000966384
some A-QUALITY 0.0123178
music A-MISCELLANEOUS 0.107461
as NEGATIVE 0.000650781
from E-SOFTWARE 0.010987
i A-PRICE 1.47372e-006
for A-PRICE 0.0852406
also E-OVERALL 0.120992
look E-SOFTWARE 0.0140731
also POSITIVE 0.659313
be A-PRICE 1.74151e-006
as A-MISCELLANEOUS 0.000385803
they A-CONNECTIVITY 1.6422e-006
first E-OVERALL 0.239245
useful ; 0.000955335
laptop A-MISCELLANEOUS 6.14014e-006
we NEGATIVE 0.0528948
device E-OVERALL 0.247147
plain A-OPERATION_PERFORMANCE 1
into NEGATIVE 0.120785
-lrb- A-OPERATION_PERFORMANCE 0.0789941
simple POSITIVE 0.71077
shame E-COMPANY 1
extra E-OVERALL 0.100712
-rrb- A-OPERATION_PERFORMANCE 0.0213532
into E-OVERALL 0.277947
load A-OPERATION_PERFORMANCE 0.283975
away E-COMPANY 0.120969
load POSITIVE 7.75352e-005
from E-COMPANY 0.0535966
unparalleled ; 0.0188874
printer A-CONNECTIVITY 0.413982
will A-OPERATION_PERFORMANCE 7.20221e-006
another NEGATIVE 0.107441
headset A-CONNECTIVITY 1
already A-DESIGN_FEATURES 0.000603883
already A-QUALITY 0.171003
resturant A-PORTABILITY 1
hook A-DESIGN_FEATURES 0.404981
on A-DESIGN_FEATURES 0.000205439
sleek A-DESIGN_FEATURES 1
look A-DESIGN_FEATURES 0.325884
the A-MISCELLANEOUS 8.25676e-005
dependability A-DESIGN_FEATURES 1
the E-GRAPHICS 0.00602911
dell E-COMPANY 0.328727
that A-DESIGN_FEATURES 0.119987
accomplish A-USABILITY 1
have A-DESIGN_FEATURES 1.88743e-005
show A-QUALITY 0.521947
pc E-OS 0.129652
pc A-USABILITY 0.10903
pc NEUTRAL 0.0435776
user E-OS 0.145912
user A-USABILITY 0.0308514
user NEUTRAL 0.0591304
my NEUTRAL 4.32997e-007
as NEUTRAL 3.37847e-006
nor E-SUPPORT 0.672825
whole E-OS 0.208575
transport A-PORTABILITY 1
of NEUTRAL 0.00036503
life E-OS 0.0163414
on E-BATTERY 8.33645e-006
it E-OS 5.9229e-006
take E-OS 0.0570779
to E-OS 6.23392e-005
eight A-PRICE 1
bit A-USABILITY 0.0666217
bit NEUTRAL 0.306175
to E-HARD_DISC 2.12498e-007
money NULL 1.44666e-005
literally A-USABILITY 1
time A-USABILITY 0.0210255
time NEUTRAL 0.000104951
adapt E-OS 1
giant A-PRICE 1
camera A-CONNECTIVITY 0.155177
compatible NEGATIVE 0.000117356
os E-OS 0.656023
paper A-PRICE 1
each E-SUPPORT 0.646511
mac E-OS 0.0412677
pretty A-OPERATION_PERFORMANCE 0.0012222
but E-OS 0.0245537
i E-OS 3.61293e-005
find NEUTRAL 0.12897
force A-OPERATION_PERFORMANCE 0.539986
way E-OS 0.0154013
way A-USABILITY 0.0210238
way NEUTRAL 0.0214662
belly A-USABILITY 1
around NEUTRAL 0.155344
burner E-OPTICAL_DRIVES 0.313744
downside A-USABILITY 0.513614
unibody A-DESIGN_FEATURES 1
it E-HARD_DISC 3.59432e-007
satisfy E-BATTERY 0.1852
design A-QUALITY 0.0521366
after E-OPTICAL_DRIVES 0.0059381
edgy A-DESIGN_FEATURES 1
after E-DISPLAY 0.0238349
after E-POWER_SUPPLY 0.03036
during E-OPTICAL_DRIVES 0.124884
have A-MISCELLANEOUS 1.11966e-007
durable POSITIVE 0.846941
have E-HARD_DISC 0.000392353
have E-COMPANY 0.000129745
exist A-USABILITY 0.627081
lead A-DESIGN_FEATURES 0.773933
only E-GRAPHICS 0.00910222
anyone NULL 6.20341e-005
32 A-USABILITY 1
backlit A-DESIGN_FEATURES 0.000188785
display ; 0.000220704
make A-DESIGN_FEATURES 0.000188053
not E-SOFTWARE 1.41028e-005
picture POSITIVE 0.280834
save NULL 5.88403e-005
so A-DESIGN_FEATURES 9.69842e-005
convienent E-BATTERY 1
much A-DESIGN_FEATURES 0.105503
much POSITIVE 0.379627
much ; 0.000867589
replace E-BATTERY 0.065734
more A-DESIGN_FEATURES 0.144818
even E-SUPPORT 0.113086
cant E-KEYBOARD 0.167175
be E-MOUSE 0.000106606
learn POSITIVE 0.196318
box A-GENERAL 0.00111543
finger E-MOUSE 1
175 A-PRICE 0.998981
option E-MOUSE 0.28962
option A-DESIGN_FEATURES 0.71038
ridiculous A-PRICE 0.998118
for A-USABILITY 9.30066e-006
mousepad E-MOUSE 1
that E-MOUSE 3.01618e-005
allow E-MOUSE 8.89547e-006
lock A-OPERATION_PERFORMANCE 0.786335
stop E-BATTERY 2.82187e-005
allow A-DESIGN_FEATURES 0.317676
good E-GRAPHICS 0.00711614
allow POSITIVE 0.000372597
weakness E-GRAPHICS 1
stop A-OPERATION_PERFORMANCE 0.795243
allow A-USABILITY 0.000223275
quicker E-MOUSE 1
disappointment A-OPERATION_PERFORMANCE 0.470137
frustrating E-BATTERY 0.564831
videocard E-GRAPHICS 1
browsing E-MOUSE 0.183781
just E-HARD_DISC 0.00905964
aside E-SOFTWARE 1
web E-MOUSE 0.0550722
web A-DESIGN_FEATURES 0.135238
page E-MOUSE 0.0818353
key A-DESIGN_FEATURES 0.255056
contributor A-DESIGN_FEATURES 1
webcam ; 0.000138364
send NEGATIVE 0.000102567
5-6 E-BATTERY 1
art A-DESIGN_FEATURES 0.471675
see E-DISPLAY 0.0312166
before NEGATIVE 0.779254
ive A-QUALITY 0.661217
plan E-POWER_SUPPLY 7.11615e-005
any E-PORTS 0.0148386
numeric E-KEYBOARD 1
develop E-SOFTWARE 0.616743
excellent E-SOFTWARE 0.0752163
problem E-SOFTWARE 0.00775278
excellent POSITIVE 0.565461
bad NULL 3.54968e-005
excellent ; 0.000116762
proprietary E-SOFTWARE 1
software E-SOFTWARE 0.400718
software POSITIVE 0.000171272
editing E-SOFTWARE 0.294552
start NULL 0.000275479
thing E-GRAPHICS 0.0262475
video E-SOFTWARE 6.79414e-005
three NULL 0.000464523
its E-HARD_DISC 0.00810452
and E-SOFTWARE 0.0054259
little POSITIVE 1.59845e-005
picture E-SOFTWARE 0.00352034
be E-SOFTWARE 0.00169339
cant NEGATIVE 0.357582
be A-MISCELLANEOUS 2.17595e-005
forward E-SOFTWARE 0.359091
utilize E-SOFTWARE 1
these E-SOFTWARE 0.0671005
tool E-SOFTWARE 0.625252
guarantee E-COMPANY 1
occasionaly A-OPERATION_PERFORMANCE 1
command ; 0.962006
few POSITIVE 0.000883401
on E-SOFTWARE 0.00704546
regular E-SOFTWARE 0.999763
fact NULL 0.000257191
bummer A-GENERAL 0.000164265
+ E-SUPPORT 0.00177732
excite POSITIVE 1
bummer E-CPU 0.147661
replace E-OVERALL 2.42506e-005
more A-OPERATION_PERFORMANCE 0.0174259
about A-GENERAL 0.0061312
old NEGATIVE 0.259753
!! A-GENERAL 0.994616
what E-OVERALL 0.505581
what ; 0.00405001
powerful E-OVERALL 0.334029
powerful POSITIVE 0.528166
late NEGATIVE 0.00337312
offer POSITIVE 0.448716
!!!! E-COMPANY 0.294007
encourage POSITIVE 0.0564079
in E-HARD_DISC 4.06776e-005
other A-GENERAL 1.37328e-005
other A-OPERATION_PERFORMANCE 0.000316928
same A-GENERAL 0.000104317
same POSITIVE 1.18254e-005
more A-PRICE 0.0559737
more NEGATIVE 0.0500367
suggest A-GENERAL 0.82328
expensive A-PRICE 0.366771
far E-COMPANY 2.64399e-006
constant A-QUALITY 1
but A-PRICE 0.000551742
well E-OVERALL 7.46697e-005
well A-PRICE 0.122782
well POSITIVE 0.623181
worth A-PRICE 0.322959
yourself E-COMPANY 0.438439
in A-PRICE 3.30223e-006
the A-PRICE 0.0144037
scheduling A-MISCELLANEOUS 1
front E-SUPPORT 0.113631
run NEGATIVE 1.90641e-005
great E-GRAPHICS 0.0101717
product A-GENERAL 0.408194
, E-GRAPHICS 0.000125126
product POSITIVE 0.322774
, A-PRICE 3.2582e-006
live A-CONNECTIVITY 0.13985
very A-USABILITY 0.000425065
very E-GRAPHICS 4.6231e-005
rather E-SUPPORT 0.0657097
use A-GENERAL 4.80923e-005
come E-OVERALL 0.0034885
drawback E-KEYBOARD 0.333835
wish E-KEYBOARD 0.0714292
system ; 0.0564483
key E-KEYBOARD 0.563804
watt A-OPERATION_PERFORMANCE 1
pro ; 0.000133049
backlit E-KEYBOARD 0.629778
glad E-OVERALL 1
buy NEUTRAL 0.00018741
this A-PRICE 6.61827e-006
this NEUTRAL 1.3673e-005
laptop A-PRICE 0.00465981
fix NEGATIVE 0.345103
few E-OVERALL 0.022487
fix E-SUPPORT 0.00270664
few A-GENERAL 0.00170028
few ; 0.000645852
-lrb- A-GENERAL 4.16472e-005
havent E-KEYBOARD 1
into E-SOFTWARE 0.000505201
-lrb- A-PRICE 0.0425017
-lrb- NEUTRAL 0.056987
fight E-COMPANY 1
hassle NEGATIVE 1
satellite A-GENERAL 0.866591
$ A-GENERAL 0.0951047
because A-CONNECTIVITY 0.044613
marketshare E-COMPANY 1
own NEGATIVE 0.442705
100 A-GENERAL 0.422784
decrease E-BATTERY 1
except E-PORTS 0.167297
-rrb- A-GENERAL 2.59979e-005
-rrb- A-PRICE 0.0334367
-rrb- NEUTRAL 0.0350274
extra A-GENERAL 0.12348
thrill E-BATTERY 1
extra NEUTRAL 0.0920831
take NEGATIVE 0.0568547
all POSITIVE 0.237693
all ; 0.206732
answering E-COMPANY 0.999515
new NEGATIVE 0.238317
click A-USABILITY 1.07623e-005
replace ; 0.185751
alot NEGATIVE 0.575755
not A-DESIGN_FEATURES 5.30382e-006
as A-DESIGN_FEATURES 0.000310865
concerned A-PORTABILITY 1
about NEUTRAL 0.0115406
constantly A-USABILITY 0.173121
office A-CONNECTIVITY 0.0776863
very NEUTRAL 3.73068e-005
very A-PORTABILITY 4.05987e-006
burn E-OPTICAL_DRIVES 0.0899968
-rrb- A-DESIGN_FEATURES 7.41731e-005
but A-DESIGN_FEATURES 0.0307917
personally A-GENERAL 1
hard E-OVERALL 0.0957349
hard A-PORTABILITY 0.0214631
30 A-OPERATION_PERFORMANCE 0.518524
or E-OVERALL 6.2546e-005
or NEUTRAL 0.0615928
or ; 0.00122117
occurance A-QUALITY 0.000454685
or A-PORTABILITY 0.0238219
on NEUTRAL 0.00041017
on A-PORTABILITY 0.0094921
which ; 0.000411615
loyal E-COMPANY 1
which POSITIVE 0.000779868
vivid E-DISPLAY 0.549797
apple E-COMPANY 0.16096
drive NEGATIVE 2.31767e-005
surprise E-OVERALL 0.303626
surprise POSITIVE 0.518251
force E-POWER_SUPPLY 5.63921e-005
buy E-HARDWARE 0.00367512
love A-DESIGN_FEATURES 1.55091e-005
what E-SUPPORT 0.0761419
love A-GENERAL 0.257981
-------- A-GENERAL 1
like A-OPERATION_PERFORMANCE 0.0483319
setting E-BATTERY 1
nice A-QUALITY 0.0335369
size E-KEYBOARD 0.033941
acer E-SUPPORT 0.194613
size A-GENERAL 0.0557736
come ; 0.0198862
keyboard E-KEYBOARD 0.999873
can A-USABILITY 0.0456643
figure E-SUPPORT 0.290034
off ; 0.000690034
function E-KEYBOARD 0.248714
function A-OPERATION_PERFORMANCE 0.751284
complaint E-OVERALL 0.403056
complaint POSITIVE 6.49685e-005
complaint ; 0.559487
expect E-BATTERY 0.0400343
middle A-MISCELLANEOUS 0.538782
to A-PRICE 3.259e-007
quickly A-QUALITY 0.225038
good A-QUALITY 0.0112647
good A-PRICE 0.0283354
quality A-PRICE 0.155549
replacement/repair E-WARRANTY 1
price A-PRICE 1
due A-GENERAL 0.00163723
trifecta A-GENERAL 0.000280541
trifecta POSITIVE 0.99972
salesman E-SOFTWARE 1
they E-PORTS 0.00773022
keys E-KEYBOARD 1
talk E-SOFTWARE 0.370375
periodically E-KEYBOARD 1
top E-SUPPORT 0.0474839
we A-GENERAL 0.25775
we ; 4.67744e-005
we E-OVERALL 0.216435
into A-GENERAL 0.237521
play ; 0.000154621
this E-SOFTWARE 1.94219e-005
computer E-SOFTWARE 2.31624e-005
45 E-KEYBOARD 1
phone E-SUPPORT 0.478069
away A-GENERAL 0.210321
assistance E-SUPPORT 1
from A-GENERAL 0.000175631
from ; 0.000805512
from E-OVERALL 0.459623
another A-GENERAL 0.446557
another ; 4.91968e-005
another E-OVERALL 0.0857284
look A-GENERAL 0.000498703
result E-SUPPORT 0.431919
look NEGATIVE 0.062819
at A-GENERAL 3.76653e-006
at E-OVERALL 0.156289
nothing A-GENERAL 0.181094
ms A-MISCELLANEOUS 0.603888
with E-SOFTWARE 0.0356576
transfer E-SUPPORT 0.409185
just NEGATIVE 0.0181648
this E-SUPPORT 2.3293e-006
useful A-MISCELLANEOUS 0.505688
first A-QUALITY 0.112052
first NEUTRAL 0.026413
dell E-SUPPORT 0.1361
they NEUTRAL 0.0327751
customer E-SUPPORT 0.582197
customer ; 0.00667578
service E-SUPPORT 0.710076
and NEUTRAL 9.45261e-007
that E-SUPPORT 4.52506e-005
go E-BATTERY 0.000767048
work NEUTRAL 0.0229746
on E-SUPPORT 0.000392914
improve NEUTRAL 1
the E-OPTICAL_DRIVES 3.39383e-009
dvd E-OPTICAL_DRIVES 0.578334
after ; 1.55905e-005
3 E-OPTICAL_DRIVES 0.016468
would E-OPTICAL_DRIVES 0.00266842
that E-OPTICAL_DRIVES 1.70239e-007
send E-SUPPORT 0.533855
replacement E-SUPPORT 0.415898
part E-SUPPORT 0.065792
part ; 0.366615
inform E-SUPPORT 1
not A-CONNECTIVITY 7.95714e-007
versitility E-BATTERY 0.998879
require ; 0.00136881
much A-GENERAL 0.229728
much E-OVERALL 0.0360073
day E-SUPPORT 3.65231e-005
day A-QUALITY 0.806868
day NEGATIVE 0.0865153
know E-SUPPORT 0.0840363
later E-SUPPORT 0.0544463
that A-GENERAL 0.00076046
if E-SUPPORT 0.00842332
improvement E-SUPPORT 0.348929
research E-COMPANY 0.314376
in E-SUPPORT 0.000765332
believe E-COMPANY 0.157617
then E-SUPPORT 0.102034
believe E-BATTERY 0.181686
then ; 0.000189883
single E-BATTERY 0.223124
too ; 0.00190853
see E-SUPPORT 0.0452365
see ; 0.277589
buy E-COMPANY 0.116166
speak E-SUPPORT 0.759286
4 E-SUPPORT 0.265301
4 NEGATIVE 0.271512
different E-SUPPORT 0.194868
out A-OPERATION_PERFORMANCE 0.000684621
handiecap A-MISCELLANEOUS 1
cost A-PRICE 0.730163
need A-QUALITY 1.01052e-005
pretty A-DESIGN_FEATURES 0.000124803
keep E-HARD_DISC 0.043504
5th E-SUPPORT 0.999667
person E-SUPPORT 0.00157654
half E-BATTERY 0.175605
bad ; 0.00103768
wear E-SUPPORT 0.469309
person NEGATIVE 0.321872
needless E-SUPPORT 0.229974
its A-OPERATION_PERFORMANCE 0.000297511
needless NEGATIVE 0.57295
defective E-PORTS 0.135872
say E-SUPPORT 0.0872599
no E-SUPPORT 0.0758253
no NEGATIVE 0.00070294
droid A-OPERATION_PERFORMANCE 0.731095
no ; 0.561502
have E-SUPPORT 0.000361252
hang E-SUPPORT 0.268374
recharge A-OPERATION_PERFORMANCE 1
monitor E-DISPLAY 0.757909
i E-COMPANY 0.00697999
you A-OPERATION_PERFORMANCE 5.02735e-005
this E-COMPANY 4.94861e-006
equip E-DISPLAY 0.990136
will E-COMPANY 0.105825
last E-OVERALL 0.0867625
last E-COMPANY 0.0777793
dell A-GENERAL 0.185236
theirs E-COMPANY 1
break E-OVERALL 0.179806
complain E-SUPPORT 0.0962463
year NEGATIVE 0.000141608
year E-SUPPORT 5.36954e-005
serious A-MISCELLANEOUS 0.72217
purchase A-QUALITY 0.0069301
purchase E-SUPPORT 1.28307e-006
this E-POWER_SUPPLY 0.00110722
computer E-POWER_SUPPLY 0.00207384
tirr E-SUPPORT 1
or A-GENERAL 9.23507e-005
they A-GENERAL 0.0461614
other E-MOUSE 0.0164636
` A-GENERAL 0.662829
far E-OVERALL 0.0648334
far A-GENERAL 0.873571
high A-PRICE 0.122333
however A-PRICE 0.339263
still A-USABILITY 0.000133392
still NEUTRAL 0.0365809
normally A-GENERAL 1
try E-OVERALL 0.00418769
try A-USABILITY 0.163835
participate A-GENERAL 1
worst A-GENERAL 0.95771
make A-GENERAL 0.159103
on A-OPERATION_PERFORMANCE 0.00181803
of E-WARRANTY 0.000729116
reviews/surveys A-GENERAL 0.999648
hope A-GENERAL 0.456199
share A-GENERAL 1
own E-OVERALL 0.000120036
own A-GENERAL 0.180811
one A-QUALITY 0.00884275
thought A-GENERAL 1
easily ; 0.00155351
quality E-GRAPHICS 0.00021972
memory A-USABILITY 0.232646
there A-DESIGN_FEATURES 1.47727e-005
many E-OVERALL 0.00317425
many POSITIVE 0.0274102
many ; 0.000206389
many A-GENERAL 0.128947
wonderful E-OVERALL 0.316073
wonderful POSITIVE 0.473809
take E-SUPPORT 0.0154155
new E-OVERALL 0.0836082
new POSITIVE 0.230134
new ; 0.141296
new A-GENERAL 0.179905
macbook E-OVERALL 0.000220115
macbook POSITIVE 0.796321
thephone ; 1
macbook A-GENERAL 0.193916
when A-OPERATION_PERFORMANCE 0.10421
i7 A-GENERAL 0.797338
no E-OVERALL 0.114858
no POSITIVE 0.000829325
you A-USABILITY 0.0631756
time A-OPERATION_PERFORMANCE 0.0167413
come NEGATIVE 0.130412
networking ; 0.820032
all A-USABILITY 5.7439e-006
with A-USABILITY 0.000522574
off NEGATIVE 0.671794
dynamo A-USABILITY 1
by E-OVERALL 0.0985951
by A-OPERATION_PERFORMANCE 0.000945515
by A-USABILITY 0.00155851
watch A-OPERATION_PERFORMANCE 0.270811
watch POSITIVE 0.248967
watch A-USABILITY 0.248513
fan E-CPU 0.335087
say A-OPERATION_PERFORMANCE 0.000227001
online A-USABILITY 0.260281
mind E-SUPPORT 0.643772
tutorial A-USABILITY 0.687929
apple A-GENERAL 0.000143037
apple POSITIVE 0.546524
apple ; 0.000292586
just A-QUALITY 0.000505677
hard E-HARD_DISC 0.281029
drive E-HARD_DISC 0.489375
worry NEUTRAL 0.171825
quit E-DISPLAY 0.000318547
replace E-SUPPORT 4.77663e-005
laptop E-SUPPORT 4.98927e-005
z0j80001 POSITIVE 0.774157
the E-WARRANTY 0.00138649
's E-WARRANTY 0.0886141
operation A-PRICE 0.363261
only E-WARRANTY 0.0111314
cover E-WARRANTY 0.633598
the E-POWER_SUPPLY 0.00416824
suffer E-SUPPORT 1
outstanding A-GENERAL 0.556583
outstanding POSITIVE 0.00029973
spend NEGATIVE 0.107382
value E-OVERALL 0.000709946
value A-GENERAL 0.146332
value POSITIVE 0.637132
its A-USABILITY 5.93599e-006
short E-COMPANY 0.00108878
its E-SUPPORT 0.000146622
top POSITIVE 3.36642e-005
top ; 0.000760941
from POSITIVE 0.00209066
from E-SUPPORT 0.000351276
apple E-OVERALL 0.000224476
apple A-USABILITY 1.08759e-005
apple E-SUPPORT 0.0977575
money NEGATIVE 0.226768
- E-OVERALL 0.000186159
- A-USABILITY 0.0591483
- POSITIVE 0.519655
to E-POWER_SUPPLY 1.8036e-006
- ; 0.0803843
nightmare NEGATIVE 0.743199
worse NEGATIVE 0.383277
or A-USABILITY 3.5008e-006
store ; 0.356959
screen A-OPERATION_PERFORMANCE 0.157937
computer/printer E-COMPANY 1
genius A-USABILITY 1
bar A-USABILITY 0.405336
connect A-CONNECTIVITY 0.638735
not A-USABILITY 0.000122473
compaq E-COMPANY 0.493039
beat A-USABILITY 0.51402
beat POSITIVE 0.0149391
energy A-OPERATION_PERFORMANCE 1
suffice E-BATTERY 1
quarter A-OPERATION_PERFORMANCE 1
say E-BATTERY 2.08838e-005
defective A-QUALITY 0.675339
say POSITIVE 0.00361927
, E-BATTERY 2.29099e-006
should E-COMPANY 5.69814e-006
pro POSITIVE 0.885445
should NEGATIVE 0.295901
pro E-OVERALL 0.0175724
keep A-OPERATION_PERFORMANCE 0.000479731
opinion A-QUALITY 0.853176
keep POSITIVE 0.276822
keep E-OVERALL 5.66793e-005
its E-BATTERY 7.62386e-005
and E-BATTERY 2.59772e-008
blaze E-BATTERY 0.993425
blaze A-OPERATION_PERFORMANCE 0.00657482
name E-COMPANY 1
lightbulb A-OPERATION_PERFORMANCE 1
run A-QUALITY 0.0744659
run NEUTRAL 0.0405215
save NEGATIVE 0.172685
little E-OVERALL 0.037703
little ; 0.000153664
l455d NEUTRAL 1
awful A-GENERAL 0.000141336
since A-QUALITY 0.258445
nightmare A-PRICE 8.51678e-005
take A-QUALITY 0.149107
box E-OVERALL 0.566072
after E-OVERALL 0.0618134
box ; 0.226324
useful POSITIVE 0.0322583
useful E-SUPPORT 0.196651
first NEGATIVE 0.503374
pre-loaded E-SOFTWARE 1
malfunction E-BATTERY 0.000402051
norton E-SOFTWARE 1
matter E-SUPPORT 0.341563
firewall/security E-SOFTWARE 1
program E-SOFTWARE 0.402543
go E-POWER_SUPPLY 0.0223465
tech NEGATIVE 0.231777
let E-OVERALL 0.256865
approximately E-SOFTWARE 0.449554
let A-CONNECTIVITY 0.0472863
depot E-SUPPORT 0.589212
force NEGATIVE 0.000645064
moment A-GENERAL 0.999522
wifi A-CONNECTIVITY 1
stink E-SUPPORT 1
thime A-GENERAL 0.985736
system A-CONNECTIVITY 0.0318908
unless E-SUPPORT 0.337933
throw A-GENERAL 5.84608e-005
where A-CONNECTIVITY 0.116511
where NEGATIVE 0.523385
against A-GENERAL 0.930138
very A-OPERATION_PERFORMANCE 0.0715008
toshiba E-SUPPORT 0.237644
gaming A-MISCELLANEOUS 0.3737
toshiba A-QUALITY 0.02427
tech E-SUPPORT 0.554188
wall E-BATTERY 0.299029
support E-SUPPORT 0.358456
support NEGATIVE 0.640469
call E-SUPPORT 0.632371
call A-QUALITY 0.000198107
night A-OPERATION_PERFORMANCE 0.447112
then E-MOUSE 0.000742552
control E-KEYBOARD 0.672895
else E-SOFTWARE 0.123343
just E-MOUSE 0.0341732
graphics-intensive A-MISCELLANEOUS 1
other A-QUALITY 0.000701481
leave E-MOUSE 0.0594274
leave A-QUALITY 0.000667698
blank E-DISPLAY 1
out E-POWER_SUPPLY 0.0294066
`` E-MOUSE 0.0713454
light E-DISPLAY 0.0819979
mouse E-MOUSE 0.845761
'' E-MOUSE 0.0224815
'' A-QUALITY 0.0905344
'' NEGATIVE 0.00555963
three E-DISPLAY 3.71098e-005
'' ; 0.00016532
button E-MOUSE 0.474981
button NEGATIVE 0.137947
snap E-MOUSE 0.106184
baby E-DISPLAY 0.159052
2 A-GENERAL 0.0728736
2 NEGATIVE 0.302055
electronics E-DISPLAY 0.400549
2 ; 8.55033e-005
month E-OVERALL 0.00372651
month A-GENERAL 0.0291609
old E-OVERALL 0.397507
old A-GENERAL 0.291929
buyer A-GENERAL 0.845273
beware A-GENERAL 0.987223
buy E-POWER_SUPPLY 2.16533e-006
lou A-GENERAL 1
3 A-OPERATION_PERFORMANCE 2.55569e-005
rarely A-OPERATION_PERFORMANCE 0.890858
work E-OVERALL 0.000187549
when E-OVERALL 0.376454
incredibly A-OPERATION_PERFORMANCE 0.827675
slow NEGATIVE 0.000127546
hold E-BATTERY 0.44694
slow A-OPERATION_PERFORMANCE 0.893952
geek A-QUALITY 1
guy A-QUALITY 1
good NEGATIVE 0.000115387
quickly E-MOUSE 0.109568
use A-CONNECTIVITY 0.00351984
some E-OVERALL 3.43566e-005
some E-MULTIMEDIA_DEVICES 0.0285565
feature A-USABILITY 0.0427977
prove E-SUPPORT 1
feature E-MULTIMEDIA_DEVICES 0.0168386
compliment A-PORTABILITY 1
friendly A-USABILITY 0.479555
-lrb- E-MULTIMEDIA_DEVICES 2.65722e-007
regularly A-PORTABILITY 1
commute A-PORTABILITY 1
, E-MULTIMEDIA_DEVICES 0.000273197
bus A-PORTABILITY 0.369963
quality E-MULTIMEDIA_DEVICES 0.0451776
attest A-PORTABILITY 1
a A-PRICE 0.000632073
shipping A-QUALITY 0.00012886
of A-PRICE 3.74328e-005
mac A-GENERAL 0.091977
smooth POSITIVE 0.000545316
life A-GENERAL 1.04098e-005
anymore A-GENERAL 1
compute ; 1
not E-PORTS 9.06961e-006
plan E-SUPPORT 0.237315
major E-PORTS 0.446931
the E-PORTS 2.32148e-006
laptop E-PORTS 0.00173291
except A-QUALITY 0.832703
that E-PORTS 3.11533e-006
plastic A-QUALITY 0.500378
piece A-GENERAL 0.65754
piece POSITIVE 0.000223879
piece A-QUALITY 0.243992
all A-GENERAL 0.000736693
come A-GENERAL 0.00306695
come POSITIVE 0.000815959
time POSITIVE 0.00170909
come A-QUALITY 0.233029
off E-OVERALL 0.0535556
off A-GENERAL 0.0851955
off A-QUALITY 0.00485388
be E-PORTS 1.36173e-005
since E-PORTS 0.0172152
package E-SOFTWARE 1
barely A-CONNECTIVITY 0.311089
first E-HARD_DISC 0.0230439
bloatware E-SOFTWARE 1
usb A-CONNECTIVITY 0.080671
drive A-OPERATION_PERFORMANCE 0.0923253
device A-CONNECTIVITY 0.171122
device NEGATIVE 0.000116062
device ; 0.0107559
stay A-CONNECTIVITY 0.117277
stay NEGATIVE 0.438744
connected A-CONNECTIVITY 1
properly A-CONNECTIVITY 0.224972
week NEGATIVE 0.36854
week ; 0.000247115
think NEGATIVE 0.097518
might E-SUPPORT 0.011555
rather A-QUALITY 0.00027014
something A-QUALITY 0.314636
simple A-QUALITY 0.00202918
spend A-GENERAL 0.348578
money A-PRICE 0.319822
creativity E-COMPANY 1
its NEGATIVE 0.00328597
deal E-SUPPORT 0.182329
/ E-COMPANY 0.332585
with E-SUPPORT 0.00848638
huge E-SUPPORT 0.0904606
crack E-SUPPORT 1
fourth E-SUPPORT 1
tosiba E-COMPANY 1
ive E-SUPPORT 0.338783
wait E-SUPPORT 0.373634
homeschool A-MISCELLANEOUS 1
there E-SUPPORT 0.0378955
there A-QUALITY 0.0373954
there NEGATIVE 0.550726
go E-SUPPORT 0.0102807
anyone A-GENERAL 0.699794
computer E-COMPANY 0.0142263
fail E-HARD_DISC 0.200677
laptop E-COMPANY 3.3963e-007
should A-GENERAL 0.62462
stare E-DISPLAY 1
stay E-COMPANY 0.288838
any E-COMPANY 0.075262
that E-COMPANY 0.0122409
save A-GENERAL 0.420578
tell E-OVERALL 0.000630333
play POSITIVE 0.000491054
tell A-GENERAL 0.583161
best E-BATTERY 5.25532e-005
see A-GENERAL 0.357064
see POSITIVE 1.92836e-005
very E-BATTERY 3.72176e-005
those POSITIVE 7.94524e-005
time A-GENERAL 0.0160124
time E-BATTERY 0.000529765
little A-PRICE 0.112676
little NEGATIVE 0.265612
little A-GENERAL 0.266922
moth E-HARD_DISC 1
hardrive E-HARD_DISC 1
fail NEGATIVE 0.000515289
after A-OPERATION_PERFORMANCE 0.0271885
hard A-OPERATION_PERFORMANCE 0.105135
drive E-BATTERY 0.0438868
-lrb- E-BATTERY 0.0228946
month E-BATTERY 0.047781
then E-POWER_SUPPLY 0.0402207
incorrect E-SHIPPING 1
4 E-POWER_SUPPLY 0.0428962
or A-OPERATION_PERFORMANCE 0.175524
so E-POWER_SUPPLY 0.015226
month E-HARDWARE 0.00672473
lock E-HARDWARE 0.213665
stop E-POWER_SUPPLY 0.0768552
to E-HARDWARE 5.55901e-007
and E-HARDWARE 1.56967e-005
buy A-QUALITY 6.48809e-006
just E-HARDWARE 0.00464306
keep E-HARDWARE 0.0222694
this E-HARDWARE 0.00194361
computer E-HARDWARE 4.13708e-006
run E-HARDWARE 0.0073517
sheer E-SUPPORT 1
: NEGATIVE 0.000289524
last A-QUALITY 0.23981
premium A-USABILITY 0.380892
easy A-DESIGN_FEATURES 0.0300162
wrong A-GENERAL 0.000476808
lightweight POSITIVE 0.732764
much A-PRICE 0.0810203
media A-MISCELLANEOUS 0.999984
bad NEGATIVE 0.791057
start A-OPERATION_PERFORMANCE 0.265432
actually E-SUPPORT 0.177203
start NEGATIVE 0.305438
choice E-GRAPHICS 0.298475
week A-OPERATION_PERFORMANCE 0.000135781
quit A-OPERATION_PERFORMANCE 0.999268
fact A-QUALITY 0.306996
fact NEGATIVE 2.78326e-005
overall E-OVERALL 0.954834
overall A-OPERATION_PERFORMANCE 0.00011797
overall POSITIVE 0.000249947
rock E-OVERALL 0.00230308
rock POSITIVE 0.00304874
truly A-GENERAL 0.800087
truly A-MISCELLANEOUS 0.199309
poor A-OPERATION_PERFORMANCE 0.916596
quality A-OPERATION_PERFORMANCE 0.0915708
performance NULL 4.27e-005
performance E-OVERALL 0.142644
streaming A-MISCELLANEOUS 1
performance ; 0.0014398
performance A-OPERATION_PERFORMANCE 0.766885
performance POSITIVE 0.000739779
everyday A-MISCELLANEOUS 0.530526
although A-OPERATION_PERFORMANCE 0.700179
receipt E-SUPPORT 0.341243
great E-BATTERY 4.43721e-005
life A-QUALITY 0.157613
when E-BATTERY 0.0322126
stuff ; 0.000535468
when POSITIVE 6.54106e-005
work POSITIVE 0.0656878
vacation A-PORTABILITY 1
able NULL 4.60193e-005
encounter A-GENERAL 0.661113
able A-PORTABILITY 0.0863302
able POSITIVE 0.000163945
whatever A-PORTABILITY 1
website ; 0.000417727
biggest A-GENERAL 1
lug A-PORTABILITY 1
hands A-QUALITY 1
much A-PORTABILITY 1.18268e-006
heavier A-PORTABILITY 1
fire A-GENERAL 0.687681
call A-OPERATION_PERFORMANCE 0.173725
hate E-OVERALL 0.00010675
hate A-GENERAL 0.1439
the E-MULTIMEDIA_DEVICES 0.0121947
image E-DISPLAY 1
beautifully A-OPERATION_PERFORMANCE 0.00420988
be E-MULTIMEDIA_DEVICES 0.00513294
great E-DISPLAY 1.29404e-005
great E-MULTIMEDIA_DEVICES 0.00560697
and E-MULTIMEDIA_DEVICES 1.45566e-005
soud E-MULTIMEDIA_DEVICES 1
morning A-OPERATION_PERFORMANCE 1
excelent E-MULTIMEDIA_DEVICES 1
versatile POSITIVE 0.233794
versatile ; 0.0105792
th A-GENERAL 1
glass E-MOUSE 1
touchpad E-MOUSE 1
curve A-USABILITY 1
also E-DISPLAY 0.0129664
exceptional E-DISPLAY 1
box POSITIVE 0.140651
especially A-OPERATION_PERFORMANCE 3.03505e-005
really E-BATTERY 0.018848
necessary A-USABILITY 0.235843
only A-DESIGN_FEATURES 4.73612e-006
only E-MULTIMEDIA_DEVICES 0.0370371
thing E-MULTIMEDIA_DEVICES 0.0266244
need E-OVERALL 0.403298
clean A-USABILITY 0.233902
need A-DESIGN_FEATURES 7.71911e-006
need E-MULTIMEDIA_DEVICES 1.30498e-005
better A-DESIGN_FEATURES 0.091747
better E-MULTIMEDIA_DEVICES 0.0444698
better NEGATIVE 0.000202255
speaker E-MULTIMEDIA_DEVICES 1
band POSITIVE 0.000558864
wife A-GENERAL 0.667601
small A-DESIGN_FEATURES 0.891322
light E-OVERALL 0.0680775
light A-DESIGN_FEATURES 0.383247
light POSITIVE 0.133803
weight A-DESIGN_FEATURES 0.881601
task ; 1
too E-MULTIMEDIA_DEVICES 0.034392
too A-DESIGN_FEATURES 0.138111
small E-MULTIMEDIA_DEVICES 4.09504e-006
to E-MULTIMEDIA_DEVICES 2.7629e-007
of E-MULTIMEDIA_DEVICES 1.64673e-005
any E-MULTIMEDIA_DEVICES 0.023039
any A-DESIGN_FEATURES 0.00149115
real E-MULTIMEDIA_DEVICES 0.391974
tutoring A-PORTABILITY 1
use E-MULTIMEDIA_DEVICES 3.07546e-005
good E-KEYBOARD 0.0147833
good A-DESIGN_FEATURES 4.72231e-005
4000 E-WARRANTY 1
and E-KEYBOARD 7.65796e-005
wasy E-KEYBOARD 1
bounce A-PORTABILITY 1
to E-KEYBOARD 1.07307e-007
use E-KEYBOARD 0.0244032
amaze A-USABILITY 0.264166
meet A-PORTABILITY 0.0328122
antivirus A-QUALITY 1
need A-PORTABILITY 3.03344e-005
8 E-BATTERY 0.450659
perfectly A-PORTABILITY 0.324468
light A-GENERAL 2.04989e-005
light A-PORTABILITY 0.146966
enough E-OVERALL 0.000679273
strong POSITIVE 0.00025956
enough A-GENERAL 0.276378
enough POSITIVE 0.214927
enough A-DESIGN_FEATURES 0.137038
enough A-PORTABILITY 0.12358
suck A-QUALITY 0.667424
senior A-PORTABILITY 1
artwork A-PORTABILITY 1
rest A-QUALITY 1
affect A-PORTABILITY 1
arthritis A-PORTABILITY 1
awesome POSITIVE 0.930813
unprecedented A-DESIGN_FEATURES 0.00723958
unprecedented POSITIVE 0.992037
unprecedented ; 0.00072373
canon A-MISCELLANEOUS 1
apparently A-PRICE 0.221978
jack A-QUALITY 0.00768487
well-built A-PRICE 1
gorgeous POSITIVE 0.750107
gorgeous A-PRICE 0.249893
at POSITIVE 0.000979941
at A-DESIGN_FEATURES 0.000112614
at A-PRICE 7.20529e-005
at A-OPERATION_PERFORMANCE 0.016341
headphones/mic A-USABILITY 4.17614e-005
i5 A-PRICE 1
facebook A-MISCELLANEOUS 0.728356
mention A-MISCELLANEOUS 0.163132
nightly A-OPERATION_PERFORMANCE 1
win A-PRICE 0.481081
defrag A-OPERATION_PERFORMANCE 1
cord A-USABILITY 0.169796
combination A-DESIGN_FEATURES 0.636035
combination A-PRICE 0.363965
easiest A-USABILITY 0.999479
performance A-DESIGN_FEATURES 8.62088e-005
performance A-PRICE 0.0881622
by A-GENERAL 0.0309131
greatest A-GENERAL 1
investment A-GENERAL 0.999158
investment POSITIVE 0.000842153
receipt A-QUALITY 0.658589
great A-PRICE 0.0439798
netbook A-PRICE 0.000214462
low A-PRICE 1
office A-MISCELLANEOUS 0.352356
very A-QUALITY 0.000312329
pick A-PORTABILITY 0.202504
html A-MISCELLANEOUS 1
affordability A-PORTABILITY 1
black A-DESIGN_FEATURES 0.539167
model NULL 5.86553e-005
l305d-s5934 A-GENERAL 1
model A-DESIGN_FEATURES 0.598263
model ; 0.000880757
also A-DESIGN_FEATURES 0.0845287
nice A-DESIGN_FEATURES 1.50436e-005
seamless A-DESIGN_FEATURES 0.731326
appearance A-DESIGN_FEATURES 1
- A-DESIGN_FEATURES 0.195467
see E-OVERALL 0.00129079
see A-DESIGN_FEATURES 0.0531699
lack E-DISPLAY 0.275168
afford E-COMPANY 1
if POSITIVE 7.2177e-006
if A-MISCELLANEOUS 4.74386e-005
you A-MISCELLANEOUS 9.13797e-007
clean E-OS 0.165945
need A-MISCELLANEOUS 0.0114339
affordable A-PRICE 0.998961
entry-level A-PRICE 1
will A-PRICE 3.96354e-005
fit E-OVERALL 0.000319438
fit A-PRICE 0.169142
fit POSITIVE 0.381775
totally A-GENERAL 0.663631
totally A-QUALITY 0.17242
bill A-PRICE 1
dislike A-PORTABILITY 0.456839
unconcerned E-SUPPORT 1
weight A-PORTABILITY 0.118354
size A-PORTABILITY 0.0202754
cubersome A-PORTABILITY 1
correctly E-SUPPORT 0.462298
i E-MULTIMEDIA_DEVICES 0.000998553
dislike E-MULTIMEDIA_DEVICES 0.543161
placement E-MULTIMEDIA_DEVICES 1
supplementary A-MISCELLANEOUS 1
appreciate POSITIVE 0.673003
overall A-GENERAL 0.00026034
overall NEUTRAL 0.0445327
ok A-GENERAL 0.657913
ok NEUTRAL 0.342087
advertise A-DESIGN_FEATURES 0.675919
15 E-OVERALL 0.000135068
symantec A-USABILITY 1
15 A-DESIGN_FEATURES 0.157846
'' E-OVERALL 0.000123941
'' A-DESIGN_FEATURES 0.158352
case A-DESIGN_FEATURES 0.490989
like NEGATIVE 0.094143
17 A-DESIGN_FEATURES 0.464992
17 NEGATIVE 0.00218684
impression E-COMPANY 1
barely A-PORTABILITY 0.688911
fit A-DESIGN_FEATURES 0.281361
fit A-PORTABILITY 0.163653
any A-PORTABILITY 0.0631775
case A-PORTABILITY 0.099574
peformance A-PRICE 0.995768
peformance NEUTRAL 0.00278732
good NEUTRAL 0.0496267
for NEUTRAL 0.00572389
along A-PRICE 1
mobile A-PORTABILITY 1
sit A-PORTABILITY 0.129125
newer POSITIVE 0.542753
desk E-OVERALL 0.000328291
desk A-PORTABILITY 0.225791
repair A-QUALITY 0.488737
repair NEGATIVE 0.000205848
twice A-QUALITY 0.761352
5 E-OVERALL 0.00178539
5 A-QUALITY 0.581686
5 NEGATIVE 0.279825
not A-MISCELLANEOUS 1.77252e-005
good A-MISCELLANEOUS 0.000778476
person A-MISCELLANEOUS 0.169424
who E-OVERALL 0.00338004
who A-MISCELLANEOUS 0.129205
online A-MISCELLANEOUS 0.235892
daily A-MISCELLANEOUS 0.731324
may E-OVERALL 0.154455
may NEUTRAL 0.44746
better NEUTRAL 0.126596
occasional NEUTRAL 1
idk NEGATIVE 0.00232306
web A-MISCELLANEOUS 0.299567
web NEUTRAL 0.190378
surfer NEUTRAL 1
so A-USABILITY 0.0606034
much A-USABILITY 0.107732
easier A-USABILITY 0.691909
block-like A-DESIGN_FEATURES 1
19 E-SUPPORT 1
long E-OS 0.0400622
smooth A-DESIGN_FEATURES 0.340089
catatonic A-OPERATION_PERFORMANCE 1
largest E-HARD_DISC 1
documentation E-SUPPORT 1
hard E-OS 0.022718
drive NEUTRAL 0.254672
window A-GENERAL 0.270425
window E-OS 0.627723
almost A-CONNECTIVITY 0.0685581
7 E-BATTERY 0.103308
7 A-DESIGN_FEATURES 0.0707778
supplier E-SUPPORT 0.00145417
supplier A-QUALITY 0.998546
have E-KEYBOARD 0.002966
a E-KEYBOARD 4.41888e-006
wonderful E-KEYBOARD 0.0405167
nature E-KEYBOARD 0.515457
feel E-KEYBOARD 0.343541
suppose E-OVERALL 0.00076765
reasonable E-KEYBOARD 0.334823
small E-DISPLAY 0.000891642
small A-PORTABILITY 0.0768198
somewhat E-DISPLAY 1
3rd E-SUPPORT 0.431915
3rd A-GENERAL 0.568085
limit E-DISPLAY 0.999413
bother E-SUPPORT 1
latitude A-QUALITY 1
limit A-PORTABILITY 0.000587247
but E-DISPLAY 0.00172261
idiot E-SUPPORT 1
d620 A-QUALITY 1
travel A-PORTABILITY 0.999784
seem NULL 0.00156897
seem E-POWER_SUPPLY 0.111645
occasionally A-OPERATION_PERFORMANCE 1
large E-POWER_SUPPLY 0.0660848
for E-POWER_SUPPLY 0.000434251
disappointing E-OVERALL 0.00933869
class E-POWER_SUPPLY 0.181298
of E-POWER_SUPPLY 4.78298e-006
begin NEGATIVE 0.876248
great A-MISCELLANEOUS 0.000177028
work A-MISCELLANEOUS 0.0757931
well A-MISCELLANEOUS 0.00017247
/ A-QUALITY 0.667415
with NEUTRAL 1.24044e-005
crash NEGATIVE 0.129129
with A-MISCELLANEOUS 3.39034e-005
action A-GENERAL 0.662824
action A-PRICE 0.337176
pack A-PRICE 0.999644
game NULL 0.231353
game E-OVERALL 0.00237813
game POSITIVE 0.000492374
game ; 0.00126386
game NEUTRAL 1.441e-005
game A-MISCELLANEOUS 0.502761
thing A-USABILITY 0.0626246
that E-KEYBOARD 2.3258e-007
key A-USABILITY 0.0780726
broad E-KEYBOARD 1
little E-KEYBOARD 0.0538593
little A-USABILITY 0.0317927
dark E-KEYBOARD 0.589527
see E-KEYBOARD 0.0531744
letter E-KEYBOARD 1
would A-DESIGN_FEATURES 5.23113e-006
help NULL 0.0106543
help E-KEYBOARD 0.0334902
help NEGATIVE 0.0189375
help ; 0.00203924
if A-USABILITY 0.025445
it E-KEYBOARD 1.05059e-007
lighter E-KEYBOARD 1
guess E-COMPANY 1
then A-GENERAL 0.0921925
give A-GENERAL 0.271411
4 A-GENERAL 0.142231
hafe A-GENERAL 1
star A-GENERAL 0.999453
every A-MISCELLANEOUS 0.0378616
day A-MISCELLANEOUS 0.0677398
computing A-MISCELLANEOUS 0.823468
browsing A-MISCELLANEOUS 0.504331
light A-MISCELLANEOUS 0.041007
home A-MISCELLANEOUS 0.128324
home POSITIVE 0.56718
use A-MISCELLANEOUS 0.0575932
business A-MISCELLANEOUS 0.476738
combined E-MOUSE 1
might NEUTRAL 0.350832
make A-MISCELLANEOUS 7.54208e-005
make NEUTRAL 0.0390848
avid NEUTRAL 1
gamer A-MISCELLANEOUS 0.323697
gamer NEUTRAL 0.399972
happy NEUTRAL 0.0528942
but A-MISCELLANEOUS 3.7018e-007
especially E-OS 0.123759
really A-MISCELLANEOUS 1.17408e-005
what NEUTRAL 0.0656476
design A-MISCELLANEOUS 4.24561e-006
crisp E-DISPLAY 1
exception ; 0.0035041
he A-GENERAL 0.174049
school E-OVERALL 0.383346
school ; 0.000137509
school A-USABILITY 0.385113
start E-OVERALL 0.336113
actually POSITIVE 0.000189809
start A-GENERAL 0.001826
actually ; 0.00151096
actually A-PORTABILITY 5.80566e-005
start A-USABILITY 0.0376769
teach A-USABILITY 1
kid A-USABILITY 0.355292
early A-USABILITY 0.674288
recomend E-OVERALL 0.999922
recomend A-MISCELLANEOUS 7.848e-005
definitly A-GENERAL 1
acer E-OVERALL 0.0197548
acer A-MISCELLANEOUS 0.115957
parent E-OVERALL 0.0119683
parent A-MISCELLANEOUS 0.500338
grandparent A-MISCELLANEOUS 1
it A-MISCELLANEOUS 6.23776e-007
help E-OVERALL 0.501983
help A-MISCELLANEOUS 0.105161
help POSITIVE 0.000421504
school A-MISCELLANEOUS 0.231097
reg A-MISCELLANEOUS 0.962042
keep A-MISCELLANEOUS 0.00185968
error A-MISCELLANEOUS 0.249362
error NEGATIVE 0.000418251
than E-OVERALL 0.199016
effect A-GENERAL 1
wonder A-GENERAL 1
2nd A-GENERAL 1
excellent E-OVERALL 0.00210317
excellent A-OPERATION_PERFORMANCE 0.0790169
excellent E-BATTERY 0.150358
show E-DISPLAY 0.182204
color E-DISPLAY 0.36871
color POSITIVE 0.000134771
surprise A-OPERATION_PERFORMANCE 9.58231e-005
a A-CONNECTIVITY 6.33201e-006
way A-CONNECTIVITY 0.013002
bigger A-CONNECTIVITY 0.605556
screen A-CONNECTIVITY 0.0289216
and A-CONNECTIVITY 7.07387e-007
able A-CONNECTIVITY 0.11691
hdmi A-CONNECTIVITY 1
anyone E-OVERALL 0.209981
anyone E-BATTERY 0.0327534
search E-BATTERY 0.357345
webpage E-CPU 0.268726
amazing E-BATTERY 1.11073e-006
aesthetics E-COMPANY 1
top NEGATIVE 0.471937
charge E-BATTERY 0.762722
dose E-BATTERY 1
as E-BATTERY 0.0357953
they E-BATTERY 5.77507e-007
will E-BATTERY 2.84065e-006
more E-BATTERY 0.0612625
like E-BATTERY 0.000403811
2 E-BATTERY 0.154109
2 A-OPERATION_PERFORMANCE 0.000199116
free E-SUPPORT 0.131775
hour NEGATIVE 0.000328264
ideal A-MISCELLANEOUS 0.733591
companion A-MISCELLANEOUS 1
software A-OPERATION_PERFORMANCE 0.283216
enable A-OPERATION_PERFORMANCE 0.541149
enable E-SOFTWARE 1.126e-005
sturdy POSITIVE 0.632847
speechless E-GRAPHICS 1
thing A-OPERATION_PERFORMANCE 0.00135705
cheaper A-PRICE 0.999948
300 A-MISCELLANEOUS 1
should A-PRICE 0.0794734
not A-PRICE 3.13249e-007
question A-QUALITY 0.000358037
equal A-PRICE 1
inch A-GENERAL 0.753973
`` A-PRICE 0.299466
push E-MOUSE 0.283432
`` NEUTRAL 0.122102
cheap NEUTRAL 0.220879
cheap A-QUALITY 3.06341e-005
favor E-COMPANY 0.438438
cheap NEGATIVE 3.75086e-005
'' A-PRICE 0.126956
'' NEUTRAL 0.0773889
product A-QUALITY 0.000116272
over NULL 0.0925324
over A-GENERAL 0.388686
over NEGATIVE 0.168686
rate A-GENERAL 0.999915
rate NEGATIVE 8.45411e-005
top A-PRICE 0.126754
the E-SHIPPING 0.00246038
delivery E-SHIPPING 1
be E-SHIPPING 2.43633e-007
fast E-SHIPPING 0.00930493
twin A-MISCELLANEOUS 1
and E-SHIPPING 1.41595e-005
hesitate E-SHIPPING 1
to E-SHIPPING 0.00117031
again NULL 0.000110035
again A-QUALITY 0.132916
again ; 0.340791
again E-OVERALL 1.78354e-005
again A-GENERAL 3.02672e-005
compact A-PORTABILITY 0.289183
exact A-PRICE 1
could A-USABILITY 0.0284015
i3 E-CPU 1
could A-OPERATION_PERFORMANCE 0.00017317
ask E-OVERALL 0.175269
ask POSITIVE 0.660291
true A-PRICE 0.579089
enjoy E-OVERALL 0.621343
enjoy POSITIVE 0.280153
provide E-OVERALL 0.000481051
provide A-GENERAL 6.6009e-005
provide POSITIVE 0.804516
statement E-BATTERY 1
brand E-COMPANY 0.413079
mere E-BATTERY 1
brand E-OVERALL 0.303114
led E-DISPLAY 1
though A-GENERAL 0.000514346
for E-COMPANY 0.00199225
very E-COMPANY 0.000396086
happy E-COMPANY 3.40554e-006
less NEUTRAL 5.00491e-005
graphic E-DISPLAY 0.0511432
clarity E-DISPLAY 1
exaggeration E-BATTERY 1
sharpness E-DISPLAY 1
lie E-BATTERY 1
friend NULL 7.15705e-005
friend E-OVERALL 0.391418
friend A-GENERAL 0.549229
friend POSITIVE 0.000464491
challenge E-BATTERY 1
friend ; 7.25007e-005
who A-GENERAL 0.095959
mile ; 1
who POSITIVE 0.652456
eye POSITIVE 0.999041
proof E-BATTERY 1
when A-GENERAL 0.000777592
bag A-GENERAL 0.580292
near E-BATTERY 1
only E-MOUSE 0.0165065
only A-OPERATION_PERFORMANCE 3.18809e-006
thing E-MOUSE 4.86002e-006
can E-MOUSE 0.000521064
primary E-KEYBOARD 1
touch E-MOUSE 0.766477
normal E-BATTERY 1
pad E-MOUSE 0.669608
2.5 E-BATTERY 0.00119323
doesnt E-MOUSE 0.209394
timer E-BATTERY 0.999832
like E-MOUSE 0.0176995
professional E-SOFTWARE 0.119693
it E-MOUSE 2.34229e-005
all E-MOUSE 0.000374372
flatline E-KEYBOARD 1
sometimes E-MOUSE 0.244497
sometimes A-OPERATION_PERFORMANCE 0.301212
useless E-BATTERY 0.000470992
you E-MOUSE 0.0123216
really E-MOUSE 0.018496
have E-MOUSE 0.00144437
to E-MOUSE 0.000182018
tap E-MOUSE 0.450715
remain E-BATTERY 1
work A-USABILITY 0.025765
simple A-USABILITY 0.169963
impressed POSITIVE 1
span E-BATTERY 5.34886e-005
secure A-USABILITY 1
navigate A-USABILITY 1
besides A-DESIGN_FEATURES 1
once NULL 5.07807e-005
once E-COMPANY 0.0406294
once ; 0.000189812
controlled-lighting E-DISPLAY 1
again E-COMPANY 0.188857
stand E-COMPANY 0.170091
stand A-GENERAL 0.459431
alone E-COMPANY 1
often NEUTRAL 0.528757
at E-COMPANY 0.00079801
top E-COMPANY 0.0459822
of E-COMPANY 1.34998e-006
chart E-COMPANY 1
specifially A-GENERAL 1
attend A-GENERAL 1
online A-GENERAL 0.237459
schooling A-GENERAL 1
freak E-SOFTWARE 0.268597
find A-CONNECTIVITY 0.100631
also A-CONNECTIVITY 6.59489e-006
very A-CONNECTIVITY 0.00956838
everyone A-GENERAL 1
access A-CONNECTIVITY 0.730412
internet A-CONNECTIVITY 0.185322
internet POSITIVE 0.149563
; A-CONNECTIVITY 0.0175869
without A-CONNECTIVITY 0.0318627
equipment E-OVERALL 0.230119
quite E-MOUSE 0.0983453
so A-CONNECTIVITY 2.6828e-005
convenient A-DESIGN_FEATURES 0.710857
coffee NEGATIVE 0.997453
of A-MISCELLANEOUS 6.06496e-006
operating E-OS 1
perfect A-MISCELLANEOUS 0.127798
academic A-MISCELLANEOUS 1
recently A-GENERAL 1
study A-MISCELLANEOUS 1
minus A-GENERAL 0.723409
serve E-OVERALL 0.00500401
serve A-GENERAL 0.982095
serve POSITIVE 0.0129007
size E-DISPLAY 4.66265e-005
portable A-PORTABILITY 0.850274
any E-DISPLAY 0.027807
environment E-DISPLAY 0.590079
toshie A-GENERAL 1
environment A-PORTABILITY 0.409921
present A-GENERAL 1
purpose A-PRICE 0.500447
purpose A-MISCELLANEOUS 0.499553
headphone A-QUALITY 0.432861
seem E-BATTERY 0.0698699
seem A-OPERATION_PERFORMANCE 0.149886
no A-OPERATION_PERFORMANCE 0.0454096
issue NULL 0.0646776
joy A-OPERATION_PERFORMANCE 0.316811
issue E-BATTERY 1.85768e-005
issue A-OPERATION_PERFORMANCE 7.3786e-006
issue ; 0.681678
everything A-USABILITY 0.0235182
able A-USABILITY 0.393043
set-up A-USABILITY 1
labtop A-USABILITY 0.601959
themselves A-USABILITY 1
within A-USABILITY 0.123391
few A-USABILITY 0.0545475
minute E-OVERALL 0.13994
minute A-USABILITY 0.0948146
fine A-CONNECTIVITY 2.52786e-006
we A-CONNECTIVITY 0.0336266
we POSITIVE 0.000218075
problem A-CONNECTIVITY 5.57861e-005
receive E-SUPPORT 0.446383
above E-SUPPORT 0.471919
beyond E-SUPPORT 0.422551
duty E-SUPPORT 1
report A-OPERATION_PERFORMANCE 0.705119
report E-DISPLAY 6.15851e-005
notebook E-DISPLAY 0.0938895
astonishing E-DISPLAY 1
17-inch A-PORTABILITY 1
general A-MISCELLANEOUS 0.433591
quality E-DISPLAY 7.809e-005
extremely A-PORTABILITY 0.22412
easily A-PORTABILITY 0.0801732
easily POSITIVE 0.172737
easily A-CONNECTIVITY 0.0715363
powerbooks A-QUALITY 1
at A-CONNECTIVITY 0.000557299
chrome E-SOFTWARE 1
the A-CONNECTIVITY 2.16025e-006
library A-CONNECTIVITY 1
spec A-PRICE 0.361751
elsewhere A-CONNECTIVITY 0.246202
doctor A-GENERAL 1
order A-GENERAL 0.37184
happier E-SUPPORT 1
etc POSITIVE 0.964729
power E-POWER_SUPPLY 0.260001
supply E-POWER_SUPPLY 0.82637
bad E-POWER_SUPPLY 0.0192791
2 E-POWER_SUPPLY 0.04339
2 A-QUALITY 0.301777
week E-POWER_SUPPLY 0.0227499
-- E-POWER_SUPPLY 0.0784734
-- NEGATIVE 0.248253
after E-SUPPORT 0.00590161
much A-QUALITY 0.000327789
app A-MISCELLANEOUS 1
effort A-QUALITY 1
10 A-QUALITY 0.338825
10 NEGATIVE 0.146345
definetly E-COMPANY 1
asus E-SUPPORT 0.171851
asus A-QUALITY 0.332242
heck E-MOUSE 0.202875
weak A-CONNECTIVITY 1
' A-GENERAL 0.882984
summary A-GENERAL 0.48772
elsewhere A-GENERAL 0.753798
a E-CPU 9.86079e-007
nicely POSITIVE 0.903727
nicely E-CPU 0.0962728
size E-CPU 0.0181586
crash E-HARD_DISC 0.0635034
lot NULL 0.00016252
lot E-OVERALL 0.229271
lot A-DESIGN_FEATURES 0.0418702
lot E-CPU 0.0438864
lot A-OPERATION_PERFORMANCE 0.119398
family A-GENERAL 0.529402
process E-CPU 0.290776
power E-CPU 0.0561434
toshiba A-OPERATION_PERFORMANCE 0.000399444
net A-OPERATION_PERFORMANCE 1
book E-OVERALL 0.000332214
book A-OPERATION_PERFORMANCE 0.185628
book POSITIVE 0.503723
operate A-OPERATION_PERFORMANCE 0.731496
operate ; 0.0160595
only E-OS 0.00678443
objection E-OS 1
have E-OS 9.08277e-007
that E-OS 9.52508e-006
after E-OS 0.00893358
you E-OS 1.07465e-005
? NEGATIVE 0.778239
almost E-OS 0.0802711
window NEGATIVE 0.00274512
thime NEGATIVE 0.0142641
system E-OS 0.336548
starter E-OS 0.43547
stability E-OS 1
charge E-OS 0.0761692
upgrade E-OS 0.0591454
upgrade NEGATIVE 0.000152116
- A-GENERAL 5.66874e-005
functional A-PORTABILITY 1
extremely E-MOUSE 0.224895
incompatible E-SOFTWARE 1
sensitive E-MOUSE 1
which E-MOUSE 0.0155077
drawback E-MOUSE 0.273931
otherwise E-OVERALL 0.491089
sure A-PRICE 0.452383
previous E-SUPPORT 0.498111
want A-PRICE 2.92503e-005
that A-PRICE 6.45198e-006
kind A-PRICE 0.144983
overheat E-BATTERY 1
deal A-PRICE 0.487936
after A-PRICE 0.0133859
all A-PRICE 3.24895e-006
ago A-GENERAL 0.479064
strong A-CONNECTIVITY 0.125516
enough NEUTRAL 0.086107
trackpad E-MOUSE 1
5 A-GENERAL 0.0104018
5 NEUTRAL 0.054669
star NEUTRAL 0.000547058
pro A-GENERAL 0.0863377
15 A-GENERAL 0.710193
15 POSITIVE 5.2223e-005
three POSITIVE 0.401954
fresh POSITIVE 0.1854
week POSITIVE 0.00133778
have NEUTRAL 3.80761e-005
only NEUTRAL 0.0144791
with E-OS 0.00323665
windows A-USABILITY 0.382973
before E-OS 0.0527879
so E-OS 0.0047601
little E-OS 0.0491921
get E-OS 1.85322e-005
use E-OS 5.1598e-007
real E-KEYBOARD 0.20183
real A-OPERATION_PERFORMANCE 0.406196
stand E-KEYBOARD 0.20332
on E-KEYBOARD 0.0295714
this E-KEYBOARD 1.06275e-005
of E-KEYBOARD 0.00130409
boot A-OPERATION_PERFORMANCE 0.779358
boot A-CONNECTIVITY 0.041621
shut E-OVERALL 0.00158532
shut A-OPERATION_PERFORMANCE 0.801295
down NULL 4.49194e-005
down E-OVERALL 0.244713
down A-OPERATION_PERFORMANCE 0.716965
down ; 0.00074071
connection A-OPERATION_PERFORMANCE 0.440475
connection A-CONNECTIVITY 0.108134
internet A-OPERATION_PERFORMANCE 0.332203
wish E-OVERALL 0.660124
detailed A-MISCELLANEOUS 1
review A-GENERAL 1
hardcopy A-MISCELLANEOUS 1
cham A-GENERAL 1
manuel A-MISCELLANEOUS 1
definatly A-GENERAL 0.996505
manual NEUTRAL 1
somewhere NEUTRAL 1
rather NEUTRAL 0.106652
continue E-OS 0.508846
copy NEUTRAL 0.451152
some A-MISCELLANEOUS 0.127869
surfing A-MISCELLANEOUS 1
email A-MISCELLANEOUS 0.678798
checking A-MISCELLANEOUS 1
word A-MISCELLANEOUS 0.80157
processing A-MISCELLANEOUS 0.450566
their NEGATIVE 0.00291414
watch A-MISCELLANEOUS 0.152244
switch A-GENERAL 0.388746
switch E-OS 3.15606e-005
movie A-MISCELLANEOUS 0.1612
movie POSITIVE 0.750025
or A-MISCELLANEOUS 0.214778
two A-MISCELLANEOUS 0.000101812
two POSITIVE 0.187326
suppose POSITIVE 0.000521983
reasonable A-PRICE 0.385201
right NULL 4.62362e-005
right E-OVERALL 0.17872
right A-PRICE 0.101897
right POSITIVE 0.00125371
decide A-PRICE 0.0120872
definitely E-OVERALL 8.32085e-005
definitely A-GENERAL 0.740527
advantage ; 1
definitely POSITIVE 0.234583
decent A-PORTABILITY 0.45684
system POSITIVE 0.138596
system A-PORTABILITY 0.03528
pretty POSITIVE 0.8467
keep A-PORTABILITY 0.0332078
entertain A-PORTABILITY 1
while E-OVERALL 0.194265
while POSITIVE 4.93391e-005
while A-PORTABILITY 0.0859316
while A-MISCELLANEOUS 0.118713
airplane A-PORTABILITY 1
novice E-OS 1
couple NULL 0.250904
couple POSITIVE 7.89957e-005
couple ; 0.000145297
couple A-MISCELLANEOUS 0.000425936
free A-GENERAL 0.327693
at A-MISCELLANEOUS 0.000578235
care E-OVERALL 0.000475347
care POSITIVE 0.453314
minute A-MISCELLANEOUS 6.07365e-005
finished POSITIVE 0.00134835
screen/video E-DISPLAY 1
increase E-DISPLAY 0.37487
higher E-DISPLAY 1
believe NEUTRAL 0.262497
1024 E-DISPLAY 1
x E-DISPLAY 0.38161
60 E-DISPLAY 0.369153
say NEUTRAL 0.0185936
check NEUTRAL 0.133317
still E-DISPLAY 0.0447298
still A-OPERATION_PERFORMANCE 3.29454e-005
hack NEUTRAL 0.42528
video E-DISPLAY 0.0810612
video NEUTRAL 0.18125
in NEUTRAL 0.000396677
full E-DISPLAY 0.0684902
full NEUTRAL 9.54408e-005
full ; 0.307661
decently E-DISPLAY 0.00184277
decently NEUTRAL 0.998157
quiet E-MULTIMEDIA_DEVICES 0.181753
development A-MISCELLANEOUS 1
quiet A-QUALITY 0.627736
if E-MULTIMEDIA_DEVICES 0.000666686
if NEUTRAL 0.0531568
you E-MULTIMEDIA_DEVICES 9.46294e-005
you A-QUALITY 0.0011517
you NEUTRAL 0.0166228
plane E-MULTIMEDIA_DEVICES 0.999834
e-mail A-MISCELLANEOUS 1
this E-MULTIMEDIA_DEVICES 9.16535e-007
can NEUTRAL 2.15822e-005
easily E-MULTIMEDIA_DEVICES 3.64657e-005
overcome E-MULTIMEDIA_DEVICES 1
crash E-POWER_SUPPLY 5.3792e-005
decent E-MULTIMEDIA_DEVICES 0.54316
pair E-MULTIMEDIA_DEVICES 0.568328
head E-MULTIMEDIA_DEVICES 1
phone E-MULTIMEDIA_DEVICES 8.11723e-005
bottom E-OVERALL 1
line E-OVERALL 0.502544
cash A-GENERAL 1
doubt A-GENERAL 1
series A-GENERAL 1
overly A-GENERAL 1
devise A-GENERAL 1
disappoint A-GENERAL 0.81894
invest A-GENERAL 0.67863
block A-QUALITY 1
yes A-PRICE 0.349726
aluminum A-QUALITY 1
expese A-PRICE 1
now E-OVERALL 0.0529059
past A-QUALITY 0.393427
now A-PRICE 0.0309723
now A-GENERAL 0.183348
now POSITIVE 0.371861
realize A-PRICE 0.534984
get A-PRICE 0.000435053
what A-PRICE 0.145076
lose E-SUPPORT 0.229799
pay NEGATIVE 0.51604
apple A-OPERATION_PERFORMANCE 0.0386336
quick POSITIVE 0.350664
unique E-CPU 1
quick A-OPERATION_PERFORMANCE 0.160109
quick A-USABILITY 0.332046
how A-QUALITY 0.0867711
eventually E-DISPLAY 1
help E-SUPPORT 0.234471
help A-QUALITY 0.0639904
aftermarket E-SUPPORT 1
time A-PRICE 7.34862e-005
those A-QUALITY 0.426036
highly A-GENERAL 0.578826
13 POSITIVE 0.836637
13 E-SHIPPING 0.0726874
13 A-GENERAL 0.00113964
'' POSITIVE 0.0772265
'' E-SHIPPING 4.35063e-005
'' A-GENERAL 0.249988
else A-QUALITY 0.222021
just A-PRICE 1.78929e-005
in E-SHIPPING 6.44117e-005
annoying A-GENERAL 0.736709
budget A-PRICE 0.999812
budget E-SHIPPING 0.000187892
plus E-OVERALL 0.103869
free E-SHIPPING 0.0868876
shipping E-SHIPPING 0.528639
no E-SHIPPING 0.00574316
no A-GENERAL 0.001903
tax E-SHIPPING 1
scratch A-QUALITY 1
ca E-SHIPPING 1
headache A-QUALITY 0.356551
we A-PRICE 0.0250414
both E-MEMORY 0.0412044
for E-SHIPPING 2.19114e-007
super A-QUALITY 0.00107576
arrive A-MISCELLANEOUS 0.337235
packing A-MISCELLANEOUS 1
all A-MISCELLANEOUS 0.0379374
put E-POWER_SUPPLY 0.100548
do E-MULTIMEDIA_DEVICES 0.00170979
not E-MULTIMEDIA_DEVICES 0.00263113
that E-MULTIMEDIA_DEVICES 0.00799609
decide E-OVERALL 0.836495
mini A-GENERAL 1
upgrade E-OVERALL 0.393768
upgrade A-GENERAL 5.78945e-005
own E-MOUSE 0.0588228
labtop E-MOUSE 0.398041
less E-MOUSE 3.30514e-005
less A-QUALITY 0.487247
less NEGATIVE 0.125045
additional E-SOFTWARE 1
two E-MOUSE 0.135724
already E-MOUSE 0.082021
break E-MOUSE 0.301853
under E-SUPPORT 0.449744
under A-QUALITY 0.338242
under NEGATIVE 0.00315862
so E-SUPPORT 0.0121541
disappointed A-GENERAL 0.0195427
stuck A-QUALITY 1
w A-QUALITY 0.667422
another E-COMPANY 0.0809534
emachine A-GENERAL 1
second E-OVERALL 0.657354
second A-GENERAL 0.270727
second E-COMPANY 9.7637e-006
w E-COMPANY 0.332578
january A-GENERAL 1
either E-COMPANY 0.375177
illustrate A-MISCELLANEOUS 1
its A-DESIGN_FEATURES 0.117221
solid A-DESIGN_FEATURES 0.137657
dissatisfied A-GENERAL 1
excellent A-DESIGN_FEATURES 0.080737
assure E-GRAPHICS 1
excellent E-DISPLAY 0.0469838
model A-GENERAL 0.336718
305-n410bl A-GENERAL 1
easily E-KEYBOARD 0.0487667
easily A-USABILITY 0.120619
accommodate E-KEYBOARD 1
large E-KEYBOARD 0.193754
as E-SOFTWARE 0.000634529
hand E-KEYBOARD 0.172216
as A-GENERAL 9.45162e-006
weight E-KEYBOARD 4.46841e-005
upgrade A-USABILITY 0.165668
7 A-USABILITY 0.224338
starter A-USABILITY 0.311892
thru A-USABILITY 1
home A-USABILITY 0.257545
snap POSITIVE 0.893816
both E-OVERALL 4.39883e-005
sky A-GENERAL 1
knapsack A-PORTABILITY 1
after A-USABILITY 0.0151324
other A-DESIGN_FEATURES 0.0827807
install A-DESIGN_FEATURES 0.354026
music A-USABILITY 0.108867
such A-DESIGN_FEATURES 6.30114e-005
a E-HARD_DISC 1.51107e-005
certain A-DESIGN_FEATURES 0.306818
printer A-DESIGN_FEATURES 0.37564
software A-DESIGN_FEATURES 0.0576669
attractive A-DESIGN_FEATURES 1
cae A-MISCELLANEOUS 1
? E-COMPANY 0.0901004
experience NEGATIVE 0.773641
experience E-SUPPORT 0.10618
nothing E-SUPPORT 0.000104741
ghz A-GENERAL 0.753972
downs A-QUALITY 1
margin E-DISPLAY 0.999852
receive E-OVERALL 0.00200632
over A-QUALITY 0.0738006
over E-SUPPORT 0.110808
constantly E-OVERALL 0.537424
every NEGATIVE 0.164587
always NULL 0.000249143
always E-OVERALL 0.0800938
always A-QUALITY 0.00117709
thank E-COMPANY 1
always E-SUPPORT 0.0608144
seem A-QUALITY 0.239673
step E-COMPANY 1
seem E-SUPPORT 0.181154
long A-QUALITY 0.115813
twenty E-SUPPORT 0.461209
process E-SUPPORT 0.338768
like A-QUALITY 6.52508e-006
game E-SUPPORT 0.0848815
plan A-QUALITY 0.463273
you E-SUPPORT 0.000108113
give E-SUPPORT 0.0735646
give NEGATIVE 0.000166315
one E-SUPPORT 0.00208746
prolem E-COMPANY 1
story A-QUALITY 1
way NEGATIVE 1.8177e-005
money E-COMPANY 0.0301506
relate E-COMPANY 1
rather E-COMPANY 0.128082
out E-COMPANY 0.00989451
date E-COMPANY 0.332585
then E-COMPANY 0.0482867
spend E-COMPANY 0.081265
more E-COMPANY 0.0509735
remember E-COMPANY 1
first E-COMPANY 0.0359584
before E-COMPANY 0.0508983
before A-GENERAL 0.00911382
consider E-COMPANY 0.131541
nice E-KEYBOARD 5.14209e-005
nice A-USABILITY 1.27825e-005
at E-KEYBOARD 1.51025e-005
at A-USABILITY 0.00182967
damn A-GENERAL 1
that E-SOFTWARE 0.0261827
type E-KEYBOARD 0.72712
with E-KEYBOARD 0.00040163
buy E-KEYBOARD 0.00489589
protector E-KEYBOARD 1
for E-KEYBOARD 0.000169418
my E-KEYBOARD 1.12913e-006
pad E-KEYBOARD 0.20403
work E-KEYBOARD 0.00433389
mouse NEUTRAL 0.0844421
a E-MOUSE 6.83497e-007
group E-SOFTWARE 0.993215
bit A-DESIGN_FEATURES 0.21803
garageband E-SOFTWARE 1
different E-MOUSE 0.187126
what E-MOUSE 0.0533467
you A-DESIGN_FEATURES 6.97285e-005
though E-MOUSE 0.0648395
presentation E-SOFTWARE 1
- E-MOUSE 4.38146e-007
- NEUTRAL 0.0236196
one E-MOUSE 0.0229293
one NEUTRAL 0.000272687
touch-mouse E-MOUSE 1
flat E-MOUSE 0.290113
panel E-MOUSE 1
and E-MOUSE 0.000485835
reinstall E-SOFTWARE 0.308466
full E-MOUSE 0.0959572
reinstall A-USABILITY 0.407264
photo E-SOFTWARE 0.805331
bar E-MOUSE 0.268026
-lrb- E-MOUSE 0.0209723
instead E-MOUSE 0.614466
separate E-MOUSE 1
-rrb- E-MOUSE 1.86366e-006
click E-MOUSE 0.628938
with E-MOUSE 1.94162e-007
do E-HARD_DISC 4.75245e-007
background E-OS 0.4738
part A-MISCELLANEOUS 0.0422749
part POSITIVE 0.00165463
come A-MISCELLANEOUS 0.0449097
free A-MISCELLANEOUS 0.317029
printer A-MISCELLANEOUS 0.210378
-lrb- A-MISCELLANEOUS 0.101715
when A-MISCELLANEOUS 3.62454e-006
go A-MISCELLANEOUS 0.000395252
-rrb- A-MISCELLANEOUS 0.00104036
; E-HARD_DISC 0.0215872
keeper A-DESIGN_FEATURES 1
simple A-DESIGN_FEATURES 1.10344e-005
child A-USABILITY 0.387433
yet A-DESIGN_FEATURES 0.161012
stylish A-DESIGN_FEATURES 1
array A-DESIGN_FEATURES 1
fantastic POSITIVE 0.366007
fantastic A-DESIGN_FEATURES 0.633993
color A-DESIGN_FEATURES 0.631155
choose NULL 8.04674e-005
choose POSITIVE 0.605402
machine A-PRICE 2.58283e-006
modern A-MISCELLANEOUS 1
also A-QUALITY 3.66274e-005
dissappointed E-COMPANY 1
choose A-QUALITY 9.39102e-005
which E-SUPPORT 7.84358e-005
right A-QUALITY 0.150028
: E-SUPPORT 0.0169649
obviously E-OVERALL 0.608976
p-e-r-f-e-c-t POSITIVE 0.14244
exactly E-OVERALL 0.999847
exactly POSITIVE 0.000100201
bad A-OPERATION_PERFORMANCE 0.000280213
bad NEUTRAL 0.0789043
can E-DISPLAY 0.00123846
job NEUTRAL 0.415119
lcd E-DISPLAY 1
stop E-DISPLAY 1.17159e-005
install NEUTRAL 2.11681e-005
mine E-DISPLAY 0.100857
mine NEGATIVE 0.0219349
find E-SUPPORT 0.196485
find NEGATIVE 0.2116
number E-SUPPORT 0.4623
anywhere E-SUPPORT 0.201002
live A-MISCELLANEOUS 0.425147
resolve E-SUPPORT 1
online E-SUPPORT 0.0900679
chat E-SUPPORT 0.276317
solid E-OS 0.0607006
though E-SUPPORT 0.143705
2 E-SUPPORT 0.0273387
drone E-SUPPORT 1
other E-SUPPORT 0.0147624
end E-SUPPORT 0.471916
must E-SUPPORT 0.591411
he E-SUPPORT 0.263977
