E-OVERALL to 0.000230826
A-GENERAL , 0.000571643
A-GENERAL path 0.000419809
A-GENERAL not 4.00343e-005
A-GENERAL bistro 0.000567267
E-OVERALL judging 0.00070552
NEGATIVE brilliant 5.2799e-007
A-GENERAL any 0.000621603
A-GENERAL cozy 0.000245631
E-OVERALL from 1.84036e-007
NEGATIVE way 0.00615208
A-GENERAL longer 1.30694e-007
NEGATIVE almost 0.00517937
A-GENERAL gets 0.000459249
A-GENERAL . 1.66459e-005
A-GENERAL certain 0.000839222
E-OVERALL posts 4.72146e-007
A-GENERAL flair 0.000368576
E-OVERALL this 0.0771508
E-OVERALL be 0.00160358
E-OVERALL a 0.00358865
E-OVERALL place 0.040324
NEUTRAL consider 0.0300368
NEGATIVE day- 0.000559006
E-OVERALL any 0.000119822
A-GENERAL all 0.00217603
; overly 0.000116182
A-MISCELLANEOUS scared 0.0022026
NEGATIVE , 1.1449e-006
A-GENERAL NULL 0.0181847
A-GENERAL complained 0.000424861
; desserts 9.59003e-009
NEGATIVE not 0.0980377
A-GENERAL judging 4.47472e-007
NEGATIVE being 5.86797e-007
E-AMBIENCE lots 0.000147164
A-GENERAL me 0.00673214
NEGATIVE any 0.00828862
A-GENERAL from 1.56799e-006
A-GENERAL about 0.00160668
; way 7.35491e-008
NEGATIVE longer 0.00190191
A-GENERAL previous 0.000780636
E-AMBIENCE complain 0.00353759
A-GENERAL small 7.78439e-006
NEGATIVE . 2.21883e-005
E-AMBIENCE hidden 0.00354304
A-GENERAL posts 0.00014445
E-AMBIENCE bathrooms 5.51474e-006
A-GENERAL this 0.0131759
E-AMBIENCE laugh 0.00353906
A-GENERAL used 0.00029743
A-GENERAL to 0.055434
A-GENERAL be 0.0251543
NEGATIVE soup 3.67523e-008
A-GENERAL a 0.0173346
NEGATIVE filling 8.19625e-007
A-GENERAL good 1.24089e-005
NEGATIVE yet 2.20425e-006
A-GENERAL place 0.0270776
A-GENERAL but 0.011866
A-GENERAL threw 0.00041009
A-PRICES price 0.0698105
NEGATIVE NULL 0.00019261
E-OVERALL price 0.0068834
A-GENERAL table 0.000519613
A-PRICES eat 9.46636e-007
A-GENERAL dozens 9.30451e-006
NEUTRAL crowded 7.59557e-007
E-OVERALL you 0.00015558
; cozy 7.40987e-009
A-MISCELLANEOUS ourselves 1.35155e-005
NEGATIVE from 3.70934e-005
A-PRICES well 1.03914e-006
E-AMBIENCE outing 0.00134157
A-GENERAL failed 8.02505e-007
E-OVERALL can 0.00303175
A-GENERAL teenage 2.04972e-005
E-OVERALL eat 0.00442131
NEGATIVE posts 0.000624947
A-GENERAL kids 0.000587524
E-OVERALL well 2.26622e-006
NEGATIVE this 2.17927e-005
E-OVERALL manhattan 0.00175298
NEGATIVE used 0.00157412
; french 0.000691874
NEGATIVE to 0.000263277
; onion 3.89351e-009
NEGATIVE be 0.000302869
A-MISCELLANEOUS person 0.0169367
NEGATIVE a 0.000188359
A-GENERAL after 0.000996636
; yet 1.77904e-006
A-MISCELLANEOUS likes 0.0162317
NEGATIVE place 1.37782e-006
A-GENERAL that 0.000144414
A-MISCELLANEOUS entertained 0.00845419
NEGATIVE but 0.039935
; some 9.53615e-007
NEGATIVE threw 1.94442e-005
; NULL 0.000287973
NEGATIVE table 0.0135232
; from 0.00396603
NEGATIVE lousy 0.00285358
NEGATIVE too 0.000150163
; this 2.96522e-005
NEGATIVE sweet 0.00213712
NEGATIVE or 6.93705e-005
; to 0.0144757
NEGATIVE salty 0.00284939
E-AMBIENCE tiny 0.000426303
; be 0.000154529
E-LOCATION blocks 0.0243052
; are 0.00369328
; a 0.0588648
NEGATIVE tiny 0.00464179
; good 5.45134e-005
; delicious 9.24808e-007
NEGATIVE after 1.51333e-007
; place 1.16055e-007
; , 0.117472
; portion 1.40226e-007
NEGATIVE that 0.0216519
; but 0.0115787
; without 1.56648e-005
NEGATIVE complained 0.000944298
; not 5.98891e-005
; being 0.00194468
NEGATIVE me 0.0104733
; any 0.000123667
NEGATIVE about 0.010038
; wife 4.27612e-008
NEGATIVE small 0.0160187
; . 0.223389
; all 0.000223878
E-FOOD overly 0.000236974
E-SERVICE , 4.10138e-006
E-FOOD across 4.44597e-009
E-SERVICE there 0.000430641
; ! 0.0319715
E-SERVICE were 8.85123e-006
; i 0.00217518
E-FOOD pizza 0.0095071
; have 0.000105437
; eaten 2.11926e-006
E-FOOD cold 2.29419e-005
E-SERVICE us 0.00059745
E-FOOD cheese 0.00496272
E-SERVICE arrived 8.58003e-007
; many 0.00123195
E-FOOD even 0.00122493
E-SERVICE noon 0.00197195
; is 0.0272412
E-FOOD shredded 0.000928131
; always 1.93423e-007
E-FOOD partly 3.01296e-006
; after 5.29802e-009
E-FOOD done 0.0011903
E-SERVICE was 1.82845e-007
E-FOOD still 0.00010652
E-SERVICE waitstaff 0.00788937
; best 1.48045e-006
E-SERVICE totally 1.34356e-007
; restaurant 2.84526e-008
E-SERVICE staff 0.0536348
E-AMBIENCE fun 0.00994114
E-FOOD most 0.000590804
E-SERVICE like 7.8195e-006
; in 0.0204739
E-FOOD overpriced 8.34777e-007
; duck 1.47635e-007
E-FOOD soggy 1.37382e-007
E-SERVICE them 3.40804e-005
E-FOOD yes 0.0020661
E-SERVICE they 0.0668485
E-FOOD use 0.00140843
E-SERVICE very 1.95238e-006
E-FOOD fancy 0.00140721
E-SERVICE rude 0.000334973
; small 3.10902e-005
A-GENERAL we 0.0183466
E-OVERALL avoid 3.40376e-007
A-GENERAL there 0.0157246
NEGATIVE horrible 0.00246849
A-GENERAL were 0.000118381
NEGATIVE delivered 0.000288577
A-GENERAL of 4.45975e-005
NEGATIVE cold 0.00469451
E-AMBIENCE entertainment 0.0106225
A-GENERAL us 4.28527e-005
A-GENERAL over 0.000132923
E-OVERALL saul 0.000939819
E-AMBIENCE through 4.77809e-006
NEGATIVE even 0.000917836
A-GENERAL at 7.50464e-006
NEGATIVE fully 0.000926688
A-GENERAL noon 2.65686e-006
A-GENERAL amazed 0.000406904
E-OVERALL is 3.1295e-007
A-GENERAL - 3.78364e-008
A-GENERAL the 0.000138079
E-AMBIENCE least 0.00765699
A-GENERAL was 0.000647141
NEGATIVE still 0.000155518
E-AMBIENCE seats 0.00354491
A-GENERAL waitstaff 1.05225e-005
NEGATIVE strips 0.000948868
A-GENERAL and 0.000606029
E-AMBIENCE uncomfortable 0.00352149
A-GENERAL totally 0.000795966
E-OVERALL restaurant 0.0151206
NEGATIVE one 0.0176174
A-GENERAL staff 0.00209637
E-AMBIENCE interior 3.59125e-007
A-GENERAL acted 0.000417272
A-GENERAL one-hour 2.64991e-005
E-OVERALL smith 0.00139681
A-GENERAL drive 0.000620918
E-OVERALL street 0.000182427
NEGATIVE overrated 0.00156536
A-GENERAL like 0.000128824
A-GENERAL coming 0.000709174
NEGATIVE restaurants 4.79033e-007
A-GENERAL imposing 7.30231e-005
A-GENERAL leon 0.000562285
E-OVERALL brooklyn 2.95594e-005
NEGATIVE overpriced 0.00424548
A-GENERAL on 0.0065789
NEGATIVE soggy 0.00428322
A-GENERAL them 0.00127288
A-GENERAL they 0.00880176
A-GENERAL very 0.011002
A-GENERAL rude 0.00071035
E-AMBIENCE liked 1.51308e-005
A-GENERAL tip 1.55658e-006
NEGATIVE we 3.47586e-005
A-GENERAL avoid 1.52634e-005
; across 2.88422e-008
NEGATIVE there 0.00647403
E-AMBIENCE fabulous 4.81436e-007
A-GENERAL ! 3.44598e-005
NEGATIVE were 0.000117435
NEGATIVE four 4.91843e-006
NEGATIVE of 8.00905e-007
; cold 1.56647e-007
NEGATIVE us 0.0195965
A-GENERAL saul 0.000972175
; cheese 4.10634e-007
NEGATIVE arrived 0.00279693
; even 9.73653e-005
A-MISCELLANEOUS please 0.000164011
NEGATIVE at 2.20338e-005
NEGATIVE noon 1.60912e-007
A-GENERAL is 0.071997
NEGATIVE - 5.44751e-008
NEGATIVE the 1.95853e-005
NEGATIVE was 0.000154613
NEGATIVE empty 0.00378785
A-GENERAL restaurant 0.0165197
; one 0.00174362
A-GENERAL smith 9.39003e-006
; most 0.000646836
NEGATIVE acted 1.01008e-005
A-GENERAL street 0.000988617
NEGATIVE like 5.63282e-005
A-GENERAL in 0.0017203
NEGATIVE imposing 0.00078672
A-GENERAL brooklyn 0.000807366
E-AMBIENCE village 0.000142463
NEGATIVE on 0.00187126
NEGATIVE them 0.00566617
; yes 6.50458e-006
NEGATIVE they 0.000547956
NEGATIVE very 7.56046e-006
; fancy 1.14407e-008
NEGATIVE rude 0.00775147
E-AMBIENCE incredibly 0.00279506
; fried 9.16573e-007
NEGATIVE tip 0.00106523
; we 0.000153793
NEGATIVE avoid 0.00186802
; there 1.89458e-006
NEGATIVE ! 2.76945e-006
; were 0.00312763
; of 0.0379953
; us 2.62629e-007
; arrived 1.37229e-005
E-SERVICE even 0.00015557
E-AMBIENCE is 3.29949e-005
; at 0.0142103
A-MISCELLANEOUS signs 0.0042309
; - 0.000657967
; the 0.121543
; was 0.00231486
E-AMBIENCE restaurant 1.12354e-006
; empty 3.09261e-007
; and 0.118751
; staff 6.76336e-008
; like 0.00977373
; on 0.0164287
; they 0.00603377
; very 0.000180799
E-FOOD ingredients 0.00109687
E-SERVICE brought 9.54295e-008
; with 0.0168438
E-FOOD someone 1.61511e-008
E-AMBIENCE loud 0.00375263
; figs 4.42679e-007
E-AMBIENCE family 0.000525082
; out 0.000144789
E-FOOD how 5.48071e-006
E-SERVICE ignored 0.00198467
; world 2.9277e-008
E-FOOD crust 0.00234287
E-SERVICE repeated 0.00197753
E-SERVICE young 0.00198479
; wine 5.03644e-008
E-FOOD right 2.66322e-008
E-SERVICE requests 0.00203777
E-SERVICE trained 0.00198435
E-SERVICE for 1.39692e-006
E-SERVICE nevertheless 0.00198342
; interesting 7.3557e-006
E-SERVICE sugar 0.000127981
E-AMBIENCE went 7.82619e-006
E-SERVICE whom 2.35371e-006
; has 0.00189653
E-FOOD NULL 1.96757e-006
E-FOOD some 0.00726958
E-SERVICE threw 1.43111e-005
E-SERVICE story 2.02127e-007
E-FOOD meals 0.000560304
E-FOOD life 6.66059e-005
E-FOOD minnow 6.60051e-005
E-SERVICE table 0.000960013
A-GENERAL never 0.0053747
NEGATIVE unless 0.00274575
NEGATIVE someone 0.00365592
NEGATIVE knows 0.000291608
NEGATIVE how 0.00649207
A-GENERAL ignored 2.47758e-008
A-GENERAL repeated 1.54234e-006
A-GENERAL requests 0.00037649
NEGATIVE big 4.70241e-006
A-GENERAL for 0.00280684
NEGATIVE disappointment 0.00216683
A-GENERAL sugar 0.000392949
A-PRICES values 0.00379625
A-GENERAL our 0.0118014
; ingredients 2.20566e-008
NEGATIVE never 0.00928393
E-AMBIENCE warm 0.00025192
E-AMBIENCE lively 0.000709811
NEGATIVE complimentary 0.00284713
E-AMBIENCE atmosphere 0.0485129
; knows 1.20471e-005
NEUTRAL world 4.79147e-006
; how 0.000227994
; crust 1.18766e-008
; right 1.85946e-008
NEGATIVE requests 0.00102816
NEGATIVE for 0.0251259
NEGATIVE sugar 3.62192e-006
; meals 1.55295e-007
NEGATIVE our 9.47862e-006
; never 3.94796e-007
E-SERVICE knows 0.00453265
; for 0.0215975
; our 1.99234e-007
; dishes 1.6863e-006
; table 3.87469e-008
A-QUALITY partly 0.000777008
E-FOOD the 0.121688
A-QUALITY seafood 0.00154534
E-FOOD food 0.0431875
A-QUALITY done 0.000363343
E-FOOD was 0.0395544
A-QUALITY shredded 1.803e-005
E-FOOD - 0.00188499
A-QUALITY this 3.73525e-007
E-FOOD too 0.00843621
E-FOOD sweet 3.09098e-005
A-QUALITY combination 1.96478e-007
E-FOOD or 5.15104e-006
A-QUALITY super-fresh 0.000568972
E-FOOD salty 9.29034e-007
A-QUALITY strips 2.12898e-006
E-FOOD and 0.000747887
A-QUALITY are 0.0111133
E-FOOD portions 0.00139782
A-STYLE_OPTIONS filling 0.0114865
A-QUALITY good 0.0318696
A-QUALITY unusual 6.5029e-005
E-FOOD wife 0.00121074
A-QUALITY consider 1.50472e-005
A-QUALITY NULL 0.00351164
A-QUALITY the 0.0525753
A-QUALITY food 0.0672533
A-QUALITY specials 0.000609529
E-FOOD consistently 0.00111344
A-QUALITY was 0.14453
A-STYLE_OPTIONS ever-changing 1.84034e-007
A-QUALITY lousy 6.00562e-007
E-FOOD is 0.00112809
A-QUALITY - 0.021177
A-QUALITY too 0.00595251
A-STYLE_OPTIONS surprises 0.00583757
A-QUALITY sweet 0.00288411
A-QUALITY or 1.32323e-005
A-QUALITY salty 2.52848e-006
A-QUALITY and 0.000150607
A-STYLE_OPTIONS are 0.000703057
A-QUALITY . 1.1748e-007
; food 1.61909e-007
; lousy 1.30421e-008
; too 0.000117339
; sweet 5.19424e-009
E-FOOD french 0.000901294
E-SERVICE to 1.21665e-006
; or 0.00879738
; salty 7.7045e-009
POSITIVE path 1.61013e-006
A-QUALITY always 3.33883e-005
POSITIVE seafood 1.67434e-007
A-QUALITY consistently 0.000491228
A-QUALITY is 0.0038798
POSITIVE this 0.000480105
POSITIVE offers 4.59103e-006
POSITIVE surprises 4.81246e-007
POSITIVE super-fresh 4.83097e-008
POSITIVE are 0.00061609
A-STYLE_OPTIONS portions 0.0355379
POSITIVE good 0.0244801
POSITIVE unusual 0.000320793
A-STYLE_OPTIONS tiny 2.33928e-006
E-FOOD delicious 0.00837239
E-SERVICE after 0.0131725
E-FOOD , 0.0042171
E-FOOD pastrami 1.8174e-007
E-SERVICE all 6.21881e-007
E-FOOD portion 0.00226872
E-SERVICE that 7.74833e-005
E-SERVICE complained 2.94682e-007
E-FOOD being 2.40697e-007
E-SERVICE me 4.34469e-005
E-FOOD ridiculous 5.10833e-005
E-SERVICE about 1.53431e-007
E-FOOD fried 0.0022747
A-MISCELLANEOUS walked 0.0149796
E-SERVICE tip 0.00174014
; that 0.0172544
; me 1.16081e-006
; about 0.00178812
E-FOOD i 0.00398308
A-QUALITY of 0.00154684
E-FOOD have 0.0223591
E-FOOD eaten 0.00176952
A-QUALITY even 0.0132388
E-FOOD at 1.8821e-006
E-FOOD saul 0.000122059
A-STYLE_OPTIONS even 1.71984e-006
A-QUALITY at 5.50476e-007
E-FOOD many 9.33094e-006
E-FOOD outrageously 7.69123e-005
A-QUALITY filling 1.17846e-007
E-FOOD good 0.00611254
A-QUALITY i 0.00134861
A-QUALITY have 0.0230541
A-QUALITY eaten 2.17172e-007
A-QUALITY , 0.0197673
A-STYLE_OPTIONS menus 0.00564765
A-QUALITY outrageously 0.000689099
POSITIVE NULL 0.374715
POSITIVE i 0.0279333
E-OVERALL horrible 2.60006e-007
POSITIVE have 0.000550724
A-STYLE_OPTIONS many 0.00030697
POSITIVE at 0.000465349
POSITIVE saul 3.64692e-005
POSITIVE , 0.00372451
POSITIVE many 2.72279e-005
POSITIVE times 1.17795e-006
E-OVERALL casual 1.73472e-006
POSITIVE the 0.0161402
POSITIVE food 3.4822e-006
POSITIVE is 0.0195201
A-GENERAL casual 0.00101639
POSITIVE always 0.00633897
POSITIVE consistently 6.49468e-008
POSITIVE outrageously 0.0003317
POSITIVE . 0.00339869
E-OVERALL on 0.00012461
E-AMBIENCE overcompensate 0.00122514
A-GENERAL probably 3.06965e-005
POSITIVE best 0.000126168
POSITIVE restaurant 0.000476995
POSITIVE on 7.99449e-005
E-OVERALL one 6.9926e-006
POSITIVE street 0.000139107
E-OVERALL probably 0.00471189
POSITIVE and 0.00510332
E-OVERALL most 4.19292e-006
POSITIVE in 0.0190279
E-OVERALL overrated 0.000249426
POSITIVE brooklyn 4.03765e-007
E-FOOD duck 0.000616164
E-FOOD confit 0.000467349
E-FOOD amazing 0.00118864
A-QUALITY : 8.47413e-006
E-FOOD foie 0.00023184
E-FOOD gras 0.000409266
A-QUALITY basic 0.000377649
E-FOOD terrine 1.96658e-006
E-FOOD with 0.000120458
E-FOOD figs 0.000468591
A-QUALITY lively 0.000311761
A-QUALITY delivered 1.77904e-005
E-FOOD of 0.00173304
E-FOOD world 0.0016832
A-QUALITY duck 0.00131028
A-QUALITY confit 3.54498e-006
A-QUALITY amazing 0.00691425
A-QUALITY foie 0.000395358
A-QUALITY gras 0.000100166
A-QUALITY terrine 0.000695804
A-QUALITY with 6.84341e-005
A-QUALITY out 1.04186e-006
A-QUALITY world 0.00490225
E-OVERALL restaurants 0.00203577
POSITIVE duck 3.99927e-006
POSITIVE amazing 0.00161882
POSITIVE foie 2.16712e-007
POSITIVE gras 5.79768e-008
POSITIVE terrine 3.71113e-005
POSITIVE with 0.00798911
E-OVERALL lunch 0.00349302
POSITIVE was 0.000478887
POSITIVE out 0.00776993
POSITIVE of 0.00184197
POSITIVE world 5.09051e-005
POSITIVE whom 2.62216e-006
A-GENERAL how 1.43228e-005
E-DRINKS wine 0.261675
NEUTRAL big 3.87174e-006
E-DRINKS list 0.00217475
A-GENERAL even 5.42292e-006
E-OVERALL at 3.5369e-005
E-DRINKS interesting 0.0130329
A-GENERAL big 0.000215986
E-OVERALL for 0.000192657
E-DRINKS many 0.00211452
A-GENERAL disappointment 0.000669868
E-DRINKS values 0.00501186
A-GENERAL day- 0.00016028
A-STYLE_OPTIONS wine 1.78191e-006
POSITIVE for 0.00699617
A-STYLE_OPTIONS list 0.0694907
POSITIVE amazed 0.000362173
A-STYLE_OPTIONS interesting 0.000710984
POSITIVE story 0.000142186
E-OVERALL how 0.000224353
POSITIVE list 3.04618e-006
POSITIVE interesting 0.000893881
E-OVERALL big 0.00881519
POSITIVE has 0.00305309
E-OVERALL disappointment 7.07392e-008
POSITIVE price 6.99212e-007
POSITIVE you 0.0192682
POSITIVE can 0.00942553
POSITIVE eat 0.0042334
POSITIVE well 0.00769968
POSITIVE manhattan 0.00168817
; price 4.76753e-008
; you 0.000109239
; can 4.22747e-005
; eat 3.52031e-006
; well 1.74731e-005
E-FOOD for 0.00277908
E-FOOD price 1.63962e-006
E-FOOD you 0.000355941
E-FOOD can 0.00110097
A-QUALITY desserts 3.40036e-007
E-FOOD not 0.00394166
E-FOOD eat 0.000147684
E-FOOD well 8.92474e-007
E-FOOD in 1.25921e-005
A-STYLE_OPTIONS big 7.16877e-006
A-QUALITY for 0.000536911
A-QUALITY price 3.89328e-006
A-QUALITY you 1.23731e-007
A-QUALITY not 0.000167828
A-QUALITY eat 9.97929e-006
A-QUALITY well 0.00227703
A-QUALITY in 0.000186704
A-QUALITY manhattan 6.94836e-008
E-OVERALL i 0.113839
E-OVERALL very 4.01544e-006
A-GENERAL decide 1.07855e-006
E-OVERALL disappointed 5.34973e-005
A-GENERAL fare 0.000685026
E-AMBIENCE quaint 0.00707039
A-GENERAL i 0.017498
A-GENERAL disappointed 2.60729e-007
A-GENERAL with 9.65218e-006
NEGATIVE i 1.07754e-005
NEGATIVE disappointed 0.00733856
A-MISCELLANEOUS walking 0.000951834
NEGATIVE with 1.00368e-006
NEGATIVE restaurant 5.49184e-005
E-SERVICE ive 0.000306179
E-SERVICE asked 0.0175542
E-FOOD soup 0.00072823
E-SERVICE cart 4.85762e-008
E-LOCATION located 0.0484754
E-LOCATION end 5.90501e-005
E-FOOD comes 0.000938808
E-SERVICE she 0.00642283
E-FOOD large 0.00245545
E-SERVICE replied 1.66586e-006
E-LOCATION block 7.22815e-006
A-GENERAL ive 0.000618655
A-GENERAL asked 6.53307e-005
A-GENERAL cart 0.000420319
A-GENERAL attendant 9.46081e-005
A-GENERAL lotus 6.24224e-006
A-GENERAL leaf 5.258e-006
E-AMBIENCE recently 7.21641e-007
A-GENERAL wrapped 9.8147e-007
A-GENERAL she 9.41693e-005
E-AMBIENCE lovely 0.00425797
A-GENERAL replied 1.30316e-005
A-GENERAL back 0.0114304
A-GENERAL just 2.20058e-006
NEGATIVE incredibly 4.3187e-006
A-GENERAL away 0.000169776
; another 4.23616e-005
NEGATIVE ive 0.000360469
NEGATIVE asked 5.18898e-007
NEGATIVE cart 3.20451e-006
NEGATIVE attendant 0.000738024
NEGATIVE lotus 0.000937376
NEGATIVE leaf 0.000939596
NEGATIVE wrapped 0.000949244
A-MISCELLANEOUS co-workers 7.24799e-005
NEGATIVE rice 9.64531e-006
; comes 7.33083e-008
NEGATIVE she 0.000514447
; large 6.86347e-009
NEGATIVE replied 0.00187272
NEGATIVE back 4.86973e-006
E-AMBIENCE inside 0.00143931
NEGATIVE just 0.000406911
NEGATIVE walked 0.000151224
NEGATIVE away 8.96412e-005
; rice 1.87994e-006
; just 9.23767e-005
E-SERVICE refuse 0.00183684
; away 0.00199439
E-SERVICE ask 8.49605e-006
E-SERVICE her 0.00595109
E-SERVICE times 0.000354228
E-FOOD oily 7.61005e-007
E-SERVICE came 0.00981409
NEGATIVE seat 3.30085e-008
NEGATIVE parties 7.24843e-007
A-GENERAL ask 0.00031436
NEGATIVE weekends 4.9835e-008
A-GENERAL her 6.76053e-007
NEGATIVE hostess 1.36177e-005
A-PRICES beat 0.0148595
A-GENERAL three 0.000827707
A-GENERAL times 0.00695777
A-MISCELLANEOUS concern 0.00568707
NEGATIVE offensive 3.74178e-005
A-GENERAL before 2.13585e-005
NEGATIVE oily 0.00456994
A-GENERAL finally 0.000636805
A-MISCELLANEOUS health 0.000856694
NEGATIVE understand 8.13517e-007
A-GENERAL came 0.0012353
A-MISCELLANEOUS fool 0.00738931
NEGATIVE hype 0.00113123
A-GENERAL requested 1.86912e-006
E-AMBIENCE cramped 0.013053
; weekends 2.6359e-009
; years 6.89709e-009
NEGATIVE times 5.24066e-006
NEGATIVE before 0.00946504
NEGATIVE requested 0.000947242
E-SERVICE seat 0.000536501
; had 2.74171e-005
E-SERVICE parties 0.000496276
; ask 5.95171e-008
E-SERVICE hostess 0.00466736
E-SERVICE worried 0.00198457
E-FOOD nothing 8.60854e-005
E-FOOD great 0.00275235
A-QUALITY okay 2.04447e-005
A-QUALITY nothing 0.000243061
A-QUALITY great 0.000616323
; $ 2.2125e-007
; specials 1.21814e-008
NEUTRAL okay 0.029965
E-LOCATION noise 0.0016105
NEUTRAL nothing 0.130444
; waitstaff 3.09723e-008
; okay 5.06156e-008
A-MISCELLANEOUS first 1.00133e-006
; nothing 0.000127283
A-MISCELLANEOUS long 0.00849563
E-SERVICE somehow 0.00372359
; great 0.002454
E-FOOD chow 0.00138471
A-QUALITY glass 0.000187365
E-FOOD dry 0.000531725
A-QUALITY while 0.00315932
E-FOOD ; 8.16777e-005
A-QUALITY waited 5.54448e-007
E-FOOD pork 0.000443613
E-FOOD shu 0.000447311
E-FOOD mai 0.000253209
E-FOOD more 0.000586275
E-FOOD than 0.00476991
E-FOOD usually 0.000311011
E-FOOD greasy 7.70261e-008
E-FOOD had 0.0304984
A-QUALITY french 1.49318e-006
E-FOOD to 4.40072e-005
E-FOOD share 0.00038867
A-QUALITY soup 0.00347909
E-FOOD a 0.000640786
A-QUALITY minnow 0.000663652
A-QUALITY fancy 1.99254e-006
A-QUALITY yummy 0.00238556
E-FOOD family 4.53491e-006
A-QUALITY chow 3.95083e-005
A-QUALITY dry 0.00229933
A-QUALITY ; 1.40237e-007
A-QUALITY pork 0.00238906
A-QUALITY shu 3.67761e-005
A-QUALITY mai 0.000358624
A-QUALITY more 4.54482e-007
A-QUALITY than 1.97353e-006
A-QUALITY usually 0.00182802
A-QUALITY greasy 0.000154656
A-QUALITY had 0.0100709
A-STYLE_OPTIONS french 2.49603e-006
A-QUALITY to 3.85692e-006
A-QUALITY share 0.00169831
A-QUALITY a 6.96904e-005
NEGATIVE dry 0.000882009
NEGATIVE pork 1.27481e-007
NEGATIVE shu 1.798e-007
NEGATIVE mai 1.975e-006
; fast 8.55051e-008
NEGATIVE more 0.00160779
; people 9.15355e-005
NEGATIVE than 0.000298927
NEGATIVE greasy 0.0017146
; sure 2.01804e-006
NEGATIVE share 2.81431e-008
A-MISCELLANEOUS kind 1.662e-006
; yummy 5.89091e-008
NEGATIVE family 2.12323e-006
E-SERVICE managed 3.41126e-007
E-SERVICE short 4.80139e-007
; dry 4.21319e-008
; ; 0.00270346
E-SERVICE when 0.000343864
E-AMBIENCE decor 0.0401263
E-SERVICE sat 0.000267731
E-AMBIENCE cool 0.00779205
E-SERVICE fast 0.0129329
E-AMBIENCE understated 1.88405e-005
; more 3.40319e-005
E-SERVICE people 0.00101085
; than 0.000547987
E-SERVICE forget 0.00194655
; share 9.60391e-008
; loud 1.5675e-009
; family 3.71481e-006
E-AMBIENCE a 9.5948e-006
E-SERVICE add 0.000134925
E-SERVICE day- 6.43834e-005
A-GENERAL fun 0.00343275
A-GENERAL ; 2.41155e-006
NEUTRAL those 0.0168342
NEUTRAL rolls 5.28176e-007
NEGATIVE when 1.03014e-006
E-AMBIENCE l 0.00354477
A-GENERAL more 0.00643346
A-GENERAL than 0.00168054
A-GENERAL loud 1.02908e-006
A-GENERAL family 4.05611e-007
A-GENERAL atmoshpere 0.000210734
E-OVERALL i/we 0.000696025
E-OVERALL will 0.0182925
E-OVERALL never 0.0052271
A-GENERAL expected 0.000360305
E-OVERALL go 0.0336218
A-GENERAL partial 1.17537e-005
E-OVERALL back 0.0109561
E-OVERALL again 0.000427661
A-GENERAL i/we 3.98041e-007
NEGATIVE expensive 0.00276199
A-GENERAL will 0.00341448
A-GENERAL go 0.00485403
NEGATIVE reviews 0.00227958
A-GENERAL again 0.00293095
NEGATIVE i/we 1.29032e-005
NEGATIVE go 1.71084e-005
NEGATIVE again 0.0102427
; go 1.10586e-007
; again 0.000857353
NEUTRAL guess 0.00996688
E-OVERALL went 2.17995e-006
NEUTRAL might 0.0300935
NEUTRAL fit 0.0100702
E-OVERALL oyster 0.000706189
A-GENERAL group 6.37151e-005
A-GENERAL birthday 0.0016549
E-AMBIENCE hesititate 0.00354482
A-GENERAL taken 0.000679403
E-OVERALL bringing 3.99401e-006
E-AMBIENCE write 0.00575867
A-GENERAL care 5.88194e-005
E-OVERALL up 0.000239176
A-GENERAL waitress 1.67392e-006
E-AMBIENCE self 0.00353947
A-GENERAL patient 0.000344853
E-OVERALL am 0.00775996
E-OVERALL so 0.000209995
A-GENERAL prompt 0.00166364
E-OVERALL it 0.0828802
A-GENERAL side 1.15233e-006
E-OVERALL o 0.000706185
A-GENERAL fantastic 0.000496382
E-OVERALL trip 0.00302052
A-GENERAL shorter 0.00029658
A-GENERAL located 2.64919e-006
E-OVERALL because 3.83579e-006
A-GENERAL somehow 5.22692e-005
E-OVERALL great 6.97153e-006
NEGATIVE read 0.000950652
A-GENERAL went 0.00475812
A-GENERAL 3 0.000138997
A-GENERAL day 0.000220395
NEGATIVE flavor 0.00238552
A-GENERAL oyster 4.79852e-008
A-GENERAL binge 0.000416448
A-GENERAL up 0.000429092
E-AMBIENCE relax 0.0102654
A-GENERAL closing 7.01213e-006
A-GENERAL so 0.00975644
E-AMBIENCE delightful 0.000403456
A-GENERAL glad 0.00112225
NEGATIVE pricey 0.00331178
A-GENERAL it 0.0411892
NEGATIVE side 0.00207182
A-GENERAL o 5.00397e-008
E-AMBIENCE pay 1.09697e-006
A-GENERAL trip 0.00196682
A-GENERAL ended 2.76238e-006
A-GENERAL because 0.0058531
A-GENERAL great 0.00162163
POSITIVE went 0.000249417
POSITIVE a 0.0112818
E-OVERALL prices 0.0100286
POSITIVE day 0.00222425
E-OVERALL dozens 0.000690677
E-OVERALL failed 2.93028e-007
POSITIVE binge 4.39834e-006
E-OVERALL teenage 0.000671944
POSITIVE fish 2.06815e-008
E-OVERALL kids 0.00110128
POSITIVE bringing 9.41101e-008
E-OVERALL everytime 0.000655416
POSITIVE up 0.00652044
E-OVERALL decide 0.000704463
POSITIVE closing 6.53748e-007
E-OVERALL another 1.21829e-007
POSITIVE am 1.23074e-006
E-OVERALL ues 0.000644938
POSITIVE so 0.00545229
POSITIVE glad 0.000118632
POSITIVE place 0.000577303
E-OVERALL zucchero 3.47879e-005
POSITIVE it 0.00260249
E-OVERALL pomodori 3.61115e-006
POSITIVE trip 2.09215e-005
E-OVERALL favorite 0.00486008
POSITIVE ended 2.05674e-006
E-OVERALL neighborhood 0.000942306
POSITIVE because 2.81837e-005
POSITIVE great 0.0381483
POSITIVE ! 0.00721899
E-SERVICE group 0.0096241
; fish 1.2805e-007
E-SERVICE care 0.00567756
; up 1.69761e-006
E-SERVICE waitress 0.00991607
E-SERVICE patient 5.98088e-006
; so 0.00088032
E-SERVICE prompt 0.00757828
; it 2.45729e-005
E-SERVICE fantastic 7.95124e-007
E-SERVICE shorter 0.000321584
; because 3.44109e-006
E-SERVICE service 0.156095
E-SERVICE devine 0.00107399
E-FOOD hands 2.57725e-005
E-FOOD gari 9.36006e-005
E-FOOD onion 0.000468239
A-GENERAL service 0.0177121
A-GENERAL devine 0.000192892
NEUTRAL packed 0.0132924
NEGATIVE inside 6.04859e-005
E-AMBIENCE hang 0.0064299
A-GENERAL where 0.00235443
A-GENERAL as 2.80632e-005
NEGATIVE prices 7.8271e-009
NEGATIVE cramped 1.99164e-007
A-GENERAL ca 1.97537e-005
A-GENERAL n't 0.00317134
E-AMBIENCE review 0.00874939
POSITIVE service 2.5193e-006
POSITIVE devine 5.34297e-007
E-OVERALL partial 0.000685773
POSITIVE oysters 0.000673167
E-OVERALL gnocchi 0.000220301
POSITIVE where 0.00113365
POSITIVE sensual 1.92353e-005
POSITIVE as 0.014518
POSITIVE they 1.97596e-005
POSITIVE come 3.06818e-007
POSITIVE ca 2.29644e-005
POSITIVE n't 3.93193e-008
POSITIVE be 3.83596e-005
POSITIVE beat 3.14051e-007
; service 8.21759e-005
; sensual 0.000211453
A-MISCELLANEOUS response 0.00811485
; as 1.12505e-005
; come 1.26085e-006
; n't 1.38595e-005
E-FOOD sensual 2.04469e-005
E-FOOD as 6.90178e-005
E-FOOD they 0.000512226
A-QUALITY hands 0.00149617
E-FOOD come 0.00173924
A-QUALITY gari 0.000587075
E-FOOD n't 4.89172e-007
A-QUALITY onion 2.04892e-006
E-FOOD beat 1.21263e-007
A-QUALITY where 5.73495e-008
A-QUALITY sensual 1.00298e-007
A-QUALITY as 0.000191536
A-QUALITY they 5.03497e-006
A-QUALITY come 6.64501e-007
A-QUALITY n't 2.93368e-007
A-QUALITY ! 3.96969e-007
A-PRICES champagne 2.30119e-006
A-GENERAL end 0.00126417
A-GENERAL magnificent 0.000352136
A-GENERAL block 2.18387e-006
A-GENERAL inside 0.00233213
E-OVERALL where 0.000125257
E-OVERALL as 2.56675e-007
E-OVERALL they 2.72469e-007
E-OVERALL come 2.76192e-007
A-GENERAL cramped 0.000133751
E-OVERALL ca 0.0105132
E-OVERALL n't 0.00306012
A-GENERAL planet 0.000563411
E-OVERALL beat 6.02857e-007
NEGATIVE if 0.0063159
E-OVERALL wrong 0.000643912
E-OVERALL here 0.00353757
E-AMBIENCE crowded 0.000197367
A-GENERAL you 0.0297221
A-GENERAL wrong 0.00236147
A-GENERAL here 0.00369912
POSITIVE go 0.000303535
POSITIVE wrong 0.00017112
POSITIVE here 0.00303113
; here 4.52198e-006
E-OVERALL every 1.29015e-005
A-GENERAL greatest 6.22513e-008
E-OVERALL time 0.00884097
E-OVERALL new 9.26741e-007
A-GENERAL keep 3.88862e-006
E-OVERALL york 0.00240056
A-GENERAL first 1.99298e-007
E-OVERALL make 1.07973e-005
E-OVERALL visit 0.00250891
A-GENERAL every 0.0027178
NEGATIVE greatest 0.00189804
A-GENERAL time 0.0057632
E-AMBIENCE dark 0.000175174
A-GENERAL new 0.00023809
NEGATIVE keep 6.72495e-007
A-GENERAL york 0.00284622
NEGATIVE first 2.74974e-005
A-GENERAL make 0.00624695
NEGATIVE long 0.000946767
E-AMBIENCE affordable 3.14721e-005
A-GENERAL point 0.00145619
E-AMBIENCE ambient 0.00117913
A-GENERAL visit 0.00150881
E-OVERALL understand 0.000208066
POSITIVE every 0.00192168
E-OVERALL hype 4.23408e-005
POSITIVE time 0.000146699
POSITIVE new 0.00609874
POSITIVE york 0.000296552
POSITIVE make 1.6266e-006
POSITIVE point 0.000169415
POSITIVE to 0.0220969
POSITIVE visit 5.60936e-006
; every 1.00549e-005
; time 0.000794565
E-AMBIENCE clean 0.00682492
; new 8.41275e-007
E-AMBIENCE vent 0.00352258
E-AMBIENCE ceiling 0.00649926
; make 0.000501001
E-AMBIENCE quite 1.21513e-006
; visit 0.000838628
E-FOOD everything 0.00375514
E-FOOD cooked 6.4262e-005
E-FOOD perfection 0.000646037
E-FOOD excellent 5.76157e-006
A-QUALITY rolls 5.41348e-005
A-QUALITY sashimi 1.06873e-007
A-QUALITY disgusting 2.26693e-006
A-STYLE_OPTIONS choices 0.018503
A-QUALITY everything 0.00543895
A-QUALITY cooked 0.00223899
A-STYLE_OPTIONS section 0.00394207
A-QUALITY perfection 0.000184653
A-STYLE_OPTIONS those 0.0255428
A-QUALITY excellent 0.00147966
POSITIVE everything 1.4905e-005
POSITIVE perfection 0.000133143
POSITIVE excellent 0.0108682
POSITIVE decor 4.02532e-007
POSITIVE cool 6.69849e-006
POSITIVE understated 1.45187e-005
E-AMBIENCE un-appetizing 0.00353633
; everything 9.18425e-007
E-AMBIENCE kills 4.0707e-005
; perfection 1.70549e-006
E-AMBIENCE effort 0.000287274
; excellent 0.000450036
; decor 2.83194e-008
E-AMBIENCE sleek 0.00351296
E-AMBIENCE modern 0.00176834
E-FOOD choices 7.62942e-008
E-SERVICE is 1.49377e-005
E-SERVICE always 0.000952727
E-FOOD dumplings 0.00168618
E-FOOD those 4.37822e-007
E-SERVICE excellent 2.12823e-006
E-FOOD rolls 0.00325371
E-FOOD sashimi 0.00093889
E-FOOD disgusting 2.21357e-006
E-SERVICE understated 2.12135e-006
A-GENERAL always 0.00732121
NEGATIVE section 0.00126734
A-GENERAL excellent 4.81762e-005
A-GENERAL decor 0.002817
A-GENERAL cool 0.00159538
NEGATIVE disgusting 0.00379859
A-GENERAL understated 0.000401557
A-QUALITY finish 1.42038e-005
E-FOOD breast 0.000465487
A-QUALITY piece 3.53267e-005
E-FOOD special 0.000360833
E-FOOD my 0.000711669
E-FOOD last 1.62941e-007
E-FOOD it 0.000587863
E-FOOD incredible 0.00110146
A-QUALITY breast 6.64641e-006
A-QUALITY special 0.000262161
A-QUALITY my 3.69453e-005
A-QUALITY it 3.56187e-005
A-QUALITY incredible 0.00203313
POSITIVE had 1.49708e-005
POSITIVE special 0.00492171
POSITIVE my 0.0163078
E-OVERALL sure 0.0058969
POSITIVE last 0.00293358
E-OVERALL often 0.000233423
POSITIVE incredible 1.88504e-005
; special 0.000149195
E-SERVICE hurley 0.000812214
; my 0.00127645
E-SERVICE cheers 0.00198464
E-SERVICE name 0.000156988
; incredible 3.9812e-008
A-GENERAL actually 8.53464e-005
A-GENERAL hurley 0.000245472
E-OVERALL my 0.00221687
E-DRINKS listed 0.000199236
E-OVERALL next 0.000239137
E-AMBIENCE ones 0.000968523
A-GENERAL wait 0.0035399
A-GENERAL my 0.00895226
E-AMBIENCE country 0.000494144
A-GENERAL next 0.00175009
POSITIVE wait 2.60589e-006
POSITIVE next 0.00122874
E-SERVICE actually 1.21491e-005
E-OVERALL hate 0.000679742
E-OVERALL say 1.48553e-006
A-GENERAL since 0.00112292
A-GENERAL opened 0.00035415
E-OVERALL 'll 0.00411778
A-GENERAL garden 0.00193707
A-GENERAL hate 0.000436759
E-AMBIENCE winter 0.00708983
A-GENERAL say 3.8034e-007
A-GENERAL doubt 2.80147e-005
A-GENERAL 'll 4.59257e-006
E-AMBIENCE *not* 0.00354491
A-MISCELLANEOUS cover 0.00846227
NEGATIVE hate 1.87521e-006
NEGATIVE say 0.000299996
; since 2.39878e-005
A-MISCELLANEOUS forward 3.04211e-007
NEGATIVE doubt 0.00183972
A-MISCELLANEOUS snowy 0.00846227
NEGATIVE 'll 0.000151078
NEGATIVE ever 0.000214759
E-FOOD very 0.000134608
E-FOOD average 2.20226e-007
E-FOOD ... 1.89712e-006
A-QUALITY over-bearing 1.94907e-006
E-FOOD thai 0.0011797
E-FOOD stuff 0.000954244
E-FOOD bit 0.00702499
E-FOOD serve 0.00184355
E-FOOD here 0.0032851
A-QUALITY very 0.00149355
A-QUALITY average 1.67437e-005
A-QUALITY ... 3.63896e-006
A-QUALITY thai 0.0102761
A-QUALITY fusion 2.26228e-007
A-QUALITY stuff 0.00153458
A-STYLE_OPTIONS tartare 0.00590084
A-QUALITY bit 4.35518e-006
A-STYLE_OPTIONS variety 0.0108358
A-STYLE_OPTIONS bet 6.57281e-005
A-QUALITY thing 8.42344e-007
A-QUALITY serve 3.21856e-005
A-QUALITY here 2.5128e-005
NEGATIVE average 0.00538492
NEGATIVE ... 8.94399e-006
; over-bearing 2.78778e-005
NEGATIVE thai 4.21471e-005
A-MISCELLANEOUS either 3.00447e-007
NEGATIVE fusion 0.000951164
NEGATIVE stuff 3.77921e-008
NEGATIVE bit 1.61277e-006
NEGATIVE thing 0.0047944
NEGATIVE here 2.3868e-006
; average 3.99077e-007
E-SERVICE helpful 0.000537463
; ... 0.0131212
; thai 0.000771828
E-SERVICE rushed 0.00153657
; fusion 4.66102e-009
; stuff 1.19268e-006
; bit 5.59632e-006
; thing 1.24851e-006
; serve 7.51169e-006
E-FOOD only 2.43127e-006
E-FOOD moderately 0.000463665
E-FOOD enjoyed 0.00176638
E-FOOD their 0.0144789
E-FOOD grilled 3.27419e-006
A-QUALITY selection 1.90012e-005
E-FOOD chicken 0.00241103
A-QUALITY gigondas 7.51185e-005
E-FOOD edamame 1.37965e-005
E-FOOD puree 4.45016e-008
A-QUALITY moderately 9.68232e-006
A-QUALITY enjoyed 0.000184153
A-QUALITY their 0.00164257
A-QUALITY grilled 0.00155859
A-STYLE_OPTIONS selection 0.0656271
A-QUALITY chicken 0.00536326
A-QUALITY edamame 0.00130664
A-QUALITY puree 4.62967e-006
POSITIVE only 5.95285e-007
POSITIVE enjoyed 2.62245e-007
E-OVERALL side 0.00136365
POSITIVE their 1.18199e-005
E-DRINKS selection 1.2566e-005
POSITIVE chicken 2.12318e-006
E-DRINKS gigondas 0.00910838
POSITIVE edamame 0.000104887
E-DRINKS champagne 0.0100731
POSITIVE puree 0.000347783
; only 3.29991e-005
E-LOCATION traffic 0.0456079
; enjoyed 3.1155e-007
; their 5.92905e-006
; chicken 5.12478e-008
A-QUALITY ingredients 0.00364695
E-FOOD pureed 1.72024e-007
E-FOOD before 3.7731e-007
E-FOOD but 0.000101045
E-FOOD thought 7.86101e-005
E-FOOD innovative 5.53492e-009
E-FOOD tasty 0.00269437
E-FOOD ( 0.0172963
E-FOOD could 0.000937416
E-FOOD 've 0.000161156
A-QUALITY above-average 0.000774967
E-FOOD used 1.94269e-005
E-FOOD salt 1.0274e-006
E-FOOD ) 0.00083583
A-QUALITY pureed 0.00071674
A-QUALITY before 4.87599e-007
A-STYLE_OPTIONS impressive 0.0106297
A-QUALITY but 9.09816e-006
A-QUALITY thought 5.1829e-008
A-QUALITY innovative 4.52911e-005
A-QUALITY tasty 0.00861111
A-QUALITY ( 0.000487816
A-QUALITY could 1.0794e-007
A-QUALITY 've 1.11726e-005
A-QUALITY ) 0.0200031
POSITIVE never 3.35576e-005
POSITIVE pureed 2.90815e-005
POSITIVE but 4.43803e-006
POSITIVE innovative 0.000329615
POSITIVE tasty 8.61977e-005
POSITIVE ( 2.23435e-005
POSITIVE could 0.000547198
POSITIVE 've 4.76223e-005
E-OVERALL hungry 0.000484041
E-OVERALL gem 0.0028753
POSITIVE more 0.00125724
POSITIVE salt 6.31837e-007
E-OVERALL planet 0.00117531
POSITIVE ) 0.00370655
; thought 4.79863e-008
; tasty 7.66833e-007
; ( 0.00128343
; could 0.00220566
; 've 0.00457309
E-AMBIENCE ambiance- 0.0034477
; ) 0.00118414
POSITIVE ingredients 2.99848e-008
POSITIVE impressive 6.93802e-005
A-STYLE_OPTIONS innovative 7.07155e-008
POSITIVE recommended 5.01418e-005
POSITIVE response 3.57614e-007
A-STYLE_OPTIONS used 0.00353466
POSITIVE tartare 2.7342e-008
POSITIVE fast 6.22275e-005
A-STYLE_OPTIONS salt 0.00587773
E-AMBIENCE but 1.20783e-006
E-AMBIENCE place 0.000179442
A-GENERAL night 0.000455769
A-GENERAL tho 2.64474e-005
E-AMBIENCE citysearch 9.77641e-006
A-GENERAL ... 1.78485e-006
A-GENERAL really 3.66244e-007
A-GENERAL need 5.03389e-005
A-GENERAL clean 0.000845028
A-GENERAL vent 2.65745e-006
A-GENERAL ceiling 7.02617e-005
A-GENERAL its 2.02152e-006
A-GENERAL quite 5.60583e-005
A-GENERAL un-appetizing 1.02139e-006
A-GENERAL kills 0.000415857
A-GENERAL your 0.00833742
A-GENERAL effort 0.000387572
A-GENERAL look 0.0012119
A-GENERAL sleek 8.10071e-006
A-GENERAL modern 0.000106174
; coming 2.64751e-007
NEGATIVE its 0.0051027
NEGATIVE quite 0.000442919
NEGATIVE kills 2.36654e-006
NEUTRAL decent 0.0298385
NEGATIVE your 2.78295e-005
; first 2.82928e-007
NEGATIVE make 0.000344145
NEGATIVE sleek 0.000941748
NEGATIVE modern 0.000237307
E-AMBIENCE relaxed 1.44659e-005
E-AMBIENCE stylish 1.11339e-007
; really 0.00140303
; clean 9.45833e-007
; its 7.86936e-005
; quite 0.00173484
; your 3.81076e-005
E-AMBIENCE however 0.000938211
E-AMBIENCE 's 1.45598e-005
; look 1.46708e-007
; sleek 2.69552e-009
E-OVERALL thailand 7.59257e-008
POSITIVE night 0.00297823
E-OVERALL hit 5.02396e-006
POSITIVE ... 1.63966e-005
POSITIVE really 0.00718605
E-OVERALL suppose 0.000696699
POSITIVE clean 2.34681e-005
POSITIVE that 0.000228206
E-OVERALL keep 0.0042282
E-OVERALL long 6.98715e-007
POSITIVE quite 2.97682e-007
POSITIVE your 0.00420954
POSITIVE look 9.74002e-006
E-DRINKS sake 0.0403059
A-GENERAL lunch 1.39629e-008
E-DRINKS extensive 0.0013243
A-GENERAL sometimes 0.00235043
A-GENERAL nice 0.00621749
A-GENERAL step 2.56995e-005
A-GENERAL cheers 3.16688e-008
E-OVERALL last 1.31111e-005
A-GENERAL name 2.71914e-005
A-GENERAL weekends 0.000409671
A-GENERAL companion 0.000301321
E-OVERALL we 0.0457041
A-STYLE_OPTIONS extensive 0.0219728
A-STYLE_OPTIONS purple 8.62059e-007
A-STYLE_OPTIONS haze 6.30535e-007
A-STYLE_OPTIONS which 4.05059e-006
POSITIVE gari 1.74658e-005
POSITIVE loved 1.61719e-005
POSITIVE extensive 0.000400544
POSITIVE we 0.00173722
E-OVERALL nice 8.92808e-008
POSITIVE were 0.000196103
POSITIVE looking 0.00247605
POSITIVE purple 0.000281018
POSITIVE haze 0.000282765
POSITIVE which 0.010469
POSITIVE made 0.00176305
POSITIVE upon 5.13098e-006
POSITIVE request 1.66643e-007
; sake 2.65868e-008
; extensive 9.91761e-008
; looking 5.88703e-005
; purple 4.6127e-005
; haze 4.49526e-005
; which 4.85752e-005
; listed 0.000230209
; made 7.72249e-005
; upon 0.000269938
E-SERVICE but 0.000586915
E-SERVICE which 1.8951e-007
E-SERVICE upon 6.17189e-005
E-SERVICE request 0.00100839
A-GENERAL looking 0.000684031
A-GENERAL purple 2.77363e-008
A-GENERAL haze 4.92664e-008
A-GENERAL which 5.64865e-007
A-GENERAL upon 0.000760665
A-GENERAL request 0.000207274
E-FOOD spicy 0.00318214
E-FOOD tuna 0.00237373
E-FOOD roll 0.001783
E-FOOD unusually 0.000469477
E-FOOD rock 0.000467992
E-FOOD shrimp 0.00192537
E-FOOD tempura 0.000625631
E-FOOD awesome 0.000467909
E-FOOD appetizer 0.00456525
A-QUALITY spicy 0.00251883
A-QUALITY tuna 0.00230215
A-QUALITY roll 0.00315203
A-QUALITY rock 1.58647e-007
A-QUALITY shrimp 0.0030453
A-QUALITY tempura 8.96997e-008
A-QUALITY awesome 2.61158e-006
A-QUALITY appetizer 0.000214377
E-OVERALL opened 0.000107648
POSITIVE spicy 3.69382e-007
POSITIVE roll 6.00268e-005
POSITIVE rock 3.69212e-007
POSITIVE shrimp 1.67516e-006
POSITIVE tempura 0.000233012
POSITIVE appetizer 2.53647e-007
E-OVERALL fare 2.4096e-005
; tuna 1.459e-008
; rock 4.46947e-007
; tempura 3.07378e-007
; appetizer 1.31849e-007
E-FOOD read 1.08668e-007
E-SERVICE around 3.1798e-007
E-SERVICE 9:30 0.00198479
E-SERVICE friday 0.00197458
E-SERVICE died 1.7466e-006
E-SERVICE then 0.0105853
E-SERVICE great 7.35969e-006
A-GENERAL around 0.00093922
E-AMBIENCE curtious 0.00178157
A-GENERAL friday 2.17021e-006
A-GENERAL down 0.00123818
E-AMBIENCE romance 0.00351052
A-GENERAL bit 1.65729e-006
A-GENERAL by 2.50612e-005
A-GENERAL then 0.00127952
POSITIVE around 6.31992e-005
POSITIVE died 1.30849e-006
POSITIVE down 0.000285215
POSITIVE by 9.55247e-005
; around 3.96436e-006
; down 1.40207e-008
; by 0.00671227
E-OVERALL love 0.00187333
E-OVERALL th 0.000704939
E-OVERALL pink 0.000625542
E-OVERALL pony 0.00029982
A-GENERAL love 0.00318444
E-AMBIENCE itself 0.00707405
A-GENERAL th 7.32448e-007
A-GENERAL pink 4.35529e-005
A-GENERAL pony 0.000239661
POSITIVE love 0.00202778
POSITIVE th 5.11905e-008
POSITIVE pink 3.86055e-006
POSITIVE pony 2.53078e-006
; love 2.62679e-007
E-OVERALL perfect 1.19044e-006
E-OVERALL spot 0.0057052
E-AMBIENCE room 0.0142522
A-GENERAL perfect 0.00106747
E-AMBIENCE quietly 0.00353999
A-GENERAL spot 0.00102352
POSITIVE perfect 0.00401112
E-OVERALL recommended 0.0025036
POSITIVE spot 6.70672e-006
; perfect 3.85204e-008
E-FOOD food-awesome 0.000231181
A-QUALITY food-awesome 0.000384899
E-OVERALL response 2.82741e-005
POSITIVE food-awesome 5.38708e-006
E-SERVICE service- 0.00194052
E-SERVICE friendly 0.0121888
E-SERVICE attentive 0.00246331
E-AMBIENCE music 0.0106193
A-GENERAL service- 9.40625e-006
E-AMBIENCE shout 1.67785e-007
A-GENERAL friendly 0.00778018
A-GENERAL attentive 0.00317744
POSITIVE friendly 0.000493869
POSITIVE attentive 0.00112837
A-GENERAL ambiance- 1.1566e-005
A-GENERAL relaxed 0.001165
A-GENERAL stylish 6.30269e-005
POSITIVE relaxed 0.000431625
POSITIVE stylish 0.000297589
E-OVERALL do 0.014066
E-OVERALL judge 0.0014123
E-OVERALL prima 0.000706269
E-OVERALL facie 0.000705725
A-GENERAL lived 2.22162e-006
E-OVERALL have 0.000159738
E-OVERALL try 0.00678326
E-OVERALL home 0.00170994
A-GENERAL refuse 3.14386e-005
E-OVERALL literate 0.000578516
E-OVERALL heart 1.82429e-005
A-GENERAL do 0.000716302
E-AMBIENCE clubhouse 0.00354491
E-AMBIENCE beautiful 3.40534e-006
A-GENERAL facie 3.25062e-007
A-GENERAL have 0.000270298
A-GENERAL try 0.00198895
E-AMBIENCE ambiance 0.00917089
E-AMBIENCE wonderfull 2.89846e-006
A-GENERAL literate 7.62608e-005
A-GENERAL heart 0.000409146
POSITIVE do 7.98674e-006
POSITIVE judge 1.1713e-007
POSITIVE try 0.00553414
POSITIVE home 0.000111232
POSITIVE away 5.32836e-007
POSITIVE from 2.37299e-006
POSITIVE literate 2.2421e-008
POSITIVE heart 1.41874e-006
; do 9.1775e-006
E-LOCATION breathtaking 1.46735e-006
E-AMBIENCE area 2.44153e-006
E-LOCATION 2 8.31943e-007
E-OVERALL off-set 4.3698e-005
E-FOOD decent 1.15876e-008
A-QUALITY decent 0.00159446
; casual 3.01459e-008
E-SERVICE however 0.000672154
E-SERVICE leaves 2.69083e-008
E-SERVICE bad 1.28796e-006
A-GENERAL however 0.00293924
A-GENERAL 's 0.000346755
A-GENERAL leaves 0.000238301
A-GENERAL bad 1.42331e-006
NEGATIVE however 0.00280638
E-AMBIENCE open 5.01101e-006
; pricey 5.16239e-009
NEGATIVE it 0.00014046
NEGATIVE leaves 0.000413844
NEGATIVE bad 0.00951073
NEGATIVE taste 0.000424334
NEGATIVE my 2.06434e-005
NEGATIVE mouth 9.70333e-007
; however 2.65041e-005
; 's 1.03827e-005
E-SERVICE happen 0.00198479
E-SERVICE have 8.21704e-007
E-SERVICE self-respect 0.00195215
E-SERVICE includes 0.00136903
E-FOOD desserts 0.000469254
E-SERVICE letting 0.00189693
E-SERVICE waiter 0.0118433
E-SERVICE intimidate 0.000569707
E-SERVICE i.e 0.00198405
E-FOOD first 0.000516372
E-SERVICE make 0.00331371
E-SERVICE feel 2.23159e-005
E-SERVICE asking 0.00396818
E-FOOD combination 0.000469359
A-MISCELLANEOUS took 6.40181e-005
A-GENERAL policy 0.000356072
A-GENERAL goes 0.000346001
A-GENERAL little 1.64412e-007
A-GENERAL self-respect 6.9362e-006
A-GENERAL includes 0.000130599
A-GENERAL letting 1.86337e-005
A-GENERAL waiter 0.00212158
A-GENERAL intimidate 0.000299542
A-GENERAL i.e 1.5644e-007
A-GENERAL feel 0.00240303
A-GENERAL asking 2.95994e-007
A-GENERAL trivialities 0.000411947
A-GENERAL water 6.18983e-008
A-GENERAL or 1.10533e-006
A-GENERAL check 0.00153983
E-AMBIENCE weekends 0.00364621
; lived 1.50921e-006
A-MISCELLANEOUS vacation 0.00435567
NEGATIVE have 3.50424e-006
NEGATIVE policy 0.000148167
NEGATIVE goes 0.000170887
NEGATIVE little 4.64703e-005
NEGATIVE includes 5.50102e-007
NEGATIVE letting 7.85526e-008
NEGATIVE intimidate 2.59334e-006
NEGATIVE trivialities 2.21134e-005
NEGATIVE water 0.00285409
; little 4.85383e-007
; feel 9.69163e-007
E-SERVICE know 0.00737713
E-SERVICE you 1.38805e-005
E-SERVICE busy 2.4998e-005
E-SERVICE your 1.05955e-005
E-SERVICE vintage 0.00191565
A-MISCELLANEOUS further 1.97326e-005
E-SERVICE shirt 0.00197299
A-MISCELLANEOUS truth 0.0043097
A-MISCELLANEOUS attracted 0.000622953
E-FOOD hit 0.000466138
A-MISCELLANEOUS dressed 0.0046029
E-SERVICE company 4.12055e-005
A-MISCELLANEOUS crowd 0.0163514
E-SERVICE pleasant 6.64484e-008
A-GENERAL know 0.000541174
A-GENERAL too 2.82862e-006
A-GENERAL busy 3.68017e-007
A-GENERAL showing 0.000417098
A-PRICES worth 0.024942
A-GENERAL vintage 1.46909e-005
A-GENERAL tee 0.000421702
A-GENERAL shirt 2.50635e-006
A-GENERAL agenda 0.00042103
A-GENERAL 'm 3.39865e-005
A-GENERAL eat 0.00054705
A-GENERAL enjoy 0.00353028
A-GENERAL company 0.000834743
A-GENERAL seeking 1.79389e-006
A-GENERAL pleasant 0.00290293
A-GENERAL experience 0.0028367
A-MISCELLANEOUS crowded 0.000362187
NEGATIVE you 4.4305e-006
NEGATIVE showing 1.04925e-005
NEGATIVE off 2.10122e-005
NEGATIVE tee 1.07154e-007
NEGATIVE agenda 1.62209e-006
A-MISCELLANEOUS occassion 0.00232719
NEGATIVE seeking 0.000947411
A-MISCELLANEOUS aware 0.00786059
A-MISCELLANEOUS cash 0.00289749
NEGATIVE experience 0.00100135
; off 0.000237164
; experience 3.41546e-008
NEUTRAL amex 0.00943885
NEUTRAL exception 7.87037e-007
E-OVERALL find 0.0062727
A-GENERAL across 6.12257e-007
E-OVERALL there 0.00149315
E-OVERALL trust 0.00070241
NEUTRAL pepper 0.000298578
NEUTRAL watering 0.00845995
E-OVERALL think 0.000834687
E-OVERALL about 1.52203e-006
NEUTRAL cash 0.00662655
E-OVERALL experience 0.00219024
A-GENERAL well 1.01002e-006
A-GENERAL did 0.000626097
A-GENERAL find 0.000455636
A-GENERAL trust 2.10115e-006
A-GENERAL told 0.000685787
A-GENERAL everyone 0.000920608
A-GENERAL can 0.000945927
A-PRICES fixe 1.63273e-006
A-GENERAL think 0.000901458
A-MISCELLANEOUS amex 0.000535799
NEGATIVE did 0.00946595
NEGATIVE n't 0.0647816
NEGATIVE trust 4.58911e-007
NEGATIVE told 1.44208e-005
A-MISCELLANEOUS popular 0.0135219
NEGATIVE think 0.000664892
E-AMBIENCE stepping 0.00338454
; did 0.00139627
E-AMBIENCE into 2.06865e-005
E-AMBIENCE haven 8.99163e-005
E-AMBIENCE tranquility 0.00151439
A-GENERAL incredibly 0.000930781
E-OVERALL walked 5.00739e-005
E-OVERALL by 1.70641e-006
E-OVERALL pretty 0.000121628
E-OVERALL hmmm 4.78699e-007
E-FOOD $ 0.00400263
A-MISCELLANEOUS looked 0.00376858
A-MISCELLANEOUS empty 1.47798e-005
A-MISCELLANEOUS hmmm 2.94753e-005
NEGATIVE last 2.03453e-007
; greatest 1.16811e-006
NEGATIVE time 1.0435e-005
NEGATIVE by 4.06033e-005
NEGATIVE looked 0.00229217
NEGATIVE pretty 2.1745e-007
NEGATIVE hmmm 0.000947499
; pretty 9.91797e-005
A-GENERAL whom 0.000418089
E-OVERALL japanese 0.00327749
E-OVERALL area 6.2179e-006
A-GENERAL has 0.00465988
A-PRICES quantity 1.04217e-005
A-GENERAL area 0.00175268
POSITIVE got 8.58846e-005
POSITIVE japanese 0.000165152
POSITIVE area 0.00134174
A-GENERAL seat 0.000307733
POSITIVE experience 0.00178959
E-SERVICE notch 2.74991e-006
A-PRICES quality 0.00788666
A-GENERAL top 0.000293896
A-GENERAL notch 0.000443544
POSITIVE top 0.00324375
POSITIVE notch 0.000331321
; top 7.57634e-006
NEUTRAL diner-ish 0.0100759
E-OVERALL been 0.0128157
NEUTRAL sparse 0.0100769
E-OVERALL going 0.00801409
A-GENERAL been 0.00252415
A-GENERAL going 0.00069663
POSITIVE been 0.00100283
POSITIVE going 4.04878e-007
POSITIVE back 0.00013293
POSITIVE again 8.79096e-006
; been 7.76404e-007
E-FOOD tend 0.000469477
E-FOOD sushi 0.00789423
E-FOOD by 7.43931e-007
E-FOOD its 9.10308e-005
E-FOOD sea 0.00187255
E-LOCATION along 0.0486281
E-FOOD which 4.96292e-005
E-FOOD heavenly 0.000453959
E-FOOD rose 5.27299e-005
A-QUALITY sushi 0.00796223
A-QUALITY by 7.03051e-006
A-QUALITY its 0.00477258
A-QUALITY sea 8.20312e-006
A-QUALITY urchin 0.00065925
A-QUALITY which 0.000597503
A-QUALITY heavenly 2.57943e-005
A-QUALITY rose 0.00119775
POSITIVE sushi 1.23031e-006
POSITIVE sea 3.24145e-007
POSITIVE urchin 5.49317e-005
POSITIVE heavenly 2.47359e-008
POSITIVE rose 0.000124575
; sushi 4.59006e-009
; rose 9.72373e-009
E-FOOD melted 0.000524429
E-FOOD little 0.00982775
E-FOOD mouth 0.000417782
E-FOOD perfect 1.39373e-006
E-FOOD consistency-not 0.000348447
E-FOOD fishy 0.000351667
E-FOOD creamy 0.000612563
E-FOOD slightly 1.88303e-005
E-FOOD buttery 0.00029168
A-QUALITY melted 2.1066e-007
A-QUALITY little 7.91141e-006
A-QUALITY mouth 0.00164488
A-QUALITY consistency-not 0.000201465
A-QUALITY fishy 0.000196061
A-QUALITY creamy 0.000543683
A-QUALITY slightly 0.00448811
A-QUALITY buttery 0.0010527
POSITIVE little 8.81697e-007
POSITIVE mouth 2.00863e-006
POSITIVE consistency-not 6.25151e-008
E-OVERALL gets 0.0008898
POSITIVE too 0.00172679
POSITIVE fishy 8.0499e-008
POSITIVE slightly 6.33894e-006
POSITIVE buttery 1.14043e-005
E-AMBIENCE rather 5.3242e-005
E-FOOD seemed 0.000875836
E-FOOD pretty 1.10859e-006
E-FOOD fresh 0.00353779
E-FOOD adequately 0.00046832
E-FOOD proportioned 6.82702e-007
A-QUALITY seemed 8.17175e-005
A-QUALITY pretty 0.000261547
A-QUALITY fresh 0.00963461
POSITIVE seemed 1.0326e-005
POSITIVE pretty 0.00351867
POSITIVE fresh 5.00973e-005
POSITIVE proportioned 3.79531e-005
; seemed 1.02682e-007
; fresh 2.76092e-007
; adequately 8.78408e-008
A-STYLE_OPTIONS adequately 1.23379e-005
A-STYLE_OPTIONS proportioned 0.0052526
E-FOOD rice 0.0079496
E-FOOD fish 0.00347447
E-FOOD ration 0.000427462
E-FOOD also 0.00761892
E-FOOD -- 5.48809e-006
E-FOOD did 0.00161598
E-FOOD try 0.000405045
POSITIVE neighborhood 0.000222777
POSITIVE french 4.50252e-005
POSITIVE birthday 2.10222e-005
A-STYLE_OPTIONS ration 0.000528126
A-STYLE_OPTIONS also 0.000616747
A-STYLE_OPTIONS overpack 0.00588009
POSITIVE also 0.000139934
POSITIVE -- 0.00381419
POSITIVE overpack 1.25809e-006
; -- 3.26509e-005
A-QUALITY companion 8.76273e-007
E-FOOD we 3.68641e-005
E-FOOD advanatage 0.000438698
E-FOOD deal 7.96024e-007
E-FOOD saturday 0.000199238
A-QUALITY phenomenal 6.51351e-005
E-FOOD so 0.00387893
E-FOOD worth 4.36894e-006
A-QUALITY we 4.00229e-005
A-QUALITY advanatage 5.12704e-005
A-QUALITY half 1.1153e-005
A-QUALITY saturday 0.00197309
A-QUALITY so 0.000658819
POSITIVE half 8.36081e-007
POSITIVE deal 0.000405697
POSITIVE saturday 1.83914e-005
E-AMBIENCE nice 0.00758111
; half 7.7069e-005
E-AMBIENCE kitchen 0.000153075
; worth 0.000659427
E-OVERALL nothing 1.24807e-006
E-OVERALL could 1.8946e-005
E-OVERALL further 8.76493e-006
E-OVERALL truth 0.000346521
E-FOOD menus 3.06866e-008
E-FOOD if 0.00179835
E-FOOD continually 0.000234354
POSITIVE surprisingly 6.58271e-009
POSITIVE further 0.000693966
POSITIVE truth 2.80121e-008
E-AMBIENCE ambience 0.0383714
E-OVERALL evening 4.15745e-007
E-OVERALL attracted 0.000654277
E-OVERALL dressed 0.000322107
E-OVERALL ny 0.000384756
E-OVERALL crowd 4.15596e-005
E-FOOD dhosas 0.000469477
E-FOOD almost 1.09968e-005
E-FOOD chole 0.000469477
E-FOOD somosas 0.000469457
E-FOOD seafood 0.00103978
POSITIVE evening 0.00187472
POSITIVE ny 0.002809
POSITIVE crowd 3.10746e-006
E-AMBIENCE conversation 0.00956931
; evening 4.85537e-007
E-AMBIENCE casual 3.50971e-005
E-LOCATION river 0.0482811
E-FOOD prepared 3.66117e-006
E-LOCATION weehawken 0.0240361
A-QUALITY prepared 1.38867e-006
POSITIVE prepared 0.00136581
POSITIVE impecable 2.03796e-005
; prepared 0.000190199
E-SERVICE prepared 0.00053569
E-SERVICE impecable 4.62111e-007
E-AMBIENCE unappealing 7.57943e-008
A-GENERAL prepared 2.6182e-006
E-AMBIENCE resturant 1.94985e-007
A-GENERAL impecable 0.000397086
E-OVERALL 'm 0.0104478
POSITIVE 'm 7.74916e-006
E-SERVICE slow 0.000269581
E-AMBIENCE zero 0.00352536
A-GENERAL simply 9.40836e-008
A-GENERAL stepping 1.85815e-005
A-GENERAL out 0.00385975
A-GENERAL manhattan 0.00113576
A-GENERAL into 0.00126279
A-GENERAL haven 0.000401298
A-GENERAL tranquility 0.000241408
POSITIVE simply 3.26447e-006
POSITIVE 's 0.00120764
POSITIVE like 0.00140881
POSITIVE stepping 4.13807e-007
POSITIVE haven 8.0922e-006
POSITIVE tranquility 1.40376e-007
E-LOCATION offer 2.42012e-006
E-FOOD prix 0.000469477
E-FOOD fixe 0.000937238
E-FOOD menu 0.0104668
E-FOOD penny 0.000469477
E-FOOD get 0.0153342
E-FOOD both 9.83267e-005
E-FOOD quantity 0.000558642
E-FOOD quality 0.00254631
A-QUALITY menu 0.000114969
A-QUALITY get 6.0482e-005
A-QUALITY both 0.00907487
A-QUALITY quality 0.00276073
POSITIVE menu 3.61652e-007
POSITIVE get 8.35401e-005
POSITIVE than 7.07208e-005
POSITIVE enough 0.00224038
POSITIVE both 6.4232e-005
POSITIVE quality 4.21446e-007
; fixe 8.07183e-007
; menu 3.89546e-007
; get 4.77267e-006
; both 5.06679e-007
; quality 1.39592e-007
A-STYLE_OPTIONS menu 0.00315423
POSITIVE variety 7.13022e-008
POSITIVE dozens 5.31507e-009
POSITIVE people 5.87296e-005
A-STYLE_OPTIONS enough 0.000993175
A-STYLE_OPTIONS quantity 0.00477236
A-GENERAL pretty 4.80464e-006
A-PRICES more 1.17133e-005
A-PRICES than 4.38998e-006
E-OVERALL heartily 0.000576733
E-OVERALL recommend 0.00372936
A-GENERAL heartily 0.000498767
A-GENERAL recommend 0.00196468
POSITIVE will 1.35211e-006
POSITIVE heartily 2.77894e-007
POSITIVE recommend 0.00596943
E-AMBIENCE step 0.00328466
E-AMBIENCE cosette 0.00354491
; recommend 4.9402e-008
E-FOOD terrific 0.00165413
E-FOOD value 1.57929e-007
A-QUALITY terrific 0.0019299
POSITIVE terrific 2.65137e-006
POSITIVE value 3.11242e-005
E-AMBIENCE miraculously 0.00353097
; terrific 2.92806e-007
E-AMBIENCE off-the-beaten 0.00345013
A-PRICES value 0.0248109
E-FOOD 6 4.17801e-006
E-FOOD much 0.00278691
E-FOOD all 1.67214e-005
E-FOOD refilled 9.65854e-007
A-STYLE_OPTIONS $ 1.7693e-006
A-STYLE_OPTIONS 6 0.00431082
A-STYLE_OPTIONS refilled 0.0022153
POSITIVE 6 0.000441039
POSITIVE there 0.000899816
POSITIVE much 0.00325882
POSITIVE all 0.00828314
POSITIVE continually 3.52219e-008
POSITIVE refilled 0.000202343
E-AMBIENCE parisian 0.000138692
E-AMBIENCE bistro 0.000105337
; much 0.000228651
E-AMBIENCE cozy 0.0227485
E-OVERALL cost 0.000706157
A-QUALITY $ 1.37409e-008
A-QUALITY much 0.000499504
A-STYLE_OPTIONS pastrami 0.000500704
A-QUALITY all 7.09079e-006
A-PRICES $ 0.0639139
NEUTRAL across 0.00512142
NEGATIVE slow 0.00284311
A-PRICES continually 0.00378175
A-PRICES refilled 0.000334144
E-FOOD am 4.32946e-006
E-FOOD vegetarian 0.00182967
A-QUALITY life 0.0014531
E-FOOD dishes 0.00387649
E-FOOD were 0.0171725
A-QUALITY vegetarian 6.8169e-007
A-QUALITY almost 4.9489e-005
A-QUALITY dishes 0.0091268
A-QUALITY were 0.0188611
POSITIVE vegetarian 1.50728e-007
POSITIVE dishes 2.27702e-005
E-AMBIENCE flair 7.62068e-005
E-LOCATION location 0.088626
; almost 0.000109134
E-OVERALL enjoy 0.00162255
A-GENERAL hungry 1.50355e-008
POSITIVE hungry 0.000809471
POSITIVE enjoy 0.000465833
E-FOOD like 0.000425236
A-QUALITY rather 8.21731e-007
A-QUALITY if 0.00108637
A-QUALITY like 2.9271e-005
POSITIVE if 0.000120431
; rather 8.08355e-006
; if 0.00214946
A-MISCELLANEOUS all 4.45588e-006
E-FOOD filling 0.000963631
E-SERVICE only 4.27217e-005
E-SERVICE wait 0.0210368
A-GENERAL rather 2.4113e-007
A-GENERAL only 7.26072e-005
A-GENERAL if 0.000229132
NEGATIVE rather 0.00566013
NEGATIVE only 0.000223764
NEGATIVE wait 1.88657e-007
E-FOOD chai 0.000469477
E-FOOD dhal 0.000469477
E-FOOD kinda 0.000313532
E-FOOD dissapointing 1.04808e-008
A-QUALITY somosas 3.40036e-008
A-QUALITY kinda 0.000259764
A-QUALITY dissapointing 0.000469202
NEUTRAL but 1.1752e-005
NEGATIVE dissapointing 0.000380579
E-SERVICE varys 2.6558e-007
E-FOOD watery 0.000469444
E-SERVICE day 2.65008e-007
E-SERVICE sometimes 0.000832155
E-SERVICE 're 0.0243734
A-PRICES way 0.030729
A-GENERAL varys 0.000418027
A-GENERAL 're 0.00101288
A-MISCELLANEOUS whether 0.000753069
NEGATIVE varys 8.26956e-006
E-AMBIENCE terrace 0.00163805
A-MISCELLANEOUS fit 5.59237e-006
NEUTRAL companion 1.73604e-005
NEGATIVE sometimes 7.13987e-006
E-AMBIENCE companion 0.00100215
E-AMBIENCE across 0.00173765
; 're 1.07499e-007
; nice 8.3712e-005
E-SERVICE kitchen 0.00445525
A-GENERAL kitchen 0.000300195
E-AMBIENCE location 2.53604e-007
A-GENERAL almost 1.82335e-006
A-GENERAL slow 0.00121296
NEGATIVE kitchen 1.89295e-007
; kitchen 6.2466e-009
E-FOOD specify 0.000436401
E-FOOD your 1.49588e-006
E-FOOD spicy- 1.21732e-007
E-FOOD bland 0.000178122
E-FOOD do 8.06197e-006
A-QUALITY also 5.37442e-007
A-QUALITY specify 5.25352e-005
A-QUALITY spicy- 0.000776275
E-OVERALL thanked 0.000706222
A-QUALITY bland 0.00441318
NEGATIVE also 0.000662689
NEGATIVE specify 3.11588e-006
NEGATIVE spicy- 6.75129e-006
A-PRICES at 8.94079e-006
NEGATIVE bland 0.00378422
NEGATIVE do 0.00381184
; bland 1.16482e-008
A-GENERAL ambience 0.000917576
A-GENERAL conversation 0.000548233
A-GENERAL would 0.00677157
POSITIVE nice 0.00621481
POSITIVE conversation 2.27284e-007
POSITIVE lunch 0.000367365
POSITIVE would 4.03604e-008
POSITIVE probably 3.09064e-005
; would 1.45961e-008
; probably 1.58754e-005
POSITIVE - 3.51463e-005
E-OVERALL would 0.0158283
A-MISCELLANEOUS lunch 0.0254029
A-MISCELLANEOUS probably 0.00082916
A-QUALITY meals 0.0014121
A-QUALITY sauce 0.00297174
E-OVERALL recomend 2.53716e-008
E-LOCATION view 0.0972311
E-OVERALL couples 1.44033e-005
E-LOCATION chart 0.0224002
A-GENERAL river 6.01995e-006
A-GENERAL weehawken 4.82245e-006
E-AMBIENCE secret 1.46192e-006
A-GENERAL an 0.00233017
A-GENERAL idea 4.68665e-007
A-PRICES overpriced 0.0342599
A-GENERAL view 4.37445e-007
A-GENERAL chart 3.31976e-005
A-GENERAL offer 0.00118891
POSITIVE ever 0.000391993
POSITIVE an 0.00105174
POSITIVE house 8.74849e-008
POSITIVE offer 6.32984e-005
; an 0.00385191
; house 2.2064e-007
A-GENERAL add 7.50187e-007
A-GENERAL yourself 3.10493e-005
A-GENERAL evening 0.000691277
POSITIVE add 9.87639e-007
POSITIVE reasonable 0.000305181
POSITIVE yourself 7.0706e-009
POSITIVE beginning 1.39375e-006
; add 7.41185e-006
; reasonable 9.0761e-007
E-FOOD add 0.00134724
E-FOOD that 0.000471039
E-FOOD beginning 1.50642e-005
A-QUALITY add 1.41221e-005
A-STYLE_OPTIONS portion 0.000985214
A-QUALITY that 0.00051297
A-PRICES reasonable 0.0562396
A-GENERAL get 5.22937e-007
A-PRICES beginning 0.00728022
E-FOOD lava 0.000469428
E-FOOD cake 0.00020717
E-FOOD dessert 0.00334706
A-QUALITY lava 8.13289e-008
A-QUALITY cake 0.00278302
A-QUALITY dessert 0.00365494
A-GENERAL once 4.83764e-007
E-AMBIENCE paris 5.96617e-008
A-GENERAL miraculously 1.35848e-006
A-GENERAL off-the-beaten 1.12607e-005
A-GENERAL parisian 0.000717192
POSITIVE once 4.24311e-005
POSITIVE step 4.36685e-006
POSITIVE 're 0.000111196
POSITIVE miraculously 2.49227e-007
POSITIVE small 6.11933e-008
POSITIVE off-the-beaten 1.33509e-008
POSITIVE parisian 9.10961e-005
POSITIVE bistro 0.000568189
; once 1.15841e-005
A-GENERAL tiny 3.12201e-007
POSITIVE cozy 1.2171e-007
POSITIVE gets 2.059e-005
POSITIVE certain 3.54833e-006
POSITIVE flair 3.65914e-005
E-FOOD above-average 4.23786e-006
E-FOOD brilliant 2.04416e-007
A-QUALITY brilliant 0.00156328
E-FOOD way 0.00209626
A-QUALITY yet 1.03878e-005
A-QUALITY any 2.36926e-005
E-OVERALL coming 1.24018e-005
POSITIVE ; 0.000103669
POSITIVE yet 0.000674024
POSITIVE any 1.97967e-007
POSITIVE terrace 4.98254e-006
POSITIVE while 0.00173463
A-MISCELLANEOUS associates 0.00817917
POSITIVE however 3.78709e-008
POSITIVE just 4.71937e-006
E-FOOD however 5.61446e-006
A-QUALITY expected 3.30884e-008
E-FOOD just 0.0130142
A-QUALITY fantastic 0.000257354
A-QUALITY however 0.000275991
A-QUALITY just 0.00268893
A-GENERAL horrible 0.000592643
A-QUALITY pizza 0.0115308
A-QUALITY cold 1.28675e-005
A-QUALITY cheese 0.000334332
A-QUALITY fully 2.03591e-005
NEGATIVE melted 0.000839835
E-FOOD looked 0.000536783
A-QUALITY still 0.00516246
A-GENERAL one 0.00296593
A-GENERAL most 1.82057e-006
A-GENERAL overrated 6.81322e-007
A-GENERAL restaurants 0.00426623
NEGATIVE got 4.00618e-005
NEGATIVE brooklyn 0.000992055
E-FOOD them 2.37501e-007
A-QUALITY soggy 0.000389421
A-QUALITY first 2.78212e-005
A-QUALITY unless 7.75285e-006
A-QUALITY someone 9.59836e-008
A-QUALITY how 0.000239837
A-QUALITY crust 7.21068e-006
A-QUALITY right 0.00146781
POSITIVE even 0.000346668
POSITIVE pizza 1.70979e-006
POSITIVE knows 9.51203e-006
POSITIVE how 0.000187149
POSITIVE crust 1.25602e-007
POSITIVE right 0.00144253
E-OVERALL all 0.0191872
E-OVERALL around 3.19322e-005
NEGATIVE around 0.00906754
E-FOOD think 4.77638e-005
E-FOOD best 0.0104155
A-QUALITY some 0.00193616
A-QUALITY best 0.0167727
POSITIVE think 3.54645e-007
POSITIVE some 1.24928e-005
POSITIVE meals 6.29823e-008
POSITIVE minnow 3.7704e-006
E-FOOD 's 0.0321025
E-FOOD ever-changing 0.000469463
E-FOOD surprises 4.42474e-006
A-QUALITY 's 8.61844e-005
A-QUALITY wine 2.47392e-005
POSITIVE gem 1.44468e-005
POSITIVE signs 2.15156e-008
E-FOOD super-fresh 0.000127839
E-FOOD are 0.0263633
E-FOOD really 0.00137274
A-QUALITY really 0.000427609
A-QUALITY delicious 0.0154981
POSITIVE delicious 0.000470539
E-OVERALL worth 0.00375968
A-GENERAL worth 5.86917e-006
E-FOOD ever 0.00244274
A-QUALITY ever 0.00973689
E-FOOD about 5.17633e-008
POSITIVE portion 7.29091e-009
POSITIVE without 0.000955284
POSITIVE being 0.000248187
POSITIVE ridiculous 1.16314e-006
POSITIVE garden 1.28069e-005
A-STYLE_OPTIONS without 0.00119776
A-STYLE_OPTIONS being 5.27611e-007
A-QUALITY about 2.99204e-007
A-STYLE_OPTIONS ridiculous 0.00523957
E-FOOD huge 0.00116277
POSITIVE hurley 3.06076e-006
A-STYLE_OPTIONS wife 0.0142856
A-STYLE_OPTIONS huge 0.0502579
POSITIVE wife 4.04691e-008
POSITIVE huge 2.40228e-006
E-FOOD small 5.04426e-007
A-QUALITY wife 3.08263e-008
A-QUALITY fried 0.000118021
E-OVERALL native 0.000706269
E-OVERALL 've 6.79605e-006
E-OVERALL lived 0.000127572
E-OVERALL tristate 0.000706269
E-OVERALL 8 0.000699534
POSITIVE came 4.42116e-005
E-OVERALL years 2.48884e-008
A-GENERAL gnocchi 0.00028924
NEUTRAL wanted 0.000825127
E-OVERALL just 4.66307e-008
E-AMBIENCE saves 9.03408e-005
A-GENERAL 8 4.02191e-006
E-OVERALL times 0.000928928
E-AMBIENCE desk 4.3418e-007
A-GENERAL years 0.00239132
POSITIVE lived 0.000564421
POSITIVE over 4.30146e-005
POSITIVE years 0.00151496
; over 0.00219403
A-MISCELLANEOUS most 2.73765e-005
A-MISCELLANEOUS japanese 0.0413585
E-FOOD sauce 0.00197163
POSITIVE most 0.00385041
E-OVERALL signs 0.000353111
NEUTRAL ordinary 0.0100058
E-OVERALL totally 7.54287e-005
E-FOOD bistro 6.25301e-007
POSITIVE specials 1.27963e-005
POSITIVE menus 1.50163e-005
POSITIVE totally 2.03522e-006
E-FOOD specials 0.00196427
A-QUALITY japanese 2.14522e-008
E-OVERALL always 1.24701e-007
POSITIVE fun 1.97158e-005
E-OVERALL one-hour 0.000656098
E-DRINKS glass 0.0549127
E-OVERALL drive 0.000342729
POSITIVE one-hour 2.87103e-006
POSITIVE drive 1.48662e-005
E-OVERALL much 7.37989e-008
A-GENERAL much 1.8582e-005
E-DRINKS waited 0.00305951
E-OVERALL leon 0.000470416
POSITIVE portions 1.93237e-007
E-AMBIENCE closes 0.00127232
A-GENERAL east 0.000576176
E-AMBIENCE early 0.000342522
A-GENERAL village 0.000817175
E-AMBIENCE patroon 0.00353415
A-GENERAL gem 0.00163959
E-AMBIENCE features 0.00351318
A-GENERAL : 8.3404e-007
E-AMBIENCE cigar 1.39163e-006
A-GENERAL hip 1.11695e-006
A-GENERAL warm 0.00269499
A-GENERAL lively 3.88362e-009
A-GENERAL atmosphere 0.00476949
POSITIVE village 2.77023e-006
POSITIVE hip 0.000343846
POSITIVE basic 0.000391042
POSITIVE fare 0.000119533
POSITIVE warm 0.000887839
POSITIVE lively 8.24506e-007
POSITIVE atmosphere 2.0868e-006
; village 3.35723e-006
; : 0.00156642
; hip 3.42936e-006
; basic 2.10987e-005
E-AMBIENCE atmoshpere 0.00177343
; atmosphere 3.29348e-009
E-FOOD an 2.22811e-005
E-FOOD : 0.00342705
E-FOOD basic 8.59648e-005
E-FOOD warm 5.62261e-008
E-FOOD lively 0.000187201
A-QUALITY an 4.92403e-007
A-PRICES expensive 0.015777
A-GENERAL trained 9.29532e-008
A-GENERAL nevertheless 2.9183e-007
A-GENERAL story 0.000250318
POSITIVE staff 2.1564e-006
E-DRINKS reasonable 1.19235e-006
NEGATIVE menu 2.0208e-005
A-PRICES prices 0.119327
POSITIVE prices 4.14279e-007
POSITIVE failed 2.43762e-007
E-OVERALL too 0.00481606
POSITIVE our 1.19596e-006
A-STYLE_OPTIONS eat 6.01686e-006
POSITIVE kids 1.55855e-005
E-OVERALL that 1.03318e-006
A-GENERAL another 8.15264e-007
A-GENERAL ues 3.64892e-005
A-GENERAL angry 0.000418736
A-PRICES pricey 0.0264094
A-GENERAL zucchero 0.000380409
A-PRICES side 0.0293465
A-GENERAL pomodori 0.000370796
POSITIVE everytime 0.000374402
POSITIVE ues 1.11917e-007
POSITIVE angry 2.49985e-006
POSITIVE zucchero 1.70621e-005
POSITIVE pomodori 4.04825e-005
; everytime 3.49142e-008
A-GENERAL far 2.3915e-007
A-GENERAL favorite 0.00167575
A-GENERAL neighborhood 0.00212091
POSITIVE far 2.61842e-006
POSITIVE favorite 5.0846e-005
E-AMBIENCE course 0.00909544
A-STYLE_OPTIONS large 0.0104441
POSITIVE partial 4.02695e-007
POSITIVE gnocchi 7.93794e-007
A-GENERAL parties 0.000315974
E-AMBIENCE garden 0.00840311
; sauce 7.37214e-008
A-MISCELLANEOUS might 1.12937e-006
NEGATIVE 3 0.00349226
A-GENERAL hostess 0.000267442
E-OVERALL me 1.15593e-006
NEGATIVE point 8.76334e-006
A-QUALITY oily 0.000152724
A-GENERAL helpful 0.000616482
A-GENERAL understand 0.000297142
A-GENERAL hype 0.000316779
E-SERVICE many 0.00126917
A-GENERAL many 4.21461e-005
A-PRICES suppose 3.83813e-005
A-GENERAL worried 4.55023e-008
A-PRICES keep 2.18914e-005
A-GENERAL trouble 0.000835911
A-GENERAL managed 3.18192e-005
A-GENERAL short 1.12208e-006
POSITIVE getting 1.24094e-007
POSITIVE managed 0.00032343
POSITIVE short 0.000348872
E-AMBIENCE first 0.0384037
POSITIVE waited 4.22997e-007
A-GENERAL when 0.0095567
A-GENERAL sat 4.46012e-006
A-GENERAL fast 0.00223772
POSITIVE when 5.80835e-005
A-GENERAL people 0.00104857
A-GENERAL work 0.00205375
A-GENERAL forget 8.12558e-006
POSITIVE work 0.000232643
A-GENERAL sure 0.000446777
A-GENERAL often 0.0022238
POSITIVE often 0.000138803
E-FOOD yummy 4.8545e-005
POSITIVE yummy 0.000295958
POSITIVE atmoshpere 2.02429e-008
E-FOOD expensive 3.83091e-006
A-QUALITY read 4.82133e-007
E-FOOD lunch 1.43938e-008
E-FOOD expected 0.000129482
E-FOOD from 0.00665998
E-FOOD reviews 4.82766e-006
A-QUALITY lunch 1.83922e-006
A-QUALITY from 0.000671476
A-QUALITY reviews 0.00124642
A-MISCELLANEOUS guess 0.0151495
; city 6.05343e-008
A-MISCELLANEOUS hipsters 7.23307e-005
E-FOOD flavor 0.000382593
A-QUALITY watery 5.52289e-008
A-QUALITY did 6.04711e-005
A-QUALITY flavor 0.00131189
NEGATIVE much 1.89124e-005
; flavor 6.7998e-008
NEGATIVE would 0.000506912
POSITIVE taken 0.000136136
POSITIVE very 0.0171204
POSITIVE patient 6.27235e-005
POSITIVE phenomenal 0.000320745
; patient 1.09074e-008
E-AMBIENCE admittedly 0.00303915
POSITIVE prompt 8.29971e-005
E-AMBIENCE nights 0.00226302
E-OVERALL slightly 2.28351e-006
NEGATIVE slightly 0.00018864
NEGATIVE worth 0.01098
E-AMBIENCE part 0.0208416
; side 5.95677e-008
A-GENERAL slightly 5.05066e-007
POSITIVE side 1.09258e-006
POSITIVE fantastic 0.00312658
E-AMBIENCE charm 0.00208937
; fantastic 3.84936e-007
POSITIVE shorter 4.71518e-005
POSITIVE magnificent 0.000407639
POSITIVE block 0.000347972
E-AMBIENCE may 0.0121414
E-AMBIENCE packed 0.00233085
POSITIVE inside 2.39414e-007
POSITIVE .. 2.65199e-005
E-AMBIENCE vibe 0.014083
; inside 1.65921e-008
; .. 0.000920607
A-QUALITY down 2.26492e-008
POSITIVE city 0.00344154
POSITIVE hands 1.11625e-005
; cramped 1.12183e-007
E-FOOD thailand 0.000469386
E-FOOD has 3.77507e-005
A-QUALITY thailand 6.77714e-008
A-QUALITY has 4.48396e-006
A-STYLE_OPTIONS here 0.0383932
POSITIVE me 5.25488e-007
POSITIVE thai 4.39736e-006
E-FOOD variety 0.00101577
E-FOOD bored 4.298e-005
A-STYLE_OPTIONS bored 0.0112396
POSITIVE bored 1.34931e-006
NEGATIVE down 0.00309117
; suppose 1.98662e-006
E-LOCATION set 0.0486281
; keep 1.06916e-007
E-OVERALL 's 0.000133099
E-OVERALL down 3.2574e-008
A-GENERAL knows 0.000139719
POSITIVE keep 1.76314e-008
POSITIVE about 5.44449e-006
NEGATIVE took 0.00475009
E-FOOD lot 8.19483e-008
A-STYLE_OPTIONS looked 1.28971e-005
A-STYLE_OPTIONS them 2.09691e-007
A-STYLE_OPTIONS appetizer 2.76076e-006
; lot 8.96226e-008
E-FOOD piece 0.00232422
NEGATIVE finish 0.00188512
NEGATIVE piece 3.97251e-006
E-SERVICE everyone 0.0055904
POSITIVE everyone 1.63887e-007
E-FOOD crunchy 0.00042428
E-FOOD die 2.98793e-005
A-QUALITY crunchy 7.52865e-005
A-QUALITY die 0.00379505
POSITIVE die 2.92211e-005
E-FOOD matter 5.15757e-005
A-QUALITY matter 0.00225126
E-OVERALL enough 2.91232e-006
A-GENERAL enough 9.64056e-005
POSITIVE since 0.000781822
POSITIVE opened 2.75263e-006
A-GENERAL terrace 0.00064261
POSITIVE first 1.29588e-007
POSITIVE helpful 0.00114325
POSITIVE over-bearing 0.000307437
POSITIVE or 0.000266452
POSITIVE rushed 3.28078e-005
A-GENERAL rushed 0.000477445
E-FOOD steak 0.00140843
E-FOOD fix 0.000100912
POSITIVE bet 0.00034599
POSITIVE fix 0.000941702
POSITIVE table 1.31537e-005
E-AMBIENCE snag 0.00254115
A-GENERAL admittedly 6.01729e-005
E-AMBIENCE stressed 3.40879e-006
A-GENERAL nights 1.06139e-005
E-AMBIENCE unisex 1.1998e-005
A-GENERAL open 0.00168406
E-AMBIENCE cleaned 0.00179154
A-GENERAL part 4.73184e-005
A-GENERAL charm 0.000374811
POSITIVE nights 0.000817493
POSITIVE open 8.3756e-007
; part 1.99542e-006
; charm 9.0227e-009
A-MISCELLANEOUS host 0.007895
NEGATIVE charm 0.000496527
E-DRINKS house 0.0209865
A-STYLE_OPTIONS house 0.0113049
POSITIVE selection 0.00028492
E-LOCATION spectacular 7.09005e-006
; selection 9.0386e-008
; gigondas 1.29232e-008
; champagne 1.55403e-008
A-GENERAL may 0.000663978
A-GENERAL packed 9.86239e-006
E-AMBIENCE comfortable 1.28664e-005
A-GENERAL vibe 1.1498e-005
; may 1.48784e-007
POSITIVE find 1.33643e-005
E-OVERALL friends 0.00446479
A-MISCELLANEOUS friends 0.0648941
A-MISCELLANEOUS gets 0.000158265
POSITIVE friends 3.39521e-006
E-FOOD nyc 1.22685e-007
E-FOOD should 0.0018988
E-FOOD additional 0.000469103
E-FOOD toppings 0.000921426
E-FOOD freshly 1.97706e-005
E-FOOD baked 0.000937738
E-FOOD bread 0.000384457
A-QUALITY nyc 2.16931e-006
A-QUALITY should 0.00231059
A-QUALITY additional 6.23989e-007
A-QUALITY toppings 2.86569e-005
A-QUALITY tastes 4.93398e-005
A-QUALITY freshly 1.15071e-008
A-QUALITY baked 2.02691e-006
A-QUALITY bread 0.00169449
POSITIVE nyc 0.00243612
POSITIVE tastes 0.000323229
POSITIVE freshly 8.11012e-006
POSITIVE bread 4.98322e-006
; toppings 1.62569e-007
; tastes 3.07325e-006
; freshly 0.000219277
; bread 1.40512e-008
E-OVERALL take 0.00556448
NEUTRAL settled 0.00750692
E-OVERALL guests 1.08151e-007
NEUTRAL dim 8.91169e-005
A-MISCELLANEOUS take 0.000921271
A-MISCELLANEOUS guests 0.00898492
A-MISCELLANEOUS vt 0.00468725
POSITIVE guests 0.000327847
POSITIVE vt 0.000156085
; take 2.08635e-006
E-OVERALL points 2.2308e-005
E-LOCATION previous 0.00362409
E-LOCATION reviewer 0.024005
E-LOCATION lonk 0.0242997
E-LOCATION dined 0.0242797
E-OVERALL stand 0.000134867
E-OVERALL hours 6.45214e-006
E-LOCATION neighborhood 5.78987e-006
E-OVERALL dates 0.000628636
E-AMBIENCE patio 0.00240439
A-GENERAL reviewer 5.16864e-006
E-AMBIENCE hear 0.00348963
A-GENERAL lonk 2.49464e-007
E-AMBIENCE calm 0.00166442
A-GENERAL dined 5.96647e-007
POSITIVE reviewer 1.59842e-007
E-FOOD sure 0.00120615
A-QUALITY sure 1.12629e-006
E-OVERALL three 0.00143877
E-OVERALL wonderful 0.00169983
E-OVERALL experiences 0.000646484
A-GENERAL wonderful 0.000651134
A-GENERAL experiences 0.000457398
POSITIVE wonderful 0.00334345
POSITIVE experiences 4.34964e-008
; wonderful 6.29981e-008
E-AMBIENCE 'd 2.18037e-005
E-AMBIENCE provides 0.00339619
E-AMBIENCE setting 0.00773263
A-GENERAL 'd 2.38262e-007
A-GENERAL highly 0.00307793
A-GENERAL special 0.000888138
A-GENERAL -- 0.00120181
A-GENERAL provides 1.53611e-005
A-GENERAL setting 0.000730022
POSITIVE 'd 4.21194e-006
POSITIVE highly 1.85337e-005
POSITIVE occasion 4.54748e-005
POSITIVE provides 1.73267e-006
POSITIVE intimate 3.76453e-008
POSITIVE setting 3.06741e-005
; 'd 2.38564e-006
; provides 9.07396e-008
; setting 1.45087e-008
E-SERVICE special 2.1118e-005
E-SERVICE -- 4.77989e-005
E-SERVICE provides 1.24808e-007
E-SERVICE intimate 2.36061e-008
E-OVERALL 'd 0.0046151
E-OVERALL highly 0.00893361
E-OVERALL special 6.04036e-006
E-OVERALL occasion 1.22577e-005
E-OVERALL provides 2.83326e-008
E-OVERALL intimate 0.00126627
A-MISCELLANEOUS 'd 0.0206192
A-MISCELLANEOUS occasion 0.0156778
A-MISCELLANEOUS provides 7.71331e-007
A-MISCELLANEOUS intimate 0.0102138
NEUTRAL cheeseburgers 0.00970258
E-OVERALL if 0.0134664
E-OVERALL visited 0.000706269
E-OVERALL mizu 0.00193839
E-OVERALL repeat 0.00140437
NEUTRAL 14 0.00812884
E-OVERALL customers 1.98752e-006
A-GENERAL reviewers 0.000642373
A-GENERAL seems 0.00142828
A-GENERAL different 3.1044e-006
A-GENERAL mizu 0.000455141
A-GENERAL repeat 4.87926e-006
A-GENERAL customers 0.000842245
POSITIVE other 6.43772e-006
POSITIVE two 3.40826e-006
POSITIVE different 2.14297e-007
POSITIVE restaurants 5.34472e-007
POSITIVE mizu 0.000411566
POSITIVE customers 4.17922e-008
; other 1.05842e-005
; two 1.24718e-007
; different 7.93028e-009
E-SERVICE overcharged 7.59956e-007
E-SERVICE last 6.51083e-007
A-GENERAL overcharged 0.000141303
A-GENERAL last 0.0015167
NEGATIVE overcharged 0.000632317
E-FOOD scallop 6.44998e-005
E-FOOD roll.. 2.40208e-006
A-QUALITY scallop 0.000610892
A-QUALITY roll.. 0.000697338
POSITIVE scallop 2.84975e-005
POSITIVE roll.. 3.61005e-005
E-FOOD moules 0.000253842
E-FOOD lobster 0.00416699
E-FOOD ravioli 0.000164177
A-QUALITY moules 0.000359192
A-QUALITY lobster 0.00165726
A-QUALITY ravioli 0.00207234
POSITIVE lobster 1.73628e-006
POSITIVE ravioli 6.42193e-008
; lobster 1.18479e-008
NEGATIVE ravioli 1.52071e-007
E-SERVICE mom 0.00198174
E-SERVICE mother 0.00198463
E-SERVICE maitre 0.00198207
E-SERVICE d 0.00197953
A-GENERAL mom 6.48736e-007
A-GENERAL mother 3.35298e-008
A-GENERAL maitre 5.78714e-007
A-GENERAL d 1.11811e-006
A-GENERAL ' 0.000631077
NEGATIVE ' 0.00143068
E-SERVICE told 0.0046817
E-SERVICE he 3.84088e-005
E-SERVICE said 1.40602e-007
E-SERVICE reserved 3.12591e-008
A-GENERAL sit 2.5131e-005
A-GENERAL he 4.37465e-006
A-GENERAL said 6.13235e-008
A-GENERAL reserved 3.34419e-005
A-MISCELLANEOUS couple 0.000885726
NEGATIVE sit 7.86619e-006
NEGATIVE he 0.0132653
NEGATIVE said 1.39919e-007
NEGATIVE reserved 0.000875999
; he 6.61223e-006
E-SERVICE stepped 0.00193115
E-SERVICE foot 4.97882e-005
E-SERVICE second 0.00283153
E-SERVICE reached 9.10886e-008
E-SERVICE over 2.66237e-005
A-GENERAL stepped 1.13967e-005
A-GENERAL foot 0.000411092
A-GENERAL second 9.89098e-005
A-GENERAL reached 0.000379962
E-AMBIENCE herb 0.00354388
A-GENERAL adjust 4.42008e-005
A-GENERAL lighting 8.56035e-007
NEGATIVE foot 1.75937e-007
NEGATIVE reached 9.42273e-005
NEGATIVE over 0.00304049
NEGATIVE adjust 0.000851742
NEGATIVE lighting 0.000949527
E-LOCATION conveniently 0.0242346
E-LOCATION bedford 7.74186e-005
; second 1.55644e-005
E-FOOD plain 0.000217121
A-QUALITY what 3.46216e-005
NEGATIVE dessert 0.000187438
NEGATIVE $ 1.00555e-005
NEGATIVE 8.00 0.00095076
NEGATIVE plain 7.7094e-005
NEGATIVE what 0.000228852
; 8.00 1.72111e-007
; plain 8.71749e-007
; what 1.26187e-006
A-STYLE_OPTIONS plain 0.00267201
A-PRICES just 5.67449e-006
E-DRINKS drinks 0.105614
E-DRINKS welll 0.00922587
E-DRINKS fairly 0.0090097
E-DRINKS priced 6.81701e-006
A-QUALITY drinks 0.00425637
A-QUALITY welll 6.60436e-005
A-QUALITY made 0.00517843
POSITIVE drinks 2.6692e-005
POSITIVE priced 1.66935e-005
; drinks 1.74813e-008
A-PRICES drinks 5.80034e-007
A-PRICES are 8.55855e-005
A-PRICES fairly 0.0083525
A-PRICES priced 0.0524926
E-FOOD chef 0.00116249
A-QUALITY chef 0.00275563
A-QUALITY -- 5.80843e-005
POSITIVE chef 2.65993e-008
E-SERVICE exactly 7.03274e-005
E-SERVICE star 1.66137e-007
A-GENERAL exactly 0.000404421
A-GENERAL five 0.000293339
A-GENERAL star 0.000226931
A-GENERAL thats 5.84295e-006
NEUTRAL exactly 5.69797e-005
NEUTRAL five 0.00306811
NEUTRAL star 0.00465396
NEUTRAL thats 0.00993728
E-AMBIENCE downstairs 0.00340391
E-AMBIENCE lounge 0.00309965
A-GENERAL downstairs 1.67763e-005
A-GENERAL lounge 5.29745e-005
POSITIVE attraction 1.71301e-006
; attraction 0.000233449
E-AMBIENCE raga 0.00354464
E-AMBIENCE romantic 0.0236279
A-GENERAL raga 3.24031e-008
A-GENERAL romantic 0.00140625
POSITIVE romantic 1.26918e-007
E-FOOD exotic 0.000469477
E-FOOD beautifully 0.000445701
E-FOOD presented 1.22038e-005
E-FOOD delight 5.03359e-007
E-FOOD combinations 4.25468e-005
A-STYLE_OPTIONS beautifully 0.000298872
A-STYLE_OPTIONS presented 0.00572135
A-STYLE_OPTIONS delight 6.2562e-005
POSITIVE presented 1.56983e-006
POSITIVE delight 0.00138061
POSITIVE combinations 4.54541e-006
; presented 3.02473e-009
; delight 1.27785e-006
A-QUALITY combinations 0.000700995
E-FOOD extremely 0.000915482
E-FOOD priced 3.60891e-007
A-PRICES also 9.99143e-006
A-PRICES extremely 0.000377606
E-SERVICE incredibly 7.44475e-008
E-DRINKS bar 0.000174558
E-DRINKS stocked 0.0100057
E-DRINKS beers 0.0100542
E-DRINKS wines 0.0262983
A-STYLE_OPTIONS stocked 4.17162e-005
A-STYLE_OPTIONS beers 0.00591387
A-STYLE_OPTIONS wines 0.0200024
POSITIVE bar 0.00271912
POSITIVE beers 4.1262e-008
POSITIVE wines 2.00617e-007
; bar 3.85394e-005
; wines 3.99242e-008
A-PRICES very 2.74185e-006
E-OVERALL missed 3.36352e-006
A-GENERAL missed 0.000355823
POSITIVE one 3.61331e-007
POSITIVE missed 5.30266e-005
E-OVERALL thank 0.00133144
E-OVERALL introducing 0.000263068
A-GENERAL thank 4.84214e-005
A-GENERAL introducing 0.000263867
POSITIVE thank 6.23966e-009
POSITIVE introducing 6.55969e-007
POSITIVE them 3.12944e-006
E-OVERALL stumbled 0.00210769
E-OVERALL thought 5.62073e-005
E-OVERALL found 1.98589e-007
E-OVERALL were 2.10041e-006
A-GENERAL stumbled 6.6392e-006
A-GENERAL thought 3.24809e-005
NEGATIVE leon 6.8701e-007
NEGATIVE thought 0.0073031
NEGATIVE found 7.00196e-008
NEGATIVE certainly 3.7988e-005
; certainly 7.931e-006
E-SERVICE moved 0.00198479
E-SERVICE practically 0.00198415
E-SERVICE bathroom 0.00380714
E-SERVICE did 0.000189361
A-GENERAL practically 1.36619e-007
A-GENERAL bathroom 3.39525e-005
A-GENERAL cancel 2.49828e-005
A-GENERAL dinner 2.05717e-005
A-GENERAL want 0.00255191
A-GENERAL sitting 0.00197528
A-GENERAL no 0.000657192
A-MISCELLANEOUS become 9.883e-006
NEGATIVE bathroom 1.27054e-006
NEGATIVE cancel 0.000895097
NEGATIVE dinner 0.000387419
NEGATIVE orders 0.00190274
NEGATIVE because 5.21814e-006
NEGATIVE want 4.02282e-005
NEGATIVE sitting 4.19077e-007
NEGATIVE toilet 0.000818315
NEGATIVE no 0.0175319
; dinner 9.85898e-008
; want 1.90032e-007
; sitting 2.8748e-007
; toilet 3.28287e-005
; no 6.36924e-007
E-SERVICE things 0.0139841
E-SERVICE dropped 0.00198462
E-SERVICE silverware 0.00198331
E-SERVICE jacket 5.89738e-006
E-SERVICE apologize 2.86956e-007
A-GENERAL things 0.000239551
A-GENERAL dropped 3.55088e-008
A-GENERAL silverware 3.13642e-007
A-GENERAL jacket 0.00042037
A-GENERAL stop 1.15404e-005
A-GENERAL apologize 0.000412947
A-GENERAL mess 4.48037e-007
A-GENERAL clothes 6.77026e-007
NEGATIVE then 0.00060223
NEGATIVE things 0.000360376
NEGATIVE jacket 2.85741e-007
A-MISCELLANEOUS dates 0.000929971
NEGATIVE apologize 1.97206e-005
A-MISCELLANEOUS reluctant 6.05271e-005
NEGATIVE mess 0.00180475
A-MISCELLANEOUS jem 1.19834e-005
NEGATIVE left 0.00372553
A-MISCELLANEOUS overcrowded 0.00786715
NEGATIVE clothes 0.000949931
; things 1.78327e-006
E-SERVICE such 0.01174
E-SERVICE disappointment 0.000266386
A-GENERAL such 0.000814958
NEGATIVE such 0.000136753
A-GENERAL medicore 9.76562e-007
A-GENERAL ny 0.000175806
NEGATIVE medicore 0.000949231
NEGATIVE are 1.74525e-007
; medicore 6.02862e-009
; stay 2.11987e-008
E-FOOD tons 4.61123e-007
A-QUALITY tons 0.00156327
A-QUALITY ny 7.89123e-006
A-QUALITY stay 1.15175e-007
A-QUALITY one 6.25712e-006
NEUTRAL tons 2.11891e-007
NEUTRAL stay 0.0100745
NEUTRAL away 1.96029e-006
E-OVERALL grat 0.00070616
E-OVERALL jekyll 0.00216131
E-OVERALL hyde 0.000642659
A-GENERAL grat 6.49169e-008
A-GENERAL jekyll 0.000396342
A-GENERAL hyde 0.00128754
POSITIVE jekyll 2.4777e-008
POSITIVE hyde 1.30166e-005
E-OVERALL loved 0.00429771
NEUTRAL mediocre 0.0198625
A-GENERAL loved 0.00120987
A-GENERAL everythig 0.000419743
A-GENERAL it-especially 2.22637e-007
A-GENERAL shows 0.000655231
A-GENERAL actors 2.84329e-009
POSITIVE everythig 1.65665e-006
POSITIVE it-especially 0.000342048
POSITIVE shows 0.000104991
; everythig 5.24881e-009
; it-especially 5.13224e-006
; shows 1.58818e-005
E-AMBIENCE shows 0.000278735
E-AMBIENCE actors 0.00354489
E-SERVICE server 0.00395824
A-GENERAL server 2.40916e-006
E-OVERALL family 0.00134541
A-MISCELLANEOUS bringing 0.0168744
A-MISCELLANEOUS whole 0.00115358
A-MISCELLANEOUS family 0.0144482
POSITIVE whole 0.00100197
POSITIVE family 0.00252299
E-FOOD wasabe 0.000450598
E-FOOD potatoes 1.60786e-005
A-QUALITY wasabe 2.99561e-005
A-QUALITY potatoes 0.00075375
POSITIVE potatoes 6.68179e-007
; wasabe 4.47763e-007
E-OVERALL praise 3.92318e-006
E-LOCATION sidewalk 0.0243083
E-LOCATION watching 6.52991e-005
E-OVERALL hits 0.00135018
E-OVERALL ginger 0.000701363
E-LOCATION feet 0.000488068
E-LOCATION away 4.29278e-006
E-LOCATION 6th 0.000457928
E-LOCATION avenue 0.0178168
E-OVERALL saving 0.000599063
E-OVERALL myself 3.79715e-007
A-GENERAL outdoor 1.17996e-005
A-GENERAL sidewalk 1.00047e-007
A-GENERAL watching 0.000839943
E-AMBIENCE blond 0.0035445
A-GENERAL 50 0.000329725
E-AMBIENCE wood 1.85297e-007
A-GENERAL feet 0.000346906
A-GENERAL 6th 0.000365534
A-GENERAL avenue 0.000953644
POSITIVE outdoor 6.45933e-006
POSITIVE watching 2.0103e-006
POSITIVE 50 7.63443e-005
POSITIVE feet 5.5067e-005
POSITIVE 6th 4.00473e-005
POSITIVE avenue 2.12043e-006
; outdoor 1.43006e-005
E-AMBIENCE little 1.25705e-006
E-AMBIENCE expected 0.000678991
NEUTRAL expected 0.0370659
E-SERVICE courteous 1.91188e-005
A-GENERAL courteous 0.000292178
POSITIVE courteous 0.000104123
E-OVERALL definitely 0.0091461
A-GENERAL definitely 0.000441935
POSITIVE definitely 4.90973e-008
; definitely 3.59103e-008
E-OVERALL line 5.87649e-008
A-PRICES line 0.000291318
NEUTRAL line 0.0298411
E-OVERALL girlfriends 0.000703457
E-LOCATION far 0.0800823
E-LOCATION east 0.0302608
NEGATIVE far 0.00149423
A-MISCELLANEOUS closes 0.00463188
NEGATIVE east 0.00132183
E-FOOD mozzarella 0.0014082
E-FOOD instead 0.000901204
E-FOOD cheap 0.000139295
E-FOOD frozen 0.000469327
E-FOOD common 0.000459213
E-FOOD pizzaria 5.65279e-007
A-QUALITY instead 9.02232e-007
A-QUALITY common 7.50814e-007
A-QUALITY most 0.000754621
A-QUALITY pizzaria 0.000781063
POSITIVE instead 7.81513e-006
POSITIVE cheap 0.000208162
POSITIVE frozen 1.12085e-007
POSITIVE common 6.88746e-006
POSITIVE pizzaria 9.8898e-009
; mozzarella 7.50227e-008
; instead 1.33534e-005
; common 2.85725e-007
E-FOOD two 0.00356275
E-FOOD complaints- 0.000467146
E-FOOD selection 1.82972e-005
E-FOOD stinks 2.87447e-007
A-STYLE_OPTIONS two 0.00236315
A-STYLE_OPTIONS complaints- 2.91379e-005
A-STYLE_OPTIONS stinks 0.000894914
A-STYLE_OPTIONS mozzarella 1.01468e-006
A-STYLE_OPTIONS sticks 0.000856199
NEGATIVE complaints- 2.77771e-008
NEGATIVE stinks 0.00080659
NEGATIVE sticks 0.000813415
E-FOOD because 6.64816e-006
E-FOOD thin 0.0018081
E-FOOD gets 4.17637e-005
E-FOOD quickly 0.000897187
A-QUALITY thin 0.000114414
A-QUALITY quickly 5.11987e-005
NEGATIVE so 0.000123013
NEGATIVE gets 1.1369e-005
NEGATIVE quickly 7.59863e-007
; thin 5.59959e-007
A-STYLE_OPTIONS gets 0.0204939
E-SERVICE blantently 0.00104908
E-SERVICE unappreciative 0.00135921
E-SERVICE business 1.62795e-007
A-GENERAL blantently 0.000182681
A-GENERAL unappreciative 0.000116829
A-GENERAL business 0.00230154
NEGATIVE blantently 3.64329e-005
NEGATIVE unappreciative 3.60781e-005
NEGATIVE business 3.94427e-008
; unappreciative 6.05134e-008
E-FOOD pie 5.89326e-007
E-FOOD uws 0.000901275
A-QUALITY pie 0.00156185
A-QUALITY uws 6.27649e-005
POSITIVE business 0.000188755
POSITIVE pie 5.48634e-007
E-FOOD far 0.00175032
E-FOOD salad 0.00168908
A-QUALITY far 0.0003125
A-QUALITY salad 0.00342192
POSITIVE salad 9.09082e-006
; salad 1.24666e-007
E-FOOD fine 0.000533462
E-FOOD dining 1.50546e-008
A-QUALITY fine 0.000131041
POSITIVE fine 0.00198084
POSITIVE dining 6.42347e-007
; fine 4.69449e-006
; dining 0.000768319
E-FOOD over 2.54908e-007
E-FOOD 100 0.00135027
E-FOOD different 0.00601731
A-STYLE_OPTIONS 100 0.000125996
A-STYLE_OPTIONS different 0.000313074
A-STYLE_OPTIONS create 0.000233526
A-STYLE_OPTIONS own 3.96278e-005
POSITIVE choices 0.00100203
POSITIVE create 0.000336042
POSITIVE own 0.000697257
E-OVERALL must 0.000392794
A-GENERAL must 6.25365e-005
POSITIVE must 0.00285491
; must 4.46334e-008
E-OVERALL recent 0.000706269
E-OVERALL sunday 0.00204315
E-OVERALL friend 0.000705872
E-OVERALL accidently 1.22582e-005
E-OVERALL winning 5.86089e-008
A-GENERAL sunday 4.51271e-005
A-GENERAL afternoon 0.000109617
A-GENERAL accidently 0.0004088
A-GENERAL see 8.77455e-005
A-GENERAL pulitzer 1.44626e-006
A-GENERAL prize 1.36348e-007
A-GENERAL winning 1.70275e-007
A-GENERAL play 1.67299e-007
POSITIVE afternoon 0.00094122
POSITIVE friend 0.00111999
POSITIVE accidently 4.67066e-006
POSITIVE found 2.84288e-008
POSITIVE pulitzer 0.000348687
POSITIVE prize 0.000349774
POSITIVE winning 0.000349688
POSITIVE play 0.000349748
; afternoon 1.17353e-005
; friend 7.44062e-008
; winning 1.95139e-008
E-FOOD accompaniment 9.87622e-008
A-QUALITY accompaniment 0.000770528
A-QUALITY our 1.72223e-006
POSITIVE quiet 3.52523e-008
POSITIVE accompaniment 5.07083e-006
POSITIVE theater 9.35293e-007
; relaxing 2.18519e-008
; theater 1.40559e-007
E-AMBIENCE quiet 0.00886865
E-AMBIENCE relaxing 0.0070655
E-AMBIENCE our 5.78809e-006
E-AMBIENCE theater 0.00532696
A-GENERAL quiet 0.000631824
A-GENERAL relaxing 2.85585e-006
A-GENERAL theater 0.000630104
E-FOOD pot 8.64835e-005
E-FOOD cheeseburger 0.000469333
E-FOOD delictable 0.000251468
A-QUALITY pot 0.000637967
A-QUALITY excpetiona 8.83606e-005
A-QUALITY delictable 0.000363147
POSITIVE excpetiona 0.000293702
POSITIVE professional 0.00131329
POSITIVE wan 4.84535e-007
; excpetiona 1.11651e-005
; cheeseburger 5.07229e-008
; professional 7.15614e-008
A-STYLE_OPTIONS cheeseburger 5.4043e-007
E-SERVICE professional 7.53285e-005
E-SERVICE wan 0.000317318
A-GENERAL professional 8.7838e-005
A-GENERAL wan 0.000353738
E-OVERALL many 0.00328397
E-OVERALL district 0.000675916
E-OVERALL truly 3.48428e-008
A-GENERAL poor 7.20535e-007
A-GENERAL district 1.81257e-005
A-GENERAL truly 0.00128319
POSITIVE truly 1.49994e-006
E-OVERALL return 0.00115666
E-OVERALL oasis 3.99563e-005
E-OVERALL mid-town 9.32717e-005
A-GENERAL return 0.000709218
A-GENERAL oasis 0.000393488
A-GENERAL mid-town 0.000350077
POSITIVE oasis 3.65154e-006
POSITIVE mid-town 1.32534e-005
E-SERVICE nonsense 0.000114102
A-GENERAL nonsense 0.000305867
POSITIVE nonsense 7.60231e-005
E-FOOD options 2.49434e-006
E-FOOD rule 9.34168e-009
A-STYLE_OPTIONS options 0.00430683
A-STYLE_OPTIONS rule 0.00157231
POSITIVE options 9.26769e-005
POSITIVE rule 0.000256658
E-FOOD lived 0.000999029
E-FOOD upstate 0.000466937
E-FOOD while 1.09187e-006
E-FOOD buy 0.000465906
E-FOOD bagels 0.0032271
E-FOOD better 0.00205717
E-FOOD else 8.66343e-005
A-QUALITY lived 5.20525e-005
A-QUALITY upstate 4.23212e-006
A-QUALITY buy 5.94901e-006
A-QUALITY freeze 0.000752274
A-QUALITY bagels 0.00088062
A-QUALITY better 0.00315378
A-QUALITY else 0.000160108
POSITIVE freeze 1.33115e-005
POSITIVE bagels 2.5575e-008
POSITIVE still 2.51555e-006
POSITIVE better 1.9163e-006
POSITIVE else 0.002313
; bagels 8.48118e-009
; better 7.4057e-009
E-OVERALL visiting 0.00141028
E-OVERALL store 2.7955e-005
A-MISCELLANEOUS visiting 1.90047e-005
A-MISCELLANEOUS 1st 0.00214252
A-MISCELLANEOUS ave 8.79993e-006
A-MISCELLANEOUS spot 0.020953
A-MISCELLANEOUS original 0.000810631
A-MISCELLANEOUS store 0.00806987
POSITIVE 1st 8.34653e-005
POSITIVE ave 0.000699071
POSITIVE original 0.000510994
POSITIVE store 2.37545e-006
E-FOOD served 0.00159886
E-FOOD uni 0.000469477
E-FOOD hand 0.000457404
E-FOOD tell 0.00115384
E-FOOD heaven 0.000167099
A-QUALITY served 2.70405e-005
A-QUALITY hand 2.01104e-005
A-QUALITY tell 0.000405939
A-QUALITY heaven 0.00127495
POSITIVE served 9.78142e-006
POSITIVE tell 4.67434e-006
POSITIVE heaven 4.81192e-006
; served 8.83891e-008
; tell 2.31102e-006
E-DRINKS overlooked 0.00229468
A-STYLE_OPTIONS overlooked 0.00903185
POSITIVE overlooked 8.46027e-005
E-LOCATION lawns 0.0242645
E-OVERALL instantly 0.000704197
E-OVERALL became 0.000967422
E-OVERALL city 4.03949e-005
A-GENERAL instantly 1.23767e-006
A-GENERAL became 0.000265655
A-GENERAL city 0.00131012
POSITIVE midtown 0.000680752
POSITIVE became 1.22047e-007
E-LOCATION hudson 0.0184423
E-LOCATION liberty 0.00224078
E-FOOD teriyaki 1.3992e-005
A-QUALITY teriyaki 0.000667614
POSITIVE teriyaki 4.07584e-005
E-LOCATION out-of-towners 0.0234744
; teriyaki 2.16986e-009
E-SERVICE non-intrusive 1.55624e-005
A-GENERAL non-intrusive 0.000393398
POSITIVE non-intrusive 2.07769e-005
E-LOCATION sunset 0.00987952
E-FOOD tried 0.000218226
E-FOOD budget 0.000460496
E-FOOD though 0.00405482
E-FOOD belly 1.33287e-005
E-FOOD ordered 0.00418103
E-FOOD roasted 2.16253e-006
A-QUALITY tried 0.000206496
A-QUALITY budget 1.4961e-005
A-QUALITY though 5.6662e-005
A-QUALITY belly 0.00075939
A-QUALITY ordered 7.36057e-005
A-QUALITY roasted 0.000778424
A-QUALITY longer 5.87483e-007
A-QUALITY fat 7.50576e-005
A-QUALITY melt-in-your-mouth 2.90334e-005
A-QUALITY experience 4.29866e-006
POSITIVE though 1.30957e-005
; considering 3.93658e-009
; though 0.000717479
; belly 1.30219e-007
; ordered 3.9981e-008
NEGATIVE considering 0.00285436
NEGATIVE tried 0.00596671
NEGATIVE though 0.000180944
NEGATIVE fat 0.000860139
NEGATIVE melt-in-your-mouth 0.000916135
E-DRINKS wine-by-the-glass 0.0100769
E-DRINKS generously 3.41517e-007
A-STYLE_OPTIONS generously 0.00589562
A-STYLE_OPTIONS filled 0.00573979
POSITIVE generously 3.25502e-007
POSITIVE filled 9.57642e-006
E-AMBIENCE decour 0.0033293
E-AMBIENCE pleasant 3.43523e-006
E-AMBIENCE hall 0.00699908
E-AMBIENCE noisy 2.66423e-006
E-AMBIENCE raise 9.83447e-005
E-AMBIENCE voices 0.0005429
A-GENERAL traditional 0.000605106
A-GENERAL decour 2.47053e-005
A-GENERAL though 1.89856e-008
A-GENERAL hall 1.05602e-005
A-GENERAL noisy 1.22172e-005
A-GENERAL raise 6.91651e-005
A-GENERAL voices 7.80451e-005
A-GENERAL able 0.000278252
A-GENERAL maintain 7.82069e-008
POSITIVE traditional 0.000197742
POSITIVE pleasant 4.05639e-005
POSITIVE full 1.37002e-005
; traditional 4.84999e-009
; hall 1.31521e-007
; noisy 4.57193e-008
; full 4.73727e-006
; able 5.48581e-008
; maintain 2.86669e-009
NEGATIVE decour 2.1372e-006
NEGATIVE noisy 0.00282591
A-MISCELLANEOUS williamsburg 1.34292e-005
NEGATIVE raise 0.000769027
NEGATIVE voices 0.000629675
NEGATIVE able 2.20122e-006
NEGATIVE maintain 0.00095127
E-OVERALL 5-8 0.000681251
E-OVERALL still 2.58985e-007
E-OVERALL square 1.30286e-006
A-GENERAL cafe 1.00698e-006
A-GENERAL 5-8 1.49395e-005
A-GENERAL union 0.00029003
A-GENERAL square 0.00038918
POSITIVE indian 0.00133152
POSITIVE union 0.000109276
POSITIVE square 2.63745e-005
; indian 1.34463e-006
E-SERVICE sum 2.82935e-005
E-SERVICE varies 0.00116229
E-SERVICE mediorce 2.13045e-007
E-SERVICE depending 1.06541e-005
E-SERVICE generally 6.86389e-007
E-SERVICE ok 9.41033e-008
A-GENERAL sum 1.69527e-005
A-GENERAL varies 0.000174509
A-GENERAL mediorce 0.000398396
A-GENERAL depending 0.000264077
A-GENERAL generally 0.000841945
A-GENERAL average 4.95508e-007
A-GENERAL ok 5.44583e-007
NEUTRAL sum 0.00080472
NEUTRAL varies 6.30809e-006
NEUTRAL mediorce 0.000556897
NEUTRAL depending 0.00371319
NEUTRAL generally 2.95636e-005
NEUTRAL average 0.0636416
NEUTRAL ok 0.0805875
; sum 6.22641e-007
; ok 4.96325e-009
E-SERVICE seating 2.18441e-005
E-SERVICE though 9.13534e-006
E-SERVICE does 0.000179251
E-SERVICE fill 2.26221e-007
A-GENERAL seating 0.00158223
A-GENERAL does 0.00454263
A-GENERAL fill 0.000800285
POSITIVE seating 8.30596e-005
POSITIVE does 9.7325e-008
POSITIVE fill 3.10714e-005
; seating 5.15974e-009
; does 3.69758e-006
E-FOOD ocasionally 0.000458727
E-FOOD wondered 0.000216145
E-FOOD freshmess 3.47402e-006
E-FOOD raw 0.00046915
E-FOOD vegatables 1.22624e-005
A-QUALITY ocasionally 1.79064e-005
A-QUALITY wondered 0.000421985
A-QUALITY freshmess 0.000776217
A-QUALITY raw 2.58809e-007
A-QUALITY vegatables 0.000761331
A-QUALITY orders 1.46481e-007
; freshmess 6.94598e-009
; raw 8.58009e-008
NEGATIVE vegatables 3.27424e-007
E-SERVICE reviewers 0.000746901
E-SERVICE noticed 0.00198457
E-SERVICE order 0.000369816
E-SERVICE problem 0.000530514
E-AMBIENCE isnt 0.00309143
A-GENERAL noticed 4.60735e-008
A-GENERAL order 1.77234e-005
A-GENERAL particularly 0.000904765
E-AMBIENCE atmoshere 0.00170264
A-GENERAL problem 1.13713e-005
NEUTRAL reviewers 0.00101345
NEUTRAL arrive 0.0100769
NEUTRAL true 0.0100769
; problem 4.34241e-008
E-AMBIENCE vibrant 0.00354491
E-AMBIENCE eye-pleasing 0.00354491
E-AMBIENCE semi-private 3.87241e-007
E-AMBIENCE boths 0.00354423
E-AMBIENCE dining 0.0200659
A-GENERAL several 0.000529367
A-GENERAL semi-private 0.000421696
A-GENERAL boths 8.13116e-008
A-GENERAL right 3.48473e-008
A-GENERAL dining 5.22978e-006
A-GENERAL date 1.16421e-006
POSITIVE several 1.26276e-005
POSITIVE date 3.39575e-005
; several 0.000314005
; semi-private 4.00508e-009
; date 4.37529e-007
E-OVERALL red 1.65413e-005
E-OVERALL eye 0.000540704
A-GENERAL red 0.0016765
A-GENERAL eye 0.000518005
POSITIVE red 5.16387e-007
POSITIVE eye 2.16682e-006
E-AMBIENCE completely 0.0137417
E-AMBIENCE live 1.00844e-005
E-AMBIENCE jazz 0.0100633
E-AMBIENCE band 0.00354148
E-AMBIENCE cobb 1.00589e-005
A-GENERAL completely 4.48313e-008
A-GENERAL live 0.0021072
A-GENERAL jazz 6.79886e-005
A-GENERAL band 4.09015e-007
A-GENERAL cobb 5.35512e-007
POSITIVE live 2.87563e-007
POSITIVE cobb 0.00034845
; completely 5.60212e-007
E-FOOD simply 0.00171051
E-FOOD meal 0.00221524
A-QUALITY simply 0.00339797
A-QUALITY meal 0.00550428
POSITIVE meal 5.76956e-005
E-OVERALL grill 0.000487889
A-GENERAL grill 0.000521401
POSITIVE grill 2.55147e-005
E-OVERALL move 0.000688754
E-OVERALL upper 0.00125502
E-OVERALL genuinely 0.00067254
E-OVERALL miss 2.70878e-006
A-GENERAL genuinely 2.01322e-005
A-GENERAL miss 0.000837599
POSITIVE genuinely 7.41302e-009
POSITIVE miss 3.5523e-006
E-OVERALL cute 1.1554e-007
A-GENERAL cute 0.00210147
A-GENERAL upscale 9.57756e-007
NEUTRAL upscale 0.010054
; cute 3.19706e-008
E-FOOD diamond 0.000467417
E-FOOD rough 0.000460883
E-FOOD homemade 1.62752e-005
E-FOOD balance 0.000405021
E-FOOD herbs 9.76325e-007
E-FOOD tomatoes 0.000234453
A-QUALITY diamond 3.4315e-006
A-QUALITY rough 1.43155e-005
A-QUALITY homemade 0.00153658
A-QUALITY balance 0.00010724
A-QUALITY herbs 0.000390163
A-QUALITY tomatoes 0.000391483
POSITIVE homemade 1.60174e-007
POSITIVE balance 5.70346e-008
POSITIVE herbs 0.00017443
POSITIVE tomatoes 2.33517e-009
; herbs 1.1182e-007
E-OVERALL places 0.000803529
A-GENERAL places 0.00118849
POSITIVE places 1.54931e-005
E-OVERALL pub 1.49591e-007
E-OVERALL night 0.00168118
A-GENERAL pub 3.6504e-005
E-OVERALL really 6.77605e-006
E-OVERALL enjoying 6.23675e-007
E-OVERALL ourselves 0.000474269
E-OVERALL sat 0.00272234
NEUTRAL pancakes 0.0098821
E-OVERALL table 4.64405e-006
E-OVERALL dinner 0.00564628
A-MISCELLANEOUS table 0.000226624
A-MISCELLANEOUS dinner 0.0553699
POSITIVE enjoying 0.000935971
POSITIVE ourselves 0.000462892
POSITIVE dinner 2.08358e-006
E-SERVICE served 0.00874454
E-SERVICE smile 0.000588923
A-GENERAL served 5.09207e-005
A-GENERAL smile 0.00112426
POSITIVE smile 1.31453e-005
E-AMBIENCE ls 0.00354491
A-GENERAL hidden 4.42926e-008
E-AMBIENCE delightfully 5.35316e-008
A-GENERAL bathrooms 0.000420809
A-GENERAL laugh 6.50302e-007
POSITIVE hidden 1.48646e-007
POSITIVE bathrooms 2.33321e-007
POSITIVE laugh 3.82822e-008
; bathrooms 1.5755e-009
E-OVERALL having 2.61107e-006
E-AMBIENCE former 0.00176586
A-GENERAL visiting 4.02203e-007
A-GENERAL having 1.23223e-005
POSITIVE having 0.00103746
; having 4.5826e-007
E-OVERALL type 0.000486893
E-OVERALL person 0.00141152
E-OVERALL likes 3.93328e-005
NEUTRAL sandwich 1.08829e-005
E-OVERALL scared 0.000522438
A-MISCELLANEOUS if 0.000130116
POSITIVE type 0.000442951
POSITIVE who 1.31261e-005
POSITIVE entertained 3.34031e-007
E-OVERALL anniversary 0.000696448
E-OVERALL surprise 0.00109813
E-OVERALL fantastic 0.00109893
A-GENERAL thougt 0.000421749
E-AMBIENCE in-house 0.0035446
A-GENERAL anniversary 5.86479e-006
E-AMBIENCE lady 0.00342444
A-GENERAL surprise 0.00102605
POSITIVE surprise 4.3144e-006
E-DRINKS 100 0.000262938
E-DRINKS pumkin 6.49083e-005
E-DRINKS tortelini 0.00224898
A-STYLE_OPTIONS thier 0.00477574
A-STYLE_OPTIONS husband 1.76609e-007
A-STYLE_OPTIONS tortelini 0.00315463
POSITIVE guest 0.000662317
POSITIVE happy 0.00131618
POSITIVE dish 4.69248e-005
POSITIVE pumkin 0.00034604
POSITIVE tortelini 8.47612e-005
; guest 1.54887e-005
E-FOOD thier 4.09044e-005
E-FOOD made 4.74578e-006
E-FOOD husband 0.00234265
E-FOOD must 0.00016963
E-FOOD dish 0.0029046
A-QUALITY different 1.81836e-007
A-QUALITY thier 8.10207e-005
A-QUALITY husband 7.85841e-006
A-QUALITY must 0.000149425
A-QUALITY dish 0.00131303
A-QUALITY pumkin 3.56264e-006
A-GENERAL entertainment 1.45894e-006
A-GENERAL through 0.000842352
POSITIVE through 4.79632e-007
E-LOCATION hutner 0.0221229
E-OVERALL please 0.00349476
E-OVERALL advice 2.72536e-005
A-GENERAL please 3.48967e-007
A-GENERAL take 1.40841e-006
A-GENERAL advice 0.000379991
POSITIVE please 1.10566e-005
POSITIVE advice 2.1142e-005
E-OVERALL disapointed 1.89266e-006
A-GENERAL disapointed 0.000229316
POSITIVE disapointed 0.000158707
E-OVERALL dissappointed 0.000520326
E-OVERALL little 1.64636e-006
A-GENERAL dissappointed 1.45817e-005
E-AMBIENCE summer-eat 0.00354414
A-GENERAL least 0.000776022
E-FOOD bagel 0.00218828
A-STYLE_OPTIONS bagel 0.00119718
POSITIVE bagel 2.49048e-007
E-FOOD soft 0.000219959
E-FOOD fluffy 1.27533e-005
A-QUALITY soft 0.00119758
A-QUALITY fluffy 0.000760708
A-QUALITY interior 1.78878e-007
POSITIVE soft 3.5125e-008
POSITIVE fluffy 3.33684e-008
POSITIVE interior 0.000699659
E-FOOD workers 0.000463577
E-FOOD load 0.000458533
E-FOOD cream 0.00187716
A-STYLE_OPTIONS workers 6.74379e-005
A-STYLE_OPTIONS load 0.000128144
A-STYLE_OPTIONS cream 4.07256e-007
A-STYLE_OPTIONS messy 0.00274033
NEGATIVE workers 1.0839e-006
NEGATIVE load 1.52071e-006
NEGATIVE bagel 0.00108021
NEGATIVE messy 0.000509639
; absolutely 5.35614e-008
E-FOOD frist 0.000469375
E-FOOD st. 0.000936801
E-FOOD bart 0.000937985
E-FOOD say 0.00593564
A-QUALITY say 1.46478e-005
A-QUALITY delicous 4.36502e-005
POSITIVE frist 7.63396e-008
POSITIVE st. 1.60502e-006
POSITIVE bart 7.225e-007
POSITIVE say 6.66785e-006
POSITIVE delicous 0.000326036
E-SERVICE cafe 0.00991921
E-SERVICE must 0.00909724
E-SERVICE delicous 1.01932e-005
A-GENERAL delicous 3.04336e-006
E-FOOD mayo 3.98731e-008
A-QUALITY mayo 3.08195e-006
POSITIVE mayo 0.000348479
E-FOOD other 0.00123667
E-FOOD guests 5.0658e-007
E-FOOD santa 0.000469272
E-FOOD fe 0.000469477
E-FOOD chopped 0.000464776
E-FOOD chips 0.000938552
A-QUALITY other 0.00649265
A-QUALITY santa 2.13978e-007
A-QUALITY chopped 7.6413e-006
A-QUALITY fish 0.00750641
A-QUALITY chips 3.53182e-007
POSITIVE santa 5.75725e-008
POSITIVE chopped 8.49064e-008
; chips 8.6852e-008
A-QUALITY wonderful 0.00097482
E-SERVICE wonderful 4.21806e-008
E-SERVICE absolutely 4.23168e-008
A-GENERAL absolutely 0.0017677
POSITIVE absolutely 0.000870232
E-SERVICE every 4.93524e-006
E-SERVICE can 8.85163e-007
E-SERVICE do 0.0035098
E-AMBIENCE there 2.12434e-006
