extra A-STYLE_OPTIONS 1
frequented A-QUALITY 1
and E-SERVICE 0.0122743
four NEGATIVE 0.710915
waitstaff E-SERVICE 0.998374
surprised E-OVERALL 0.999978
want A-GENERAL 0.481644
place E-OVERALL 0.171353
and A-QUALITY 0.00429483
judging E-OVERALL 1
want ; 0.00366165
place NEGATIVE 0.000496581
look NULL 0.000560463
dropped E-SERVICE 1
used A-GENERAL 0.473285
task A-STYLE_OPTIONS 1
'ino A-QUALITY 1
staff E-SERVICE 0.844763
of NEGATIVE 0.000820784
from NULL 0.484358
basic A-QUALITY 0.712967
following NEGATIVE 0.0051887
sitting A-GENERAL 0.118358
, E-OVERALL 7.02126e-006
hyde POSITIVE 0.000276523
and A-STYLE_OPTIONS 0.000488327
place ; 0.0877968
bargain A-PRICES 0.999476
on POSITIVE 0.000226246
used NEGATIVE 4.23899e-005
practically E-SERVICE 1
one NULL 0.210674
roll ; 0.00116402
and POSITIVE 0.472198
waitstaff POSITIVE 0.000743322
prices A-PRICES 0.970899
of E-SERVICE 7.57637e-007
stumbled A-GENERAL 0.000488045
from E-OVERALL 0.027527
, NEGATIVE 0.0355436
bucket POSITIVE 0.00104469
- E-FOOD 0.270833
silverware E-SERVICE 1
. ; 0.999987
downside E-SERVICE 8.18046e-005
to A-GENERAL 0.430345
explored E-OVERALL 1
from A-GENERAL 0.00264969
, ; 0.252867
below NEGATIVE 1
- A-QUALITY 0.342593
to NEGATIVE 0.000991669
bathroom E-SERVICE 1
to ; 0.0297858
following A-QUALITY 0.75144
, E-SERVICE 0.00376942
from NEGATIVE 0.13036
, E-FOOD 0.0247845
) NULL 0.000478483
from ; 0.0591345
remains A-QUALITY 0.988778
acted E-SERVICE 1
us NEGATIVE 0.35914
unhappy NEGATIVE 1
but E-OVERALL 0.0021326
drunken A-QUALITY 0.00017456
us E-SERVICE 0.464051
previous E-OVERALL 0.686544
fare POSITIVE 0.00276349
but NEGATIVE 0.30577
the E-FOOD 0.422727
japenese E-OVERALL 1
boyfriend E-SERVICE 0.135762
we ; 0.0319261
major E-SERVICE 1
be A-GENERAL 0.413516
but ; 0.0100639
the A-QUALITY 0.0279601
boyfriend E-FOOD 0.268196
we E-SERVICE 0.0797788
be NEGATIVE 0.0158511
the A-STYLE_OPTIONS 0.000161593
cancel E-SERVICE 0.999476
be ; 0.00405052
night NULL 3.22423e-005
food POSITIVE 0.359545
like E-SERVICE 4.61327e-006
la E-FOOD 0.434805
arrived NEGATIVE 0.815246
foods NEGATIVE 1
no A-GENERAL 0.130829
not E-OVERALL 0.0659032
was E-FOOD 0.0983154
grammercy E-OVERALL 0.998624
jacket E-SERVICE 1
there ; 0.000720033
attitude E-SERVICE 1
dinner NEGATIVE 0.158003
a A-GENERAL 0.21675
la A-STYLE_OPTIONS 0.302376
soupy A-QUALITY 1
warm POSITIVE 0.698113
no ; 0.00136242
not NEGATIVE 0.30543
posts E-OVERALL 1
was A-QUALITY 0.422442
there E-SERVICE 9.833e-005
dinner ; 0.00615265
a NEGATIVE 0.008838
your NULL 0.331963
no E-SERVICE 0.0250814
not ; 0.0798026
was A-STYLE_OPTIONS 0.000138835
dinner E-SERVICE 0.0167964
a ; 0.0511471
imposing E-SERVICE 1
at NEGATIVE 0.0753451
using NEGATIVE 1
any E-OVERALL 0.0736756
this NULL 0.0309089
were ; 0.000701938
dramatic E-SERVICE 1
orders NEGATIVE 1
good A-GENERAL 0.00515461
vodka A-STYLE_OPTIONS 1
stir A-QUALITY 1
at E-SERVICE 3.5909e-005
any NEGATIVE 0.35949
this E-OVERALL 0.272555
were E-SERVICE 0.0709685
: POSITIVE 4.06888e-005
mark E-SERVICE 1
good NEGATIVE 2.02175e-006
at E-FOOD 0.00205128
things E-SERVICE 0.366505
any ; 0.274592
this A-GENERAL 0.343657
its NULL 5.76002e-005
good ; 0.102748
at A-QUALITY 0.000184071
this NEGATIVE 0.00127724
really NULL 0.493733
moved E-SERVICE 1
this ; 0.0923249
on E-SERVICE 1.40258e-005
noon NEGATIVE 1
msg NEGATIVE 1
used NULL 0.000819726
and E-FOOD 0.0879406
warning E-OVERALL 1
looking NULL 0.00495352
huffing E-SERVICE 1
want NEGATIVE 0.262818
place A-GENERAL 0.429021
tremendously A-STYLE_OPTIONS 1
fry A-QUALITY 1
atmosphere POSITIVE 0.00214843
longer NEGATIVE 1
entrees A-STYLE_OPTIONS 1
used E-OVERALL 0.00269899
whole E-FOOD 0.368674
them E-SERVICE 0.222368
- NEGATIVE 0.186816
cooking NEGATIVE 1
downside A-GENERAL 0.000218929
to NULL 0.420364
jelly E-FOOD 1
of ; 0.0877242
panting E-SERVICE 1
sitting NEGATIVE 0.231657
, A-GENERAL 0.09197
blue A-QUALITY 1
- E-SERVICE 0.0614157
young POSITIVE 0.000636499
. NEGATIVE 3.00349e-007
to E-OVERALL 0.0600138
wasabe E-FOOD 0.000123048
they E-SERVICE 0.221493
heaviness E-FOOD 0.00021049
the NEGATIVE 0.026417
be NULL 0.268103
drunken E-FOOD 0.999825
muttering E-SERVICE 1
toilet NEGATIVE 1
but A-GENERAL 0.206583
crab A-QUALITY 0.999868
the E-SERVICE 0.0824623
we NEGATIVE 0.0630881
be E-OVERALL 0.231788
very E-SERVICE 0.110856
was NEGATIVE 0.0820933
a NULL 0.38601
was E-SERVICE 0.0800439
customer E-SERVICE 0.751158
there NEGATIVE 0.000136407
dinner A-GENERAL 0.385459
a E-OVERALL 0.0119903
rude E-SERVICE 0.607149
empty NEGATIVE 0.99997
good NULL 0.0153862
were NEGATIVE 0.125947
: A-QUALITY 0.124731
good E-OVERALL 6.5664e-005
and NEGATIVE 0.00219293
based E-OVERALL 0.995825
place NULL 0.0967605
asparagus A-QUALITY 1
brought E-SERVICE 0.286143
looked A-MISCELLANEOUS 0.000487612
, NULL 0.41088
truffle A-QUALITY 1
complimentary E-SERVICE 0.00249776
pretty A-MISCELLANEOUS 0.000120475
but NULL 0.107
reservations NEGATIVE 1
food A-QUALITY 0.0172476
oil A-QUALITY 1
noodles E-SERVICE 0.168185
hmmm A-MISCELLANEOUS 0.99546
like NEGATIVE 0.250768
not NULL 0.280214
which NULL 0.0798448
under E-SERVICE 1
no NEGATIVE 0.569309
not A-GENERAL 0.0644568
parmesan A-QUALITY 1
ignored E-SERVICE 1
favorite POSITIVE 0.185489
any NULL 4.75788e-005
such E-SERVICE 2.22273e-005
at ; 0.00467136
breath E-SERVICE 1
things NEGATIVE 0.535377
less NEGATIVE 0.74279
relaxed A-GENERAL 0.395986
complaints- A-STYLE_OPTIONS 1
too A-QUALITY 0.028082
bruschetta A-QUALITY 1
repeated E-SERVICE 1
neighborhood POSITIVE 0.296727
japanese A-MISCELLANEOUS 0.16032
on NEGATIVE 0.0482261
made NULL 0.00130326
b/c E-SERVICE 1
18 NEGATIVE 1
stinks A-STYLE_OPTIONS 1
sweet A-QUALITY 0.892338
winner A-QUALITY 0.999765
requests E-SERVICE 0.265141
them NEGATIVE 0.207271
young E-SERVICE 0.999364
- ; 0.000308116
the E-OVERALL 0.000352732
do A-GENERAL 0.26922
sticks A-STYLE_OPTIONS 1
or A-QUALITY 0.0148863
definitely E-FOOD 0.191672
for E-SERVICE 0.00594036
they NEGATIVE 0.197736
trained E-SERVICE 1
we NULL 0.0378438
crab E-FOOD 0.00013164
the ; 0.0129816
we A-GENERAL 0.313967
thin A-STYLE_OPTIONS 0.359168
salty A-QUALITY 0.771005
seasonal A-QUALITY 0.725226
sugar E-SERVICE 1
rosa E-FOOD 0.00104665
very NEGATIVE 0.00333626
nevertheless E-SERVICE 1
there NULL 0.124754
was ; 0.0516142
there A-GENERAL 0.708606
prima A-GENERAL 0.000732599
quickly A-STYLE_OPTIONS 0.531726
mozzarella E-FOOD 0.976968
threw E-SERVICE 0.981762
gnocchi POSITIVE 0.00432836
rude NEGATIVE 0.392237
whom E-SERVICE 1
were NULL 0.598507
were A-GENERAL 0.0320617
hyde A-GENERAL 0.00694405
and E-OVERALL 0.000186612
facie A-GENERAL 0.0253735
instead E-FOOD 0.00102007
our E-SERVICE 0.046051
story E-SERVICE 1
has E-LOCATION 0.0084156
battery E-OVERALL 1
roll NULL 0.120657
and ; 0.0275803
apologize NEGATIVE 0.999738
four A-GENERAL 0.00033811
give E-SERVICE 0.00976318
taste ; 0.25953
i POSITIVE 0.163566
cheap E-FOOD 0.00175931
of NULL 0.764108
staff ; 0.000444368
mess NEGATIVE 1
of A-GENERAL 0.0299323
high E-SERVICE 0.183216
mouth ; 0.484575
have POSITIVE 0.130244
table E-SERVICE 2.32741e-005
complimentary NEGATIVE 0.997502
us NULL 0.00131906
besides E-OVERALL 0.992263
remains E-FOOD 0.0064202
left NEGATIVE 0.998262
us A-GENERAL 0.0778383
over NULL 0.310106
happen ; 0.000778438
tupperware E-SERVICE 1
eaten POSITIVE 0.000107952
noodles NEGATIVE 5.95762e-005
you E-LOCATION 2.95021e-007
plate E-FOOD 0.00097441
like ; 0.00208241
la E-SERVICE 0.262819
clothes NEGATIVE 1
saul POSITIVE 0.502449
6th ; 0.0191812
at NULL 0.29461
such NEGATIVE 0.813472
at A-GENERAL 0.387707
on E-OVERALL 0.108134
many POSITIVE 0.142782
too A-STYLE_OPTIONS 3.86938e-005
server E-SERVICE 1
on ; 0.000144857
times POSITIVE 0.0247966
- NULL 0.00183874
them ; 0.00158969
- A-GENERAL 1.54609e-005
little ; 0.0254042
is POSITIVE 0.323225
for NEGATIVE 0.0106454
the NULL 0.0847239
do NEGATIVE 0.502356
or A-STYLE_OPTIONS 0.00102353
top E-LOCATION 0.0680345
around NULL 0.115917
they ; 0.00921857
the A-GENERAL 0.0421511
always POSITIVE 0.770605
was NULL 0.188425
rosa A-QUALITY 0.998953
very ; 0.0012959
was A-GENERAL 0.00966365
consistently POSITIVE 0.000514689
threw NEGATIVE 0.0182382
portions A-STYLE_OPTIONS 1
waltzes A-QUALITY 1
outrageously POSITIVE 0.000611919
our NEGATIVE 0.119583
and NULL 0.336872
tiny A-STYLE_OPTIONS 0.150986
never ; 0.000863774
and A-GENERAL 0.0503751
best POSITIVE 0.453121
taste A-GENERAL 3.98856e-005
i A-QUALITY 0.0220651
after E-SERVICE 0.551062
dishes NEGATIVE 0.0802035
staff NULL 3.50869e-005
down NULL 0.0167593
staff A-GENERAL 0.00297087
restaurant POSITIVE 0.0433182
have A-QUALITY 0.00157949
all E-SERVICE 0.0111382
table NEGATIVE 0.3327
by NULL 0.79733
pretty E-AMBIENCE 0.0731925
fact A-PRICES 0.423302
happen A-GENERAL 0.716229
eaten A-QUALITY 6.11147e-005
pie E-FOOD 0.588014
that E-SERVICE 0.00060421
exceeded A-PRICES 1
freindly E-SERVICE 1
food NEGATIVE 0.00437725
like NULL 0.235556
common A-QUALITY 1
food E-FOOD 0.581027
like A-GENERAL 0.201122
uws E-FOOD 0.432863
complained E-SERVICE 1
expectations A-PRICES 1
disapointing E-FOOD 0.000385239
european E-SERVICE 1
lousy NEGATIVE 1
disapointing POSITIVE 0.000978935
pizzaria A-QUALITY 1
love NULL 0.00463396
in POSITIVE 0.649458
salad E-FOOD 0.000758104
me E-SERVICE 0.0256878
dumpling E-FOOD 1
too NEGATIVE 0.0688309
bargain E-OVERALL 7.96743e-005
on NULL 0.527755
too E-FOOD 0.0383358
on A-GENERAL 0.270553
grab E-OVERALL 0.992428
fine E-FOOD 0.597098
about E-SERVICE 0.109699
luckily E-FOOD 0.0115075
sweet NEGATIVE 0.105226
bite E-FOOD 0.00100079
them NULL 0.47182
sweet E-FOOD 0.00243609
courteous E-SERVICE 1
bite POSITIVE 0.0440556
comes A-STYLE_OPTIONS 0.500984
them A-GENERAL 0.000951226
is A-QUALITY 0.0037507
dining E-FOOD 0.206094
while POSITIVE 0.194114
jsut E-SERVICE 5.30921e-005
or NEGATIVE 0.233892
ess-a-bagel E-FOOD 1
they NULL 0.0506491
tasteless NEGATIVE 0.99953
do E-OVERALL 0.0413025
or E-FOOD 0.0812975
for ; 0.131884
large A-STYLE_OPTIONS 0.80026
they A-GENERAL 0.0181779
begin POSITIVE 0.000317959
always A-QUALITY 1.27208e-005
tip E-SERVICE 0.00147645
salty NEGATIVE 0.228062
very NULL 0.512605
judge E-OVERALL 0.322325
salty E-FOOD 0.000933157
perfect NULL 0.000447304
seasonal E-FOOD 0.000380847
very A-GENERAL 0.00497675
: NULL 0.194165
amazing POSITIVE 0.840353
consistently A-QUALITY 0.996465
when POSITIVE 0.152816
incompetent E-SERVICE 0.266739
prima E-OVERALL 0.999267
spot NULL 0.000129781
rude A-GENERAL 0.000614925
outrageously A-QUALITY 0.712572
terrible E-SERVICE 0.632293
tiny NEGATIVE 0.393018
never NULL 0.0634814
unattractive NEGATIVE 1
facie E-OVERALL 0.974626
our ; 0.000268857
never A-GENERAL 0.357953
fast POSITIVE 0.221664
same E-SERVICE 0.640875
after NEGATIVE 6.35032e-005
refuse E-SERVICE 1
dishes ; 0.00375766
recieved E-SERVICE 1
people POSITIVE 0.000130756
allowed E-SERVICE 0.0901067
all NEGATIVE 0.00180946
seat E-SERVICE 1
table ; 0.495892
work POSITIVE 0.23844
that NEGATIVE 0.208003
eater A-QUALITY 0.999775
parties E-SERVICE 1
lasagnas A-QUALITY 1
food ; 0.0324822
uws ; 0.0532962
bbq A-QUALITY 0.596491
lox E-FOOD 1
disapointing A-QUALITY 0.998636
me NEGATIVE 0.0523705
impressed E-FOOD 0.770868
hostess E-SERVICE 0.577843
too ; 0.707188
often POSITIVE 0.000212542
fine ; 0.000284254
about NEGATIVE 0.175616
varieties A-QUALITY 0.998714
uppereast A-GENERAL 0.290734
7 A-PRICES 0.25947
glass E-DRINKS 0.639918
luckily A-QUALITY 0.988492
requests A-GENERAL 0.522096
excpetiona A-STYLE_OPTIONS 1
duck A-QUALITY 1
surprisingly A-MISCELLANEOUS 0.117351
maybe E-SERVICE 1
small NEGATIVE 0.330783
for NULL 0.734143
while E-DRINKS 0.0690355
do NULL 0.000288509
saved A-QUALITY 1
or ; 0.278331
lanterna E-SERVICE 1
definitely NEGATIVE 2.81797e-005
for A-GENERAL 0.036144
cheeseburger A-STYLE_OPTIONS 1
confit A-QUALITY 1
further A-MISCELLANEOUS 0.209705
tip NEGATIVE 0.998524
waited E-DRINKS 0.656364
judge NULL 0.00675749
vittorio E-SERVICE 1
know A-GENERAL 0.998677
delictable A-STYLE_OPTIONS 1
amazing A-QUALITY 0.135291
truth A-MISCELLANEOUS 1
avoid NEGATIVE 0.555281
not-so-little A-GENERAL 0.0168361
quickly E-SERVICE 0.463586
not-so-little E-SERVICE 0.983164
foie A-QUALITY 1
evening A-MISCELLANEOUS 0.100854
worried E-SERVICE 1
our NULL 0.0468247
blantently E-SERVICE 1
not-so-frequent E-SERVICE 1
our A-GENERAL 0.562982
gras A-QUALITY 1
dishes NULL 4.47742e-005
must A-QUALITY 8.86395e-005
i E-FOOD 0.341032
try NULL 0.0123879
unappreciative E-SERVICE 1
after ; 6.72343e-005
visitor E-SERVICE 1
dishes A-GENERAL 1.03625e-005
terrine A-QUALITY 1
table NULL 0.0916462
have E-FOOD 0.0534613
business E-SERVICE 0.122556
all ; 0.00946572
table A-GENERAL 0.00315261
somehow E-SERVICE 1
food NULL 0.00530053
managed E-SERVICE 1
short E-SERVICE 1
too NULL 0.0610503
jsut E-OVERALL 0.000950356
or NULL 0.265447
avoid E-OVERALL 0.444719
when E-SERVICE 0.17047
! E-OVERALL 4.30447e-006
sat E-SERVICE 0.187604
to E-SERVICE 0.000492329
fast E-SERVICE 0.778336
after NULL 0.383051
taste NULL 0.136185
i ; 0.000651764
after A-GENERAL 0.00158341
people E-SERVICE 0.441115
all NULL 0.206307
mouth NULL 0.000165268
have ; 0.0249665
allowed ; 0.000691655
all A-GENERAL 0.0112478
work E-SERVICE 4.1269e-005
that NULL 0.745578
that A-GENERAL 0.0146196
eaten E-FOOD 0.616507
that ; 0.0151723
watery A-QUALITY 0.998054
afternoon A-GENERAL 0.455264
saul E-OVERALL 0.403866
sapphire A-QUALITY 1
forget E-SERVICE 0.997639
uws NEGATIVE 0.503359
uws E-SERVICE 0.00466299
me NULL 0.549503
me A-GENERAL 0.241086
friend A-QUALITY 0.063467
me ; 0.0903999
about NULL 0.256023
times ; 2.00536e-005
about A-GENERAL 0.195605
times E-FOOD 0.00111115
about ; 0.0152822
see A-GENERAL 0.57524
is E-OVERALL 0.00149561
small NULL 0.00115079
little NULL 0.463563
is ; 0.00488641
small A-GENERAL 0.283582
is E-FOOD 0.027734
however NULL 4.74805e-005
small ; 0.000124534
begin E-FOOD 0.00272233
always ; 0.00113627
's NULL 0.57773
amazing E-FOOD 0.0018554
consistently E-FOOD 0.00302072
! NULL 1.41815e-006
calamari E-FOOD 0.396576
! ; 0.999647
thick NEGATIVE 0.996728
play A-GENERAL 1
i NULL 0.0311863
restaurant E-OVERALL 0.130852
have NULL 0.467276
smith E-OVERALL 1
at POSITIVE 0.0426868
street E-OVERALL 0.81397
basic E-AMBIENCE 0.287033
, A-QUALITY 0.0694967
bart E-SERVICE 1
, POSITIVE 0.0972384
theater A-GENERAL 0.879362
in E-OVERALL 0.0011999
many NULL 0.00196463
minutes NEGATIVE 0.641792
brooklyn E-OVERALL 5.05703e-005
group E-SERVICE 0.144145
times NULL 0.153594
the POSITIVE 0.200382
is NULL 0.50769
taken E-SERVICE 0.498859
always NULL 0.0255767
care E-SERVICE 0.568846
pass E-OVERALL 0.321794
waitress E-SERVICE 1
good E-FOOD 0.00657516
good A-QUALITY 0.127095
frist E-SERVICE 1
good POSITIVE 0.688398
. POSITIVE 1.3024e-005
simply E-AMBIENCE 0.0761063
see NEGATIVE 0.424527
is A-GENERAL 0.0878825
patient E-SERVICE 1
best NULL 0.000584776
wan E-SERVICE 0.000332446
tranquility E-AMBIENCE 1
best A-GENERAL 0.000518917
thick E-FOOD 0.00185985
best ; 9.24291e-005
restaurant NULL 0.138759
charming ; 0.000907738
restaurant A-GENERAL 0.683407
poor A-QUALITY 0.000956804
restaurant ; 0.0031753
whether E-FOOD 0.713421
prompt E-SERVICE 1
menu E-DRINKS 0.000894352
street A-GENERAL 0.000190836
in NULL 0.199686
in A-GENERAL 0.143065
in ; 0.000493682
minutes ; 0.00064499
brooklyn A-GENERAL 0.999393
brooklyn ; 0.000115446
amazing ; 0.000221328
professional E-SERVICE 0.99982
with NULL 0.619297
with E-FOOD 0.122604
with A-QUALITY 0.107238
heartland E-OVERALL 1
with POSITIVE 0.0700742
with ; 0.0289548
figs A-QUALITY 1
brewery E-OVERALL 1
truly E-SERVICE 0.336515
still NULL 5.76097e-005
was POSITIVE 0.0664509
out NULL 0.636722
out E-FOOD 1.07896e-005
out A-QUALITY 0.00471582
out POSITIVE 0.0362604
out ; 0.00380205
of E-FOOD 0.00411641
cause NEGATIVE 0.999902
of A-QUALITY 0.0284257
of POSITIVE 0.0204058
this E-FOOD 0.0305396
really A-GENERAL 0.0759119
this A-QUALITY 0.000989458
chinese E-OVERALL 0.264239
really ; 0.00254738
this POSITIVE 0.219033
world A-QUALITY 0.00237231
oh E-OVERALL 1
world POSITIVE 0.929936
world ; 0.000106537
pad E-FOOD 0.0055162
the E-DRINKS 0.0223608
stay NEUTRAL 1
the A-PRICES 0.00300019
wine NULL 0.000101941
wine E-DRINKS 0.791664
mid-town POSITIVE 0.00279857
e E-OVERALL 1
list E-DRINKS 0.762751
spreads E-FOOD 0.000645504
'm NULL 0.00587874
nonsense E-SERVICE 1
is E-DRINKS 0.000395491
is A-STYLE_OPTIONS 0.000127618
arugula A-QUALITY 1
little E-FOOD 0.000321699
is A-PRICES 0.00388202
institutions E-OVERALL 1
interesting E-DRINKS 0.740398
enjoy ; 5.67286e-005
enjoy NULL 2.28844e-005
and E-DRINKS 0.000164532
one E-OVERALL 0.332612
course A-QUALITY 0.524766
roll E-FOOD 0.205657
and A-PRICES 0.000516219
runned E-OVERALL 1
has NULL 0.101192
has E-DRINKS 0.001474
has A-STYLE_OPTIONS 0.0207066
has POSITIVE 0.655188
has ; 0.000269106
has A-PRICES 1.49466e-005
many E-DRINKS 0.0474529
friend POSITIVE 0.66222
many A-STYLE_OPTIONS 0.058076
years E-OVERALL 3.65105e-005
good E-DRINKS 0.0298694
rushing E-SERVICE 0.335692
its NEGATIVE 0.47279
its E-FOOD 0.000759053
good A-PRICES 3.57651e-007
operation E-OVERALL 1
values E-DRINKS 1
upstate POSITIVE 0.00128275
oily A-QUALITY 0.00463083
for E-OVERALL 0.00269961
disappointment E-OVERALL 2.17509e-005
definitely NEUTRAL 0.046632
for A-PRICES 0.00126874
for POSITIVE 0.0181428
vomit-inducing NEGATIVE 1
pony E-OVERALL 0.999493
definitely A-QUALITY 0.000842636
for E-FOOD 0.00940554
pony A-GENERAL 0.000507145
for A-QUALITY 0.00543599
price NULL 0.0002328
dozens E-OVERALL 1
price A-PRICES 0.808964
venture E-OVERALL 1
buy A-QUALITY 1
price A-QUALITY 0.11134
, A-PRICES 2.77923e-006
casimir E-OVERALL 1
you NULL 0.178858
you E-OVERALL 0.0750427
failed E-OVERALL 0.00903681
you A-PRICES 0.0755908
island E-OVERALL 1
failed NULL 0.0503562
you POSITIVE 0.0666637
you ; 0.070859
freeze A-QUALITY 1
you E-FOOD 0.0592429
you A-QUALITY 0.000302193
can NULL 0.0653246
can E-OVERALL 0.189406
old A-GENERAL 0.00253663
teenage E-OVERALL 1
can A-PRICES 0.150779
corona E-OVERALL 1
experience ; 0.698125
reasonably A-PRICES 1
can POSITIVE 0.311453
if E-LOCATION 0.00738693
experience NULL 0.0416556
can ; 0.000237542
experience E-OVERALL 1.30125e-005
bagels A-QUALITY 0.000639167
can E-FOOD 0.00263425
experience A-GENERAL 0.110961
bagels A-STYLE_OPTIONS 0.000163941
mayo A-QUALITY 1
your E-FOOD 0.000209565
not A-PRICES 0.00332964
your ; 0.0101996
not POSITIVE 0.00136532
no A-QUALITY 0.0671975
not E-FOOD 0.149005
warm E-AMBIENCE 0.301888
your A-GENERAL 0.407055
not A-QUALITY 0.00113652
eat NULL 0.307731
better A-GENERAL 7.41126e-005
eat E-OVERALL 0.0035197
kids E-OVERALL 0.309884
did E-FOOD 0.0449648
weather E-AMBIENCE 1
eat A-PRICES 0.100738
kids NULL 0.000129866
did ; 4.05179e-005
eat POSITIVE 0.00176673
did NULL 0.344912
eat ; 0.00367365
better A-QUALITY 0.0027604
eat E-FOOD 9.68477e-005
did A-GENERAL 0.0134515
really E-FOOD 0.330218
this A-PRICES 8.85724e-006
well NULL 0.000460849
else A-GENERAL 0.00418509
well E-OVERALL 0.0277904
enjoyable A-GENERAL 0.998467
everytime E-OVERALL 0.508141
snag E-AMBIENCE 1
well A-PRICES 0.045196
well POSITIVE 0.79884
well ; 0.00537117
find E-OVERALL 0.452988
else A-QUALITY 0.00188698
find A-GENERAL 0.546649
else A-STYLE_OPTIONS 0.0625238
well A-QUALITY 3.27049e-005
leon E-OVERALL 8.05272e-005
in E-FOOD 0.00314264
in A-QUALITY 0.00186396
manhattan E-OVERALL 5.24933e-005
decide E-OVERALL 0.999513
stressed E-AMBIENCE 1
manhattan POSITIVE 0.999505
manhattan ; 2.58389e-005
awful NEGATIVE 0.999824
must A-GENERAL 0.000389828
i E-OVERALL 0.285438
i A-GENERAL 0.142959
attracted A-MISCELLANEOUS 1
must ; 4.67002e-005
i NEGATIVE 0.0108249
grat A-GENERAL 0.000865132
was E-OVERALL 8.35636e-006
very E-OVERALL 0.00016298
disappointed NULL 0.000125396
disappointed E-OVERALL 0.310669
disappointed A-GENERAL 0.173145
unisex E-SERVICE 1
disappointed NEGATIVE 0.515864
plan E-OVERALL 0.374704
1st E-SERVICE 0.601666
disappointed ; 0.000196496
differently NEGATIVE 1
district A-GENERAL 1
with E-OVERALL 0.000559484
with A-GENERAL 0.00960852
with NEGATIVE 0.0289471
phenomenal POSITIVE 1
charming E-SERVICE 0.451007
restaurant NEGATIVE 0.000109171
ive E-SERVICE 1
celebrate E-OVERALL 1
asked E-SERVICE 1
think NULL 0.199775
a E-SERVICE 4.30084e-005
cart E-SERVICE 1
caviar A-QUALITY 5.51821e-005
served E-FOOD 0.000852753
attendant E-SERVICE 1
served ; 0.255466
hits E-OVERALL 1
pretty NULL 0.00866776
caviar E-FOOD 0.150399
served E-SERVICE 0.182141
lotus E-SERVICE 1
hospitable E-SERVICE 1
williamsburg E-OVERALL 0.642536
leaf E-SERVICE 1
got NULL 0.470278
wrapped E-SERVICE 1
hutner E-LOCATION 1
patrons E-SERVICE 1
japanese NULL 0.00244638
let E-SERVICE 0.286127
rice NULL 0.000549511
college E-LOCATION 1
nice E-AMBIENCE 0.29231
nice A-MISCELLANEOUS 0.0117747
rice NEGATIVE 0.34669
area NULL 5.2301e-005
rice ; 0.000113047
she E-SERVICE 1
russe E-SERVICE 0.000136379
top NULL 0.13172
replied E-SERVICE 1
wants E-SERVICE 0.990053
morning E-OVERALL 0.0962298
back NULL 0.00213804
back E-SERVICE 2.86836e-006
midtown E-FOOD 0.00102077
back A-GENERAL 0.306179
back NEGATIVE 0.0176266
been NULL 0.0857586
back ; 3.031e-005
owned E-OVERALL 1
just NULL 0.0223554
just E-SERVICE 2.49774e-006
just A-GENERAL 0.0317844
just NEGATIVE 0.22322
just ; 0.439658
hoboken E-OVERALL 0.996497
walked NEGATIVE 0.690528
away NULL 0.000217044
ambience E-AMBIENCE 1
away A-GENERAL 0.274351
lets E-SERVICE 1
away NEGATIVE 0.111118
sushi NULL 0.00144497
away ; 8.18641e-005
must E-FOOD 0.0613139
i E-SERVICE 0.00215529
had NULL 0.22402
outstanding A-QUALITY 0.999948
had E-SERVICE 0.000136376
conversation E-AMBIENCE 1
had A-GENERAL 0.0843978
had NEGATIVE 8.86271e-005
outstanding E-FOOD 5.15821e-005
non-intrusive E-SERVICE 1
had ; 0.00028487
ask NULL 5.8158e-005
particulary A-QUALITY 1
ask E-SERVICE 0.19652
casual E-AMBIENCE 0.664095
considering NEGATIVE 0.404526
ask A-GENERAL 0.593643
casual A-MISCELLANEOUS 8.87306e-005
considering E-SERVICE 0.276928
salmon A-QUALITY 0.999028
tried E-FOOD 0.000237949
her E-SERVICE 0.444943
tried NEGATIVE 0.515863
lunch A-MISCELLANEOUS 0.0962483
salmon E-FOOD 0.000972356
change E-OVERALL 0.553476
budget E-FOOD 1
three E-SERVICE 1.9471e-005
three A-GENERAL 0.880296
times A-GENERAL 0.819367
times NEGATIVE 0.000207708
ever E-LOCATION 0.000137329
before NULL 0.000642645
though E-FOOD 0.0860865
before E-SERVICE 0.0622013
though NEGATIVE 0.0641358
before A-GENERAL 0.000239696
though ; 0.088606
before NEGATIVE 0.440243
though E-SERVICE 0.0683288
wish E-FOOD 8.79735e-005
finally E-SERVICE 0.45791
wish NEGATIVE 0.998614
river E-LOCATION 1
came NULL 0.00120613
dim A-QUALITY 5.27927e-005
came E-SERVICE 0.436945
came A-GENERAL 0.000368452
weehawken E-LOCATION 1
dim E-FOOD 0.273943
came ; 0.388281
with E-SERVICE 0.00047213
dish NULL 4.66019e-005
ordered E-FOOD 0.0010354
dish E-SERVICE 0.118365
an E-AMBIENCE 2.05268e-005
ordered ; 0.00112298
requested E-SERVICE 0.999636
requested NEGATIVE 0.00036386
idea E-LOCATION 0.179815
slightly NULL 9.22616e-005
food NEUTRAL 5.76244e-007
spicy A-QUALITY 0.614686
fat A-QUALITY 1
seem NEGATIVE 0.711569
getting A-GENERAL 0.443018
okay NEUTRAL 0.530765
view E-LOCATION 1
sitting E-AMBIENCE 0.54608
, NEUTRAL 0.00123551
nothing NULL 0.32554
buffet A-STYLE_OPTIONS 1
melt-in-your-mouth A-QUALITY 1
nothing NEUTRAL 0.220675
chart E-LOCATION 0.997616
nothing ; 0.00151921
great NULL 0.00444659
great E-FOOD 0.000219677
great A-QUALITY 4.26178e-005
fresh A-QUALITY 0.0228262
great NEUTRAL 0.00160937
including E-FOOD 0.997566
great ; 0.11077
surprising E-OVERALL 0.413493
surprising POSITIVE 0.00734194
chow NEGATIVE 1
surprising E-FOOD 0.579011
blasted E-DRINKS 1
adequately A-STYLE_OPTIONS 1
fun NULL 0.0172507
fun NEGATIVE 0.18522
fun ; 0.000240324
system E-DRINKS 1
proportioned A-STYLE_OPTIONS 1
fun E-AMBIENCE 0.249924
fun A-GENERAL 0.509104
still NEGATIVE 0.000117597
was E-AMBIENCE 4.04255e-005
pastries POSITIVE 0.0012303
dry NEGATIVE 1
isnt E-DRINKS 1
ration A-STYLE_OPTIONS 1
; NULL 5.28986e-005
; E-FOOD 4.6797e-005
; A-QUALITY 0.0685464
also NULL 0.000135441
; ; 0.629458
dollar E-DRINKS 1
also A-STYLE_OPTIONS 0.148929
; A-GENERAL 0.00107288
pork A-QUALITY 0.999959
pork NEGATIVE 4.11041e-005
-- NULL 0.00655235
minimun E-DRINKS 1
-- A-STYLE_OPTIONS 9.41081e-006
shu A-QUALITY 0.00024623
his E-SERVICE 0.713489
shu NEGATIVE 0.999754
overpack A-STYLE_OPTIONS 0.981904
full A-QUALITY 0.405638
mai NEGATIVE 1
more NULL 0.125953
bun A-STYLE_OPTIONS 1
more E-FOOD 0.0764099
more A-QUALITY 0.00145867
more NEGATIVE 0.179187
more ; 0.134345
more A-GENERAL 0.277496
than NULL 0.0286853
consequently A-STYLE_OPTIONS 0.982962
than E-FOOD 0.1992
than A-QUALITY 0.0652603
than NEGATIVE 0.293448
consequently E-FOOD 0.0170375
than ; 0.15585
once E-AMBIENCE 0.298893
than A-GENERAL 0.180731
burgers A-STYLE_OPTIONS 0.441499
usually A-QUALITY 0.999796
usually NEGATIVE 0.000204264
able E-SERVICE 0.355632
step E-AMBIENCE 1
fell A-STYLE_OPTIONS 0.402111
greasy A-QUALITY 0.000780272
greasy NEGATIVE 0.99922
reliable E-OVERALL 0.987664
fell E-FOOD 0.597889
cosette E-AMBIENCE 1
one NEGATIVE 0.265429
and E-AMBIENCE 0.00490488
had E-FOOD 0.365183
had A-QUALITY 0.180862
to E-FOOD 0.00101692
east E-AMBIENCE 0.441359
to A-QUALITY 0.000510167
understands E-SERVICE 1
to E-AMBIENCE 0.000128077
worth E-OVERALL 0.264696
apart A-STYLE_OPTIONS 1
worth A-GENERAL 0.0467929
share A-QUALITY 0.691084
cafe ; 0.000165763
share NEGATIVE 0.308916
worth NULL 4.44523e-005
cafe E-SERVICE 0.0947827
miraculously E-AMBIENCE 1
a E-FOOD 0.00158556
a A-QUALITY 0.00181916
dinner A-MISCELLANEOUS 0.188306
a E-AMBIENCE 0.00998014
additions POSITIVE 0.000612955
frozen A-QUALITY 1
friendly A-GENERAL 0.0813882
with E-AMBIENCE 0.000399237
spice A-QUALITY 0.806453
did'nt A-STYLE_OPTIONS 1
loud NEGATIVE 0.688112
loud E-AMBIENCE 4.22888e-005
off-the-beaten E-AMBIENCE 1
palate A-STYLE_OPTIONS 1
family NULL 0.151741
finishing A-STYLE_OPTIONS 1
family E-FOOD 0.000559039
family A-QUALITY 2.58643e-005
family ; 0.00115921
family E-AMBIENCE 0.000218503
path E-AMBIENCE 1
family A-GENERAL 0.0327701
15 E-OVERALL 0.353651
i/we E-OVERALL 1
parisian E-AMBIENCE 1
indian ; 0.000105637
've E-LOCATION 0.000145686
will NULL 0.0440217
union A-GENERAL 0.00316724
will E-OVERALL 0.642738
bistro E-AMBIENCE 0.202167
will A-GENERAL 0.181213
will ; 3.68899e-005
never E-OVERALL 0.272394
go NULL 0.1851
square A-GENERAL 0.000813009
go E-OVERALL 0.526933
cozy E-AMBIENCE 1
go A-GENERAL 0.226026
go NEGATIVE 0.043595
go ; 0.00981337
back E-OVERALL 0.659663
again NULL 9.24742e-005
again E-OVERALL 0.76998
gets E-AMBIENCE 0.00131689
sum NEGATIVE 0.573731
again A-GENERAL 0.00026068
again NEGATIVE 0.0450935
again ; 0.18455
went NULL 0.0892285
went E-OVERALL 7.11753e-006
certain E-AMBIENCE 0.501144
went A-GENERAL 0.83792
ny ; 7.20953e-005
varies E-SERVICE 0.000131607
a POSITIVE 0.270447
elsewhere NEGATIVE 0.644352
flair E-AMBIENCE 1
3 A-GENERAL 0.999487
day A-GENERAL 0.478597
prepared ; 0.000189237
saving E-OVERALL 1
generally A-GENERAL 0.000530335
oyster E-OVERALL 1
french E-AMBIENCE 0.339803
snacks E-OVERALL 1
generally E-SERVICE 0.511902
binge E-OVERALL 1
ok NEGATIVE 0.206228
chat E-OVERALL 0.99929
simply NULL 0.0035914
fish NULL 0.0104578
barely NEGATIVE 1
fish E-OVERALL 0.0390314
retired E-OVERALL 1
seating E-SERVICE 0.498863
tom NEGATIVE 0.91253
does A-GENERAL 0.430503
bringing E-OVERALL 0.998065
does NEGATIVE 0.299306
faan E-OVERALL 1
hipster E-OVERALL 1
tom E-FOOD 0.00124934
does E-SERVICE 4.07737e-005
up NULL 0.0681922
kha NEGATIVE 0.96771
fill A-GENERAL 1
up E-OVERALL 0.224584
up A-GENERAL 0.0668577
sooo E-OVERALL 0.990628
up POSITIVE 0.570148
degree E-OVERALL 1
up ; 0.00376785
pathetic NEGATIVE 0.796741
closing A-GENERAL 1
certainty E-OVERALL 1
am NULL 0.0288739
am E-OVERALL 0.288062
am A-GENERAL 0.000269034
wo E-SERVICE 0.000104612
am POSITIVE 0.536523
lucky E-OVERALL 1
so NULL 0.634538
so E-OVERALL 0.000198653
so A-GENERAL 0.115988
so POSITIVE 0.165445
strike E-OVERALL 1
so ; 0.00995343
glad E-OVERALL 0.545632
glad A-GENERAL 0.454368
menu ; 0.128309
menu NULL 7.47869e-005
pesto E-FOOD 1
st. E-SERVICE 1
want E-DRINKS 0.0577294
place POSITIVE 0.148032
it NULL 0.164882
it E-OVERALL 0.160349
it A-GENERAL 0.0458269
side NULL 0.000122998
it POSITIVE 0.180279
it ; 0.247353
consider NEUTRAL 0.285719
consider E-AMBIENCE 0.714281
o A-GENERAL 1
get ; 0.57558
get NULL 0.0596267
itself E-AMBIENCE 0.287056
companion NEUTRAL 1
order A-GENERAL 6.81948e-005
trip E-OVERALL 0.399377
order NEGATIVE 0.609888
trip A-GENERAL 0.449084
enough ; 0.575218
enough NULL 6.59196e-005
heard E-FOOD 1
order E-SERVICE 0.107898
across NEUTRAL 1
nicest E-SERVICE 0.199462
ended POSITIVE 0.999771
both NULL 0.000557209
because NULL 0.281081
because E-OVERALL 1.77037e-005
particularly NEGATIVE 0.306897
because A-GENERAL 0.638385
because POSITIVE 0.000780331
because ; 0.016504
great E-OVERALL 0.00485326
great A-GENERAL 0.0204476
fresh ; 0.000213802
wine-by-the-glass E-DRINKS 1
great POSITIVE 0.854688
takeout E-SERVICE 1
! POSITIVE 0.000346359
service NULL 5.52039e-005
service E-SERVICE 0.739485
service A-GENERAL 8.66295e-005
quality ; 0.00212648
service POSITIVE 0.221081
service ; 0.0392904
personal A-STYLE_OPTIONS 0.534823
italy A-QUALITY 0.470438
quality E-FOOD 0.464624
personal E-AMBIENCE 0.465177
true NEUTRAL 1
penang A-QUALITY 1
spicy E-FOOD 0.385314
problem NEGATIVE 0.227945
problem E-SERVICE 0.192183
heartily E-OVERALL 1
problem A-GENERAL 0.45011
herb E-AMBIENCE 1
devine A-PRICES 1
definetly E-OVERALL 1
during NEGATIVE 0.528331
recommend ; 0.000122587
recommend NULL 0.00160652
recommend E-OVERALL 0.360682
recommend E-FOOD 0.174236
during NEUTRAL 0.26844
oysters A-PRICES 0.499032
where NULL 0.110861
where E-SERVICE 8.32293e-006
where A-GENERAL 0.532223
mussels E-FOOD 0.00141181
where ; 0.249317
exclaimed A-STYLE_OPTIONS 1
where A-QUALITY 0.000119062
where A-PRICES 0.0727836
dinner NEUTRAL 1.02178e-005
a A-PRICES 0.00010197
fries E-FOOD 0.588552
fries A-STYLE_OPTIONS 0.411448
sensual A-PRICES 1
as NULL 0.0801624
several E-FOOD 0.00691
as E-SERVICE 4.55229e-006
as A-GENERAL 0.0150728
shoestring E-FOOD 1
as POSITIVE 0.791321
$ NULL 2.28344e-005
as ; 0.000103542
several A-QUALITY 0.0393975
as E-FOOD 0.000448931
as A-QUALITY 0.0849115
several A-GENERAL 0.378627
as E-OVERALL 0.0199113
$ E-FOOD 0.0927041
around ; 0.00374144
they POSITIVE 0.151319
paninis A-STYLE_OPTIONS 1
wasabe A-QUALITY 0.999877
they E-FOOD 0.296442
around A-GENERAL 0.579116
they A-QUALITY 0.000169318
they A-PRICES 0.00950364
come NULL 0.00157044
comfort A-QUALITY 0.408606
come E-FOOD 0.186139
comfort POSITIVE 0.591394
come E-OVERALL 0.263848
come A-PRICES 0.242864
price E-SERVICE 0.0436646
price A-GENERAL 0.00041953
ca NULL 0.105347
ca A-GENERAL 0.277868
much ; 0.33156
ca POSITIVE 0.104063
much NULL 0.331871
ca ; 8.28863e-005
much E-OVERALL 8.1729e-006
ca E-FOOD 0.00173554
much A-GENERAL 0.0575598
ca E-OVERALL 0.3592
much E-FOOD 6.02026e-005
unpretensious E-AMBIENCE 1
ca A-PRICES 0.151581
n't NULL 0.170137
n't E-SERVICE 3.40584e-005
n't A-GENERAL 0.194473
n't POSITIVE 0.00218803
offered E-FOOD 1
n't ; 0.0023392
n't E-FOOD 6.7689e-005
date A-GENERAL 0.570398
n't E-OVERALL 0.100084
n't A-PRICES 0.00741319
be POSITIVE 0.00214095
be E-FOOD 0.0019097
village E-AMBIENCE 0.999728
knew POSITIVE 1
be A-QUALITY 6.03308e-005
be A-PRICES 0.000844506
red E-SERVICE 0.00290767
unique E-FOOD 0.99973
red A-QUALITY 0.0269376
unique A-STYLE_OPTIONS 0.000270101
red A-GENERAL 0.0846622
beat A-PRICES 1
own A-STYLE_OPTIONS 0.635638
! A-QUALITY 3.86198e-007
native E-OVERALL 1
you A-GENERAL 0.457627
thanks E-OVERALL 0.450767
go POSITIVE 0.000972345
wrong E-OVERALL 1
here NULL 0.299963
here E-OVERALL 0.0474834
completely NEGATIVE 0.597629
here A-GENERAL 0.186458
almost ; 0.00187355
completely E-DRINKS 0.195572
here POSITIVE 0.0412167
almost NULL 0.00175557
here ; 0.319967
every NULL 0.175369
live A-GENERAL 0.740286
every E-OVERALL 0.000230596
every A-GENERAL 0.540475
every POSITIVE 0.00257831
every ; 5.07612e-005
time NULL 0.0823029
time E-OVERALL 0.0202533
time A-GENERAL 0.831079
time POSITIVE 0.00271367
time ; 0.0201075
new NULL 9.28352e-005
new E-OVERALL 0.0549626
new A-GENERAL 0.101827
if ; 0.356257
new POSITIVE 0.843117
if NULL 0.00240142
york POSITIVE 1
freshest E-FOOD 1
introduced E-OVERALL 1
make NULL 0.00702359
make E-OVERALL 6.40622e-005
make A-GENERAL 0.688531
make ; 8.97225e-005
rare E-OVERALL 0.999553
point A-GENERAL 1
to POSITIVE 0.0486992
visit NULL 0.0952363
visit E-OVERALL 0.43977
visit A-GENERAL 0.0937958
visit POSITIVE 0.179213
visit ; 0.191437
everything NULL 0.000559449
everything E-FOOD 0.40716
everything A-QUALITY 0.362777
choice A-PRICES 0.315587
everything POSITIVE 0.000115678
everything ; 0.000245947
choice A-QUALITY 0.684413
everything E-SERVICE 1.52737e-005
everything A-GENERAL 0.141205
everything E-AMBIENCE 0.0358523
is E-SERVICE 0.00697068
is E-AMBIENCE 0.0279207
begin A-QUALITY 0.99696
always E-SERVICE 0.0702078
stepping E-AMBIENCE 1
always A-GENERAL 0.077205
cooked NULL 0.000341401
cooked E-FOOD 4.47543e-005
cooked A-QUALITY 0.989155
cost A-PRICES 1
cooked POSITIVE 0.00804344
cooked ; 0.00223616
perfection A-QUALITY 0.000663343
perfection POSITIVE 0.707119
particular E-FOOD 0.00848097
particular A-QUALITY 0.98305
nobody E-SERVICE 1
, E-AMBIENCE 0.0118938
done NEGATIVE 0.00061684
request A-STYLE_OPTIONS 0.0051863
the E-AMBIENCE 0.06673
italy POSITIVE 0.529562
excellent NULL 0.000367735
excellent E-FOOD 0.000902238
excellent A-QUALITY 0.0752696
excellent POSITIVE 0.922767
excellent ; 0.000347045
included A-QUALITY 1
excellent E-SERVICE 0.00024106
excellent E-AMBIENCE 0.000101504
suan E-OVERALL 0.823974
ceviche A-QUALITY 1
decor E-AMBIENCE 1
diamond A-QUALITY 1
cool POSITIVE 0.00024418
classmates E-OVERALL 1
mix A-QUALITY 1
cool E-SERVICE 0.131874
cool A-GENERAL 0.486971
cool E-AMBIENCE 0.380912
rough A-QUALITY 1
're A-GENERAL 0.735446
're ; 0.00162046
're NULL 0.218493
assorted A-QUALITY 1
understated E-AMBIENCE 1
had POSITIVE 0.144988
nice E-OVERALL 0.000392903
homemade A-QUALITY 0.593943
nice A-GENERAL 0.0391703
breast A-QUALITY 1
nice ; 0.000597605
nice NULL 0.0368985
special NULL 0.00308986
balance A-QUALITY 1
special E-FOOD 0.000332965
kitchen A-GENERAL 0.423668
special A-QUALITY 0.72298
special POSITIVE 0.0738374
kitchen NULL 9.57227e-005
special ; 0.00949248
on E-FOOD 0.000522543
bargain POSITIVE 0.000443866
on A-QUALITY 5.25647e-005
my NULL 0.184236
herbs A-QUALITY 1
my E-FOOD 0.223034
my A-QUALITY 0.0394833
my POSITIVE 0.172747
my ; 0.000660189
last NULL 0.459048
tomatoes A-QUALITY 1
last E-FOOD 0.000298702
last A-QUALITY 0.000455838
last POSITIVE 0.0645261
fastest A-STYLE_OPTIONS 0.999767
vegatables A-QUALITY 1
it E-FOOD 0.132287
it A-QUALITY 0.0239734
incredible NULL 0.000149078
incredible A-QUALITY 0.000437537
incredible POSITIVE 0.795512
pub A-GENERAL 0.990626
wait E-OVERALL 2.61142e-005
wait A-GENERAL 0.883191
category E-SERVICE 1
hour NEGATIVE 1
my E-OVERALL 0.244189
my A-GENERAL 0.122699
next NULL 7.80375e-005
next E-OVERALL 0.77085
? ; 0.940588
next A-GENERAL 0.225183
instance E-SERVICE 1
? A-PRICES 0.0574387
enjoying E-SERVICE 0.37501
downtown NEUTRAL 1
20 NEGATIVE 0.559404
hate E-OVERALL 0.374877
hate A-GENERAL 0.625123
ourselves E-SERVICE 0.601666
2002 NEUTRAL 1
say NULL 0.683144
say E-OVERALL 0.0977349
say A-GENERAL 1.31952e-005
say NEGATIVE 0.00492247
smile E-SERVICE 1
say ; 0.000651215
doubt E-OVERALL 0.375754
doubt A-GENERAL 0.624246
lunch NULL 0.227436
suggestion..try NEUTRAL 0.997817
'll E-OVERALL 0.616777
'll NEGATIVE 0.383223
would NULL 0.290032
ever NULL 0.371897
ever E-OVERALL 1.56001e-005
ever A-GENERAL 0.000186276
greeted E-SERVICE 1
ever NEGATIVE 0.00074891
ever ; 0.0173874
is NEGATIVE 0.00127892
tramezzinis A-STYLE_OPTIONS 1
potatoes A-QUALITY 1
very E-FOOD 0.0200308
9:30 A-GENERAL 0.000524533
very A-QUALITY 0.00611401
having A-QUALITY 9.72528e-005
average E-FOOD 0.168221
average A-QUALITY 0.652355
promptly E-SERVICE 1
average NEGATIVE 0.000157178
average ; 0.0240321
... NULL 0.0427049
... E-FOOD 0.00381163
cordial POSITIVE 0.00101661
... A-QUALITY 0.0406144
are A-MISCELLANEOUS 0.00473793
cordial E-SERVICE 0.998983
... NEGATIVE 0.00101189
... ; 0.894767
thai NULL 0.00408338
an E-OVERALL 4.76944e-005
thai E-FOOD 0.000189297
an A-GENERAL 0.038369
person A-STYLE_OPTIONS 0.331914
thai A-QUALITY 0.755905
suggesting E-SERVICE 1
thai NEGATIVE 0.0975419
an NULL 0.0542513
person E-SERVICE 0.286945
thai ; 0.0980999
who A-QUALITY 0.000592722
who A-STYLE_OPTIONS 0.0562084
helped E-SERVICE 1
who ; 0.000867268
fusion NEGATIVE 1
who E-SERVICE 0.291005
stuff E-FOOD 0.528348
ordering E-SERVICE 0.999768
stuff NEGATIVE 0.471652
bit NULL 0.0943995
appetizing A-STYLE_OPTIONS 1
bit E-FOOD 5.771e-005
chart A-GENERAL 0.00238355
fair NEGATIVE 1
bit NEGATIVE 0.152026
bit ; 0.00180297
hungry E-OVERALL 0.0412654
every E-FOOD 7.94591e-005
every A-QUALITY 0.281211
beautiful E-LOCATION 0.135193
most A-MISCELLANEOUS 0.000703114
thing NULL 0.000105964
thing E-FOOD 0.238701
redeeming NEGATIVE 1
house A-GENERAL 0.672368
thing A-QUALITY 0.543556
thing NEGATIVE 3.57869e-005
factor NEGATIVE 1
offer A-GENERAL 0.44913
husband A-STYLE_OPTIONS 0.335203
serve A-QUALITY 0.457135
completely A-QUALITY 0.00106613
here E-FOOD 0.0985762
almost A-GENERAL 0.00178001
here A-QUALITY 0.00430389
here NEGATIVE 0.000722546
thanked E-OVERALL 1
only NULL 0.720409
only E-FOOD 0.0749407
only A-QUALITY 0.0114783
steamed E-FOOD 0.999809
only POSITIVE 0.00232575
only ; 0.000103102
others E-OVERALL 0.998664
moderately E-FOOD 0.000973767
others POSITIVE 0.00133626
moderately A-QUALITY 0.999026
buns E-FOOD 0.997278
enjoyed E-FOOD 0.165097
edible NEGATIVE 0.987818
surprise A-STYLE_OPTIONS 0.116349
enjoyed A-QUALITY 0.834903
guacamole+shrimp E-FOOD 0.000127242
their NULL 0.0778455
their E-FOOD 0.425493
and/or NEGATIVE 1
their A-QUALITY 0.168445
thier E-DRINKS 1
their POSITIVE 0.224436
their ; 0.0186786
grilled A-QUALITY 1
guest E-DRINKS 0.254475
chicken E-FOOD 0.57944
chicken A-QUALITY 0.366386
happy E-SERVICE 0.106259
edamame A-QUALITY 0.683602
dessert ; 0.000431329
pumkin E-DRINKS 1
dessert NULL 6.58477e-005
flavoring NEGATIVE 1
once A-GENERAL 0.0029703
puree A-QUALITY 1
turnip E-FOOD 0.000517077
tortelini E-DRINKS 1
taste NEGATIVE 0.107515
must POSITIVE 0.786253
had A-STYLE_OPTIONS 1.90164e-005
stagnating A-STYLE_OPTIONS 1
never E-FOOD 0.285093
never A-QUALITY 0.00355728
hot E-SERVICE 0.000746452
never POSITIVE 0.00604104
edamame A-STYLE_OPTIONS 0.316398
overdone NEGATIVE 0.974869
pureed A-STYLE_OPTIONS 1
though A-QUALITY 0.265074
before E-FOOD 0.351635
melted ; 0.000337167
furthermore E-FOOD 1
melted NEGATIVE 0.293967
mojito E-DRINKS 1
though POSITIVE 0.33677
before A-STYLE_OPTIONS 0.0868196
but E-FOOD 0.172615
fare E-AMBIENCE 0.458292
but A-QUALITY 0.00111356
but POSITIVE 0.000215501
but A-STYLE_OPTIONS 0.00358
thought NULL 0.000192556
thought E-FOOD 0.584825
egg E-FOOD 0.997048
through E-SERVICE 0.498141
it A-STYLE_OPTIONS 2.9957e-006
jus E-OVERALL 1
please A-QUALITY 0.347366
skip NEGATIVE 0.591309
custards E-FOOD 0.000256026
innovative A-STYLE_OPTIONS 1
along E-LOCATION 0.998379
praise E-OVERALL 1
tasty E-FOOD 0.836396
tasty A-QUALITY 0.0914034
tasty POSITIVE 0.000478066
tasty ; 0.000381963
( NULL 0.113207
items A-STYLE_OPTIONS 1
( E-FOOD 0.459043
( A-QUALITY 0.19328
( POSITIVE 0.173981
suprised E-OVERALL 1
( ; 0.000959592
( A-STYLE_OPTIONS 0.000112877
agreed E-OVERALL 1
could NULL 0.0381752
could E-FOOD 0.313314
could A-QUALITY 6.97535e-005
choose E-FOOD 0.00142347
could POSITIVE 0.084534
dissappointed E-SERVICE 0.334705
could ; 0.000820249
could A-STYLE_OPTIONS 0.0469638
mare E-OVERALL 1
've NULL 0.134229
've E-FOOD 0.573802
least A-STYLE_OPTIONS 0.283069
've A-QUALITY 0.000114341
least E-DRINKS 0.233904
've POSITIVE 0.000910893
've ; 6.2844e-005
absolutely E-SERVICE 0.153559
need ; 0.43934
immediately E-SERVICE 1
absolutely ; 6.83121e-005
need NEGATIVE 0.455948
used A-STYLE_OPTIONS 0.280404
outta E-SERVICE 0.986048
dinner POSITIVE 0.00867705
a A-STYLE_OPTIONS 0.0107622
bit POSITIVE 2.50406e-005
people NULL 0.000334833
more POSITIVE 0.00386112
more A-STYLE_OPTIONS 6.96931e-006
bagel A-STYLE_OPTIONS 0.236997
salt A-STYLE_OPTIONS 1
soft A-QUALITY 0.599153
) E-FOOD 0.102609
gets A-GENERAL 0.000385468
) A-QUALITY 0.00153074
from A-MISCELLANEOUS 0.0253593
pizzas A-PRICES 0.315594
) POSITIVE 0.00557427
gets NULL 0.446531
from POSITIVE 0.0200144
pizzas E-FOOD 8.20342e-005
) ; 0.881909
) A-STYLE_OPTIONS 0.0078489
night E-AMBIENCE 0.125688
night A-GENERAL 0.0194964
sophia E-FOOD 0.0737389
night POSITIVE 0.796519
tho E-AMBIENCE 0.555721
ginger E-OVERALL 1
mediocre E-FOOD 0.0011042
type A-MISCELLANEOUS 0.397244
... E-AMBIENCE 1.00412e-006
... A-GENERAL 6.69498e-005
mille E-SERVICE 1
... POSITIVE 0.000266256
firm E-SERVICE 1
anything ; 0.0017133
but E-AMBIENCE 0.0218548
they E-AMBIENCE 0.000159394
above-average A-STYLE_OPTIONS 1
really E-AMBIENCE 0.000476634
really NEGATIVE 0.00651834
chinese E-FOOD 0.735761
really POSITIVE 0.0540398
french A-STYLE_OPTIONS 0.386633
onion A-STYLE_OPTIONS 1
clean E-AMBIENCE 0.66672
to A-STYLE_OPTIONS 5.01229e-005
paid E-SERVICE 1
clean NEGATIVE 0.33328
that E-AMBIENCE 6.19182e-007
literally E-SERVICE 0.193397
that POSITIVE 0.00111364
soup A-STYLE_OPTIONS 9.20574e-006
vent E-AMBIENCE 1
guys E-SERVICE 0.351904
be A-MISCELLANEOUS 0.000844974
cream E-DRINKS 0.192192
in E-AMBIENCE 0.00105203
side POSITIVE 3.80694e-005
in NEGATIVE 1.37563e-005
filling A-STYLE_OPTIONS 0.675953
ceiling E-AMBIENCE 1
a A-MISCELLANEOUS 0.0292567
yet A-STYLE_OPTIONS 0.535963
its E-AMBIENCE 3.57131e-005
anyone POSITIVE 0.736679
overly A-STYLE_OPTIONS 1
quite E-AMBIENCE 0.25008
place A-QUALITY 3.01058e-006
hip E-AMBIENCE 1
quite A-GENERAL 0.49731
unnecessary E-SERVICE 0.990303
quite NEGATIVE 0.252544
place A-MISCELLANEOUS 0.0159665
impressive A-STYLE_OPTIONS 0.995054
un-appetizing E-AMBIENCE 1
, A-STYLE_OPTIONS 0.000302267
sitting E-LOCATION 0.102999
, A-MISCELLANEOUS 6.68069e-006
kills E-AMBIENCE 1
anything E-SERVICE 0.429551
brilliant A-STYLE_OPTIONS 0.488331
your E-AMBIENCE 9.76856e-006
no POSITIVE 0.000116098
not A-STYLE_OPTIONS 0.000109872
your NEGATIVE 0.000491814
your POSITIVE 0.0204051
way A-STYLE_OPTIONS 0.00159524
effort E-AMBIENCE 1
lively E-AMBIENCE 1
way NULL 0.130645
way ; 0.500504
meal ; 0.129841
make NEGATIVE 0.152119
this E-AMBIENCE 0.00870694
anyone ; 0.000729229
want A-MISCELLANEOUS 0.120562
place E-AMBIENCE 0.0505656
look E-AMBIENCE 0.214373
atmosphere E-AMBIENCE 0.898775
sleek E-AMBIENCE 0.602858
modern E-AMBIENCE 1
we A-QUALITY 0.00248104
chips NEGATIVE 0.000341752
we A-STYLE_OPTIONS 1.94623e-006
we POSITIVE 0.00170558
their A-STYLE_OPTIONS 0.00113997
frites A-QUALITY 1
their A-GENERAL 0.000130124
sake E-DRINKS 1
horrible NEGATIVE 0.999969
fails E-OVERALL 1
there POSITIVE 0.000347103
overhyped NEGATIVE 1
list E-SERVICE 0.0797793
list A-GENERAL 0.15747
cares NEUTRAL 1
was E-DRINKS 0.000764095
oven A-QUALITY 1
room E-FOOD 9.22589e-005
extensive E-DRINKS 1
pizza NEGATIVE 0.0218901
pizza ; 0.000572736
pizza NULL 0.00101781
were POSITIVE 0.00852739
were E-DRINKS 0.000188951
were A-QUALITY 0.00346479
okay-i NEGATIVE 1
following NEUTRAL 0.243372
, E-DRINKS 2.33889e-007
but E-SERVICE 0.091087
we E-DRINKS 0.0283249
were A-STYLE_OPTIONS 0.055445
looking E-DRINKS 0.0567001
drawback E-SERVICE 1
delivered NEGATIVE 0.687376
looking POSITIVE 0.312043
looking ; 0.500534
mind NEGATIVE 0.784374
for E-DRINKS 0.000585528
over-priced E-DRINKS 1
definitely POSITIVE 0.000197828
for A-STYLE_OPTIONS 0.00121053
of E-LOCATION 0.00387126
purple E-DRINKS 1
toast E-SERVICE 3.6279e-005
cold NEGATIVE 0.46216
of E-AMBIENCE 0.00167966
of E-DRINKS 0.0280532
cause E-FOOD 9.79873e-005
haze E-DRINKS 1
cheese NEGATIVE 0.0638638
us E-DRINKS 0.0403099
scallion E-FOOD 0.000615109
scallion NEGATIVE 0.644992
even E-SERVICE 0.168515
which E-DRINKS 0.00357421
even NEGATIVE 0.245916
which A-STYLE_OPTIONS 0.144121
even ; 0.137602
which POSITIVE 0.181254
even NULL 0.000386834
which ; 0.00518234
which E-SERVICE 0.0049982
which A-GENERAL 0.00299261
n't A-STYLE_OPTIONS 5.24965e-005
listed E-DRINKS 0.999925
fully NEGATIVE 1
unobtrusive E-SERVICE 1
such A-PRICES 8.19179e-006
at E-DRINKS 0.0122152
listed E-SERVICE 7.45074e-005
smoked A-QUALITY 1
made E-DRINKS 0.0428592
made A-STYLE_OPTIONS 0.193174
present E-SERVICE 1
made POSITIVE 0.612381
made ; 0.000201989
roe A-QUALITY 1
made E-SERVICE 3.99576e-005
boring NEGATIVE 0.998994
made A-GENERAL 0.00025779
us A-STYLE_OPTIONS 0.051073
entree NEUTRAL 5.94614e-006
upon E-DRINKS 0.446518
partly NEGATIVE 8.80562e-005
attend E-SERVICE 1
entree E-FOOD 0.809547
the E-LOCATION 0.0075827
request E-DRINKS 0.994814
needs E-SERVICE 1
the A-MISCELLANEOUS 4.05349e-006
bad E-SERVICE 0.426705
! E-DRINKS 5.86358e-007
bad NEGATIVE 0.337765
still ; 0.000209356
tuna E-FOOD 0.769534
tuna A-QUALITY 0.230466
empty A-MISCELLANEOUS 3.00357e-005
although E-SERVICE 0.0743933
wonder ; 1
one A-GENERAL 0.000846063
roll A-QUALITY 0.616179
one ; 0.100862
and A-MISCELLANEOUS 1.15363e-005
whats NEGATIVE 0.999927
beautiful A-GENERAL 0.739394
most E-OVERALL 0.00226476
most A-GENERAL 0.120982
unusually A-QUALITY 1
most ; 0.448392
staff POSITIVE 0.132514
most NULL 0.288581
taiwanese E-FOOD 1
overrated E-OVERALL 0.992908
overrated A-GENERAL 0.00294725
rock A-QUALITY 1
restaurants E-OVERALL 0.342607
shrimp E-FOOD 0.394322
restaurants A-GENERAL 0.656925
remember POSITIVE 0.52855
shrimp A-QUALITY 0.605617
appetizers E-FOOD 0.000497294
plate A-PRICES 0.999026
like POSITIVE 0.0750777
remember E-FOOD 0.000183253
refreshing A-QUALITY 0.439235
tempura A-QUALITY 1
on A-PRICES 3.57895e-006
pam A-QUALITY 0.9049
taiwan POSITIVE 0.000781809
awesome A-QUALITY 1
appetizer E-FOOD 0.713668
appetizer A-QUALITY 0.286066
worth ; 0.0558144
saffron A-QUALITY 1
husbands E-FOOD 0.001942
risotto-yum A-QUALITY 1
9:30 E-SERVICE 0.999475
very POSITIVE 0.202137
devoured A-QUALITY 1
friday E-SERVICE 1
liked E-DRINKS 0.11983
it E-SERVICE 4.11768e-007
thin-crust A-QUALITY 1
mashed A-QUALITY 1
died E-SERVICE 0.287815
hot E-DRINKS 0.0562994
potatos A-QUALITY 1
down E-SERVICE 0.235862
down POSITIVE 0.691572
down ; 0.00165342
bit E-SERVICE 0.00063734
bit A-GENERAL 0.510037
cakes A-QUALITY 1
by E-SERVICE 0.0175073
by A-GENERAL 0.0108254
by POSITIVE 0.000599616
by ; 0.000865581
then E-SERVICE 0.614908
how NULL 0.0151313
thoroughly A-QUALITY 1
so E-SERVICE 0.00210772
including A-QUALITY 0.00243425
great E-SERVICE 2.47034e-005
boyfriend A-GENERAL 0.0013829
we E-OVERALL 0.149006
love E-OVERALL 0.325006
love A-GENERAL 0.0773714
love POSITIVE 0.456487
slice E-FOOD 0.743274
love ; 2.42981e-005
calzones NEGATIVE 0.998356
th E-OVERALL 1
right ; 0.0003941
calzones E-FOOD 0.00164356
horrific NEGATIVE 1
pink E-OVERALL 1
disappointment ; 0.0157258
for A-MISCELLANEOUS 0.0418394
real A-GENERAL 5.53873e-005
yuck NEGATIVE 1
some ; 0.000105785
perfect POSITIVE 0.899546
some NULL 0.260554
perfect ; 0.000131923
smell NEGATIVE 1
spot E-OVERALL 0.427024
spot A-GENERAL 0.00150664
spot POSITIVE 0.211427
spot ; 0.00144009
food-awesome E-FOOD 0.882941
food-awesome A-QUALITY 0.114873
food-awesome POSITIVE 0.00218546
our POSITIVE 0.000225606
spinach A-QUALITY 1
service- E-SERVICE 1
dishes A-QUALITY 0.000267573
dishes POSITIVE 0.000508349
calzone A-QUALITY 0.178018
yellowtail E-FOOD 0.0608401
friendly E-SERVICE 0.918377
seafood ; 0.000343192
friendly POSITIVE 0.000142799
seafood NULL 4.70476e-005
attentive E-SERVICE 1
food A-MISCELLANEOUS 6.63485e-006
offers A-STYLE_OPTIONS 0.366081
ambiance- E-AMBIENCE 1
surprises A-STYLE_OPTIONS 1
relaxed E-AMBIENCE 0.603744
relaxed POSITIVE 0.000269963
too POSITIVE 0.0578754
stylish E-AMBIENCE 1
do POSITIVE 0.000184121
do ; 0.133747
servings E-FOOD 0.996553
are ; 0.00428702
are NULL 0.335518
main E-FOOD 0.621299
wasnt E-FOOD 1
delicious ; 2.45144e-005
tips NEGATIVE 1
have E-OVERALL 0.0591473
have A-GENERAL 0.262011
establishment A-GENERAL 9.99114e-005
try E-OVERALL 0.0235485
try A-GENERAL 0.0617636
try POSITIVE 0.401563
try ; 2.69236e-005
all E-FOOD 0.0486457
all A-QUALITY 0.000277647
all A-MISCELLANEOUS 0.0313181
believe POSITIVE 1
all POSITIVE 0.618883
waiters E-SERVICE 0.635832
that E-FOOD 0.0018218
home E-OVERALL 0.656309
pie A-STYLE_OPTIONS 0.411986
that A-QUALITY 0.00152974
home A-GENERAL 0.00256527
volare E-SERVICE 1
home POSITIVE 0.00545551
away E-OVERALL 0.194274
sushi ; 0.000268251
literate E-OVERALL 1
class E-SERVICE 1
being ; 0.00964356
being NULL 0.20535
walking E-SERVICE 0.60186
doing A-GENERAL 0.485173
heart E-OVERALL 1
servers E-SERVICE 0.464049
the NEUTRAL 2.85849e-006
little A-QUALITY 0.00326712
see E-AMBIENCE 0.000233312
is NEUTRAL 0.0027107
topping A-STYLE_OPTIONS 1
decent E-FOOD 0.000964208
efficiently A-STYLE_OPTIONS 0.529702
decent A-QUALITY 0.82724
starter A-STYLE_OPTIONS 1
wife A-QUALITY 0.0109871
decent NEUTRAL 0.171711
wife NULL 6.51623e-005
efficiently E-SERVICE 0.46517
congee E-FOOD 1
however E-SERVICE 5.57339e-006
however A-GENERAL 0.492139
however NEGATIVE 0.0166935
these E-FOOD 0.429837
however ; 0.171892
it NEGATIVE 0.040557
's E-SERVICE 0.000142497
atmoshpere E-AMBIENCE 1
's A-GENERAL 0.136469
's NEGATIVE 5.55701e-005
's ; 0.00575422
leaves E-SERVICE 0.999718
leaves NEGATIVE 0.000282306
alone E-OVERALL 0.000636781
side A-PRICES 0.276043
in E-SERVICE 9.77379e-006
my E-SERVICE 0.0114039
my NEGATIVE 0.00125694
mouth NEGATIVE 0.000154934
happen E-SERVICE 0.276884
happen NEGATIVE 0.00610762
have E-SERVICE 1.00351e-005
dressed A-MISCELLANEOUS 1
have NEGATIVE 0.00129558
amazing E-DRINKS 0.0222793
know E-SERVICE 0.00132284
you E-SERVICE 4.17871e-005
you NEGATIVE 0.00379773
else NEGATIVE 0.0534749
well A-GENERAL 2.83337e-005
else ; 0.467975
did NEGATIVE 0.559581
n't NEGATIVE 0.516245
customer NEGATIVE 0.000255627
there E-OVERALL 0.0492226
awful E-SERVICE 0.000175985
trust NEGATIVE 1
told A-GENERAL 0.0111608
told NEGATIVE 0.590908
everyone E-OVERALL 0.00023944
33.. ; 0.981736
everyone A-GENERAL 0.349382
etc ; 0.99969
everyone NEGATIVE 0.000225872
etc E-SERVICE 0.000309604
can A-GENERAL 0.280146
think E-OVERALL 0.258637
think A-GENERAL 0.218069
think NEGATIVE 0.0763259
think ; 0.000371446
tradional A-STYLE_OPTIONS 1
of E-OVERALL 0.000180773
fine A-GENERAL 0.000200585
says E-SERVICE 1
experience NEGATIVE 0.0639143
last E-OVERALL 0.0605254
last A-MISCELLANEOUS 2.56133e-006
abrupt E-SERVICE 1
time A-MISCELLANEOUS 0.0393845
i A-MISCELLANEOUS 1.15452e-007
walked A-MISCELLANEOUS 0.309472
by E-OVERALL 0.00123846
by A-MISCELLANEOUS 0.00531254
by NEGATIVE 0.000139354
side ; 0.000215743
it A-MISCELLANEOUS 1.61205e-005
looked NEGATIVE 0.557068
pretty NEGATIVE 0.333269
pretty ; 0.000450814
jekyll A-GENERAL 0.00116509
far NULL 0.006017
has E-OVERALL 0.000139344
has A-GENERAL 0.193166
got E-OVERALL 0.001442
got A-GENERAL 4.12451e-005
whenever E-SERVICE 1
got POSITIVE 0.011504
got ; 8.06585e-005
japanese E-OVERALL 0.201208
delivery E-SERVICE 1
neighborhood ; 0.00465926
japanese POSITIVE 0.140304
neighborhood NULL 8.71992e-005
tell A-QUALITY 0.882864
rice E-FOOD 0.631291
area A-GENERAL 0.451627
area POSITIVE 0.491133
area ; 7.51766e-005
had E-OVERALL 1.70701e-005
can A-MISCELLANEOUS 9.68129e-006
experience POSITIVE 0.0845533
top E-SERVICE 0.126543
top A-GENERAL 0.246103
top POSITIVE 0.363007
top ; 0.000540085
notch E-SERVICE 0.648251
morning ; 0.0014352
notch A-GENERAL 0.00106334
morning A-PRICES 0.902142
kind E-SERVICE 0.158825
faced NEGATIVE 1
been E-OVERALL 0.173232
been A-GENERAL 0.675995
been POSITIVE 0.064519
been ; 7.34878e-005
just E-FOOD 0.086368
turkey NEGATIVE 0.995574
going E-OVERALL 0.652288
just A-QUALITY 5.08274e-006
outside E-SERVICE 0.122115
just POSITIVE 0.00272967
turkey E-FOOD 0.00381489
again POSITIVE 2.30778e-005
tasted A-QUALITY 0.383291
tend E-FOOD 1
servings NEGATIVE 0.00243376
dosas A-STYLE_OPTIONS 1
servings ; 0.00101353
are A-GENERAL 0.00288023
judge A-QUALITY 0.670918
sushi E-FOOD 0.308688
sushi A-QUALITY 0.33267
sangria E-DRINKS 1
sushi POSITIVE 0.356844
restaurant E-FOOD 0.000228703
charming POSITIVE 0.0807157
by E-FOOD 0.0984579
by A-QUALITY 0.000360075
its A-QUALITY 0.405662
sea E-FOOD 0.000643985
sea A-QUALITY 0.999356
muggy E-DRINKS 1
urchin A-QUALITY 1
bbq E-FOOD 0.399245
udon E-FOOD 0.000932168
guess E-SERVICE 0.383697
shout A-GENERAL 0.000325394
opinion NEGATIVE 1
which E-FOOD 0.00565345
which A-QUALITY 0.571625
impressed NEGATIVE 0.229031
heavenly A-QUALITY 1
offensive A-GENERAL 0.000492368
rose A-QUALITY 1
varieties E-FOOD 0.00128581
offensive ; 0.672436
offensive NULL 0.000413051
melted E-FOOD 0.0191869
melted A-QUALITY 0.685982
porridge E-FOOD 1
is A-MISCELLANEOUS 3.05946e-007
little POSITIVE 0.000431094
tristate E-OVERALL 1
mouth A-QUALITY 0.514747
mouth POSITIVE 0.000357658
real A-QUALITY 0.998941
perfect A-QUALITY 5.1809e-005
consistency-not A-QUALITY 1
started E-DRINKS 0.543206
definately E-OVERALL 1
adequate A-STYLE_OPTIONS 1
fishy A-QUALITY 1
bombay E-DRINKS 1
inexpertly A-STYLE_OPTIONS 1
creamy E-FOOD 0.58689
creamy A-QUALITY 0.00124142
beer E-DRINKS 1
sliced A-STYLE_OPTIONS 1
slightly E-FOOD 0.223904
trouble A-GENERAL 1
buttery E-FOOD 0.587961
authentic A-QUALITY 0.455936
nothing A-MISCELLANEOUS 0.0361291
nothing POSITIVE 0.00528571
authentic POSITIVE 6.46426e-005
seemed A-STYLE_OPTIONS 0.534829
pomodori E-OVERALL 0.99206
pomodori A-GENERAL 0.00794015
quick E-SERVICE 0.857989
pretty A-STYLE_OPTIONS 0.351648
great A-PRICES 1.83313e-005
italian A-QUALITY 0.00401277
fresh E-FOOD 0.975807
fresh POSITIVE 0.00104197
great E-AMBIENCE 0.00229409
italian POSITIVE 0.284804
fresh A-STYLE_OPTIONS 0.000111432
likely E-OVERALL 0.999097
filled E-DRINKS 1
fun POSITIVE 0.000273471
impeccable E-SERVICE 1
rice A-STYLE_OPTIONS 0.000275617
fish E-FOOD 0.859003
fish A-STYLE_OPTIONS 0.0914523
mad A-QUALITY 0.0036751
cheescake E-FOOD 0.000612546
while ; 0.00628357
while NULL 0.000968238
also E-FOOD 0.224289
pay E-DRINKS 0.000890693
also POSITIVE 0.304228
; POSITIVE 0.20526
also ; 3.0819e-005
-- E-FOOD 0.215289
when ; 0.000444851
-- POSITIVE 0.71225
when NULL 0.0818658
-- ; 3.69931e-005
around NEGATIVE 0.250174
they A-STYLE_OPTIONS 0.000298657
did A-STYLE_OPTIONS 0.000550728
kids ; 0.000353071
did POSITIVE 9.2009e-005
drip A-STYLE_OPTIONS 1
try E-FOOD 0.499883
establishment POSITIVE 0.994079
overpack E-FOOD 0.0170396
margheritta E-FOOD 0.999018
boyfriend A-QUALITY 0.295002
we E-FOOD 0.29187
took E-FOOD 7.48232e-005
took A-QUALITY 0.588142
owner E-SERVICE 0.751302
dissapoints E-OVERALL 1
more A-PRICES 0.149496
people A-GENERAL 0.246361
atmoshere POSITIVE 0.00614942
advanatage A-QUALITY 1
people ; 0.00806594
than A-PRICES 0.0749306
entire NEGATIVE 0.814877
work A-GENERAL 0.649147
half A-QUALITY 0.723328
work ; 0.0154151
work NULL 0.000341378
than POSITIVE 0.00189442
deal E-FOOD 9.61842e-005
forget A-GENERAL 0.00236056
deal A-QUALITY 0.369636
deal POSITIVE 0.000221449
sure E-OVERALL 0.307667
sure A-GENERAL 0.336579
saturday A-QUALITY 0.83242
stick E-FOOD 0.0002418
sure ; 6.2591e-005
reliable A-PRICES 0.0120637
sure NULL 0.0309726
freshmess A-QUALITY 1
so E-FOOD 0.0181655
so A-QUALITY 0.0175136
often E-OVERALL 0.125233
often A-GENERAL 0.760864
reuben E-FOOD 1
worth POSITIVE 0.186267
classic E-FOOD 0.159061
sample E-FOOD 0.0115164
dissappointed A-GENERAL 0.665295
could A-MISCELLANEOUS 0.0293307
bloom E-OVERALL 1
writing A-GENERAL 0.0348269
manhatten E-OVERALL 1
flavors E-FOOD 0.0423793
writing E-SERVICE 0.964164
theater E-LOCATION 0.120638
in A-MISCELLANEOUS 5.28084e-007
review A-GENERAL 0.496702
expected ; 0.470712
evening POSITIVE 0.838629
expected NULL 0.00074933
will POSITIVE 0.131313
go E-FOOD 8.78124e-005
well A-MISCELLANEOUS 0.0228597
sauces E-FOOD 0.000226016
with A-MISCELLANEOUS 0.00719982
went E-FOOD 0.0728444
ny E-OVERALL 0.182432
ny A-MISCELLANEOUS 0.000103871
makes E-SERVICE 0.171846
ny POSITIVE 0.817392
crowd A-MISCELLANEOUS 0.999864
food E-SERVICE 1.00254e-006
food A-GENERAL 3.88698e-006
else E-FOOD 0.000108841
dark A-STYLE_OPTIONS 0.534828
prepared POSITIVE 0.431686
prepared E-SERVICE 0.406361
vegetables NEGATIVE 0.000191095
group A-GENERAL 0.747661
impecable E-SERVICE 1
eating A-GENERAL 4.9453e-005
'm E-OVERALL 0.383853
spreads A-PRICES 0.543163
'm POSITIVE 0.108451
simply A-GENERAL 0.0026829
pakistani E-FOOD 1
simply POSITIVE 0.246551
side NEGATIVE 0.244144
it E-AMBIENCE 0.000838103
huge A-STYLE_OPTIONS 0.920254
's E-AMBIENCE 0.0643677
's POSITIVE 0.197858
shrimp A-STYLE_OPTIONS 6.09658e-005
like E-AMBIENCE 0.0561705
out E-AMBIENCE 0.0506396
out A-GENERAL 0.105437
visiting A-MISCELLANEOUS 0.355121
manhattan A-GENERAL 0.000416465
into E-AMBIENCE 0.667683
haven E-AMBIENCE 1
menu-fare A-QUALITY 1
prix A-PRICES 1
so E-AMBIENCE 0.0208424
girlfriend NEUTRAL 0.220841
fixe A-PRICES 1
gross NEGATIVE 1
menu E-FOOD 0.348472
laid-back POSITIVE 0.00109594
menu A-QUALITY 0.000609034
menu POSITIVE 6.23407e-005
menu A-STYLE_OPTIONS 0.369853
menu A-PRICES 0.101541
toons E-AMBIENCE 0.28708
worth A-PRICES 0.446328
every A-PRICES 6.38232e-006
mussles NEGATIVE 1
side E-OVERALL 0.00159377
it A-PRICES 0.000299814
side A-GENERAL 0.477376
penny A-PRICES 1
get E-FOOD 0.314118
get A-QUALITY 5.19094e-005
excellent-the E-DRINKS 1
get POSITIVE 0.000513467
get A-STYLE_OPTIONS 9.06076e-005
souffle A-QUALITY 1
fantastic E-FOOD 2.69506e-005
get A-PRICES 0.000170916
trip NEUTRAL 0.0907358
enough A-STYLE_OPTIONS 0.0785911
enough A-PRICES 0.157312
( A-PRICES 0.000109098
both E-FOOD 0.734688
both A-QUALITY 0.00105106
nicest POSITIVE 0.593797
in A-STYLE_OPTIONS 1.26568e-005
quantity E-FOOD 0.000137307
seen POSITIVE 0.99958
quantity A-STYLE_OPTIONS 0.999863
quality A-QUALITY 0.0120624
quality POSITIVE 0.000683968
quality A-PRICES 0.237676
) A-PRICES 8.66643e-006
recommend POSITIVE 0.454278
terrific POSITIVE 0.757757
terrific A-PRICES 0.103208
value A-PRICES 1
as E-AMBIENCE 0.00148511
$ A-PRICES 0.856968
ls E-AMBIENCE 1
6 A-PRICES 0.533883
there E-FOOD 5.13603e-005
there A-STYLE_OPTIONS 0.0841932
much POSITIVE 0.00774375
much A-QUALITY 0.000953656
delightfully E-AMBIENCE 1
food A-PRICES 6.24635e-006
all A-STYLE_OPTIONS 1.64583e-006
all A-PRICES 0.0110778
of A-STYLE_OPTIONS 0.00354043
italian NEUTRAL 1.04367e-005
free E-AMBIENCE 1
continually A-PRICES 1
bts E-AMBIENCE 1
refilled A-PRICES 1
wondered A-QUALITY 1
am E-FOOD 0.146258
vegetarian E-FOOD 0.58822
almost E-FOOD 0.704858
almost A-QUALITY 0.000414559
here A-MISCELLANEOUS 1.44571e-006
cheap A-QUALITY 0.193835
dishes E-FOOD 0.876558
were E-FOOD 0.10389
either E-DRINKS 0.187598
hungry POSITIVE 0.783932
enjoy E-OVERALL 2.45861e-005
enjoy A-GENERAL 0.146428
scampi E-FOOD 0.000516787
enjoy POSITIVE 0.828944
sardines A-QUALITY 1
here E-SERVICE 7.27875e-006
rather NEGATIVE 0.433534
good E-SERVICE 0.000544069
only E-SERVICE 0.118756
only A-GENERAL 0.000922098
only NEGATIVE 0.0363561
if E-FOOD 0.194961
if A-QUALITY 0.00164145
if POSITIVE 0.000647967
if A-GENERAL 0.00232665
if NEGATIVE 0.242143
like E-FOOD 0.148547
like A-QUALITY 0.0299529
late POSITIVE 8.10583e-005
wait E-SERVICE 0.116783
somosas A-QUALITY 1
chai A-QUALITY 1
chole A-QUALITY 1
dhosas A-QUALITY 1
dhal A-QUALITY 1
kinda A-QUALITY 1
dissapointing A-QUALITY 1
varys E-SERVICE 1
cute POSITIVE 0.259683
takes E-SERVICE 0.336487
halibut A-QUALITY 1
from E-SERVICE 2.05058e-005
day E-SERVICE 0.242571
day- E-SERVICE 1
sometimes E-SERVICE 0.999842
sometimes NEGATIVE 0.000157737
above E-FOOD 0.000882654
're E-SERVICE 0.000303624
're NEGATIVE 0.0428169
nice E-SERVICE 9.13881e-006
no E-FOOD 0.108554
not E-SERVICE 0.000659089
kitchen E-SERVICE 0.00159981
almost E-SERVICE 0.142001
almost NEGATIVE 0.00315098
straight A-PRICES 1
slow E-SERVICE 0.999945
slow NEGATIVE 5.53723e-005
; A-STYLE_OPTIONS 0.0952824
also NEGATIVE 0.203211
specify NEGATIVE 1
your A-QUALITY 0.000932666
spicy- E-FOOD 0.000437463
spicy- NEGATIVE 0.999563
bland A-QUALITY 0.00168272
bland NEGATIVE 0.998317
start E-DRINKS 1
nice POSITIVE 0.521907
disappointment NEGATIVE 0.632007
definitely A-MISCELLANEOUS 1.66569e-006
for E-AMBIENCE 2.30864e-006
plates NEGATIVE 0.000114829
plates E-SERVICE 0.463944
dumped NEGATIVE 1
casual A-GENERAL 0.335691
casual POSITIVE 0.000125205
lunch A-GENERAL 1.9867e-005
lunch POSITIVE 0.251409
handed E-SERVICE 1
lunch ; 0.413503
lunch E-OVERALL 2.98667e-005
would A-GENERAL 0.142811
upside E-SERVICE 1
would ; 0.000305114
would E-OVERALL 0.460225
ever A-QUALITY 0.173084
ever A-MISCELLANEOUS 0.0590201
ever POSITIVE 0.0379443
working E-SERVICE 1
ever E-FOOD 0.33958
changed NEGATIVE 1
probably E-OVERALL 0.719686
soup NEGATIVE 5.98571e-005
be E-AMBIENCE 6.81101e-006
've A-GENERAL 0.0726991
now E-FOOD 0.00600158
constant E-SERVICE 1
an POSITIVE 0.901071
daring E-FOOD 0.00409402
grazie E-SERVICE 0.999319
an ; 0.000619668
constitute E-SERVICE 0.979764
proper E-SERVICE 0.988694
rip-off A-PRICES 0.999815
8.95 A-PRICES 1
steamed A-STYLE_OPTIONS 0.000191454
add A-QUALITY 0.525533
add A-PRICES 0.474467
that A-PRICES 4.46607e-007
at A-PRICES 0.169281
buns A-QUALITY 7.57353e-005
reasonable A-PRICES 1
chinatown A-PRICES 0.634727
edible A-QUALITY 0.0121821
yourself A-PRICES 0.327023
standards A-PRICES 1
beginning A-PRICES 1
robust A-QUALITY 1
expected E-FOOD 7.11786e-005
lava E-FOOD 0.00361991
lava A-QUALITY 0.99638
cake E-FOOD 3.35381e-005
cake A-QUALITY 0.999967
dessert E-FOOD 0.000380845
dessert A-QUALITY 0.568571
recommend A-QUALITY 0.00907529
once POSITIVE 0.000688997
you E-AMBIENCE 1.44415e-006
expresso E-DRINKS 1
above E-DRINKS 0.133922
're POSITIVE 2.93029e-005
dining A-MISCELLANEOUS 0.16561
small E-AMBIENCE 0.127615
corner A-PRICES 0.996785
bistro POSITIVE 0.565003
tiny E-AMBIENCE 1.94596e-005
tiny A-GENERAL 0.293662
quiet A-MISCELLANEOUS 0.180113
restaurant E-AMBIENCE 0.000138675
gets POSITIVE 0.0605956
having POSITIVE 0.893641
ashamed A-QUALITY 0.997876
fornino A-QUALITY 1
french E-FOOD 0.273563
run E-SERVICE 1
blows A-QUALITY 1
families A-QUALITY 1
soup E-FOOD 0.239469
soup A-QUALITY 0.760462
receipies A-QUALITY 1
filling E-FOOD 0.324047
good E-AMBIENCE 5.34499e-006
anything A-QUALITY 0.000606031
desserts E-FOOD 1
brilliant E-FOOD 0.00530795
brilliant POSITIVE 0.001425
answers E-SERVICE 1
way E-FOOD 0.0997773
way A-QUALITY 0.000430216
way POSITIVE 9.16711e-005
responsibility E-SERVICE 1
way NEGATIVE 0.177759
however E-AMBIENCE 0.151098
however E-FOOD 0.163379
however A-QUALITY 3.03514e-005
fried A-QUALITY 0.00578667
reviews NEGATIVE 0.787304
go E-AMBIENCE 2.21704e-006
go A-QUALITY 0.000342166
for NEUTRAL 0.000653553
speaks A-QUALITY 0.985849
incredibly NEGATIVE 0.412724
incredibly A-GENERAL 0.0159833
just NEUTRAL 0.0540922
a NEUTRAL 0.00120605
itself A-QUALITY 0.712944
freshness A-QUALITY 1
world NEUTRAL 0.0670555
own A-MISCELLANEOUS 0.364362
room A-QUALITY 0.472705
pizza E-FOOD 0.578293
pizza A-QUALITY 0.145243
delivered A-QUALITY 0.000844135
cold E-FOOD 0.26017
cheese E-FOOD 0.125651
cheese A-QUALITY 0.810485
even E-FOOD 0.278396
zucchero E-OVERALL 1
looked E-FOOD 0.00101319
shredded A-QUALITY 1
partly A-QUALITY 0.999912
done E-FOOD 0.00613743
done A-QUALITY 0.808946
still E-FOOD 0.000615383
still A-QUALITY 0.758449
strips A-QUALITY 0.220301
strips NEGATIVE 0.779699
has NEGATIVE 8.5387e-005
got NEGATIVE 0.000696284
most NEGATIVE 0.000100688
overrated NEGATIVE 0.00414505
get A-MISCELLANEOUS 0.0163913
minutes E-SERVICE 0.00252914
correct E-AMBIENCE 1
overpriced A-PRICES 1
bisque A-QUALITY 1
soggy NEGATIVE 1
2 A-QUALITY 0.625275
yes E-FOOD 0.000111503
amanzing POSITIVE 0.999217
yes A-QUALITY 0.586454
2 E-DRINKS 0.239285
inovated A-STYLE_OPTIONS 1
oz A-QUALITY 1
use E-FOOD 0.000371008
use A-QUALITY 0.999629
cheff A-STYLE_OPTIONS 1
maine A-QUALITY 1
fancy E-FOOD 0.74076
gives A-STYLE_OPTIONS 1
england A-QUALITY 1
ingredients E-FOOD 0.997756
even POSITIVE 0.00207455
meal A-QUALITY 0.000374734
make E-FOOD 0.0548077
pizza POSITIVE 0.252964
chowder A-QUALITY 1
unless NEGATIVE 0.999765
award A-QUALITY 1
someone NEGATIVE 0.99866
divine A-QUALITY 1
knows NEGATIVE 0.422073
melts A-QUALITY 1
how A-QUALITY 0.148485
how POSITIVE 0.632882
how NEGATIVE 0.166237
aesthetic E-SERVICE 1
get NEGATIVE 0.0231476
old-fashioned A-STYLE_OPTIONS 1
prime A-QUALITY 1
crust E-FOOD 0.95166
crust A-QUALITY 0.0483401
rib A-QUALITY 1
right A-QUALITY 0.596808
right POSITIVE 6.85826e-005
drawbacks E-SERVICE 1
big E-OVERALL 0.527324
big A-GENERAL 0.00051596
big NEGATIVE 0.119341
allowed NEGATIVE 0.909202
business A-GENERAL 0.544062
all E-OVERALL 0.0498281
angry E-OVERALL 1
think E-FOOD 0.24416
sudden POSITIVE 0.00615029
reservation E-SERVICE 1
think POSITIVE 0.00255207
some E-FOOD 0.39605
some A-QUALITY 0.00205986
weekday E-DRINKS 1
some POSITIVE 0.316187
best E-FOOD 0.545515
best A-QUALITY 0.000158384
meals E-FOOD 0.00142346
meals A-QUALITY 0.998577
bottles E-DRINKS 1
life E-FOOD 9.73836e-005
life A-QUALITY 0.999903
korbett E-DRINKS 0.998786
cuz A-QUALITY 0.997726
minnow A-QUALITY 1
seafood E-FOOD 2.49334e-005
seafood A-QUALITY 0.188645
seafood POSITIVE 0.810445
's E-FOOD 0.0120505
's A-QUALITY 0.00195205
tasting E-FOOD 0.809487
huge E-SERVICE 0.0796775
3-6 A-PRICES 1
a E-DRINKS 4.76784e-005
wine A-QUALITY 0.0941641
ever-changing A-STYLE_OPTIONS 1
always E-DRINKS 0.0486216
always A-STYLE_OPTIONS 2.93913e-006
some A-STYLE_OPTIONS 0.000402137
great E-DRINKS 8.64077e-005
combination E-FOOD 1
earlier A-QUALITY 1
super-fresh E-FOOD 1
week A-QUALITY 0.467683
are E-FOOD 0.233172
are A-QUALITY 0.00128788
are POSITIVE 0.132752
stopped A-QUALITY 1
unusual E-FOOD 1
workers A-STYLE_OPTIONS 1
really A-QUALITY 0.00102809
ranting A-QUALITY 1
delicious E-FOOD 0.598645
delicious A-QUALITY 0.20189
delicious POSITIVE 0.19944
pastrami E-FOOD 0.000306074
raving A-QUALITY 1
pastrami A-STYLE_OPTIONS 0.999694
vindaloo A-QUALITY 0.911288
portion E-FOOD 0.000200653
portion A-STYLE_OPTIONS 0.999799
without A-STYLE_OPTIONS 0.337743
being E-FOOD 0.0205586
being POSITIVE 5.43714e-005
being A-STYLE_OPTIONS 0.209211
servers A-STYLE_OPTIONS 0.53595
ridiculous A-STYLE_OPTIONS 1
wife E-FOOD 0.702042
efficiently E-DRINKS 0.00512825
regard A-STYLE_OPTIONS 1
especially A-QUALITY 0.511886
fried E-FOOD 0.994207
week POSITIVE 0.00208968
are A-STYLE_OPTIONS 0.0909863
veal A-STYLE_OPTIONS 1
tasting A-QUALITY 0.00174843
huge POSITIVE 6.82943e-005
alone A-STYLE_OPTIONS 0.351974
loved A-STYLE_OPTIONS 0.217964
favourite E-DRINKS 1
loved POSITIVE 5.37447e-005
alone E-FOOD 0.00313395
least A-GENERAL 0.483027
've E-OVERALL 0.217996
lived E-OVERALL 0.297309
lived POSITIVE 0.702657
over E-OVERALL 0.00012845
over A-GENERAL 0.296569
over POSITIVE 0.0541784
8 E-OVERALL 0.998139
8 A-GENERAL 0.00186091
anti-pasta E-FOOD 0.999627
years A-GENERAL 0.510615
years POSITIVE 0.489348
mains E-FOOD 1
just E-OVERALL 3.45494e-005
amazed A-GENERAL 1
at E-OVERALL 0.0100343
most POSITIVE 0.064532
get E-OVERALL 2.06227e-005
signs A-MISCELLANEOUS 1
hike E-DRINKS 1
otherwise A-PRICES 1
specials POSITIVE 0.531559
specials E-FOOD 0.468441
menus A-STYLE_OPTIONS 1
food E-OVERALL 1.40552e-006
even A-STYLE_OPTIONS 0.116681
week E-FOOD 0.308588
are E-SERVICE 0.0487023
totally E-OVERALL 0.641319
totally A-MISCELLANEOUS 0.358681
dissapointment NEGATIVE 0.198181
neighborhood E-OVERALL 0.543017
scoop A-STYLE_OPTIONS 1
burnt A-QUALITY 1
neighborhood A-GENERAL 0.0305557
japanese A-QUALITY 0.495647
one-hour E-OVERALL 1
drive E-OVERALL 1
5 A-GENERAL 0.000255245
coming E-OVERALL 0.167781
coming A-GENERAL 0.832219
leon A-GENERAL 0.999919
an E-FOOD 4.45901e-006
east E-OVERALL 0.000427988
branzino NEGATIVE 0.984287
east A-GENERAL 0.440516
branzino A-QUALITY 0.0157129
infused NEGATIVE 1
gem E-OVERALL 0.348343
bone NEGATIVE 1
gem A-GENERAL 0.651657
difficult NEGATIVE 0.552349
: A-GENERAL 0.27671
: ; 0.028003
: E-FOOD 5.55623e-005
well E-AMBIENCE 0.058436
many A-GENERAL 0.68715
fare E-OVERALL 0.538945
prune NEGATIVE 1
memorable NEGATIVE 0.369135
memorable A-QUALITY 0.630328
plans NEGATIVE 0.000740778
atmosphere A-GENERAL 0.0779946
atmosphere ; 2.91113e-005
decent E-DRINKS 8.4639e-005
wife E-SERVICE 0.286905
friendliest E-SERVICE 1
such E-AMBIENCE 0.186497
times E-OVERALL 0.000903399
failed A-GENERAL 0.379913
our E-OVERALL 0.0187647
old NEGATIVE 0.551785
steake A-STYLE_OPTIONS 1
kids A-GENERAL 0.516176
too E-OVERALL 3.77677e-006
too A-GENERAL 0.000157462
decide A-GENERAL 0.000487221
another A-GENERAL 0.471231
ues E-OVERALL 0.933022
ues A-GENERAL 0.0669783
get A-GENERAL 2.61687e-005
concerned NEGATIVE 0.99939
that E-OVERALL 0.00925776
sigh E-SERVICE 1
heritage NEGATIVE 1
important A-GENERAL 0.412192
far E-OVERALL 0.176539
tagliatelle NEGATIVE 0.999712
favorite E-OVERALL 0.578788
favorite A-GENERAL 0.235723
bite A-QUALITY 0.18061
large E-FOOD 0.19974
quickly NEGATIVE 0.00468752
mascarpone NEGATIVE 0.999463
partial E-OVERALL 1
bitter A-QUALITY 1
been E-FOOD 0.000119339
chips-good NEGATIVE 0.99574
gnocchi E-OVERALL 0.995672
been A-QUALITY 3.44083e-005
3 E-SERVICE 6.3324e-005
elsewhere E-SERVICE 0.000634716
3 NEGATIVE 0.000449447
or E-SERVICE 0.00110572
or A-GENERAL 0.000936519
more E-SERVICE 0.0517855
weekends NEGATIVE 0.645227
hostess NEGATIVE 0.422157
being E-SERVICE 0.100486
being A-GENERAL 0.268329
weekly E-SERVICE 1
being NEGATIVE 0.00204985
offensive NEGATIVE 0.0156651
oily NEGATIVE 0.995369
understand NEGATIVE 1
hype NEGATIVE 1
... E-OVERALL 1.10375e-005
questions E-AMBIENCE 1
want A-QUALITY 9.43483e-005
place E-FOOD 4.22612e-006
want A-PRICES 0.0700331
friend E-FOOD 0.165333
wine E-SERVICE 0.110704
as E-DRINKS 0.00655475
had E-DRINKS 4.08105e-006
while A-QUALITY 0.355702
when A-GENERAL 0.465379
sat A-GENERAL 0.69331
mine E-FOOD 1
ice A-QUALITY 1
yummy E-FOOD 0.665181
classic POSITIVE 0.01125
yummy A-QUALITY 0.334819
classic ; 0.000435641
i E-AMBIENCE 1.80857e-006
but A-PRICES 0.00104912
way A-PRICES 0.0599886
expensive A-PRICES 1
lunch E-FOOD 0.0087181
lunch A-QUALITY 0.00263499
several ; 0.000404296
as NEGATIVE 1.15137e-005
expected NEGATIVE 0.325576
from E-FOOD 0.229271
from A-QUALITY 4.28272e-005
dine A-QUALITY 0.511027
read NEGATIVE 1
sauce E-FOOD 8.30789e-005
sauce A-QUALITY 0.999917
makes ; 0.000476433
green A-QUALITY 0.802407
watery E-FOOD 0.00060298
watery NEGATIVE 0.00134295
snowy ; 0.997529
much NEGATIVE 0.270172
curry A-QUALITY 1
flavor E-FOOD 3.63397e-005
flavor A-QUALITY 0.722453
flavor NEGATIVE 0.277511
would NEGATIVE 0.0838741
birthday A-GENERAL 1
party A-QUALITY 0.756494
sooo POSITIVE 0.00733109
slightly A-PRICES 0.156163
slightly NEGATIVE 0.198085
pricey A-PRICES 1
fantastic A-QUALITY 0.000164939
fantastic POSITIVE 0.997117
fantastic ; 0.00264595
fantastic A-GENERAL 1.49096e-005
lamb E-FOOD 8.70488e-005
shorter E-SERVICE 0.000995385
shorter A-GENERAL 0.999005
expected A-GENERAL 0.000203325
located E-LOCATION 1
at E-LOCATION 0.000248468
end E-LOCATION 0.270094
a E-LOCATION 1.53967e-005
magnificent E-LOCATION 0.313464
block E-LOCATION 1
very E-AMBIENCE 0.0624497
inside E-AMBIENCE 0.562792
inside A-GENERAL 0.000246087
inside ; 0.000652288
.. ; 0.987107
city POSITIVE 0.999912
city ; 7.37741e-005
tons E-DRINKS 0.543203
- POSITIVE 0.00054576
hands E-FOOD 0.000107426
hands A-QUALITY 0.683499
down A-QUALITY 0.000502417
dining A-QUALITY 3.97092e-005
small E-FOOD 0.00642008
cramped E-AMBIENCE 0.997167
cramped NEGATIVE 0.000154465
gari E-FOOD 0.034906
gari A-QUALITY 0.96413
gari POSITIVE 0.000963925
planet A-QUALITY 0.808246
overcompensate E-SERVICE 0.000537926
overcompensate A-GENERAL 0.00047486
planet E-OVERALL 0.191754
rich A-STYLE_OPTIONS 1
thailand A-QUALITY 1
guaranteeed A-GENERAL 0.000787742
has E-FOOD 0.000815876
rule A-STYLE_OPTIONS 1
has A-QUALITY 0.00191852
pulitzer A-GENERAL 0.00132457
always E-OVERALL 2.45528e-005
pastas A-STYLE_OPTIONS 1
known E-DRINKS 1
hit POSITIVE 1
salad A-QUALITY 0.891461
me E-FOOD 1.1921e-005
me A-QUALITY 0.00040975
me POSITIVE 0.0110441
me E-OVERALL 0.0288761
burgers NEGATIVE 0.558501
able A-GENERAL 0.0011105
excuse NEGATIVE 0.736671
which E-OVERALL 1.287e-005
thai POSITIVE 0.00320755
thai E-OVERALL 0.0274571
person NEGATIVE 0.000628114
thai A-GENERAL 1.83805e-005
excellent E-OVERALL 2.72883e-006
cute A-GENERAL 0.303608
with A-STYLE_OPTIONS 0.000238208
secret POSITIVE 0.000635557
variety A-STYLE_OPTIONS 1
secret E-DRINKS 0.250094
doughy E-FOOD 1
on A-STYLE_OPTIONS 0.0366579
better POSITIVE 0.0992273
eat A-STYLE_OPTIONS 0.0692683
here A-STYLE_OPTIONS 0.000956187
often A-STYLE_OPTIONS 0.113691
bored A-STYLE_OPTIONS 1
sushimi E-FOOD 0.283542
date A-MISCELLANEOUS 0.286229
super E-SERVICE 1
greatest A-PRICES 1
13 E-DRINKS 1
emilio A-GENERAL 0.00126367
suppose A-PRICES 1
emilio E-DRINKS 0.443455
calling NEGATIVE 1
's E-OVERALL 0.00173936
how E-AMBIENCE 3.01029e-005
'special NEGATIVE 1
keep E-OVERALL 0.836095
keep A-PRICES 0.00042
keep POSITIVE 0.000115197
godfather E-DRINKS 1
down E-AMBIENCE 7.50645e-006
fabulous A-GENERAL 0.00909851
down A-PRICES 0.000152718
about E-FOOD 0.0119367
fine A-STYLE_OPTIONS 5.99735e-006
about A-QUALITY 0.142388
about POSITIVE 0.00679399
first NULL 0.000211705
first A-MISCELLANEOUS 0.000164323
first NEGATIVE 0.143694
first ; 0.414134
took A-MISCELLANEOUS 3.97818e-006
moving E-SERVICE 1
took NEGATIVE 0.182655
us A-MISCELLANEOUS 0.00459292
long A-MISCELLANEOUS 1
usha E-SERVICE 1
to A-MISCELLANEOUS 0.00751921
when E-FOOD 0.0359134
when NEGATIVE 6.81215e-006
looked A-STYLE_OPTIONS 0.441431
at A-STYLE_OPTIONS 3.87104e-006
menu NEGATIVE 0.0501809
lot NULL 5.15354e-005
fav E-DRINKS 1
lot A-STYLE_OPTIONS 0.164014
choices NULL 7.59608e-005
marinara/arrabiatta A-QUALITY 0.99987
sassy E-DRINKS 1
choices A-STYLE_OPTIONS 0.559013
choices ; 0.00185958
most E-FOOD 0.072903
most A-STYLE_OPTIONS 4.17191e-005
bruschettas A-STYLE_OPTIONS 1
them E-FOOD 0.000684058
whole POSITIVE 0.00154628
them A-STYLE_OPTIONS 0.0892047
en A-QUALITY 1
dumplings E-FOOD 0.395697
lassi E-DRINKS 1
appetizer A-STYLE_OPTIONS 0.000265839
carozza A-QUALITY 1
section E-FOOD 0.000220247
section NEGATIVE 0.99978
mmmmmmmm A-QUALITY 1
those A-STYLE_OPTIONS 0.493837
unda E-FOOD 1
rolls E-FOOD 0.257946
rolls A-STYLE_OPTIONS 0.104224
delicate E-FOOD 0.994832
rolls A-QUALITY 0.63783
light E-LOCATION 1
health A-MISCELLANEOUS 1
were NEUTRAL 5.28642e-005
big A-STYLE_OPTIONS 0.296467
big NEUTRAL 0.0563196
but NEUTRAL 0.0754827
no E-AMBIENCE 0.00036024
not NEUTRAL 0.0485597
good NEUTRAL 0.0208119
sashimi NEUTRAL 0.000328315
sashimi A-QUALITY 0.999672
date E-AMBIENCE 0.143373
n't NEUTRAL 0.00331
italian E-AMBIENCE 0.0378792
italian ; 0.00132756
disgusting NEGATIVE 1
exceptional A-QUALITY 0.794438
exceptional ; 0.000144917
finish NEGATIVE 1
first E-FOOD 0.243768
first A-QUALITY 1.4946e-005
piece E-FOOD 5.64647e-005
piece A-QUALITY 0.465559
piece NEGATIVE 0.494373
hurley E-SERVICE 1
cheers E-SERVICE 1
low NEGATIVE 0.717463
everyone E-SERVICE 0.532595
knows E-SERVICE 0.577927
your E-SERVICE 0.144544
name NULL 0.000220998
sadly A-QUALITY 1
cheesesticks E-FOOD 0.00411654
name E-SERVICE 0.155758
lacking A-QUALITY 1
actually E-SERVICE 0.306919
dim A-PRICES 1.2647e-005
try A-QUALITY 0.000825238
yum A-QUALITY 1
spots POSITIVE 0.00112792
crunchy A-QUALITY 1
spots E-FOOD 0.123724
style A-QUALITY 0.397577
die E-FOOD 0.00272541
style A-STYLE_OPTIONS 0.000284683
die A-QUALITY 0.989372
die POSITIVE 0.00721741
die ; 0.00068479
per A-STYLE_OPTIONS 1
twice A-QUALITY 0.513023
matter A-QUALITY 0.462285
since NULL 8.77558e-005
since A-GENERAL 0.0116935
since POSITIVE 0.894242
drumsticks E-FOOD 1
opened E-OVERALL 1
sour E-FOOD 0.0100807
first E-AMBIENCE 0.197913
continued E-DRINKS 1
first POSITIVE 0.000100032
their E-AMBIENCE 0.0625202
keeps E-OVERALL 1
garden E-AMBIENCE 0.730994
rush E-SERVICE 0.999759
terrace E-AMBIENCE 1
planning E-SERVICE 1
roommate E-OVERALL 1
basically E-SERVICE 1
helpful ; 0.00357875
helpful E-SERVICE 0.996421
bill E-SERVICE 0.338543
over-bearing E-SERVICE 1
bill NEGATIVE 5.9068e-005
or POSITIVE 0.000100939
rushed E-SERVICE 1
steak E-FOOD 0.999636
steak A-STYLE_OPTIONS 0.000363554
tartare A-STYLE_OPTIONS 1
bet A-STYLE_OPTIONS 1
fix A-STYLE_OPTIONS 0.233268
fix POSITIVE 0.599382
10-piece E-FOOD 1
fix ; 0.000184062
self A-PRICES 1
table POSITIVE 0.00123205
admittedly E-AMBIENCE 1
combo E-FOOD 0.997934
some E-AMBIENCE 6.09176e-005
some A-GENERAL 0.000462509
some NEGATIVE 3.07815e-005
nights E-AMBIENCE 0.634977
1 A-PRICES 1
inside NEGATIVE 0.204592
rather E-AMBIENCE 0.447085
memorable ; 0.000255674
open NULL 0.000134495
open E-AMBIENCE 0.197064
open A-GENERAL 0.487218
footing A-PRICES 1
near E-LOCATION 1
kitchen E-AMBIENCE 0.21756
70+ E-DRINKS 1
part E-AMBIENCE 0.0946839
stomach ; 0.590664
part A-GENERAL 0.762107
part NEGATIVE 0.143209
charm E-AMBIENCE 0.501138
selections E-DRINKS 0.27679
selection E-DRINKS 0.435082
selection A-STYLE_OPTIONS 0.437138
spotty E-SERVICE 0.0201603
gigondas E-DRINKS 1
mileau E-DRINKS 1
house E-DRINKS 0.326746
champagne E-DRINKS 1
it NEUTRAL 0.00333521
may E-AMBIENCE 0.656009
may A-GENERAL 0.343949
dal A-QUALITY 0.999572
be NEUTRAL 0.0437258
scared A-MISCELLANEOUS 1
bit NEUTRAL 0.0369531
packed NEUTRAL 1
bukhara A-QUALITY 1
on E-AMBIENCE 0.000182116
on NEUTRAL 1.02251e-005
weekends NEUTRAL 0.354772
bbq A-STYLE_OPTIONS 0.0042647
vibe E-AMBIENCE 1
rocks A-QUALITY 1
will E-FOOD 0.000667017
crowds A-MISCELLANEOUS 1
find POSITIVE 0.000363201
fritte A-STYLE_OPTIONS 1
in NEUTRAL 2.49042e-006
area E-AMBIENCE 0.0571122
diet A-STYLE_OPTIONS 1
panchetta A-QUALITY 1
recommended NULL 0.0560212
recommended E-OVERALL 0.53339
recommended POSITIVE 0.000463716
recommended ; 0.326373
friends NULL 4.54658e-005
toasting NEGATIVE 0.0107261
friends E-OVERALL 0.170317
friends A-MISCELLANEOUS 0.372695
friends POSITIVE 0.400068
always A-MISCELLANEOUS 0.00660073
gets E-OVERALL 0.140844
gets A-MISCELLANEOUS 0.0781576
good A-MISCELLANEOUS 0.00334351
response A-MISCELLANEOUS 1
kababs A-QUALITY 0.998663
nyc POSITIVE 0.887877
nyc ; 4.21772e-005
should NULL 0.0449136
should E-FOOD 0.000958739
should A-QUALITY 0.666907
should ; 4.87959e-005
additional E-FOOD 0.000170486
additional A-QUALITY 0.999829
toppings E-FOOD 0.59577
toppings A-QUALITY 0.00233287
donut E-FOOD 0.000457034
tastes E-FOOD 0.000958374
tastes A-QUALITY 0.999042
freshly A-QUALITY 1
dough E-FOOD 0.00249889
baked E-FOOD 0.000789148
baked A-QUALITY 0.999211
bread E-FOOD 0.0002444
bread A-QUALITY 0.999756
take E-OVERALL 0.341589
take A-MISCELLANEOUS 0.163597
my A-MISCELLANEOUS 0.000126142
nyc A-MISCELLANEOUS 0.0425368
guests A-MISCELLANEOUS 0.209707
vt A-MISCELLANEOUS 1
's A-MISCELLANEOUS 0.000913244
sure E-LOCATION 0.0294322
sure E-FOOD 0.251567
ultra A-STYLE_OPTIONS 1
sure A-QUALITY 1.72737e-005
where E-LOCATION 0.0346891
previous E-LOCATION 0.313456
found A-STYLE_OPTIONS 0.0040682
reviewer E-LOCATION 1
, E-LOCATION 2.53069e-006
lonk E-LOCATION 1
speedy ; 0.00153453
speedy POSITIVE 0.995147
dined E-LOCATION 1
no-so-fresh A-STYLE_OPTIONS 1
but E-LOCATION 0.00144999
saul E-LOCATION 0.0936846
is E-LOCATION 4.97758e-005
neighborhood E-LOCATION 0.124953
three E-OVERALL 2.23643e-005
wonderful NULL 0.000435338
wonderful E-OVERALL 0.0209134
wonderful POSITIVE 0.952419
wonderful ; 0.000236707
experiences NULL 0.00017232
experiences E-OVERALL 0.304522
experiences A-GENERAL 0.00579072
experiences POSITIVE 0.688941
experiences ; 0.000573885
'd NULL 0.21038
'd E-AMBIENCE 0.000205829
u NEGATIVE 1
'd A-GENERAL 0.00642483
yakitori E-FOOD 1
'd ; 0.000358382
'd E-OVERALL 0.237302
'd A-MISCELLANEOUS 0.122256
highly A-GENERAL 1.53147e-005
highly POSITIVE 0.386368
meats E-FOOD 1
highly E-OVERALL 0.596866
highly A-MISCELLANEOUS 1.97486e-006
cooked-to-perfection A-QUALITY 1
special E-AMBIENCE 0.064776
special A-GENERAL 0.00515358
banana A-QUALITY 1
special A-MISCELLANEOUS 0.0426471
sodium NEGATIVE 1
pre-sliced NEGATIVE 1
occasion A-MISCELLANEOUS 1
-- E-AMBIENCE 4.89605e-006
-- A-GENERAL 0.000150859
hanger E-FOOD 1
-- E-SERVICE 0.0656355
-- A-MISCELLANEOUS 7.05801e-005
vinegar-soaked NEGATIVE 1
unfriendly NEGATIVE 0.999897
provides A-MISCELLANEOUS 1
waitstaffs E-SERVICE 1
intimate A-MISCELLANEOUS 1
setting E-AMBIENCE 0.554498
making NEGATIVE 1
setting A-MISCELLANEOUS 0.182558
other NULL 0.000202246
other E-OVERALL 0.0614523
other A-GENERAL 0.521512
other POSITIVE 3.12556e-005
other ; 0.00653326
reviewers E-OVERALL 0.595649
disappointing NEGATIVE 1
reviewers A-GENERAL 0.000171494
ate NULL 0.0109597
ate A-GENERAL 0.439712
boarderline E-SERVICE 1
seems A-GENERAL 1
wouldnt E-SERVICE 1
if E-OVERALL 0.120872
visited E-OVERALL 1
offering NEGATIVE 1
two E-OVERALL 0.126212
eggs NEGATIVE 0.537548
different NULL 0.221554
benedict NEGATIVE 1
different A-GENERAL 0.458927
restaurants POSITIVE 0.000467704
mizu E-OVERALL 0.25114
brunch NEGATIVE 1
mizu A-GENERAL 0.011817
mizu POSITIVE 0.611535
're E-OVERALL 3.14201e-005
repeat E-OVERALL 0.235606
removing NEGATIVE 1
repeat A-GENERAL 0.000276927
customers NULL 0.0163176
perhaps E-OVERALL 1
hollondaise NEGATIVE 0.997958
customers A-GENERAL 6.69207e-005
queens E-OVERALL 1
overcharged E-SERVICE 1
last E-SERVICE 1.06705e-005
last A-GENERAL 0.415133
pistachio A-QUALITY 1
time E-SERVICE 0.00405605
biggest E-OVERALL 1
scallop A-QUALITY 1
roll.. A-QUALITY 1
moules E-FOOD 1
lobster E-FOOD 0.292331
nasty A-STYLE_OPTIONS 1
lobster A-QUALITY 0.66315
ravioli E-FOOD 0.0163442
ravioli A-QUALITY 0.983656
forgot E-SERVICE 1
took E-SERVICE 0.229125
flavorless NEGATIVE 1
sandwich E-FOOD 0.730422
mom E-SERVICE 1
..very ; 1
sandwich NEGATIVE 0.262324
sandwich E-SERVICE 3.94928e-005
mother E-SERVICE 1
soho/village/upper ; 1
include NEGATIVE 0.000137161
include E-SERVICE 0.999863
maitre E-SERVICE 1
plastic E-SERVICE 1
d E-SERVICE 0.999807
d NEGATIVE 0.000193276
forks E-SERVICE 1
' NEGATIVE 0.711626
pita E-SERVICE 1
told E-SERVICE 0.397931
sit E-SERVICE 0.332327
clientele ; 1
hummus E-SERVICE 1
anywhere E-SERVICE 0.464043
platter E-SERVICE 0.999531
he E-SERVICE 0.609598
he NEGATIVE 1.87558e-005
said E-SERVICE 0.00524897
seated E-SERVICE 1
said NEGATIVE 0.710723
money NEGATIVE 0.242352
spilled E-SERVICE 1
reserved NEGATIVE 1
stepped E-SERVICE 1
tea E-SERVICE 1
foot E-SERVICE 1
shooed E-SERVICE 0.944391
second E-SERVICE 0.166981
reached E-SERVICE 1
over E-SERVICE 0.138227
adjust E-SERVICE 1
lighting E-SERVICE 1
dessert NEGATIVE 0.385645
8.00 A-PRICES 1
... A-PRICES 0.000268003
just A-STYLE_OPTIONS 0.0127255
just A-PRICES 0.0888264
plain A-PRICES 1
what NULL 0.00312359
what NEGATIVE 0.343424
what ; 0.000573313
what A-PRICES 0.0404709
drinks E-DRINKS 0.211466
drinks POSITIVE 0.726009
drinks ; 8.65081e-005
are E-DRINKS 0.00134606
are A-PRICES 0.133677
welll E-DRINKS 1
made A-QUALITY 0.000100695
fairly E-DRINKS 0.452617
relatively NEUTRAL 0.354552
priced E-DRINKS 0.33154
priced A-PRICES 0.66846
chef E-FOOD 0.579967
chef A-QUALITY 0.413457
pick A-PRICES 1
patroon E-AMBIENCE 1
exactly NEUTRAL 1
features E-AMBIENCE 1
five NEUTRAL 1
cigar E-AMBIENCE 1
star NEUTRAL 1
thats NEUTRAL 1
really NEUTRAL 0.0156011
clams A-QUALITY 1
big E-SERVICE 3.25635e-005
hang E-AMBIENCE 0.602751
deal NEUTRAL 0.118965
downstairs E-AMBIENCE 1
solid A-PRICES 1
host A-MISCELLANEOUS 0.398326
lounge E-AMBIENCE 1
host E-SERVICE 0.601674
meeting A-MISCELLANEOUS 1
attraction POSITIVE 0.00514996
associates A-MISCELLANEOUS 1
raga E-AMBIENCE 1
general A-MISCELLANEOUS 1
romantic E-AMBIENCE 0.779793
exotic A-STYLE_OPTIONS 1
beautifully A-STYLE_OPTIONS 1
mermaid POSITIVE 0.999859
presented A-STYLE_OPTIONS 1
inn POSITIVE 1
delight POSITIVE 0.999174
spaghetti A-QUALITY 1
combinations A-STYLE_OPTIONS 1
beaten A-PRICES 1
pay NEUTRAL 0.215787
also A-PRICES 0.0783592
areo E-OVERALL 0.999587
scallops A-QUALITY 0.44568
extremely A-PRICES 0.534977
incredibly E-SERVICE 0.571292
girlfriends E-OVERALL 1
bar E-DRINKS 0.28984
very E-DRINKS 0.00141611
very A-STYLE_OPTIONS 0.000975501
very A-PRICES 0.0736433
else A-PRICES 0.0611565
well E-DRINKS 0.0409855
else POSITIVE 0.191988
spent E-OVERALL 0.994068
fallback A-PRICES 1
stocked E-DRINKS 1
with E-DRINKS 0.0044075
hours E-OVERALL 0.00783862
24 A-PRICES 1
beers E-DRINKS 1
girls E-OVERALL 1
nearly A-PRICES 0.492847
wines E-DRINKS 1
one POSITIVE 0.0069233
missed E-OVERALL 1
your E-OVERALL 0.0173166
thank E-OVERALL 1
introducing E-OVERALL 1
whole A-GENERAL 0.440546
them E-OVERALL 0.00361363
them POSITIVE 0.000181533
when E-OVERALL 0.0282914
stumbled E-OVERALL 0.999512
through A-GENERAL 0.0025367
thought E-OVERALL 0.304733
thought NEGATIVE 0.110249
found NULL 4.78255e-005
found E-OVERALL 0.301885
unnecessary NEGATIVE 0.00969715
quite E-OVERALL 6.56826e-005
stop A-GENERAL 0.996376
were E-OVERALL 0.000219941
certainly E-OVERALL 0.486903
into E-SERVICE 0.332317
dinner NULL 0.236595
because NEGATIVE 0.00200031
did E-SERVICE 0.0360939
want NULL 0.00316266
better NEGATIVE 0.000598664
eat A-GENERAL 0.506974
better ; 0.806525
eat NEGATIVE 0.00620086
no NULL 0.0541436
then NEGATIVE 0.308706
top NEGATIVE 0.00393462
off NULL 0.489509
off E-SERVICE 2.60315e-005
liberty ; 0.00141712
off A-GENERAL 5.13216e-005
off NEGATIVE 0.110485
pans A-STYLE_OPTIONS 1
used E-SERVICE 0.24275
boyfriend NULL 0.29622
apologize A-GENERAL 0.00026241
four E-OVERALL 0.288375
octopus A-QUALITY 1
outdoor E-AMBIENCE 0.881438
medicore NEUTRAL 1
type E-AMBIENCE 0.602756
... NEUTRAL 0.0164769
there NEUTRAL 2.0976e-006
character E-LOCATION 1
customer A-MISCELLANEOUS 0.248587
are NEGATIVE 0.00962062
are NEUTRAL 0.00103229
- A-PRICES 1.62711e-006
tons NEUTRAL 0.456797
fortunate E-LOCATION 1
of NEUTRAL 0.0265719
appetizers A-QUALITY 0.86084
ambiance E-AMBIENCE 0.627992
favors A-QUALITY 1
superb A-QUALITY 1
heaviness NEGATIVE 0.99979
teriyaki A-QUALITY 1
away A-QUALITY 0.378815
recommand E-LOCATION 1
one E-FOOD 0.00459799
one A-QUALITY 0.039455
clubhouse E-AMBIENCE 1
one NEUTRAL 1.34892e-006
someting NEGATIVE 1
grat E-OVERALL 0.999135
undermine NEGATIVE 1
jekyll E-OVERALL 0.998835
hyde E-OVERALL 0.992779
alone NEGATIVE 0.441125
loved E-OVERALL 0.781983
alone ; 0.00136435
everythig E-AMBIENCE 1
about E-AMBIENCE 0.0267074
diggest.. NEGATIVE 0.999561
it-especially E-AMBIENCE 1
count NEGATIVE 1
like A-STYLE_OPTIONS 1.66428e-005
shows E-AMBIENCE 1
moody NEGATIVE 1
actors E-AMBIENCE 1
am A-MISCELLANEOUS 1.38326e-005
bringing A-MISCELLANEOUS 0.00193516
whole NULL 0.000491868
stuffed NEGATIVE 1
whole E-OVERALL 0.0932682
whole A-MISCELLANEOUS 0.0954742
5-8 A-GENERAL 0.000446207
family E-OVERALL 6.62127e-006
family A-MISCELLANEOUS 0.0529267
family POSITIVE 0.760578
next A-MISCELLANEOUS 0.00388826
outdoor E-LOCATION 0.118562
atmosphere E-LOCATION 0.0210531
on E-LOCATION 0.00750367
stopping E-OVERALL 1
sidewalk E-LOCATION 1
watching E-LOCATION 1
world E-LOCATION 0.000143606
by E-LOCATION 0.0112452
50 E-LOCATION 1
feet E-LOCATION 0.998833
away E-LOCATION 0.0411429
avenue NULL 0.000710156
blew E-OVERALL 1
avenue E-LOCATION 0.0898559
little E-AMBIENCE 2.03084e-005
little A-GENERAL 0.0279925
little NEUTRAL 0.0506655
candle-light E-AMBIENCE 1
cramped NEUTRAL 0.00267813
to NEUTRAL 8.39552e-005
expected E-AMBIENCE 0.112531
expected NEUTRAL 0.0898111
uppereast E-OVERALL 0.709266
ofr A-PRICES 1
definitely NULL 0.00121919
definitely E-OVERALL 0.759407
line NEUTRAL 0.708127
too E-LOCATION 0.0100128
far E-LOCATION 0.0808023
important ; 0.00673016
east E-LOCATION 0.117624
mozzarella A-QUALITY 0.000348187
our E-FOOD 0.0788621
instead A-QUALITY 0.99898
dishes A-STYLE_OPTIONS 0.0386501
most A-QUALITY 0.00120009
eggs A-QUALITY 0.462178
two E-FOOD 0.183524
two A-STYLE_OPTIONS 0.484361
too E-SERVICE 3.29162e-006
their NEGATIVE 3.14711e-006
selection E-FOOD 0.12778
spotty ; 0.000839494
would E-FOOD 0.0040211
be A-STYLE_OPTIONS 1.77935e-005
nice E-FOOD 8.6131e-005
nice A-STYLE_OPTIONS 0.0771076
mozzarella A-STYLE_OPTIONS 0.0226835
because E-FOOD 0.000352068
particularly A-QUALITY 0.523431
particularly POSITIVE 0.000202075
so NEGATIVE 0.00882051
so A-STYLE_OPTIONS 0.00188716
thin E-FOOD 0.640832
gets A-STYLE_OPTIONS 0.27217
cold A-STYLE_OPTIONS 0.174208
that A-STYLE_OPTIONS 1.71823e-006
tiny E-OVERALL 0.162315
terrible NEGATIVE 0.367707
same NEGATIVE 0.359125
after E-OVERALL 0.000104594
after E-FOOD 0.000131543
thick A-QUALITY 0.00141193
best E-SERVICE 8.82465e-006
waitressing NEGATIVE 1
uws A-QUALITY 0.00309201
far E-FOOD 0.368742
far A-QUALITY 0.3679
me A-STYLE_OPTIONS 0.000597461
fine NULL 0.000206152
fine POSITIVE 0.402205
small A-STYLE_OPTIONS 0.152816
famine A-STYLE_OPTIONS 1
over E-FOOD 0.0162133
over A-STYLE_OPTIONS 0.057765
100 A-STYLE_OPTIONS 0.379564
different E-FOOD 0.000509265
different A-STYLE_OPTIONS 0.275772
choices POSITIVE 0.008898
create A-STYLE_OPTIONS 1
blond E-DRINKS 1
your A-STYLE_OPTIONS 0.0147481
must NULL 0.148149
must E-OVERALL 0.00375875
recent E-OVERALL 1
sunday E-OVERALL 1
eaten E-OVERALL 0.224658
eaten A-STYLE_OPTIONS 0.00626024
afternoon E-OVERALL 0.544735
model/waitress E-SERVICE 1
friend NULL 0.0210839
set A-GENERAL 0.784698
friend E-OVERALL 0.00594458
friend A-GENERAL 1.92097e-005
many E-OVERALL 0.0625745
unprofessional A-GENERAL 1
accidently E-OVERALL 1
way A-GENERAL 0.00167598
current A-GENERAL 1
pulitzer E-OVERALL 0.998675
prize E-OVERALL 1
winning E-OVERALL 8.59833e-005
calamari NEGATIVE 0.000107526
winning A-GENERAL 0.999914
points A-PRICES 1
restaurant A-STYLE_OPTIONS 8.62848e-007
restaurant NEUTRAL 1.22484e-006
quiet E-AMBIENCE 0.819887
fact E-SERVICE 0.370819
relaxing E-AMBIENCE 1
accompaniment E-AMBIENCE 1
our A-QUALITY 0.0701659
our E-AMBIENCE 7.54226e-006
happy POSITIVE 0.893602
chicken A-STYLE_OPTIONS 0.0541733
cared A-QUALITY 1
pot A-STYLE_OPTIONS 1
weeks A-QUALITY 0.559963
weeks E-SERVICE 0.00564466
gentleman E-SERVICE 1
greeting E-SERVICE 1
professional POSITIVE 0.000180149
comparison E-SERVICE 1
wan POSITIVE 0.999668
similar E-SERVICE 1
memorable POSITIVE 0.00028087
poor NULL 7.73289e-005
poor E-OVERALL 0.168406
mcdonald NEGATIVE 1
poor A-GENERAL 7.97062e-005
truly A-GENERAL 0.663485
understandable E-SERVICE 1
return E-OVERALL 1
out E-OVERALL 0.00451441
out A-STYLE_OPTIONS 0.0013947
indeed E-SERVICE 1
out NEGATIVE 0.000130164
oasis E-OVERALL 1
world A-STYLE_OPTIONS 0.000299503
uncourteous E-SERVICE 1
mid-town E-OVERALL 0.996394
mid-town A-GENERAL 0.000807509
downright E-SERVICE 1
wine NEGATIVE 0.00336613
options A-STYLE_OPTIONS 1
when A-QUALITY 0.0647933
solved A-STYLE_OPTIONS 1
lived A-QUALITY 3.44354e-005
upstate A-QUALITY 0.998717
thius A-QUALITY 0.00190694
while E-FOOD 0.122748
would A-QUALITY 0.00296623
bagels E-FOOD 0.999197
better NULL 0.0054316
else NULL 0.156701
visiting E-OVERALL 0.644879
1st A-MISCELLANEOUS 0.398334
cleaned A-GENERAL 1
ave A-MISCELLANEOUS 0.550542
spot A-MISCELLANEOUS 0.286929
because A-MISCELLANEOUS 0.0608089
original A-MISCELLANEOUS 0.397243
spectacular E-LOCATION 0.121308
store A-MISCELLANEOUS 1
he E-FOOD 0.127207
roosevelt POSITIVE 1
served NULL 0.0111669
served A-QUALITY 0.00385428
served POSITIVE 0.488427
uni A-QUALITY 1
hand A-QUALITY 1
let A-QUALITY 0.713873
heaven A-QUALITY 1
10 A-PRICES 0.000173456
should E-DRINKS 0.0628395
10 POSITIVE 0.00632497
should A-STYLE_OPTIONS 0.000559355
not E-DRINKS 1.23771e-005
be E-DRINKS 0.0171403
overlooked E-DRINKS 0.48721
wants POSITIVE 0.00994692
overlooked A-STYLE_OPTIONS 0.000163968
midtown E-OVERALL 0.321973
instantly E-OVERALL 1
became E-OVERALL 1
city E-OVERALL 1.43154e-005
tried NULL 0.00360771
tried A-QUALITY 0.219827
change E-DRINKS 0.446524
( NEGATIVE 2.31248e-006
though NULL 0.00170305
belly A-QUALITY 1
came A-STYLE_OPTIONS 0.102162
ordered NULL 0.191053
dish E-FOOD 0.000196522
ordered A-QUALITY 0.742551
ordered POSITIVE 0.016955
roasted A-QUALITY 1
okay E-SERVICE 0.0292284
okay NEGATIVE 0.439831
nothing NEGATIVE 0.404163
nothing A-GENERAL 0.000167436
cassuolet A-STYLE_OPTIONS 1
experience A-QUALITY 0.00077698
) NEGATIVE 3.89829e-005
generously E-DRINKS 1
top E-DRINKS 0.0599415
coffee E-DRINKS 1
traditional E-AMBIENCE 0.459064
decour E-AMBIENCE 1
roxy NEGATIVE 0.999085
; E-OVERALL 0.000276782
pleasant E-AMBIENCE 0.205135
pleasant A-GENERAL 0.794408
pleasant POSITIVE 0.000457385
murray E-SERVICE 0.999695
before NEUTRAL 0.058219
though E-AMBIENCE 0.000410474
though A-GENERAL 0.000370562
hall E-AMBIENCE 1
noisy E-AMBIENCE 1
- E-AMBIENCE 0.102207
full E-AMBIENCE 0.32647
raise E-AMBIENCE 1
voices E-AMBIENCE 1
able E-AMBIENCE 0.35737
maintain E-AMBIENCE 1
imagine E-SERVICE 4.26236e-005
cafe A-GENERAL 0.902857
cafe POSITIVE 0.00219403
spice NULL 8.42286e-005
spice E-OVERALL 0.191261
spice A-GENERAL 0.000673746
spice POSITIVE 0.00152699
5-8 E-OVERALL 0.999554
family A-STYLE_OPTIONS 1.44194e-005
parts NEGATIVE 0.000289882
still E-OVERALL 0.178364
15 A-GENERAL 0.00126117
indian E-OVERALL 1.12787e-005
indian POSITIVE 0.994884
union E-OVERALL 0.996833
will A-STYLE_OPTIONS 1.06501e-005
square E-OVERALL 0.999187
sum NEUTRAL 0.210135
kha A-QUALITY 0.0322899
up NEUTRAL 0.0421334
: E-SERVICE 0.102406
: NEUTRAL 0.0378863
varies NEUTRAL 0.999868
mediorce NEUTRAL 1
trendi E-AMBIENCE 1
depending NEUTRAL 1
which NEUTRAL 0.00074144
ass E-OVERALL 0.999569
waiter NULL 0.000388025
pasta E-FOOD 0.14909
waiter E-SERVICE 0.604368
waiter ; 0.395244
get E-SERVICE 8.09758e-006
get NEUTRAL 0.0102551
roxy A-QUALITY 0.000914723
forgotten E-AMBIENCE 1
generally NEUTRAL 0.000122163
average NEUTRAL 0.111177
ok NEUTRAL 0.793772
does NULL 5.61493e-005
does POSITIVE 0.148534
pathetic A-QUALITY 0.203259
ocasionally A-QUALITY 1
couple A-QUALITY 0.790296
raw A-QUALITY 1
porcini A-QUALITY 1
reviewers NEUTRAL 0.404179
noticed NEUTRAL 1
order NULL 0.000504454
order NEUTRAL 0.0858098
order ; 0.0102754
arrive NEUTRAL 1
- NEUTRAL 0.033422
particularly NULL 0.000761561
particularly NEUTRAL 0.168708
review E-AMBIENCE 0.503298
evening NEUTRAL 0.0605164
jazz E-AMBIENCE 1
vibrant E-AMBIENCE 1
eye-pleasing E-AMBIENCE 1
several NULL 0.245808
martinis E-DRINKS 1
several POSITIVE 0.328853
semi-private E-AMBIENCE 1
come A-STYLE_OPTIONS 0.131909
come NEGATIVE 0.173668
boths E-AMBIENCE 1
ca NEGATIVE 0.000122803
right E-AMBIENCE 0.229951
side E-AMBIENCE 0.000465347
small NEUTRAL 0.072606
dining E-AMBIENCE 0.628257
red NULL 0.237962
red E-OVERALL 0.325173
red POSITIVE 0.322357
eye E-OVERALL 1
completely E-AMBIENCE 0.205733
taken E-AMBIENCE 0.501141
by E-AMBIENCE 2.08899e-006
live E-AMBIENCE 0.256058
band E-AMBIENCE 1
manhattanite E-LOCATION 1
lobster E-AMBIENCE 0.0445188
cobb E-AMBIENCE 1
salad E-AMBIENCE 0.0598978
simply E-FOOD 0.475825
chat POSITIVE 0.000710181
simply A-QUALITY 6.96039e-005
meal NULL 2.11593e-005
meal E-FOOD 6.19693e-005
meal POSITIVE 0.869701
rare A-GENERAL 0.000447426
grill E-OVERALL 0.289285
grill POSITIVE 0.71032
move E-OVERALL 0.641588
fastest E-SERVICE 0.000232699
upper E-OVERALL 0.507631
everything NEGATIVE 0.0520697
genuinely E-OVERALL 1
cooked NEGATIVE 0.000178795
miss E-OVERALL 1
perfection A-STYLE_OPTIONS 0.292218
cute NEUTRAL 0.0594239
upscale NEUTRAL 1
homemade E-FOOD 0.406057
types E-DRINKS 1
places E-OVERALL 0.980987
called NEGATIVE 1
places A-GENERAL 0.0181927
places POSITIVE 0.000820644
late A-GENERAL 0.630821
pub E-OVERALL 0.0093739
night E-OVERALL 0.00283732
after A-MISCELLANEOUS 0.0605774
after POSITIVE 0.00267831
vow NEGATIVE 1
really E-OVERALL 0.00130924
really A-MISCELLANEOUS 0.000430834
enjoying A-MISCELLANEOUS 0.248275
ourselves A-MISCELLANEOUS 0.398334
at A-MISCELLANEOUS 0.000925887
outing A-GENERAL 0.0399184
bar A-MISCELLANEOUS 0.100458
sat A-MISCELLANEOUS 0.119086
down A-MISCELLANEOUS 0.0534903
table A-MISCELLANEOUS 0.0581402
drinks E-SERVICE 0.0377942
hidden E-AMBIENCE 1
bathrooms E-AMBIENCE 1
laugh E-AMBIENCE 1
having NULL 0.000770238
glorified NEGATIVE 1
if A-MISCELLANEOUS 0.0556609
you A-MISCELLANEOUS 0.0119716
of A-MISCELLANEOUS 0.000568764
person A-MISCELLANEOUS 0.380513
who NULL 0.186949
who A-MISCELLANEOUS 0.0642089
who POSITIVE 0.128309
ordering A-GENERAL 0.000231855
likes A-MISCELLANEOUS 0.31189
being A-MISCELLANEOUS 0.0583911
entertained A-MISCELLANEOUS 1
great A-MISCELLANEOUS 0.000499374
husband E-OVERALL 0.174025
thougt E-OVERALL 1
only E-OVERALL 0.000141125
anniversary A-GENERAL 1
surprise A-GENERAL 0.0235294
surprise POSITIVE 0.85987
surprise ; 0.000251278
fishiest NEGATIVE 1
fantastic E-OVERALL 3.01444e-005
allergies A-PRICES 1
over E-DRINKS 0.0988354
over A-QUALITY 0.00258109
100 E-DRINKS 0.620436
offer E-DRINKS 0.217784
patties A-STYLE_OPTIONS 1
guest POSITIVE 0.745525
neither A-QUALITY 1
that E-DRINKS 2.51985e-005
made E-FOOD 0.0166322
my E-DRINKS 0.000162515
jamun A-QUALITY 1
husband E-FOOD 0.490771
happy NULL 5.83269e-005
vanilla E-DRINKS 1
i E-DRINKS 3.585e-005
ordered E-DRINKS 0.0472833
dish POSITIVE 0.0020451
dish A-QUALITY 0.879347
jem A-MISCELLANEOUS 1
entertainment E-AMBIENCE 1
overcrowded A-MISCELLANEOUS 1
through E-AMBIENCE 0.499322
please E-OVERALL 0.644052
take A-GENERAL 0.267705
advice E-OVERALL 1
disapointed E-OVERALL 0.999676
( E-OVERALL 9.89935e-005
disapointed A-GENERAL 0.000323529
could NEGATIVE 0.326516
dearth NEGATIVE 1
