LAPTOP#GENERAL out 2.06776e-007
LAPTOP#DESIGN_FEATURES technological 1.12492e-006
POSITIVE ... 5.59554e-008
POSITIVE light 0.000145423
COMPANY#GENERAL company 0.0136301
LAPTOP#PRICE worth 0.0240079
POSITIVE fast 7.41808e-006
LAPTOP#GENERAL this 0.0651337
; bad 0.00135756
POSITIVE out 5.71693e-006
LAPTOP#DESIGN_FEATURES light 0.0522538
; ... 0.00193691
POSITIVE NULL 0.259045
NEUTRAL ok 0.00465602
; plastic 1.11667e-005
POSITIVE processor 4.87865e-007
LAPTOP#PRICE cheap 0.0720708
LAPTOP#GENERAL its 0.000104922
; mail 3.48101e-005
LAPTOP#GENERAL computer 0.0389158
; piece 6.83711e-008
POSITIVE and 0.0245909
LAPTOP#GENERAL worth 0.00683273
POSITIVE operation 1.5005e-008
LAPTOP#GENERAL be 0.00119822
; light 5.06521e-007
LAPTOP#DESIGN_FEATURES 15.6 0.00129326
POSITIVE cause 7.3802e-005
LAPTOP#MISCELLANEOUS music 2.63136e-006
; fast 1.77996e-008
LAPTOP#GENERAL laptop 0.0535791
POSITIVE this 0.023348
; usb 0.000158449
POSITIVE really 0.00729472
LAPTOP#GENERAL absolutely 0.00219038
COMPANY#GENERAL careful 0.00354113
LAPTOP#GENERAL you 0.00162509
; port 3.38662e-008
POSITIVE nice 0.00361276
LAPTOP#QUALITY decision 9.81043e-007
LAPTOP#GENERAL amazing 0.00154587
LAPTOP#GENERAL wont 1.5121e-006
NEUTRAL peformance 0.00117507
; wire 2.86378e-005
POSITIVE graphic 4.06961e-005
; start 5.39439e-007
LAPTOP#DESIGN_FEATURES camera 0.00770151
POSITIVE its 0.0104867
LAPTOP#QUALITY cheap 2.46116e-005
; processor 2.49016e-007
COMPANY#GENERAL if 6.00422e-005
LAPTOP#GENERAL good 0.00195727
POSITIVE computer 0.0100444
; three 0.000138791
POSITIVE worth 1.22029e-006
; and 0.0725397
NEUTRAL alright 0.00238081
LAPTOP#PRICE low 0.00112483
LAPTOP#GENERAL go 2.80868e-007
POSITIVE be 0.0536998
; really 1.21425e-005
LAPTOP#GENERAL just 3.09929e-006
POSITIVE absolutely 2.42338e-006
; baby 3.41645e-007
POSITIVE you 0.00344923
LAPTOP#MISCELLANEOUS homeschool 0.00363769
; nice 3.81631e-006
LAPTOP#PRICE affordability 0.00722078
LAPTOP#QUALITY toshib 0.000322441
POSITIVE amazing 0.0028908
LAPTOP#QUALITY durability 0.00114749
LAPTOP#GENERAL think 5.72319e-007
LAPTOP#QUALITY tip 0.00232116
POSITIVE !!! 2.18418e-007
LAPTOP#DESIGN_FEATURES fit 0.0307685
; out 6.63723e-005
POSITIVE portability 1.62576e-007
LAPTOP#QUALITY laptop 3.06543e-005
; NULL 0.00010074
POSITIVE laptop 0.00562538
LAPTOP#QUALITY go 1.79009e-006
; this 0.00138474
NEUTRAL avid 0.00238081
LAPTOP#DESIGN_FEATURES requirement 0.00511058
POSITIVE good 0.00977079
; computer 0.00226871
; stop 1.0704e-007
; be 0.0956427
POSITIVE just 0.00595795
; absolutely 4.55689e-009
; charger 1.45157e-007
POSITIVE way 0.00266773
; amazing 5.33116e-008
; force 6.0595e-007
POSITIVE think 9.38728e-006
; !!! 0.00096834
POSITIVE anywhere 4.00749e-005
LAPTOP#DESIGN_FEATURES win 1.4607e-006
LAPTOP#QUALITY look 5.4143e-006
CPU#OPERATION_PERFORMANCE card 0.00165037
LAPTOP#DESIGN_FEATURES model 1.2269e-005
LAPTOP#QUALITY : 1.69594e-007
; would 0.00165532
LAPTOP#MISCELLANEOUS student 9.83851e-006
LAPTOP#QUALITY one 7.23884e-005
; run 0.0018386
LAPTOP#DESIGN_FEATURES appearance 0.00256729
BATTERY#OPERATION_PERFORMANCE 5-6 4.84014e-005
; recommend 1.46449e-007
BATTERY#OPERATION_PERFORMANCE hour 0.122667
; any 0.00279052
BATTERY#OPERATION_PERFORMANCE battery 0.361189
LAPTOP#QUALITY unparalleled 1.12023e-006
LAPTOP#GENERAL would 0.0316231
; sound 3.09677e-007
LAPTOP#DESIGN_FEATURES open 0.000338726
POSITIVE plus 0.00165527
POSITIVE 5-6 0.000224211
LAPTOP#GENERAL recommend 0.0132968
LAPTOP#DESIGN_FEATURES macbooks 0.00206799
POSITIVE hour 5.8438e-007
LAPTOP#PRICE affordable 0.00721075
POSITIVE lightweight 8.18007e-007
LAPTOP#GENERAL any 0.000716034
OS#GENERAL leopard 0.0128458
; cost 5.1691e-008
LAPTOP#DESIGN_FEATURES intuition 0.00256729
POSITIVE of 0.00155354
LAPTOP#PRICE entry-level 1.10715e-005
POSITIVE pay 1.19573e-007
LAPTOP#GENERAL person 0.000209624
LAPTOP#DESIGN_FEATURES beauty 0.00240561
POSITIVE battery 4.22022e-008
; hardware 5.87132e-009
POSITIVE would 0.000396869
; 10 7.21816e-005
POSITIVE run 6.19961e-005
LAPTOP#DESIGN_FEATURES lightweight 0.0230963
POSITIVE recommend 0.000150011
; hour 3.86418e-006
POSITIVE any 0.00166392
LAPTOP#QUALITY out 4.46074e-006
; of 0.0321017
; pay 8.73378e-007
; battery 1.901e-007
; anywhere 2.87618e-007
LAPTOP#MISCELLANEOUS laptop 0.000534696
NEGATIVE waste 3.11161e-007
NEGATIVE fall 0.000142629
CPU#OPERATION_PERFORMANCE processor 0.515431
NEGATIVE next 5.71746e-006
KEYBOARD#OPERATION_PERFORMANCE function 3.56652e-005
POSITIVE super 4.46175e-006
LAPTOP#PRICE bill 1.18813e-006
COMPANY#GENERAL house 0.0112315
LAPTOP#GENERAL regret 0.00254691
; come 0.00392082
POSITIVE card 0.000123803
POSITIVE overall 6.83763e-008
COMPANY#GENERAL nasty 2.87938e-005
LAPTOP#GENERAL buy 0.0224273
POSITIVE . 8.49329e-006
NEUTRAL than 0.0143016
; super 0.00136681
POSITIVE wont 2.99479e-005
SOFTWARE#GENERAL enable 0.0259806
LAPTOP#MISCELLANEOUS teaching 0.00363439
; card 0.000503496
; fact 2.60401e-006
POSITIVE regret 9.1047e-006
LAPTOP#MISCELLANEOUS illustrate 0.00363769
; . 0.161589
LAPTOP#QUALITY student 6.91813e-007
POSITIVE buy 1.02621e-005
NEGATIVE start 0.00146491
NEGATIVE three 0.00276744
NEGATIVE baby 0.000297553
NEGATIVE fact 0.000499962
GRAPHICS#GENERAL graphic 0.69282
NEGATIVE poor 0.000920168
GRAPHICS#GENERAL card 0.114122
MOUSE#DESIGN_FEATURES track 0.155158
NEGATIVE laptop 0.000302155
MOUSE#USABILITY finger 0.000181446
NEGATIVE you 0.0297182
NEGATIVE in 0.0324442
HARD_DISC#DESIGN_FEATURES plenty 0.202544
NEGATIVE out 0.0130414
HARD_DISC#DESIGN_FEATURES storage 0.11925
NEGATIVE , 2.93838e-005
HARD_DISC#DESIGN_FEATURES 250 0.0102315
NEGATIVE that 0.0211995
NEGATIVE make 0.00198007
NEGATIVE -rrb- 0.000104213
NEGATIVE go 0.0124651
NEGATIVE want 0.000231956
NEGATIVE do 0.037056
POSITIVE plenty 7.93071e-006
KEYBOARD#USABILITY key 0.000290436
POSITIVE storage 1.74161e-005
POSITIVE with 0.0399879
POSITIVE 250 0.000169526
POSITIVE gb 1.38848e-005
NEUTRAL may 5.23985e-005
LAPTOP#MISCELLANEOUS pleasure 0.00724408
; device 7.15615e-007
POSITIVE -lrb- 4.71186e-005
NEUTRAL occasional 0.00230546
; stay 4.35999e-007
POSITIVE though 0.000126961
NEUTRAL surfer 1.4757e-005
POSITIVE i 0.041812
POSITIVE will 6.83632e-007
; two 8.63641e-007
POSITIVE upgrade 8.94257e-006
; week 1.83744e-008
POSITIVE the 0.00790758
; while 0.0017181
; plenty 1.22098e-008
; poor 3.64678e-008
LAPTOP#DESIGN_FEATURES vacation 1.25741e-007
NEUTRAL cheaper 0.00476147
POSITIVE student 0.00180946
; with 0.0020532
NEUTRAL equal 3.08857e-007
LAPTOP#QUALITY repair 0.0129131
POSITIVE in 0.000188635
LAPTOP#DESIGN_FEATURES whatever 2.50743e-006
LAPTOP#MISCELLANEOUS she 4.90868e-007
LAPTOP#QUALITY twice 0.00593235
POSITIVE college 5.41988e-005
LAPTOP#DESIGN_FEATURES lug 2.81366e-005
LAPTOP#QUALITY 5 0.031027
; able 1.66632e-007
POSITIVE , 0.00361619
LAPTOP#DESIGN_FEATURES i 6.72099e-005
LAPTOP#DESIGN_FEATURES heavier 0.0025474
LAPTOP#MISCELLANEOUS focus 0.00184108
; -lrb- 0.00809206
LAPTOP#QUALITY longevity 0.00232116
; whatever 5.16872e-007
POSITIVE find 3.54429e-005
LAPTOP#MISCELLANEOUS activity 0.00170686
; though 5.72444e-006
; lug 5.48235e-006
POSITIVE that 0.000814233
; i 0.00904585
LAPTOP#QUALITY make 0.00422287
; will 8.35582e-005
GRAPHICS#QUALITY stellar 0.0439004
POSITIVE ease 1.2839e-007
LAPTOP#MISCELLANEOUS massive 0.00363764
; upgrade 1.40744e-008
LAPTOP#PRICE well 1.69292e-006
POSITIVE make 0.00302781
LAPTOP#MISCELLANEOUS spreadsheet 1.32057e-007
; the 0.124168
SHIPPING#QUALITY address 0.105219
POSITIVE -rrb- 0.000145601
SOFTWARE#OPERATION_PERFORMANCE recent 0.039949
COMPANY#GENERAL dont 0.00533712
COMPANY#GENERAL pray 0.0037736
LAPTOP#OPERATION_PERFORMANCE fast 0.0759004
SHIPPING#PRICE yeah 0.288811
LAPTOP#OPERATION_PERFORMANCE shock 0.000224415
LAPTOP#OPERATION_PERFORMANCE as 7.87427e-006
LAPTOP#OPERATION_PERFORMANCE how 9.13754e-007
POSITIVE shock 0.000199027
; spend 9.31786e-008
LAPTOP#PRICE more 8.47944e-007
POSITIVE as 0.0017513
; alot 7.67146e-009
POSITIVE to 0.00466022
; money 1.3326e-008
POSITIVE how 9.96587e-008
POSITIVE easy 0.000262993
POSITIVE it 0.011336
NEUTRAL action 0.00462795
POSITIVE get 0.000774312
NEUTRAL pack 0.00237919
POSITIVE use 0.00927403
POSITIVE want 4.43382e-006
DISPLAY#DESIGN_FEATURES somewhat 0.0105083
LAPTOP#MISCELLANEOUS segment 0.00319076
; as 0.00671771
POSITIVE do 3.98418e-005
DISPLAY#DESIGN_FEATURES limit 0.0210005
; to 0.0781858
DISPLAY#USABILITY smaller 0.110869
LAPTOP#DESIGN_FEATURES webcam 0.0128363
POSITIVE homework 0.000452544
POSITIVE more 0.0010321
LAPTOP#DESIGN_FEATURES small 0.0193676
; how 0.000157124
POSITIVE ; 3.4425e-007
LAPTOP#DESIGN_FEATURES weight 0.0205358
; easy 5.59191e-007
; small 4.35371e-007
POSITIVE without 0.00271062
; it 0.0182199
; weight 5.47699e-009
; get 0.00264063
POSITIVE ol' 2.09249e-007
; use 0.000217737
LAPTOP#USABILITY shock 8.56192e-005
LAPTOP#USABILITY to 2.13543e-005
KEYBOARD#DESIGN_FEATURES numeric 0.0258244
LAPTOP#USABILITY how 0.00113268
LAPTOP#USABILITY easy 0.174683
LAPTOP#USABILITY use 0.3019
LAPTOP#GENERAL old 2.17945e-007
LAPTOP#GENERAL buyer 9.64024e-007
LAPTOP#GENERAL beware 0.00103404
LAPTOP#USABILITY already 0.0215556
NEUTRAL game 0.00019555
LAPTOP#DESIGN_FEATURES unexpected 0.00136165
POSITIVE have 0.032421
; anyone 9.56696e-006
LAPTOP#DESIGN_FEATURES compact 2.92972e-006
; should 5.45614e-008
POSITIVE a 0.003153
LAPTOP#QUALITY unprecedented 0.00231331
LAPTOP#QUALITY well-built 1.14609e-007
; save 1.93963e-007
LAPTOP#DESIGN_FEATURES why 0.00706818
POSITIVE but 6.11211e-007
LAPTOP#OPERATION_PERFORMANCE = 0.0023694
LAPTOP#DESIGN_FEATURES include 0.00823427
POSITIVE already 0.000108614
; have 0.0283981
LAPTOP#MISCELLANEOUS development 0.00363769
; perfectly 0.000157075
POSITIVE machine 0.000659124
LAPTOP#DESIGN_FEATURES a 1.44127e-006
; only 7.41274e-005
LAPTOP#MISCELLANEOUS e-mail 3.70634e-007
; senior 2.49048e-005
POSITIVE my 0.0224743
LAPTOP#DESIGN_FEATURES arthritis 0.000859609
NEUTRAL still 4.05869e-007
; mine 0.000538464
; affect 1.13932e-006
LAPTOP#DESIGN_FEATURES favorite 0.00256688
POSITIVE backpack 1.11525e-006
; a 0.068481
POSITIVE feel 1.43872e-006
LAPTOP#DESIGN_FEATURES unprecedented 8.09283e-006
; day 2.56934e-006
; awesome 4.20404e-008
POSITIVE like 0.00902314
; but 0.00034179
POSITIVE can 0.00581157
; already 5.8466e-008
POSITIVE apple 0.000279119
POSITIVE acer 1.03427e-005
LAPTOP#MISCELLANEOUS make/model 1.02658e-005
; apple 3.34637e-008
LAPTOP#PRICE pricey 0.0144319
COMPANY#GENERAL look 9.29443e-007
LAPTOP#PORTABILITY portability 0.0771897
POSITIVE beat 3.74931e-006
LAPTOP#QUALITY i5 0.00232116
POSITIVE for 0.00883835
POSITIVE processing 0.000563848
; well-built 7.39978e-009
BATTERY#OPERATION_PERFORMANCE convienent 0.00529404
; for 0.0317075
POSITIVE highly 0.00289732
LAPTOP#MISCELLANEOUS computer 0.000134181
LAPTOP#DESIGN_FEATURES combination 0.00513458
LAPTOP#QUALITY solid 0.0138601
; processing 3.08037e-009
SOFTWARE#USABILITY crazy 0.0230027
NEGATIVE imo 4.04994e-006
SOFTWARE#USABILITY compatable 0.0230027
NEGATIVE dont 0.0008259
LAPTOP#MISCELLANEOUS highly 0.000574923
MOUSE#DESIGN_FEATURES laud 0.0388195
CPU#OPERATION_PERFORMANCE processing 0.09777
NEGATIVE completely 0.000383711
LAPTOP#GENERAL the 1.78753e-007
POSITIVE usb 3.46736e-005
LAPTOP#GENERAL really 0.00244242
NEUTRAL satisfy 0.000476582
POSITIVE piece 7.41005e-005
LAPTOP#GENERAL it 0.153933
LAPTOP#GENERAL i 0.19238
LAPTOP#DESIGN_FEATURES thicker 4.50611e-008
; win 0.000272704
POSITIVE look 7.18193e-005
; laptop 0.000312534
POSITIVE solid 6.46941e-006
LAPTOP#QUALITY through 3.97784e-006
; good 5.25807e-005
LAPTOP#MISCELLANEOUS useful 0.00686808
; go 3.05867e-007
POSITIVE through 1.39944e-005
BATTERY#OPERATION_PERFORMANCE frustrating 1.15174e-006
LAPTOP#MISCELLANEOUS designer 0.00363727
; just 0.00514587
; way 0.000349502
LAPTOP#DESIGN_FEATURES black 1.23133e-006
NEUTRAL because 2.53657e-007
; think 7.93844e-006
LAPTOP#OPERATION_PERFORMANCE just 0.00100858
LAPTOP#OPERATION_PERFORMANCE run 0.0484051
LAPTOP#GENERAL to 7.70273e-008
LAPTOP#GENERAL get 0.000281779
; there 1.079e-006
KEYBOARD#QUALITY keyboard 0.117137
; cause 0.000369878
; its 0.000326046
DISPLAY#DESIGN_FEATURES bigger 8.37728e-005
; worth 3.17729e-008
LAPTOP#GENERAL how 3.45467e-005
; mouse 1.43705e-005
DISPLAY#DESIGN_FEATURES hdmi 0.0276971
; cheap 2.14878e-007
LAPTOP#DESIGN_FEATURES advertise 0.00513449
; you 0.00575311
LAPTOP#DESIGN_FEATURES case 0.000383527
; wont 0.00039596
; buy 7.30832e-005
SUPPORT#QUALITY yet 4.86849e-006
LAPTOP#PRICE spend 0.075215
NEUTRAL segment 0.000292506
NEUTRAL impress 2.33526e-006
POSITIVE come 5.00021e-005
COMPANY#GENERAL hp 0.0330783
LAPTOP#GENERAL with 6.28159e-005
LAPTOP#PORTABILITY heavier 5.04463e-006
LAPTOP#DESIGN_FEATURES somehow 0.00132399
NEUTRAL unit 0.00254501
LAPTOP#PORTABILITY find 1.57723e-005
NEUTRAL frill 0.00237488
LAPTOP#USABILITY shockingly 0.00330621
NEUTRAL spreadsheet 0.00238072
LAPTOP#GENERAL though 0.000116994
LAPTOP#PRICE cost 0.00255239
POSITIVE - 0.00524713
LAPTOP#GENERAL will 1.03176e-005
SUPPORT#QUALITY anything 0.0136582
LAPTOP#CONNECTIVITY general 0.0358134
; student 3.00211e-008
LAPTOP#DESIGN_FEATURES , 3.74663e-007
; in 0.00063913
LAPTOP#MISCELLANEOUS microsoft 1.5724e-006
LAPTOP#MISCELLANEOUS app 0.00727537
; , 0.0893611
; find 0.00014036
LAPTOP#MISCELLANEOUS frill 9.0608e-006
; that 0.0127463
LAPTOP#MISCELLANEOUS important 0.00373212
NEUTRAL take 0.000584131
LAPTOP#MISCELLANEOUS player 0.00727537
; make 0.000251171
LAPTOP#MISCELLANEOUS warcraft 0.00059988
; shockingly 3.12584e-009
NEUTRAL around 1.03292e-006
LAPTOP#MISCELLANEOUS wonderfully 0.00363706
; -rrb- 0.00870308
NEUTRAL screen 8.57326e-007
; want 3.12739e-006
DISPLAY#QUALITY dirty 0.0137796
; do 0.000283552
NEUTRAL smaller 0.00079013
; homework 1.47766e-009
LAPTOP#DESIGN_FEATURES without 2.03566e-005
; more 0.00113979
LAPTOP#DESIGN_FEATURES big 0.00859926
LAPTOP#QUALITY problem 1.80037e-007
NEUTRAL pc 0.0120895
; ; 0.00138332
POSITIVE personally 2.48685e-006
LAPTOP#PORTABILITY anywhere 0.0620269
NEUTRAL laptop 2.77701e-005
LAPTOP#QUALITY computer 7.4979e-006
LAPTOP#USABILITY science 0.00330629
LAPTOP#GENERAL off 3.71952e-006
SOFTWARE#GENERAL bloatware 3.99711e-005
LAPTOP#PORTABILITY vacation 0.0128638
SUPPORT#QUALITY hp 6.54068e-005
LAPTOP#USABILITY ease 0.0363673
LAPTOP#USABILITY make 2.77583e-006
LAPTOP#GENERAL spend 0.00125392
SUPPORT#QUALITY about 1.27745e-005
SUPPORT#QUALITY problem 0.0014997
; without 1.75155e-006
LAPTOP#DESIGN_FEATURES ol' 0.00256492
LAPTOP#DESIGN_FEATURES clunky 0.00256729
LAPTOP#QUALITY 3 0.0313867
LAPTOP#MISCELLANEOUS become 0.0125062
LAPTOP#DESIGN_FEATURES machine 6.55325e-005
LAPTOP#QUALITY month 0.000871402
LAPTOP#QUALITY when 2.1873e-005
; machine 1.17729e-007
LAPTOP#DESIGN_FEATURES backpack 0.00512162
; my 0.014559
LAPTOP#CONNECTIVITY wifus 0.0123723
LAPTOP#DESIGN_FEATURES like 8.97025e-006
LAPTOP#QUALITY still 0.0770561
LAPTOP#MISCELLANEOUS for 0.0026601
; like 0.00039963
; can 0.0049479
LAPTOP#PORTABILITY big 0.0359673
NEUTRAL patch 0.00238081
LAPTOP#GENERAL have 0.00462066
NEUTRAL favorite 3.787e-007
LAPTOP#PORTABILITY backpack 1.57612e-006
LAPTOP#DESIGN_FEATURES grant 0.0023597
POSITIVE anyone 0.000465093
NEUTRAL vga 0.00238081
LAPTOP#GENERAL a 0.000636177
LAPTOP#GENERAL but 6.07753e-006
DISPLAY#QUALITY glary 0.0137796
LAPTOP#MISCELLANEOUS programming 0.00727537
MEMORY#DESIGN_FEATURES 2gb 4.22563e-007
LAPTOP#MISCELLANEOUS recommend 1.43316e-005
LAPTOP#MISCELLANEOUS college 0.0355055
; look 1.32729e-005
LAPTOP#MISCELLANEOUS listen 0.00120535
; solid 3.07293e-008
DISPLAY#QUALITY sister 0.0137796
; they 2.35719e-006
; through 0.00157185
OS#GENERAL operating 0.0445686
LAPTOP#QUALITY get 0.00405434
NEGATIVE geek 0.000230851
NEGATIVE should 0.00180108
DISPLAY#QUALITY crisp 0.0137433
LAPTOP#GENERAL relax 0.000282547
NEGATIVE week 0.00202804
OS#DESIGN_FEATURES spotlight 0.191761
GRAPHICS#QUALITY thing 0.74895
MOUSE#OPERATION_PERFORMANCE move 0.07648
LAPTOP#GENERAL luxury 0.000365979
LAPTOP#GENERAL sarcasm 0.000254189
OS#DESIGN_FEATURES keyword 0.0527687
NEGATIVE dislike 0.000461702
DISPLAY#QUALITY color 0.067714
NEGATIVE cubersome 2.06611e-008
NEGATIVE placement 6.67951e-008
OS#DESIGN_FEATURES parse 0.180185
NEGATIVE advertise 8.57829e-009
NEGATIVE case 0.00111977
OS#DESIGN_FEATURES folder 0.191761
NEGATIVE off 0.00359372
LAPTOP#GENERAL 9 0.000364693
; low 8.05976e-006
POSITIVE great 0.0267764
; pick 3.18116e-007
POSITIVE feature 2.5153e-006
POSITIVE search 0.000677703
; model 5.60125e-008
LAPTOP#DESIGN_FEATURES satellite 7.45785e-007
POSITIVE : 0.000265136
POSITIVE one 0.00118612
POSITIVE document 0.00113115
POSITIVE by 4.02842e-005
POSITIVE simply 0.00113123
; fit 8.96602e-008
KEYBOARD#DESIGN_FEATURES backlit 0.0774802
POSITIVE typing 1.43189e-007
POSITIVE keyword 0.000164008
POSITIVE than 4.58955e-006
LAPTOP#MISCELLANEOUS flaw 0.00356821
POSITIVE parse 1.36596e-005
POSITIVE ten 1.02209e-007
POSITIVE file 0.00133969
LAPTOP#DESIGN_FEATURES adjustment 0.00256729
LAPTOP#QUALITY sit 0.0138454
; great 2.45431e-005
; feature 2.54815e-009
LAPTOP#QUALITY lap 1.31918e-005
; search 9.45539e-008
LAPTOP#QUALITY burn 2.73919e-006
; : 0.0024949
LAPTOP#QUALITY leg 0.00464223
; one 6.76579e-005
; document 1.30167e-007
; by 0.000948077
; simply 5.50481e-008
LAPTOP#QUALITY time 5.20584e-005
; rather 9.09905e-009
; than 0.0040909
; ten 5.87002e-008
; file 1.53318e-007
NEUTRAL 7 0.0271464
LAPTOP#GENERAL oh 4.4648e-005
POSITIVE senior 0.000185488
LAPTOP#QUALITY hack 0.00464062
LAPTOP#GENERAL my 0.00168941
LAPTOP#GENERAL goodness-i 8.74856e-005
LAPTOP#GENERAL not 6.20326e-007
LAPTOP#GENERAL happy 0.00914889
LAPTOP#GENERAL camper 0.000712638
POSITIVE msn 0.000226219
NEGATIVE NULL 0.0585069
NEGATIVE oh 0.0013564
NEGATIVE my 0.000422428
NEGATIVE goodness-i 0.000175667
POSITIVE relax 4.89146e-005
NEGATIVE be 0.0113367
LAPTOP#OPERATION_PERFORMANCE poor 3.2673e-005
NEGATIVE not 0.0604552
POSITIVE car 0.000226273
NEGATIVE a 0.00954373
LAPTOP#OPERATION_PERFORMANCE performance 0.0356149
NEGATIVE camper 1.21867e-005
NEGATIVE . 4.84915e-006
; not 1.64588e-005
LAPTOP#QUALITY since 0.000152824
; happy 1.78268e-008
LAPTOP#QUALITY purchase 7.66246e-006
LAPTOP#DESIGN_FEATURES heavy 0.00720741
POSITIVE april 8.73113e-005
NEGATIVE hp 0.00443195
NEGATIVE very 5.89762e-005
POSITIVE 30 4.95667e-005
NEGATIVE heavy 4.4462e-005
LAPTOP#QUALITY netbook 7.91979e-006
; very 0.000516828
COMPANY#GENERAL word 2.78678e-005
POSITIVE lug 0.000214487
LAPTOP#PORTABILITY carry 0.141531
NEGATIVE to 0.0019117
NEUTRAL sure 0.0026536
SHIPPING#QUALITY nearly 2.47787e-006
; msn 3.31636e-008
POSITIVE everyday 0.000905093
MOUSE#DESIGN_FEATURES glass 0.0388248
DISPLAY#OPERATION_PERFORMANCE screen 0.664252
SUPPORT#QUALITY week 0.0144409
SUPPORT#QUALITY fourth 1.24779e-005
LAPTOP#QUALITY idk 0.00188919
SUPPORT#GENERAL service 0.0190048
OS#USABILITY take 0.502653
BATTERY#QUALITY well 0.0797411
NEGATIVE the 0.00979281
POSITIVE scroll 0.000103395
SOFTWARE#USABILITY upload 0.0227341
NEGATIVE battery 8.50066e-007
NEGATIVE have 0.00757942
NEGATIVE never 0.00254447
NEGATIVE work 0.00573718
NEGATIVE well 1.38154e-005
NEUTRAL solve 0.00476162
; never 0.000187821
; work 0.000277642
LAPTOP#QUALITY take 1.83673e-005
; well 1.61878e-005
LAPTOP#DESIGN_FEATURES want 1.10176e-005
LAPTOP#DESIGN_FEATURES take 1.88039e-006
; relax 1.63168e-006
SOFTWARE#DESIGN_FEATURES create 0.0265248
SUPPORT#QUALITY supplier 0.0017577
DISPLAY#OPERATION_PERFORMANCE video 4.04704e-006
BATTERY#QUALITY scary 0.0312853
POSITIVE food 0.000226273
NEGATIVE get 0.0216848
NEGATIVE so 0.00148291
NEGATIVE hot 9.28585e-005
NEGATIVE it 0.0258011
DISPLAY#QUALITY screen 0.294179
NEGATIVE scary 3.05365e-006
; so 0.00280789
LAPTOP#GENERAL box 0.000128328
SUPPORT#QUALITY do 0.000438221
LAPTOP#GENERAL far 0.00546561
NEGATIVE yet 0.000262788
NEGATIVE will 0.0116162
NEGATIVE anything 0.000745404
NEGATIVE about 0.00346027
NEGATIVE problem 0.00621045
; yet 0.000946348
; anything 2.09156e-007
; about 0.00490634
; problem 5.26502e-007
LAPTOP#GENERAL money 0.00470671
SUPPORT#QUALITY return 1.07302e-007
LAPTOP#GENERAL worst 0.000147479
SUPPORT#QUALITY they 0.243582
LAPTOP#PORTABILITY weight 2.83341e-007
LAPTOP#GENERAL own 1.5107e-005
SUPPORT#QUALITY 3 0.00013847
NEGATIVE i 0.0143469
NEGATIVE return 0.000581
NEGATIVE computer 0.000953939
POSITIVE hardly 8.96733e-008
NEGATIVE and 3.38926e-006
NEGATIVE they 0.00240544
NEGATIVE keep 0.00346229
LAPTOP#OPERATION_PERFORMANCE rarely 0.00250581
POSITIVE firewall 1.06248e-006
SOFTWARE#USABILITY functioning 0.0230027
NEGATIVE for 5.69594e-005
NEGATIVE 3 0.00147636
NEGATIVE month 0.0123734
; return 6.25031e-009
; keep 2.89156e-007
; 3 5.50866e-007
; month 3.52511e-006
SUPPORT#QUALITY back 0.0169218
SUPPORT#QUALITY realizw 0.00175791
LAPTOP#GENERAL anyone 0.00560555
LAPTOP#PORTABILITY arthritis 0.00430958
SUPPORT#QUALITY still 0.0033951
SUPPORT#QUALITY correct 2.3873e-005
LAPTOP#USABILITY can 6.40561e-005
SUPPORT#QUALITY tell 0.0433104
LAPTOP#GENERAL save 5.65689e-005
SUPPORT#QUALITY warranty 0.0361245
LAPTOP#GENERAL personally 0.000361957
NEGATIVE when 0.00308093
NEGATIVE back 0.00447075
LAPTOP#USABILITY compact 0.00991425
NEGATIVE still 8.44281e-005
NEGATIVE correct 0.000458568
NEGATIVE tell 4.78428e-005
SOFTWARE#USABILITY automatically 0.0230027
NEGATIVE of 0.00555638
NEGATIVE warranty 0.00102737
NEGATIVE now 3.33288e-007
; when 0.00550062
; back 3.63606e-008
LAPTOP#QUALITY year 0.0673093
; still 3.44222e-005
LAPTOP#DESIGN_FEATURES besides 8.62681e-005
LAPTOP#QUALITY up 3.35938e-005
; now 1.56934e-006
LAPTOP#PORTABILITY bed 0.0128643
LAPTOP#GENERAL so 0.0127138
LAPTOP#DESIGN_FEATURES switch 0.00995031
POSITIVE able 0.000226874
LAPTOP#GENERAL , 4.00966e-007
POSITIVE unprecedented 5.22206e-008
LAPTOP#GENERAL can 0.00422472
LAPTOP#GENERAL imagine 0.000731958
POSITIVE computing 3.04909e-008
LAPTOP#GENERAL unhappy 3.4875e-008
POSITIVE home 0.000355154
LAPTOP#GENERAL item 0.00102207
NEGATIVE can 0.00253715
POSITIVE o 0.000226109
NEGATIVE how 0.00563413
NEGATIVE unhappy 0.000230829
LAPTOP#PRICE paper 0.00621077
POSITIVE realistic 1.41763e-006
NEGATIVE with 6.09624e-005
POSITIVE freezing 9.07764e-007
NEGATIVE this 0.000192863
DISPLAY#QUALITY high 0.00130453
NEGATIVE item 4.5608e-005
LAPTOP#QUALITY here 2.27458e-006
LAPTOP#QUALITY condition 0.00232116
LAPTOP#QUALITY it 0.000107688
NEGATIVE currently 0.000690456
NEGATIVE if 0.000250096
POSITIVE table 0.000444579
NEGATIVE use 3.64585e-008
NEGATIVE sit 0.000872329
NEGATIVE on 0.0306262
NEGATIVE because 0.00897946
NEGATIVE burn 1.88762e-006
NEGATIVE leg 9.73895e-009
KEYBOARD#QUALITY bar 0.0894043
LAPTOP#QUALITY quality 0.0551915
; if 0.00133415
NEUTRAL whole 0.00714158
SHIPPING#QUALITY ship 0.000304816
; sit 8.46607e-006
NEUTRAL bit 3.59045e-005
SHIPPING#QUALITY june 0.0541511
; on 4.08854e-005
NEUTRAL adapt 0.00238081
SHIPPING#QUALITY july 7.20311e-007
; because 0.000130231
LAPTOP#QUALITY thing 4.65115e-006
SUPPORT#QUALITY bunch 0.00702252
NEGATIVE bunch 1.19924e-006
DISPLAY#QUALITY rub 0.00631577
SHIPPING#QUALITY west 0.108172
LAPTOP#MISCELLANEOUS via 3.75964e-007
LAPTOP#GENERAL pay 5.36389e-006
LAPTOP#PORTABILITY fit 1.52447e-005
SUPPORT#QUALITY same 0.00446571
POSITIVE beauty 1.42503e-005
SUPPORT#QUALITY company 0.0112242
MULTIMEDIA_DEVICES#GENERAL thing 3.16935e-005
LAPTOP#GENERAL start 0.00426358
LAPTOP#PORTABILITY cubersome 0.0128653
NEGATIVE but 0.00192201
NEGATIVE at 0.0133499
NEGATIVE same 0.0037944
NEGATIVE time 0.014538
NEGATIVE -lrb- 6.21752e-005
NEGATIVE company 8.31442e-007
NEGATIVE would 0.000432813
NEGATIVE could 0.0061975
DISPLAY#QUALITY below 0.0137582
SHIPPING#QUALITY verginia 0.108116
; at 2.03402e-005
DISPLAY#QUALITY heal 0.01377
SHIPPING#QUALITY doe 0.0523382
; same 2.78732e-006
DISPLAY#QUALITY glare 0.0126703
SHIPPING#QUALITY method 0.0541477
; time 2.74656e-007
KEYBOARD#GENERAL keyboard 0.912632
SHIPPING#QUALITY priority 7.36088e-006
; could 0.000128857
POSITIVE bigger 3.77292e-006
LAPTOP#GENERAL say 0.00116488
LAPTOP#GENERAL if 0.000913354
MULTIMEDIA_DEVICES#QUALITY plane 0.0320546
POSITIVE glass 8.18483e-009
LAPTOP#GENERAL want 0.0109606
POSITIVE seamless 8.80179e-006
LAPTOP#GENERAL one 0.0257224
LAPTOP#GENERAL these 0.00126825
POSITIVE perfectly 0.000421915
COMPANY#GENERAL ever 7.03372e-005
LAPTOP#GENERAL machine 0.0135634
NEGATIVE say 0.00664506
NEGATIVE buy 0.00141714
NEGATIVE one 0.00091282
NEGATIVE these 0.00104683
NEGATIVE careful 0.000245103
SHIPPING#QUALITY usps 0.0541511
; say 4.43279e-006
NEUTRAL learn 0.018096
BATTERY#OPERATION_PERFORMANCE charge 0.062519
SHIPPING#QUALITY tue. 7.17603e-005
POSITIVE box 1.20164e-006
BATTERY#OPERATION_PERFORMANCE dose 3.31944e-005
SHIPPING#QUALITY ups 0.0541511
POSITIVE virus 2.67159e-006
MOUSE#USABILITY however 0.000137758
NEGATIVE house 4.6797e-006
LAPTOP#OPERATION_PERFORMANCE peformance 0.00120246
NEGATIVE nasty 0.00022909
NEGATIVE word 2.78233e-006
SHIPPING#QUALITY 691 0.00112128
; house 7.09297e-008
SHIPPING#QUALITY mile 0.0269059
SHIPPING#QUALITY air 0.000107931
LAPTOP#GENERAL since 5.94023e-006
LAPTOP#GENERAL purchase 0.0100433
LAPTOP#GENERAL toshiba 9.26568e-005
LAPTOP#GENERAL netbook 0.00831956
LAPTOP#GENERAL very 4.51484e-005
LAPTOP#GENERAL pleased 0.00182501
POSITIVE hesitate 0.000199754
LAPTOP#QUALITY ` 9.95987e-006
LAPTOP#GENERAL laptob 0.000365979
LAPTOP#QUALITY t 0.00232116
POSITIVE since 0.00430119
POSITIVE purchase 5.97708e-005
; over 5.10596e-007
POSITIVE toshiba 3.32528e-006
POSITIVE netbook 0.00120641
; 5 4.80648e-008
POSITIVE very 0.0275794
POSITIVE pleased 3.01875e-006
; again 5.25756e-009
POSITIVE desktop 0.000748029
LAPTOP#MISCELLANEOUS convert 0.00727223
; since 0.000843485
NEUTRAL web 0.0260149
LAPTOP#MISCELLANEOUS occassionaly 0.00363769
; purchase 1.35703e-006
LAPTOP#MISCELLANEOUS vpn 0.00359493
; toshiba 7.08905e-005
LAPTOP#QUALITY last 2.96631e-006
; netbook 0.000239389
LAPTOP#MISCELLANEOUS mkii 0.00363754
LAPTOP#GENERAL well 1.22199e-005
LAPTOP#PORTABILITY take 0.000778514
POSITIVE window 2.97191e-008
LAPTOP#PORTABILITY around 0.000420186
; ask 1.14807e-005
POSITIVE easier 2.24406e-005
POSITIVE take 0.00124941
; enjoy 6.26751e-008
POSITIVE bed 3.92996e-008
POSITIVE around 0.000748541
; easier 3.66645e-008
; take 0.000570776
; around 5.66251e-005
LAPTOP#QUALITY '' 0.000102626
; easily 8.12114e-008
; many 1.74473e-005
; own 1.6581e-008
; require 0.000596069
LAPTOP#QUALITY warm 0.00232112
NEUTRAL NULL 4.03594e-007
NEUTRAL the 0.000387035
LAPTOP#DESIGN_FEATURES '' 0.0068407
NEUTRAL get 0.00455181
NEUTRAL it 2.47895e-005
NEUTRAL be 5.22152e-006
; screen 0.000161067
; some 1.90455e-005
DISPLAY#DESIGN_FEATURES screen 0.00844791
LAPTOP#MISCELLANEOUS surfer 0.00361514
DISPLAY#DESIGN_FEATURES smaller 0.00888897
DISPLAY#DESIGN_FEATURES than 0.000611559
LAPTOP#MISCELLANEOUS fresh 0.00363769
SOFTWARE#MISCELLANEOUS regular 0.0262675
LAPTOP#GENERAL problem 0.0106962
POSITIVE problem 3.27722e-006
POSITIVE friend 0.000314334
LAPTOP#GENERAL notebook 0.00372372
POSITIVE eye 0.000678819
LAPTOP#GENERAL pc 0.00196525
LAPTOP#GENERAL qosmio 0.000365979
LAPTOP#GENERAL best 0.00420722
LAPTOP#PORTABILITY enough 1.06956e-006
LAPTOP#GENERAL gift 0.00182658
LAPTOP#GENERAL father 1.39875e-007
POSITIVE color 0.000231875
LAPTOP#PORTABILITY meet 0.0798129
LAPTOP#GENERAL could 2.45397e-006
LAPTOP#GENERAL ever 0.000940775
; friend 0.000809574
POSITIVE notebook 0.00154439
LAPTOP#DESIGN_FEATURES white 0.00256729
POSITIVE pc 0.000859699
; touch 2.15004e-008
POSITIVE best 0.00305564
; pad 2.66706e-006
POSITIVE gift 2.0506e-006
POSITIVE father 0.000226187
; color 1.08028e-006
LAPTOP#DESIGN_FEATURES garageband 0.0102638
POSITIVE could 4.87999e-005
POSITIVE ever 0.000380233
LAPTOP#MISCELLANEOUS onto 0.00727537
LAPTOP#QUALITY build 0.0162054
; pc 4.68583e-007
NEUTRAL what 0.0769097
LAPTOP#MISCELLANEOUS facebook 7.46355e-006
LAPTOP#MISCELLANEOUS networking 0.00480098
; ever 0.00213118
POSITIVE give 0.00110153
POSITIVE about 0.000795309
LAPTOP#CONNECTIVITY 3g 0.0117422
POSITIVE ago 2.37739e-005
LAPTOP#CONNECTIVITY special 0.0123029
POSITIVE up 0.00303086
; once 4.91762e-006
POSITIVE point 6.35002e-008
LAPTOP#CONNECTIVITY on-line 0.000543328
POSITIVE im 0.000901685
LAPTOP#QUALITY secure 0.00232112
POSITIVE still 4.33833e-005
LAPTOP#MISCELLANEOUS html 0.00305974
POSITIVE sit 8.97023e-007
LAPTOP#CONNECTIVITY wi-fus 0.0123721
; give 0.00176468
LAPTOP#QUALITY first 0.062124
; up 0.000805954
NEUTRAL few 3.81082e-005
LAPTOP#QUALITY have 4.45073e-006
BATTERY#OPERATION_PERFORMANCE suffice 0.00497895
LAPTOP#DESIGN_FEATURES ilife 3.15378e-006
POSITIVE high 7.41285e-005
LAPTOP#DESIGN_FEATURES iphotos 3.25807e-007
POSITIVE quality 4.80946e-005
NEUTRAL extra 0.025854
LAPTOP#QUALITY dependability 0.00231219
; high 0.000412357
LAPTOP#QUALITY show 5.17394e-005
; quality 1.01047e-007
SOFTWARE#USABILITY file 0.00123789
POSITIVE schooling 2.06311e-006
LAPTOP#GENERAL deffinately 0.000357773
LAPTOP#GENERAL reccomend 0.00161698
POSITIVE exactly 0.00111741
LAPTOP#GENERAL someone 0.00228213
POSITIVE deffinately 5.07361e-006
POSITIVE reccomend 0.000131589
POSITIVE someone 0.000172537
; something 2.44852e-007
NEUTRAL concerned 6.06588e-007
; reccomend 3.09564e-008
LAPTOP#GENERAL such 1.3412e-007
LAPTOP#PORTABILITY sit 0.00246037
POSITIVE low 0.000177846
LAPTOP#GENERAL great 0.00237368
POSITIVE awesome 0.00286633
LAPTOP#GENERAL like 0.00166689
POSITIVE such 0.00293359
POSITIVE thing 0.00120619
POSITIVE ! 1.02859e-005
NEUTRAL hard 4.1556e-005
; such 3.32517e-007
LAPTOP#QUALITY unibody 4.5328e-008
; thing 0.000381928
; ! 0.0210234
LAPTOP#GENERAL better 0.00237351
POSITIVE better 2.07939e-005
LAPTOP#MISCELLANEOUS store 0.00576724
; better 8.69942e-005
LAPTOP#GENERAL wait 1.33575e-007
POSITIVE crisp 5.96436e-007
LAPTOP#GENERAL change 0.00148697
POSITIVE on 8.62832e-006
POSITIVE change 1.44312e-007
LAPTOP#QUALITY durable 0.0115835
NEUTRAL pleasant 0.00238081
LAPTOP#GENERAL * 0.000355029
LAPTOP#USABILITY benefit 7.45338e-007
LAPTOP#USABILITY about 2.68079e-005
LAPTOP#GENERAL wonder 0.00109775
LAPTOP#USABILITY mac 7.20906e-007
POSITIVE benefit 0.000904413
POSITIVE love 0.00544383
POSITIVE mac 0.00383292
; benefit 4.17716e-009
; love 4.99509e-008
; mac 7.74914e-006
LAPTOP#GENERAL meet 4.05923e-006
LAPTOP#GENERAL every 5.44905e-005
LAPTOP#QUALITY together 0.00695324
LAPTOP#GENERAL expectation 0.00107683
POSITIVE meet 0.000401882
POSITIVE every 0.000115576
POSITIVE expectation 1.30304e-005
POSITIVE windows 6.20892e-006
POSITIVE 7 0.000555945
; meet 1.11698e-006
; every 0.00211358
NEUTRAL price 6.77846e-006
; expectation 1.1482e-008
; windows 1.80387e-007
; 7 0.00113762
SHIPPING#QUALITY late 6.24227e-005
OS#GENERAL windows 0.391818
OS#GENERAL 7 0.024249
LAPTOP#OPERATION_PERFORMANCE up 0.0405773
POSITIVE set 0.00211581
POSITIVE hook 0.000138065
NEUTRAL either 0.00318719
POWER_SUPPLY#DESIGN_FEATURES inconvenience 0.105968
POSITIVE wireless 4.18889e-007
; set 2.42743e-007
; hook 1.94741e-006
; wireless 1.60313e-007
LAPTOP#USABILITY set 0.00214103
LAPTOP#GENERAL help 6.44323e-006
LAPTOP#USABILITY up 3.81637e-006
HARD_DISC#QUALITY hardrive 0.0691205
NEGATIVE mouse 0.00330058
MOUSE#USABILITY pad 0.361613
NEGATIVE securely 0.000199022
NEGATIVE `` 0.00249903
NEGATIVE call 4.09728e-005
NEGATIVE help 0.00137555
LAPTOP#CONNECTIVITY hook 0.0532919
SOFTWARE#USABILITY essential 0.0230027
NEGATIVE fourth 0.000690915
LAPTOP#CONNECTIVITY wireless 0.0742044
LAPTOP#CONNECTIVITY network 0.0866152
NEGATIVE over 0.00351915
POSITIVE other 0.00279255
; even 1.40708e-006
; other 1.09135e-005
MULTIMEDIA_DEVICES#OPERATION_PERFORMANCE speaker 3.37327e-006
LAPTOP#DESIGN_FEATURES contributor 0.00256573
BATTERY#OPERATION_PERFORMANCE last 0.0658705
BATTERY#OPERATION_PERFORMANCE long 0.0240798
LAPTOP#DESIGN_FEATURES aspect 0.000881427
BATTERY#OPERATION_PERFORMANCE sure 0.00193115
OS#GENERAL window 0.213038
BATTERY#OPERATION_PERFORMANCE upgrade 0.000120265
LAPTOP#MISCELLANEOUS daily 0.0145464
NEUTRAL but 0.24463
NEUTRAL a 3.33984e-005
NEUTRAL upgrade 2.35069e-005
LAPTOP#DESIGN_FEATURES barely 0.000108388
NEUTRAL that 0.000978005
; last 8.13744e-005
; long 0.00018003
NEUTRAL hear 5.53361e-005
LAPTOP#MISCELLANEOUS game 0.0616935
POWER_SUPPLY#DESIGN_FEATURES large 0.0018505
BATTERY#OPERATION_PERFORMANCE life 0.203512
SOFTWARE#GENERAL software 0.295349
POSITIVE need 0.0115138
POSITIVE long 0.00433669
POSITIVE life 0.00145886
LAPTOP#QUALITY enjoy 2.11704e-005
POSITIVE so 0.0125677
POSITIVE perfect 0.00445363
; need 8.17893e-006
; life 3.2212e-005
NEUTRAL improve 0.00238081
; perfect 1.62236e-007
LAPTOP#GENERAL most 1.03209e-007
LAPTOP#GENERAL everything 0.00631847
LAPTOP#GENERAL : 2.04194e-006
LAPTOP#QUALITY was 0.00232116
POSITIVE most 0.00271507
POSITIVE everything 0.00241985
POSITIVE fine 0.000256427
POSITIVE speed 1.61881e-006
POSITIVE capacity 8.18235e-008
POSITIVE build 4.14251e-006
; most 5.97426e-008
; everything 1.76585e-006
LAPTOP#MISCELLANEOUS bought 0.00155763
; speed 1.87874e-008
LAPTOP#MISCELLANEOUS wal-mart 0.00350759
; build 1.67533e-008
LAPTOP#OPERATION_PERFORMANCE most 4.62071e-007
LAPTOP#OPERATION_PERFORMANCE everything 3.18797e-006
LAPTOP#OPERATION_PERFORMANCE fine 0.0186782
LAPTOP#OPERATION_PERFORMANCE speed 0.0403463
LAPTOP#OPERATION_PERFORMANCE operation 0.0047485
HARD_DISC#DESIGN_FEATURES capacity 0.040782
LAPTOP#PRICE exact 0.00400792
DISPLAY#QUALITY resolution 0.0688884
NEGATIVE ever 0.00215303
DISPLAY#QUALITY yahoo!mail 0.0137785
POSITIVE sd 0.000452546
NEGATIVE only 0.0146508
NEGATIVE thing 0.00384515
NEGATIVE understand 0.000845239
NEGATIVE resolution 1.62745e-007
NEGATIVE screen 0.00184991
NEGATIVE high 0.000830433
NEGATIVE some 0.0043544
POSITIVE night 0.000653197
HARD_DISC#QUALITY hard 0.0348706
NEGATIVE as 0.000159991
NEGATIVE yahoo!mail 1.89895e-008
; enough 1.10224e-005
; connect 3.99928e-008
LAPTOP#PRICE for 1.5909e-005
; 's 7.9966e-006
POSITIVE also 0.00900521
LAPTOP#PRICE expensive 0.021663
; also 2.7517e-005
LAPTOP#GENERAL for 0.000118328
LAPTOP#QUALITY body 0.00447572
LAPTOP#GENERAL also 2.67238e-007
LAPTOP#MISCELLANEOUS people 0.0314226
MULTIMEDIA_DEVICES#QUALITY volume 3.86563e-005
; people 2.80738e-006
; first 1.81884e-006
LAPTOP#OPERATION_PERFORMANCE plain 0.00236759
LAPTOP#OPERATION_PERFORMANCE load 0.0251456
NEUTRAL always 1.35306e-006
POSITIVE plain 6.42326e-007
MULTIMEDIA_DEVICES#QUALITY sound 0.0290116
LAPTOP#DESIGN_FEATURES sophisticated 0.00210644
POSITIVE simple 0.00158379
MULTIMEDIA_DEVICES#QUALITY etc. 0.0898361
POSITIVE load 9.2449e-005
; simple 6.70557e-008
; load 8.76576e-008
POSITIVE companion 2.84099e-007
POSITIVE help 0.000165203
LAPTOP#GENERAL tell 5.68625e-005
POSITIVE stand 2.77459e-006
POSITIVE alone 0.000222403
LAPTOP#PRICE $ 1.23335e-006
POSITIVE printer 0.00120175
POSITIVE headset 1.38154e-007
; printer 8.24302e-005
NEGATIVE name 8.31157e-008
LAPTOP#CONNECTIVITY printer 0.00115242
LAPTOP#CONNECTIVITY headset 0.0123661
LAPTOP#DESIGN_FEATURES hook 0.000176773
LAPTOP#DESIGN_FEATURES sleek 0.00393172
LAPTOP#DESIGN_FEATURES look 0.0964889
LAPTOP#DESIGN_FEATURES dependability 7.0281e-006
LAPTOP#DESIGN_FEATURES that 7.92025e-005
POSITIVE sleek 0.000784755
LAPTOP#PRICE dollar 0.0288849
LAPTOP#DESIGN_FEATURES ton 0.00513458
POSITIVE dependability 2.55459e-007
POSITIVE show 0.00112626
; sleek 4.98417e-008
PORTS#QUALITY except 0.178478
PORTS#QUALITY plastic 2.96641e-006
LAPTOP#GENERAL disappoint 0.00104694
OS#USABILITY pc 0.0735083
LAPTOP#GENERAL requirement 3.24623e-006
OS#USABILITY user 0.140659
LAPTOP#GENERAL useful 1.55201e-006
LAPTOP#GENERAL unit 0.000405869
LAPTOP#GENERAL refund 0.000161325
LAPTOP#GENERAL designer 3.59805e-008
LAPTOP#QUALITY approximately 0.000195833
LAPTOP#GENERAL newer 9.61125e-008
SUPPORT#QUALITY call 0.0453937
LAPTOP#USABILITY teach 0.00330561
OS#USABILITY os 0.131805
SUPPORT#QUALITY opinion 8.80009e-006
LAPTOP#QUALITY man 3.87274e-005
NEUTRAL of 9.15873e-005
PORTS#QUALITY usb 0.198905
; bit 2.27273e-005
PORTS#QUALITY wire 0.000120265
BATTERY#GENERAL issue 0.412975
; os 1.20519e-005
LAPTOP#DESIGN_FEATURES unibody 0.000311114
LAPTOP#DESIGN_FEATURES design 0.0410707
LAPTOP#DESIGN_FEATURES edgy 1.14645e-007
POSITIVE unibody 0.000425121
POSITIVE design 4.88786e-007
POSITIVE edgy 0.000226148
POSITIVE durable 2.17705e-006
PORTS#QUALITY apparently 0.00833436
; edgy 7.04305e-008
PORTS#QUALITY securely 0.0082046
DISPLAY#DESIGN_FEATURES lead 0.000552327
DISPLAY#DESIGN_FEATURES backlit 2.9212e-006
LAPTOP#DESIGN_FEATURES love 0.000104493
LAPTOP#DESIGN_FEATURES meet 5.30241e-007
DISPLAY#DESIGN_FEATURES pop 0.0533203
POSITIVE lead 2.70549e-006
POSITIVE backlit 3.97412e-009
POSITIVE picture 0.000542395
POSITIVE much 0.00296763
PORTS#QUALITY attach 0.0586404
; much 1.02571e-005
COMPANY#GENERAL apple 0.112341
POSITIVE bottom 0.000451465
LAPTOP#GENERAL offer 1.46217e-006
LAPTOP#GENERAL ok 1.62329e-005
LAPTOP#GENERAL trifecta 0.000365706
POSITIVE satisfy 5.94287e-006
MOUSE#DESIGN_FEATURES finger 0.0665638
POSITIVE perform 5.59295e-007
MOUSE#DESIGN_FEATURES option 0.0776523
POSITIVE professional 0.000445024
POSITIVE external 0.000184908
MOUSE#DESIGN_FEATURES mousepad 0.0776523
POSITIVE exist 0.000452496
POSITIVE 32 1.12588e-006
LAPTOP#GENERAL desk 0.00109794
LAPTOP#DESIGN_FEATURES bloatware 0.00254745
POSITIVE ratio 0.000226244
SUPPORT#QUALITY even 0.00052888
POSITIVE operating 6.29088e-006
LAPTOP#DESIGN_FEATURES 9 9.02456e-006
LAPTOP#PRICE price 0.259942
POSITIVE learn 0.000448786
POSITIVE finger 0.000515537
POSITIVE allow 0.00203413
POSITIVE browsing 0.000122343
POSITIVE web 1.54935e-005
PORTS#QUALITY two 0.428297
; learn 5.03839e-007
; finger 2.75079e-008
NEUTRAL try 4.41587e-005
; allow 9.18004e-007
LAPTOP#MISCELLANEOUS fruit-named 0.00113588
; web 3.60827e-007
LAPTOP#USABILITY learn 0.0143429
LAPTOP#USABILITY allow 9.46484e-006
LAPTOP#USABILITY quicker 0.00330629
LAPTOP#DESIGN_FEATURES lead 0.00761774
LAPTOP#DESIGN_FEATURES to 1.1135e-006
POSITIVE key 3.46698e-006
KEYBOARD#USABILITY wasy 0.0315656
POSITIVE contributor 1.37567e-007
POSITIVE art 0.000656764
POSITIVE aspect 0.000148587
; key 4.31699e-006
OS#GENERAL basics 0.00230587
; bottom 6.61417e-007
LAPTOP#MISCELLANEOUS 5d 0.000780112
SOFTWARE#MISCELLANEOUS develop 0.0516936
; professional 2.0589e-008
NEUTRAL hope 2.89477e-007
POSITIVE supplier 2.69304e-008
POSITIVE power 9.69904e-006
POSITIVE function 2.85005e-007
MULTIMEDIA_DEVICES#QUALITY soud 0.00730537
; less 4.5471e-008
POSITIVE offer 0.00220348
POSITIVE tutorial 5.26479e-008
LAPTOP#MISCELLANEOUS 25 0.00363769
; choose 5.13282e-007
POSITIVE nature 0.000438736
SOFTWARE#MISCELLANEOUS forward 5.97253e-007
MULTIMEDIA_DEVICES#QUALITY speaker 0.362404
LAPTOP#MISCELLANEOUS desinge 0.00363769
POSITIVE reasonable 9.97262e-005
SOFTWARE#MISCELLANEOUS utilize 0.0134381
; surf 1.08954e-005
LAPTOP#GENERAL about 0.00110461
LAPTOP#MISCELLANEOUS bonus 0.00363769
POSITIVE trifecta 1.68541e-007
POSITIVE excellent 0.00292926
POSITIVE software 2.56267e-007
POSITIVE editing 0.000678811
POSITIVE video 0.00174168
POSITIVE forward 1.37311e-007
POSITIVE utilize 0.000110515
POSITIVE tool 0.000677948
; excellent 7.51556e-006
LAPTOP#MISCELLANEOUS 720p 0.0034814
; software 3.10972e-006
LAPTOP#MISCELLANEOUS 1080p 0.00361631
; editing 5.40405e-009
; video 2.00947e-007
LAPTOP#QUALITY after 1.24483e-006
; tool 5.32936e-007
LAPTOP#GENERAL excite 0.000365979
POSITIVE exceptional 1.15939e-007
LAPTOP#GENERAL more 0.000279969
LAPTOP#GENERAL what 0.000498751
MOUSE#GENERAL pad 0.136201
MULTIMEDIA_DEVICES#QUALITY overcome 0.033465
POSITIVE touchpad 0.00016214
LAPTOP#GENERAL do 0.00183214
LAPTOP#GENERAL same 9.27472e-008
POSITIVE what 0.000241435
POSITIVE powerful 1.67714e-006
LAPTOP#DESIGN_FEATURES cut 0.00136125
LAPTOP#MISCELLANEOUS scheduling 0.00319856
POSITIVE same 6.15463e-007
NEUTRAL drive 0.000110845
; what 3.55507e-005
; offer 2.18623e-006
COMPANY#GENERAL tosiba 0.00377413
LAPTOP#OPERATION_PERFORMANCE more 1.39243e-005
COMPANY#GENERAL reputation 1.62894e-006
COMPANY#GENERAL llast 0.00159512
LAPTOP#OPERATION_PERFORMANCE powerful 0.00710539
LAPTOP#OPERATION_PERFORMANCE encourage 0.00237433
POSITIVE daughter 6.03683e-008
; where 4.87763e-008
NEGATIVE more 0.00725362
NEGATIVE expensive 2.17504e-008
POSITIVE forever 0.000212883
NEGATIVE worth 6.488e-009
POSITIVE starcraft 0.000130917
MOUSE#USABILITY button 0.00066427
NEGATIVE run 1.15447e-005
LAPTOP#GENERAL in 1.99746e-006
COMPANY#GENERAL dell 0.0181482
LAPTOP#DESIGN_FEATURES edge 0.00726752
LAPTOP#QUALITY true 0.00462489
POSITIVE well 0.00798155
LAPTOP#GENERAL product 0.0180562
LAPTOP#DESIGN_FEATURES l455d 1.25558e-006
POSITIVE product 0.00050635
; product 4.39288e-007
SUPPORT#QUALITY contact 0.00703155
NEGATIVE hotline 0.000230843
NEGATIVE 5 7.38439e-005
NEGATIVE rate 6.79197e-005
NEGATIVE speaker 3.67412e-005
OS#GENERAL gradual 0.000732682
LAPTOP#QUALITY box 0.0122063
LAPTOP#DESIGN_FEATURES trendy 0.000268824
; twice 1.29417e-007
NEUTRAL warm 4.14726e-008
SOFTWARE#USABILITY iwork 0.0152858
NEGATIVE drawback 1.33367e-005
POSITIVE computer/printer 8.67129e-006
SOFTWARE#USABILITY incompatible 0.0204141
NEGATIVE wish 7.1054e-006
LAPTOP#GENERAL daughter 2.68782e-005
NEGATIVE key 0.00344885
POSITIVE mc373ll/a 8.17203e-007
; wish 6.00543e-007
LAPTOP#GENERAL glad 0.0021868
LAPTOP#GENERAL 100 0.00102261
POSITIVE th 0.000215614
MULTIMEDIA_DEVICES#DESIGN_FEATURES placement 0.23037
POSITIVE glad 5.61304e-006
POSITIVE few 0.00164022
POSITIVE 100 0.000262888
LAPTOP#DESIGN_FEATURES fancy 0.000385421
; few 0.000568563
; $ 5.28934e-006
; 100 6.02226e-006
; extra 1.08517e-006
LAPTOP#QUALITY guy 0.00232116
NEUTRAL -lrb- 8.12493e-005
NEUTRAL -rrb- 9.85546e-007
LAPTOP#DESIGN_FEATURES it 0.00714228
LAPTOP#DESIGN_FEATURES feature 0.0821247
LAPTOP#DESIGN_FEATURES all 0.000130224
POSITIVE all 0.0162996
; all 0.00106623
; power 0.00314821
; replace 1.66626e-006
DISPLAY#OPERATION_PERFORMANCE quit 0.0333205
LAPTOP#OPERATION_PERFORMANCE power 1.05912e-005
LAPTOP#OPERATION_PERFORMANCE desktop 0.00639559
LAPTOP#DESIGN_FEATURES concerned 0.00256664
LAPTOP#DESIGN_FEATURES large 3.2226e-005
LAPTOP#DESIGN_FEATURES but 0.0216527
OS#OPERATION_PERFORMANCE continue 0.0931206
LAPTOP#DESIGN_FEATURES around 2.69137e-007
LAPTOP#MISCELLANEOUS twin 0.00363769
SOFTWARE#GENERAL pre-loaded 0.013078
SOFTWARE#GENERAL norton 0.0130689
LAPTOP#DESIGN_FEATURES surprise 3.67487e-007
NEUTRAL as 2.18609e-005
; large 0.00108397
NEUTRAL little 0.072551
; hard 0.00162624
NEUTRAL negligible 0.00238076
; or 0.00375505
NEUTRAL concern 0.000612317
; which 0.000275097
LAPTOP#QUALITY 1 0.0123446
LAPTOP#MISCELLANEOUS mostly 0.00363769
POSITIVE suffice 1.41882e-005
POSITIVE pick 0.000904572
LAPTOP#QUALITY plate 0.00220136
LAPTOP#PORTABILITY trip 0.051466
COMPANY#GENERAL guarantee 5.05315e-006
POSITIVE large 2.14841e-005
POSITIVE hard 0.000127537
POSITIVE or 8.0851e-005
LAPTOP#DESIGN_FEATURES inside 0.00513445
POSITIVE which 9.31183e-005
POSITIVE surprise 0.000678787
LAPTOP#QUALITY cheaper 1.50124e-007
LAPTOP#DESIGN_FEATURES font 0.00126658
POSITIVE happy 3.35545e-007
SOFTWARE#GENERAL firewall/security 3.23197e-006
LAPTOP#DESIGN_FEATURES size 0.0560409
SOFTWARE#GENERAL program 0.191346
POSITIVE size 3.80941e-005
POSITIVE keyboard 0.000115894
LAPTOP#MISCELLANEOUS confident 0.00363769
; size 8.90629e-008
; keyboard 3.89892e-006
NEGATIVE man 0.000197458
NEGATIVE paper 6.49568e-006
LAPTOP#OPERATION_PERFORMANCE function 0.010783
LAPTOP#GENERAL complaint 0.00182321
POSITIVE complaint 4.27288e-007
MULTIMEDIA_DEVICES#QUALITY excelent 0.0169894
LAPTOP#QUALITY late 0.000246136
LAPTOP#MISCELLANEOUS truly 0.00781737
; complaint 1.57581e-008
POSITIVE price 5.45036e-008
LAPTOP#MISCELLANEOUS streaming 0.00363769
; `` 7.14529e-007
; button 2.73778e-008
LAPTOP#PRICE good 0.000119633
; business 2.18913e-007
LAPTOP#GENERAL perfect 1.38193e-005
SOFTWARE#GENERAL salesman 0.0131136
POWER_SUPPLY#QUALITY charger 0.228044
NEGATIVE talk 0.000692554
POSITIVE immediate 4.00371e-008
NEGATIVE we 0.00526294
POSITIVE magnetic 0.000226273
NEGATIVE into 1.14285e-005
NEGATIVE away 0.00183983
POSITIVE accident 1.63567e-007
NEGATIVE from 0.00996972
POSITIVE innovation 1.21623e-007
NEGATIVE another 0.00521149
NEGATIVE look 3.52966e-008
POSITIVE rock 1.75708e-006
NEGATIVE nothing 0.00218941
POSITIVE package 1.73755e-006
NEGATIVE software 0.00102468
BATTERY#QUALITY frustrating 0.0628618
NEGATIVE just 9.16218e-006
KEYBOARD#QUALITY nature 0.00195896
LAPTOP#MISCELLANEOUS bind 1.87356e-005
; we 0.000663049
; into 0.00165301
LAPTOP#MISCELLANEOUS previously 0.00363646
; away 3.81331e-006
LAPTOP#QUALITY hassle 0.00230904
; from 0.000789682
; another 0.00100278
OS#GENERAL vista 0.090389
LAPTOP#QUALITY easily 0.0102695
LAPTOP#GENERAL we 0.00233681
LAPTOP#GENERAL into 1.00462e-006
LAPTOP#GENERAL from 0.00163958
LAPTOP#GENERAL another 2.7898e-005
MULTIMEDIA_DEVICES#USABILITY real 0.399569
POSITIVE win 6.21999e-006
POSITIVE grandparent 2.544e-008
LAPTOP#GENERAL nothing 1.5463e-005
MOUSE#QUALITY snap 0.187072
SUPPORT#QUALITY hear 0.00171705
SUPPORT#QUALITY customer 0.0190577
SUPPORT#QUALITY service 0.0110573
LAPTOP#PORTABILITY barely 0.0333238
; dell 0.000292981
; service 4.4837e-007
KEYBOARD#QUALITY letter 0.0326472
LAPTOP#QUALITY virus 0.0255054
LAPTOP#MISCELLANEOUS supplementary 0.00363769
SUPPORT#QUALITY each 0.00703165
OPTICAL_DRIVES#QUALITY dvd 0.258989
OPTICAL_DRIVES#QUALITY burner 0.000403545
SUPPORT#QUALITY custom 0.00175776
OPTICAL_DRIVES#QUALITY burn 0.655122
OPTICAL_DRIVES#QUALITY during 0.0417028
LAPTOP#CONNECTIVITY barely 0.00025863
POSITIVE alike 1.08713e-008
NEGATIVE dvd 0.000451743
NEGATIVE burner 1.12297e-006
NEGATIVE break 0.00139714
NEGATIVE after 0.0133817
POSITIVE versatile 5.47576e-009
NEGATIVE during 0.00030503
; dvd 9.68169e-006
NEUTRAL might 9.62174e-005
LAPTOP#MISCELLANEOUS task 0.00363769
; after 1.60118e-006
SUPPORT#QUALITY send 0.0456281
SUPPORT#QUALITY replacement 0.000210566
KEYBOARD#DESIGN_FEATURES place 2.14429e-006
SUPPORT#QUALITY part 2.21378e-006
SUPPORT#QUALITY inform 0.00175791
SUPPORT#QUALITY within 2.53202e-005
COMPANY#GENERAL name 0.00377277
SUPPORT#QUALITY day 7.58481e-006
SUPPORT#QUALITY later 5.16195e-005
NEGATIVE send 0.00024104
POSITIVE son 0.000226273
NEGATIVE replacement 0.00131275
POSITIVE ichat 0.000224749
NEGATIVE part 0.00250517
POSITIVE garage 0.000226251
NEGATIVE require 0.000854368
HARDWARE#QUALITY force 1.17159e-005
POSITIVE band 0.000194578
NEGATIVE within 0.00147553
HARDWARE#QUALITY hardware 0.782716
POSITIVE gadget 4.94712e-007
POSITIVE expansion 1.34796e-008
NEGATIVE day 0.00592915
NEGATIVE or 0.00750306
POSITIVE rolls 0.000130824
NEGATIVE contact 1.27627e-008
POSITIVE royce 0.00022625
NEGATIVE let 5.75295e-008
POSITIVE promise 6.75891e-007
NEGATIVE know 0.0032065
NEGATIVE broken 0.000692554
NEGATIVE later 0.000339066
; part 0.000297024
; within 0.000186078
LAPTOP#QUALITY lemon 0.00446257
; know 1.91058e-006
LAPTOP#QUALITY top 0.0290878
; later 9.61228e-008
DISPLAY#OPERATION_PERFORMANCE there 5.98569e-006
LAPTOP#USABILITY all 0.00402542
POSITIVE schoolwork 1.38491e-007
NEGATIVE customer 1.05603e-006
NEGATIVE service 0.00312292
NEGATIVE then 0.00807754
NEGATIVE hate 0.00174303
NEGATIVE too 0.00482952
NEGATIVE see 0.00367864
NEGATIVE what 1.93257e-006
NEGATIVE before 0.00197659
; then 1.35307e-006
; see 1.47451e-006
SUPPORT#QUALITY speak 0.00876991
SUPPORT#QUALITY 4 0.00201224
SUPPORT#QUALITY people 8.88694e-006
LAPTOP#USABILITY easier 0.0195089
SUPPORT#QUALITY 5th 0.00335727
NEGATIVE speak 2.56857e-006
NEGATIVE 4 0.00296747
NEGATIVE different 0.00207362
NEGATIVE people 7.77001e-005
LAPTOP#OPERATION_PERFORMANCE ask 7.51763e-006
POSITIVE intuitive 3.25362e-007
HARD_DISC#DESIGN_FEATURES hard 0.0205416
NEGATIVE 5th 2.08219e-005
POSITIVE idea 0.000191191
MOUSE#DESIGN_FEATURES area 9.48519e-007
NEGATIVE person 0.00171458
; speak 7.27343e-009
; 4 1.19834e-007
; different 1.95782e-006
LAPTOP#QUALITY little 3.90337e-007
; transfer 8.9845e-008
LAPTOP#GENERAL wonderful 4.30272e-007
SUPPORT#QUALITY hang 2.06011e-005
NEGATIVE needless 0.000683154
NEGATIVE no 0.00807712
NEGATIVE hang 5.19738e-007
NEGATIVE up 0.0038493
LAPTOP#QUALITY negligible 5.09032e-008
OS#GENERAL relatively 0.00200185
LAPTOP#QUALITY concern 0.00172419
; no 0.0001831
LAPTOP#GENERAL dell 7.75268e-006
NEGATIVE guarantee 0.000230542
NEGATIVE last 0.000925789
NEGATIVE dell 0.0011664
NEGATIVE purchase 0.000444008
COMPANY#GENERAL will 0.0832038
POSITIVE far 1.48872e-005
NEGATIVE 1 0.000363276
NEGATIVE year 4.34037e-007
NEGATIVE + 1.18673e-007
POSITIVE saturday 1.11125e-007
POSITIVE goody 4.39753e-006
NEGATIVE damaged 8.15082e-005
POSITIVE notch 1.35723e-007
NEGATIVE late 0.000234511
; 1 0.000291644
; + 1.43694e-008
; report 4.89852e-006
; damaged 1.25779e-007
SUPPORT#QUALITY 1 1.84331e-007
LAPTOP#GENERAL arthritis 0.000120855
SUPPORT#QUALITY year 8.85284e-008
SUPPORT#QUALITY + 0.00175683
SUPPORT#QUALITY damaged 0.00113564
SUPPORT#QUALITY late 0.00154161
POSITIVE outstanding 0.000678742
POSITIVE impressed 1.00439e-007
LAPTOP#GENERAL give 0.000241608
SOFTWARE#OPERATION_PERFORMANCE stability 0.039949
COMPANY#GENERAL product 0.0128843
POSITIVE finding 1.13324e-008
MOUSE#DESIGN_FEATURES cable 1.40514e-005
NEGATIVE product 1.95305e-006
POSITIVE among 3.03821e-009
NEGATIVE !!!! 1.1689e-008
; !!!! 0.0002767
; home 7.63009e-008
LAPTOP#PRICE tag 2.45341e-006
LAPTOP#PRICE however 4.28533e-005
NEGATIVE tag 0.000230773
NEGATIVE however 0.000916554
; however 5.94921e-008
SUPPORT#QUALITY support 0.0047568
LAPTOP#USABILITY try 0.0310152
NEUTRAL how 4.92137e-005
POSITIVE soud 1.99731e-005
LAPTOP#GENERAL make 0.0122259
NEGATIVE worst 0.00221549
POSITIVE well-shaped 2.11788e-006
NEGATIVE hard 0.0034979
NEGATIVE fix 0.00226721
NEGATIVE hassle 6.68976e-009
NEGATIVE own 0.0020681
LAPTOP#QUALITY `` 0.00039353
LAPTOP#GENERAL hassle 1.90108e-006
NEGATIVE easily 0.000173889
NEGATIVE new 0.00648023
HARD_DISC#QUALITY fail 8.96369e-005
POSITIVE % 1.93323e-006
NEGATIVE drive 6.67255e-006
LAPTOP#GENERAL pavilion 0.000731958
GRAPHICS#QUALITY quality 0.000404923
LAPTOP#DESIGN_FEATURES many 0.0104653
LAPTOP#DESIGN_FEATURES wonderful 7.49673e-008
POSITIVE many 0.000640785
POSITIVE wonderful 0.0024886
POSITIVE new 1.83197e-006
POSITIVE macbook 0.00240211
; wonderful 7.90969e-008
; new 0.000125645
; macbook 1.23151e-007
LAPTOP#QUALITY almost 2.60854e-005
LAPTOP#GENERAL many 0.0019224
LAPTOP#GENERAL benefit 1.00546e-006
LAPTOP#GENERAL new 4.66892e-006
LAPTOP#GENERAL macbook 0.0118516
POSITIVE no 0.00173656
NEUTRAL should 1.63673e-006
LAPTOP#OPERATION_PERFORMANCE literally 0.00237413
LAPTOP#OPERATION_PERFORMANCE dynamo 0.00228515
LAPTOP#OPERATION_PERFORMANCE by 0.000129108
COMPANY#GENERAL step 0.00377088
LAPTOP#OPERATION_PERFORMANCE watch 5.40512e-008
POSITIVE literally 1.85747e-008
POSITIVE dynamo 8.49839e-006
POSITIVE watch 0.0020111
POSITIVE online 4.24e-007
LAPTOP#QUALITY opinion 7.77217e-007
KEYBOARD#QUALITY stand 0.00148752
LAPTOP#QUALITY might 0.00981558
; watch 1.55009e-005
LAPTOP#QUALITY rarely 4.82702e-005
LAPTOP#MISCELLANEOUS basic 0.00811629
; online 3.44377e-008
LAPTOP#QUALITY incredibly 0.00373675
LAPTOP#MISCELLANEOUS walmart.com 0.00363679
LAPTOP#GENERAL piece 0.00134388
SUPPORT#QUALITY might 2.83064e-005
LAPTOP#USABILITY online 0.0259741
LAPTOP#USABILITY tutorial 0.000275757
COMPANY#GENERAL loyal 0.011322
POSITIVE loyal 2.53581e-008
LAPTOP#MISCELLANEOUS exchange 1.22406e-007
HARD_DISC#QUALITY drive 0.737525
HARD_DISC#QUALITY replace 0.0209829
NEGATIVE replace 0.00424247
LAPTOP#MISCELLANEOUS handle 0.00499683
; drive 9.07983e-006
OS#MISCELLANEOUS gamer 0.00558925
SUPPORT#QUALITY acer 0.0138861
SUPPORT#QUALITY replace 5.7637e-006
POSITIVE suppose 4.58672e-008
WARRANTY#GENERAL manufacturer 0.0682617
WARRANTY#GENERAL cover 0.111666
WARRANTY#GENERAL replacement/repair 0.13847
NEGATIVE manufacturer 0.000347877
NEGATIVE cover 0.000717447
; manufacturer 5.00813e-009
LAPTOP#MISCELLANEOUS prodcut 0.00363273
; cover 1.18629e-005
NEGATIVE lemon 1.78773e-005
MULTIMEDIA_DEVICES#GENERAL better 0.524523
LAPTOP#QUALITY electronic 0.00464179
LAPTOP#GENERAL outstanding 1.24642e-007
LAPTOP#GENERAL value 0.000984836
COMPANY#GENERAL any 7.95876e-007
POSITIVE value 4.35904e-009
LAPTOP#QUALITY thetable 0.00232116
LAPTOP#USABILITY genius 0.00330629
LAPTOP#PORTABILITY mobile 0.0128665
POSITIVE top 3.45854e-006
KEYBOARD#USABILITY dark 0.251116
POSITIVE from 0.000367822
LAPTOP#PRICE winner 0.00381074
POSITIVE assistance 0.000223221
POSITIVE belly 0.000222751
; top 6.2518e-005
; - 0.00108063
; phone 2.62599e-008
; bar 1.00486e-007
SUPPORT#QUALITY phone 0.00379841
SUPPORT#QUALITY assistance 2.37098e-005
SUPPORT#QUALITY belly 2.73629e-005
SUPPORT#QUALITY beat 0.0034867
OS#DESIGN_FEATURES previous 0.383523
LAPTOP#DESIGN_FEATURES cool 0.00929833
POSITIVE pro 0.00463888
; seem 9.7135e-006
COMPANY#GENERAL buy 0.079285
POSITIVE blaze 0.000135589
LAPTOP#MISCELLANEOUS semi-decent 0.003315
; pro 2.19743e-007
NEUTRAL overall 1.61264e-007
; blaze 2.94919e-005
POSITIVE awe 1.42158e-007
LAPTOP#OPERATION_PERFORMANCE its 2.67775e-005
LAPTOP#OPERATION_PERFORMANCE blaze 0.000445446
; little 9.15327e-006
LAPTOP#QUALITY apparently 0.00894627
LAPTOP#GENERAL take 1.50508e-007
NEGATIVE since 0.000367605
NEGATIVE take 0.000169586
LAPTOP#QUALITY day 0.0192501
NEGATIVE first 0.000727984
NEGATIVE pre-loaded 6.27336e-007
NEGATIVE norton 7.87406e-007
NEGATIVE firewall/security 0.000230794
NEGATIVE program 2.92157e-007
; program 1.1091e-006
LAPTOP#GENERAL cursing 0.000254231
NEGATIVE connect 4.06823e-007
MOTHERBOARD#QUALITY freak 0.00360024
LAPTOP#CONNECTIVITY connect 0.136084
LAPTOP#CONNECTIVITY wifi 0.0285689
LAPTOP#CONNECTIVITY live 0.00360478
NEGATIVE wifi 0.000159551
NEGATIVE system 1.82896e-007
NEGATIVE where 0.00230808
NEGATIVE live 0.000848366
; system 7.37091e-006
; live 2.01823e-007
SUPPORT#QUALITY take 3.92107e-005
SUPPORT#QUALITY toshiba 1.24147e-005
SUPPORT#QUALITY tech 0.00266654
NEGATIVE toshiba 0.000223815
NEGATIVE tech 0.00192516
NEGATIVE support 0.0028381
LAPTOP#GENERAL star 0.00111485
SOFTWARE#OPERATION_PERFORMANCE explorer 0.00673423
MOUSE#QUALITY mouse 0.00179286
POSITIVE lightbulb 0.000226075
MOUSE#USABILITY mouse 0.0159724
NEGATIVE leave 0.00184681
NEGATIVE '' 0.00358984
NEGATIVE button 0.00322594
; '' 0.000782222
POSITIVE action 1.1407e-005
NEGATIVE 2 0.00552736
NEGATIVE old 0.00230798
; 2 7.80068e-006
; old 7.40384e-008
NEGATIVE buyer 0.00092256
NEGATIVE beware 4.01829e-005
LAPTOP#QUALITY should 7.01111e-007
; buyer 1.74389e-008
; beware 6.47112e-008
NEGATIVE opinion 0.00115302
NEGATIVE might 0.00106606
; might 1.33899e-005
NEGATIVE rarely 8.58011e-008
NEGATIVE incredibly 0.000316068
NEGATIVE slow 0.000168799
; incredibly 6.99897e-008
LAPTOP#MISCELLANEOUS useless 0.000108494
LAPTOP#OPERATION_PERFORMANCE work 0.142151
LAPTOP#OPERATION_PERFORMANCE incredibly 4.86606e-005
LAPTOP#OPERATION_PERFORMANCE slow 0.0386275
HARD_DISC#DESIGN_FEATURES drive 0.0208923
NEGATIVE squad 0.000230851
POSITIVE watt 0.000221324
NEGATIVE even 0.0089314
NEGATIVE * 6.90714e-006
LAPTOP#OPERATION_PERFORMANCE like 0.00140731
LAPTOP#USABILITY arent 0.000395448
COMPANY#GENERAL decision 4.88553e-005
LAPTOP#USABILITY friendly 9.71989e-005
LAPTOP#USABILITY etc. 0.00869284
NEGATIVE arent 0.00020324
NEGATIVE volume 0.00115399
NEGATIVE wheel 7.48108e-007
NEGATIVE sound 0.00210789
DISPLAY#QUALITY show 4.0242e-006
MOUSE#USABILITY bar 2.47796e-005
LAPTOP#QUALITY cheaply 0.00227316
LAPTOP#QUALITY interesting 0.00232116
MULTIMEDIA_DEVICES#USABILITY etc. 0.534096
LAPTOP#QUALITY thicker 0.00232098
LAPTOP#QUALITY tough 8.51198e-008
LAPTOP#GENERAL winner 0.00017274
LAPTOP#DESIGN_FEATURES tough 0.00256684
POSITIVE winner 6.59869e-008
LAPTOP#GENERAL love 0.0186284
LAPTOP#GENERAL mac 0.010249
POSITIVE small 1.52559e-008
LAPTOP#QUALITY drop 0.000211029
LAPTOP#GENERAL anymore 0.000356987
POSITIVE anymore 5.55959e-006
LAPTOP#QUALITY girl 0.00160321
LAPTOP#QUALITY grabe 9.96904e-008
LAPTOP#GENERAL all 0.00167561
POSITIVE indeed 1.05922e-005
NEGATIVE any 0.00035094
NEGATIVE major 0.000461695
NEGATIVE except 1.66754e-007
DISPLAY#QUALITY quit 0.0206522
NEGATIVE plastic 0.00055888
DISPLAY#QUALITY electronics 0.0275592
NEGATIVE usb 7.16657e-005
NEGATIVE wire 0.000413452
SOFTWARE#USABILITY charm 0.00766763
NEGATIVE all 9.50267e-005
NEGATIVE come 0.000229798
LAPTOP#DESIGN_FEATURES offer 0.000621453
NEGATIVE apparently 1.32175e-006
NEGATIVE defective 0.000301145
NEGATIVE attach 3.36247e-006
LAPTOP#CONNECTIVITY device 2.56906e-005
NEGATIVE jump 1.64446e-007
LAPTOP#CONNECTIVITY connected 0.0123736
NEGATIVE question 1.13042e-007
LAPTOP#CONNECTIVITY properly 1.00876e-006
NEGATIVE barely 8.00846e-005
NEGATIVE device 1.23801e-005
DISPLAY#QUALITY image 5.05159e-005
NEGATIVE stay 0.00115076
DISPLAY#QUALITY soud 0.00955561
DISPLAY#QUALITY excelent 0.00678347
NEGATIVE properly 1.02208e-005
POSITIVE bind 0.000225108
MOUSE#DESIGN_FEATURES touchpad 0.00557014
NEGATIVE two 0.000213179
NEGATIVE while 1.14081e-006
SUPPORT#QUALITY suffer 0.00175791
LAPTOP#QUALITY aluminum 0.0023185
LAPTOP#GENERAL investment 0.00218311
SUPPORT#QUALITY fix 0.0266832
NEGATIVE think 0.00334214
NEGATIVE rather 0.00223687
NEGATIVE something 0.0030503
LAPTOP#PRICE money 0.0855025
NEGATIVE spend 3.62064e-005
NEGATIVE alot 0.00114313
NEGATIVE its 6.98221e-008
NEGATIVE nightmare 0.000923245
SUPPORT#QUALITY nightmare 9.13158e-007
NEGATIVE worse 0.000923358
SUPPORT#QUALITY crack 0.00175791
NEGATIVE huge 0.000923405
SOFTWARE#USABILITY music-management 0.0209074
NEGATIVE ive 3.42653e-008
SUPPORT#QUALITY wait 0.0192752
NEGATIVE wait 8.04117e-006
POSITIVE pure 2.14927e-005
NEGATIVE there 0.00692305
COMPANY#GENERAL stay 4.52179e-005
COMPANY#GENERAL away 1.00242e-005
MOUSE#GENERAL touch 0.00178033
POSITIVE vacation 3.5972e-008
COMPANY#GENERAL toshiba 0.219817
NEGATIVE anyone 0.000129006
SOFTWARE#USABILITY account 0.020396
; action 2.91268e-008
LAPTOP#DESIGN_FEATURES sharp 0.0028145
; help 0.000346648
LAPTOP#DESIGN_FEATURES purse 0.00256713
LAPTOP#MISCELLANEOUS bill 0.00363709
DISPLAY#GENERAL display 0.425347
MOUSE#OPERATION_PERFORMANCE adjust 0.030891
LAPTOP#CONNECTIVITY clean 4.11441e-005
DISPLAY#GENERAL convienent 0.000127569
POSITIVE see 2.97838e-006
KEYBOARD#DESIGN_FEATURES size 5.65178e-005
POSITIVE time 2.17577e-008
LAPTOP#OPERATION_PERFORMANCE staple 1.62563e-006
NEGATIVE little 6.00848e-005
NEGATIVE pricey 3.36726e-007
LAPTOP#GENERAL little 0.000790159
LAPTOP#DESIGN_FEATURES bump 1.33702e-005
POSITIVE little 9.31373e-006
LAPTOP#DESIGN_FEATURES heck 0.00209457
HARD_DISC#QUALITY moth 0.0345603
SUPPORT#QUALITY tranferr 0.00175791
NEGATIVE fail 0.0016148
NEGATIVE which 0.00683317
; well-shaped 0.000137058
; % 2.22599e-009
NEGATIVE stop 0.00230833
NEGATIVE frustrating 3.93757e-006
NEUTRAL good 0.0168398
SUPPORT#PRICE 17 0.000154168
NEGATIVE adjust 1.65277e-005
MOUSE#OPERATION_PERFORMANCE doesnt 0.0980447
NEGATIVE comply 3.25769e-005
NEGATIVE less 0.00253926
NEGATIVE disappoint 2.40071e-006
NEGATIVE cut 1.11717e-007
NEGATIVE install 1.17037e-005
NEGATIVE wear 1.37695e-006
NEGATIVE edge 6.60953e-008
MOUSE#OPERATION_PERFORMANCE touch 1.82184e-005
NEGATIVE instruction 2.13802e-007
MOUSE#USABILITY dont 0.000211314
NEGATIVE charger 5.90739e-005
NEGATIVE force 6.99387e-006
NEGATIVE hardware 8.50063e-005
POWER_SUPPLY#OPERATION_PERFORMANCE force 0.620992
SUPPORT#QUALITY question 0.00703079
SUPPORT#QUALITY comply 0.00150984
SUPPORT#QUALITY aftermarket 0.00175781
SUPPORT#QUALITY instruction 0.00175628
SUPPORT#QUALITY hotline 6.13897e-008
NEGATIVE : 0.000182135
NEGATIVE save 0.00204166
NEGATIVE bit 0.00272825
FANS_COOLING#QUALITY fan 0.467794
LAPTOP#CONNECTIVITY probably 8.07992e-006
LAPTOP#DESIGN_FEATURES use 0.000328968
LAPTOP#GENERAL much 0.00542038
LAPTOP#PRICE pay 0.160854
NEGATIVE netbook 3.6944e-005
NEGATIVE bad 0.00304427
DISPLAY#OPERATION_PERFORMANCE blank 0.0443844
LAPTOP#GENERAL schooling 0.000362642
SOFTWARE#USABILITY final 1.00238e-006
NEGATIVE blank 6.18308e-008
SOFTWARE#USABILITY seemlessly 0.0230027
NEGATIVE although 0.000461702
POSITIVE multi-touch 2.86403e-008
NEGATIVE life 1.95298e-006
LAPTOP#MISCELLANEOUS gamer 0.0108853
POSITIVE performance 7.69647e-009
; pack 1.05418e-008
POSITIVE when 0.00110576
POSITIVE work 0.000512886
POSITIVE whatever 0.000450297
POSITIVE heavier 2.25997e-007
LAPTOP#GENERAL whatever 1.91293e-006
LAPTOP#GENERAL lug 5.49728e-007
COMPANY#GENERAL again 0.0751785
LAPTOP#GENERAL heavier 2.3264e-006
LAPTOP#USABILITY various 9.96761e-006
LAPTOP#GENERAL hate 0.000164532
POSITIVE image 8.69576e-009
POSITIVE excelent 2.40134e-008
LAPTOP#GENERAL th 1.72411e-005
LAPTOP#USABILITY curve 0.000104493
MULTIMEDIA_DEVICES#QUALITY pair 0.00751026
POSITIVE curve 0.000445395
DISPLAY#GENERAL exceptional 0.0376415
LAPTOP#DESIGN_FEATURES need 0.00427503
MULTIMEDIA_DEVICES#GENERAL speaker 0.000139021
NEGATIVE better 0.00128404
POSITIVE weight 2.10993e-007
MULTIMEDIA_DEVICES#DESIGN_FEATURES speaker 0.00251689
MULTIMEDIA_DEVICES#DESIGN_FEATURES real 0.458977
NEGATIVE small 3.81781e-007
NEGATIVE real 3.02396e-008
KEYBOARD#DESIGN_FEATURES keyboard 0.178215
KEYBOARD#DESIGN_FEATURES wasy 0.012865
LAPTOP#PRICE action 2.56828e-006
LAPTOP#GENERAL need 0.00196747
LAPTOP#GENERAL perfectly 2.1104e-008
LAPTOP#GENERAL enough 2.88245e-005
LAPTOP#GENERAL senior 8.79337e-008
POSITIVE enough 0.00471454
POSITIVE affect 0.000450683
LAPTOP#DESIGN_FEATURES enough 1.27477e-005
LAPTOP#CONNECTIVITY strong 0.000503529
POSITIVE ask 0.00158362
LAPTOP#GENERAL needless 1.49023e-005
POSITIVE well-built 0.00022625
POSITIVE gorgeous 1.63185e-005
LAPTOP#MISCELLANEOUS finances 0.00363769
POSITIVE at 5.40735e-006
LAPTOP#MISCELLANEOUS grandparent 0.00363728
POSITIVE affordable 1.50557e-007
LAPTOP#QUALITY wonderfull 0.00232114
LAPTOP#QUALITY block 0.00222625
LAPTOP#GENERAL greatest 0.000359723
POSITIVE greatest 3.86786e-006
POSITIVE investment 7.88295e-006
LAPTOP#PORTABILITY affordability 7.90537e-007
LAPTOP#DESIGN_FEATURES also 5.89192e-006
LAPTOP#DESIGN_FEATURES nice 1.55915e-005
LAPTOP#QUALITY command 0.00232116
LAPTOP#GENERAL search 1.55646e-006
POSITIVE photography 0.000223791
NEGATIVE lack 0.000923389
POSITIVE if 0.0123912
POSITIVE entry-level 0.000225906
POSITIVE fit 3.02534e-006
LAPTOP#MISCELLANEOUS need 5.61984e-005
LAPTOP#MISCELLANEOUS affordable 2.85547e-006
LAPTOP#MISCELLANEOUS entry-level 3.2273e-007
LAPTOP#DESIGN_FEATURES obtrusive 1.31575e-007
POSITIVE too 1.79956e-005
KEYBOARD#QUALITY secondary 0.0326435
LAPTOP#QUALITY durrable 0.00231922
LAPTOP#GENERAL overall 0.00622151
NEGATIVE like 0.00117354
NEGATIVE 17 0.000691809
POSITIVE strength 1.39363e-006
NEGATIVE large 9.69053e-006
NEUTRAL for 0.00347243
NEGATIVE repair 0.00310095
NEGATIVE twice 0.000333187
LAPTOP#QUALITY equal 0.00232086
; repair 1.45456e-007
LAPTOP#MISCELLANEOUS good 2.97472e-006
NEGATIVE online 3.2757e-005
; who 0.000434605
LAPTOP#MISCELLANEOUS occasional 0.000115122
LAPTOP#MISCELLANEOUS web 7.29946e-006
; may 5.90505e-007
SOFTWARE#GENERAL amateur 0.000845176
NEGATIVE 2200 2.31584e-008
POSITIVE drive 1.48274e-006
LAPTOP#QUALITY provide 6.67585e-005
DISPLAY#GENERAL image 0.075182
HARD_DISC#DESIGN_FEATURES largest 0.0407967
KEYBOARD#QUALITY feel 0.326267
; nature 1.42883e-007
KEYBOARD#DESIGN_FEATURES reasonable 0.0660878
; reasonable 2.10704e-008
DISPLAY#DESIGN_FEATURES small 1.29443e-005
NEGATIVE somewhat 0.000139859
NEGATIVE limit 4.90068e-005
LAPTOP#MISCELLANEOUS information 0.0106329
LAPTOP#PORTABILITY travel 0.0900578
POSITIVE screen 5.1674e-005
POSITIVE travel 1.34825e-007
POWER_SUPPLY#DESIGN_FEATURES class 0.352975
NEGATIVE seem 0.00145611
NEGATIVE class 5.68371e-008
LAPTOP#GENERAL action 1.87602e-006
POSITIVE game 7.91051e-005
; game 9.93086e-006
LAPTOP#MISCELLANEOUS work 1.53412e-005
LAPTOP#MISCELLANEOUS action 1.56437e-007
LAPTOP#MISCELLANEOUS pack 2.19478e-006
KEYBOARD#DESIGN_FEATURES broad 0.0258275
KEYBOARD#DESIGN_FEATURES dark 2.50143e-006
NEGATIVE dark 1.65316e-006
NEGATIVE letter 3.93376e-009
KEYBOARD#USABILITY broad 7.45724e-007
KEYBOARD#USABILITY lighter 0.062893
LAPTOP#GENERAL hafe 1.62409e-007
POSITIVE hafe 0.000226173
LAPTOP#MISCELLANEOUS computing 0.0145503
LAPTOP#MISCELLANEOUS browsing 0.000673128
LAPTOP#MISCELLANEOUS home 0.0343027
LAPTOP#MISCELLANEOUS use 3.92193e-006
LAPTOP#MISCELLANEOUS business 0.0180646
POSITIVE business 5.3182e-006
NEUTRAL think 2.43169e-005
NEUTRAL computer 0.00168044
LAPTOP#GENERAL he 4.73223e-006
LAPTOP#GENERAL teach 7.50683e-008
MULTIMEDIA_DEVICES#QUALITY wear 0.0667391
POSITIVE school 1.11913e-006
POSITIVE kid 3.22509e-007
POSITIVE early 0.000452539
LAPTOP#MISCELLANEOUS recomend 0.0145361
LAPTOP#MISCELLANEOUS parent 0.00817176
LAPTOP#MISCELLANEOUS help 0.000315672
LAPTOP#MISCELLANEOUS school 0.0290835
POSITIVE parent 0.000170516
; recomend 2.08047e-008
LAPTOP#MISCELLANEOUS reg 0.0036376
NEGATIVE reg 5.30994e-009
LAPTOP#MISCELLANEOUS error 0.021811
NEGATIVE error 8.56061e-007
POSITIVE wonder 1.17086e-007
LAPTOP#CONNECTIVITY bigger 0.0368756
LAPTOP#CONNECTIVITY hdmi 0.0118924
NEGATIVE top 2.92433e-007
NEGATIVE charge 5.16536e-005
NEGATIVE dose 0.000201477
POSITIVE exception 2.60952e-008
NEGATIVE hour 0.000202525
; charge 9.35723e-007
; dose 1.67398e-005
LAPTOP#MISCELLANEOUS ideal 0.00959233
LAPTOP#MISCELLANEOUS companion 0.00363312
POSITIVE ideal 3.54389e-006
LAPTOP#OPERATION_PERFORMANCE software 8.25712e-007
LAPTOP#OPERATION_PERFORMANCE enable 0.000922217
LAPTOP#OPERATION_PERFORMANCE thing 0.00282412
LAPTOP#DESIGN_FEATURES internal 0.00256405
POSITIVE enable 9.6534e-007
; enable 1.99465e-007
NEUTRAL cheap 5.51393e-007
NEGATIVE cheap 1.66142e-006
LAPTOP#GENERAL over 0.000274505
LAPTOP#QUALITY lame 0.00223838
LAPTOP#GENERAL rate 0.000624282
SHIPPING#QUALITY delivery 0.162453
SHIPPING#QUALITY hesitate 0.00414539
LAPTOP#QUALITY pile 0.000107563
LAPTOP#GENERAL hesitate 1.48767e-005
LAPTOP#QUALITY crap 0.00907158
LAPTOP#GENERAL enjoy 1.89286e-006
POSITIVE attend 0.000163235
LAPTOP#GENERAL provide 0.000603001
POSITIVE enjoy 0.00135409
POSITIVE provide 6.87445e-005
COMPANY#GENERAL brand 0.0263098
LAPTOP#DESIGN_FEATURES specification 0.00513458
POSITIVE who 0.00245303
LAPTOP#GENERAL time 2.52462e-008
DISPLAY#QUALITY clarity 0.0137796
DISPLAY#QUALITY sharpness 0.0137796
LAPTOP#GENERAL friend 0.00210779
LAPTOP#GENERAL damn 6.53422e-006
MOUSE#OPERATION_PERFORMANCE pad 0.000627858
LAPTOP#GENERAL 7th 3.84245e-006
MOUSE#OPERATION_PERFORMANCE should 0.000299301
NEGATIVE touch 1.1862e-005
NEGATIVE pad 0.000243528
NEGATIVE doesnt 1.23133e-005
MOUSE#OPERATION_PERFORMANCE sometimes 0.0111442
LAPTOP#GENERAL scream 0.000729272
LAPTOP#GENERAL disappointed 0.000621457
MOUSE#OPERATION_PERFORMANCE tap 0.0329027
NEGATIVE sometimes 0.00153827
NEGATIVE tap 5.03006e-009
LAPTOP#USABILITY imformative 0.00330629
POSITIVE scream 2.99456e-008
LAPTOP#QUALITY one-year 0.00232116
LAPTOP#GENERAL impressed 0.000967385
POSITIVE secure 3.93735e-009
POSITIVE navigate 7.67523e-007
LAPTOP#USABILITY navigate 0.0132139
POSITIVE besides 5.80146e-008
COMPANY#GENERAL stand 3.3483e-006
COMPANY#GENERAL alone 6.45534e-005
COMPANY#GENERAL chart 0.00124386
POSITIVE once 1.32921e-007
POSITIVE chart 0.000151699
LAPTOP#QUALITY paste 0.000864057
LAPTOP#GENERAL attend 0.000101959
POSITIVE specifially 0.000226273
LAPTOP#USABILITY alert 0.00330629
LAPTOP#USABILITY technologically 0.00330629
LAPTOP#USABILITY program 3.29843e-005
POSITIVE advance 0.000446227
LAPTOP#DESIGN_FEATURES standpoint 0.00248581
POSITIVE program 0.0025764
; various 3.508e-008
LAPTOP#PORTABILITY consuming 0.00432163
LAPTOP#CONNECTIVITY access 0.0493283
LAPTOP#CONNECTIVITY internet 0.210884
LAPTOP#CONNECTIVITY and/or 0.0123736
LAPTOP#CONNECTIVITY complicated 4.83794e-007
POSITIVE access 9.44056e-007
POSITIVE internet 0.000280681
POSITIVE equipment 1.31893e-006
LAPTOP#DESIGN_FEATURES produce 0.00200368
LAPTOP#DESIGN_FEATURES finished 0.00126577
POSITIVE complicated 0.000226264
POSITIVE route 9.40027e-007
; internet 1.74555e-007
LAPTOP#DESIGN_FEATURES study 0.000842029
POSITIVE convenient 0.000452318
POSITIVE academic 0.000225939
; convenient 8.03734e-008
; academic 1.20847e-007
LAPTOP#USABILITY academic 3.4217e-007
LAPTOP#USABILITY study 0.00111098
LAPTOP#MISCELLANEOUS perfect 0.00101328
LAPTOP#MISCELLANEOUS academic 1.82336e-006
LAPTOP#MISCELLANEOUS study 0.00122225
LAPTOP#GENERAL serve 0.00145736
POSITIVE serve 4.05601e-006
DISPLAY#DESIGN_FEATURES portable 4.99728e-006
DISPLAY#DESIGN_FEATURES environment 0.0514203
POSITIVE portable 1.69512e-007
LAPTOP#MISCELLANEOUS cooling 0.0105096
LAPTOP#PORTABILITY portable 0.115786
LAPTOP#PORTABILITY environment 0.000916984
POSITIVE purpose 7.99781e-008
LAPTOP#MISCELLANEOUS purpose 0.00727409
DISPLAY#OPERATION_PERFORMANCE nothing 6.48463e-005
POSITIVE seem 0.00163333
LAPTOP#MISCELLANEOUS hdtv 6.34985e-007
LAPTOP#USABILITY set-up 0.00330537
LAPTOP#USABILITY labtop 0.000187086
LAPTOP#USABILITY themselves 0.00328396
LAPTOP#USABILITY within 4.70231e-006
LAPTOP#USABILITY minute 1.94192e-005
POSITIVE set-up 6.27999e-008
POSITIVE labtop 2.23141e-007
POSITIVE themselves 1.52824e-006
POSITIVE within 2.10207e-005
POSITIVE minute 2.41152e-008
POSITIVE we 5.5462e-006
SUPPORT#QUALITY receive 0.00743856
SUPPORT#QUALITY duty 0.00137411
POSITIVE receive 6.84581e-006
POSITIVE above 0.000605264
POSITIVE duty 4.9402e-005
; receive 3.44956e-006
LAPTOP#OPERATION_PERFORMANCE report 0.00701615
POSITIVE report 2.17003e-006
POSITIVE astonishing 0.000226267
DISPLAY#QUALITY astonishing 3.99696e-007
DISPLAY#QUALITY picture 0.0632039
LAPTOP#PORTABILITY extremely 7.71714e-006
LAPTOP#PORTABILITY library 0.000386411
NEUTRAL numbers 0.00238081
LAPTOP#PORTABILITY elsewhere 0.0203049
POSITIVE extremely 0.000670484
POSITIVE easily 0.00222241
POSITIVE library 6.0275e-006
; extremely 1.23935e-008
; elsewhere 5.82687e-005
LAPTOP#CONNECTIVITY easily 3.00417e-007
LAPTOP#CONNECTIVITY library 0.0116724
LAPTOP#CONNECTIVITY elsewhere 8.73216e-007
LAPTOP#GENERAL doctor 0.000170987
LAPTOP#GENERAL order 0.001825
POSITIVE doctor 0.000120557
POSITIVE order 3.02965e-006
SUPPORT#GENERAL happier 0.106229
NEGATIVE itself 0.000648519
POWER_SUPPLY#QUALITY power 0.000111745
NEGATIVE trouble 0.00115416
POWER_SUPPLY#QUALITY supply 0.271289
NEGATIVE against 3.46521e-008
NEGATIVE over-sized 1.81749e-008
NEGATIVE power 4.49068e-005
NEGATIVE supply 3.60524e-005
NEGATIVE -- 1.11186e-005
; -- 0.000823457
SUPPORT#QUALITY effort 0.00175791
SUPPORT#QUALITY asus 1.22152e-006
POSITIVE handiecap 1.62481e-005
POSITIVE door 0.000212353
NEGATIVE 10 0.00218799
NEGATIVE asus 2.48558e-005
; asus 8.10415e-009
LAPTOP#CONNECTIVITY weak 0.0223445
NEGATIVE weak 4.48267e-005
LAPTOP#GENERAL summary 5.17117e-008
NEGATIVE summary 0.00115184
NEGATIVE elsewhere 1.49008e-007
LAPTOP#DESIGN_FEATURES nicely 7.79432e-005
LAPTOP#DESIGN_FEATURES lot 0.0384736
POSITIVE nicely 0.000671945
POSITIVE lot 6.60045e-007
POSITIVE process 1.56442e-005
; nicely 2.95027e-009
; lot 1.52529e-006
NEGATIVE pray 3.18347e-008
MOUSE#DESIGN_FEATURES combined 0.0387879
CPU#OPERATION_PERFORMANCE process 0.255195
NEGATIVE unless 2.07199e-007
NEGATIVE thime 3.60591e-007
COMPANY#GENERAL superior 0.00377154
LAPTOP#OPERATION_PERFORMANCE net 0.00474866
LAPTOP#OPERATION_PERFORMANCE book 9.7641e-006
LAPTOP#OPERATION_PERFORMANCE operate 0.000404074
LAPTOP#OPERATION_PERFORMANCE well 1.13181e-006
POSITIVE book 0.000826443
POSITIVE operate 3.68905e-007
; book 6.36898e-007
SHIPPING#QUALITY paperwork 0.0514264
; operate 0.000667892
OS#MISCELLANEOUS objection 0.733436
KEYBOARD#DESIGN_FEATURES disappoint 0.0033304
POSITIVE capable 3.01971e-009
NEGATIVE 7 4.04498e-008
NEGATIVE upgrade 3.69173e-008
; starter 3.91037e-007
LAPTOP#PORTABILITY functional 1.57088e-006
LAPTOP#OPERATION_PERFORMANCE functional 0.00237404
LAPTOP#OPERATION_PERFORMANCE meet 3.27718e-006
MOUSE#OPERATION_PERFORMANCE touchpad 0.13775
MOUSE#OPERATION_PERFORMANCE extremely 0.00120288
MOUSE#OPERATION_PERFORMANCE sensitive 0.0629906
NEGATIVE sensitive 2.46698e-005
LAPTOP#QUALITY blue 0.000218529
LAPTOP#GENERAL drawback 0.00105504
LAPTOP#QUALITY assure 0.00168571
LAPTOP#GENERAL otherwise 0.00032825
POSITIVE otherwise 0.000249398
; otherwise 9.5342e-008
LAPTOP#PRICE sure 0.00353718
POSITIVE ii 0.000218842
NEGATIVE sure 7.39894e-006
NEGATIVE kind 0.000349682
LAPTOP#GENERAL deal 0.00073486
LAPTOP#PRICE deal 0.0570705
LAPTOP#GENERAL should 6.87062e-005
LAPTOP#GENERAL ago 0.00397764
LAPTOP#GENERAL 5 3.01802e-006
NEUTRAL enough 2.15247e-006
NEUTRAL give 3.54079e-005
NEUTRAL 5 0.000724929
NEUTRAL star 0.011794
LAPTOP#GENERAL pro 0.00530566
LAPTOP#GENERAL 15 0.00217682
LAPTOP#QUALITY respond 0.000705243
POSITIVE 15 1.17812e-005
POSITIVE three 1.7386e-006
LAPTOP#GENERAL nb 0.000362241
LAPTOP#GENERAL 305-n410bl 0.00036467
LAPTOP#GENERAL believer 0.00025605
OS#USABILITY windows 0.00211392
OS#USABILITY before 0.0181686
LAPTOP#QUALITY lift 0.00232116
LAPTOP#GENERAL doubt 0.000335482
LAPTOP#GENERAL mini 0.000365979
DISPLAY#MISCELLANEOUS glossy 0.00768095
NEUTRAL windows 7.91953e-006
HARD_DISC#QUALITY zone 0.0132547
LAPTOP#OPERATION_PERFORMANCE boot 0.0159643
LAPTOP#OPERATION_PERFORMANCE shut 0.0142214
LAPTOP#OPERATION_PERFORMANCE down 0.0207252
LAPTOP#OPERATION_PERFORMANCE connection 0.000414811
LAPTOP#OPERATION_PERFORMANCE internet 0.00169824
POSITIVE shut 6.76617e-007
POSITIVE down 5.86972e-005
LAPTOP#DESIGN_FEATURES aware 0.0037336
POSITIVE connection 6.97923e-006
; connection 0.00105105
LAPTOP#CONNECTIVITY connection 4.51343e-005
LAPTOP#MISCELLANEOUS detailed 0.00346046
LAPTOP#MISCELLANEOUS hardcopy 1.11008e-005
LAPTOP#MISCELLANEOUS manuel 0.00362949
NEGATIVE detailed 1.12471e-005
NEGATIVE hardcopy 0.000230147
NEGATIVE manuel 5.20336e-007
SHIPPING#QUALITY incorrect 0.0541511
LAPTOP#MISCELLANEOUS manual 0.00354762
LAPTOP#MISCELLANEOUS somewhere 0.00363124
LAPTOP#MISCELLANEOUS copy 2.02454e-006
NEUTRAL manual 5.89474e-005
NEUTRAL somewhere 4.22138e-006
NEUTRAL copy 0.0047603
LAPTOP#MISCELLANEOUS surfing 0.00727537
LAPTOP#MISCELLANEOUS email 9.93778e-006
LAPTOP#MISCELLANEOUS checking 0.00295908
LAPTOP#MISCELLANEOUS word 0.0217554
LAPTOP#MISCELLANEOUS processing 7.64673e-006
LAPTOP#MISCELLANEOUS movie 0.000353751
POSITIVE email 0.000895084
POSITIVE checking 4.22113e-005
LAPTOP#DESIGN_FEATURES complain 2.36297e-007
POSITIVE movie 0.00133126
; email 2.81734e-007
LAPTOP#PRICE reasonable 2.39386e-006
POSITIVE right 4.02489e-005
; right 0.00015213
LAPTOP#OPERATION_PERFORMANCE box 0.0127866
LAPTOP#GENERAL definitely 0.00330563
LAPTOP#GENERAL decent 2.51092e-006
LAPTOP#GENERAL system 1.05495e-008
LAPTOP#QUALITY single 2.6033e-005
LAPTOP#QUALITY apart 0.00691369
POSITIVE definitely 0.000897495
POSITIVE system 0.00406061
POSITIVE while 0.00013027
POSITIVE care 1.61767e-006
LAPTOP#MISCELLANEOUS beginner 2.54185e-006
; definitely 1.79659e-007
LAPTOP#MISCELLANEOUS household 4.94129e-007
; decent 6.49451e-005
LAPTOP#PORTABILITY decent 2.72766e-005
LAPTOP#PORTABILITY entertain 0.0128646
DISPLAY#QUALITY stock 0.000286084
LAPTOP#MISCELLANEOUS entertain 5.28549e-007
LAPTOP#MISCELLANEOUS while 4.20467e-006
LAPTOP#MISCELLANEOUS airplane 0.00363769
MOUSE#QUALITY below 9.66924e-005
LAPTOP#MISCELLANEOUS hotel 0.00363769
LAPTOP#MISCELLANEOUS detail 0.00363769
DISPLAY#QUALITY screen/video 0.0137794
DISPLAY#QUALITY higher 3.54589e-005
DISPLAY#QUALITY x 1.31625e-005
NEGATIVE screen/video 3.77918e-009
NEGATIVE increase 0.000461061
NEGATIVE higher 0.000136341
NEGATIVE 1024 9.57556e-005
NEGATIVE x 2.06737e-005
; increase 3.84386e-007
; higher 5.62857e-005
; 1024 8.09653e-005
; x 3.28389e-006
; 60 0.000276707
DISPLAY#OPERATION_PERFORMANCE still 0.0014441
DISPLAY#OPERATION_PERFORMANCE full 0.000512496
DISPLAY#OPERATION_PERFORMANCE decently 0.000886939
NEUTRAL video 0.0126205
NEUTRAL full 2.42878e-005
NEUTRAL decently 0.004637
; full 1.70908e-006
LAPTOP#DESIGN_FEATURES front 0.000338859
LAPTOP#DESIGN_FEATURES keeper 4.74042e-006
MULTIMEDIA_DEVICES#QUALITY decent 0.0293322
NEUTRAL plane 0.000100639
NEUTRAL overcome 3.11923e-007
NEUTRAL decent 0.00629776
NEUTRAL pair 0.00422739
NEUTRAL head 0.00238081
LAPTOP#GENERAL overly 0.000304433
POSITIVE line 1.59892e-007
POSITIVE doubt 1.88557e-005
POSITIVE overly 3.80521e-005
; line 1.60219e-005
LAPTOP#PRICE expese 0.00722122
LAPTOP#PRICE what 6.61938e-006
NEGATIVE realize 4.28881e-007
NEGATIVE pay 0.000161703
LAPTOP#GENERAL now 1.92185e-005
LAPTOP#GENERAL realize 6.02484e-007
POSITIVE yes 1.07052e-007
POWER_SUPPLY#DESIGN_FEATURES non 0.0685586
POSITIVE now 0.00496145
POWER_SUPPLY#DESIGN_FEATURES attachment 0.117694
LAPTOP#GENERAL apple 2.6447e-008
POSITIVE quick 5.62661e-005
; quick 1.50141e-008
COMPANY#GENERAL theirs 0.00377413
LAPTOP#OPERATION_PERFORMANCE quick 0.0160296
SUPPORT#QUALITY english 0.00702905
SUPPORT#QUALITY speaking 0.00167622
SUPPORT#QUALITY vancouver 0.00165393
SUPPORT#QUALITY through 6.40671e-006
SUPPORT#QUALITY help 0.0240858
POSITIVE speaking 1.05152e-005
POSITIVE vancouver 1.33842e-005
LAPTOP#GENERAL satisfied 0.00180458
POSITIVE satisfied 0.000241907
POSITIVE aftermarket 1.35676e-008
LAPTOP#DESIGN_FEATURES over-sized 0.00256709
LAPTOP#DESIGN_FEATURES alienware 0.00256729
LAPTOP#GENERAL highly 1.37026e-005
LAPTOP#PRICE budget 0.0144424
LAPTOP#PRICE tax 0.000453983
POSITIVE 13 0.00088134
POSITIVE '' 1.96894e-005
POSITIVE free 0.0012235
LAPTOP#DESIGN_FEATURES size/weight 0.00256707
; 13 1.45234e-005
; free 8.19446e-005
SHIPPING#PRICE shipping 6.16641e-005
SHIPPING#PRICE tax 0.135327
SHIPPING#PRICE ca 0.144406
LAPTOP#GENERAL free 6.44108e-008
LAPTOP#MISCELLANEOUS arrive 1.37393e-007
LAPTOP#MISCELLANEOUS packing 0.00363758
POSITIVE packing 6.47737e-009
POSITIVE seal 0.000225956
; seal 1.93883e-007
LAPTOP#OPERATION_PERFORMANCE especially 0.00637576
POSITIVE especially 0.000296387
LAPTOP#GENERAL decide 0.0011953
LAPTOP#GENERAL upgrade 0.00336692
POSITIVE decide 2.04044e-005
; decide 6.18181e-005
MOUSE#QUALITY labtop 0.121125
MOUSE#QUALITY break 0.183822
SUPPORT#QUALITY under 2.18128e-007
SUPPORT#QUALITY warrenty 0.00951486
NEGATIVE under 0.00115076
NEGATIVE warrenty 0.00045661
; under 1.67978e-006
; warrenty 3.3387e-007
LAPTOP#QUALITY stuck 0.00232116
LAPTOP#QUALITY w 0.00162659
LAPTOP#QUALITY / 3.52894e-006
NEGATIVE w 0.0002933
NEGATIVE / 0.000461338
; w 1.16199e-008
LAPTOP#MISCELLANEOUS boy 0.000249538
KEYBOARD#QUALITY bein 0.0326474
NEGATIVE second 0.00115409
LAPTOP#MISCELLANEOUS main 0.00727438
; second 5.9573e-008
COMPANY#GENERAL another 2.35708e-007
COMPANY#GENERAL second 1.08245e-006
COMPANY#GENERAL w 0.000108089
COMPANY#GENERAL / 2.17101e-007
POSITIVE wt 5.75767e-005
LAPTOP#MISCELLANEOUS o 2.6471e-006
; wt 6.34266e-006
LAPTOP#DESIGN_FEATURES wt 0.00179633
DISPLAY#DESIGN_FEATURES led 0.0442591
DISPLAY#DESIGN_FEATURES equip 0.0128613
LAPTOP#DESIGN_FEATURES joke 3.7225e-005
POSITIVE led 7.49522e-006
LAPTOP#DESIGN_FEATURES resturant 0.00256729
POSITIVE monitor 7.21426e-006
; led 4.51194e-006
; monitor 1.32849e-006
LAPTOP#DESIGN_FEATURES led 0.000703801
LAPTOP#DESIGN_FEATURES monitor 3.84343e-005
LAPTOP#DESIGN_FEATURES equip 0.00132879
LAPTOP#GENERAL model 0.00192366
LAPTOP#DESIGN_FEATURES table 9.03961e-005
LAPTOP#DESIGN_FEATURES consuming 0.000842723
POSITIVE nb 2.31109e-006
POSITIVE 305-n410bl 8.09175e-007
KEYBOARD#DESIGN_FEATURES fantasic 0.0084249
LAPTOP#DESIGN_FEATURES reader 0.00204731
POSITIVE accommodate 0.000226228
POSITIVE hand 1.28103e-005
LAPTOP#DESIGN_FEATURES expansion 0.00256714
; accommodate 2.77739e-008
; hand 3.68292e-007
KEYBOARD#USABILITY fantasic 0.0211928
LAPTOP#USABILITY hand 0.0130292
LAPTOP#USABILITY fantasic 0.00111369
LAPTOP#USABILITY windows 0.000295709
LAPTOP#USABILITY 7 2.51659e-005
LAPTOP#USABILITY thru 0.00330629
LAPTOP#USABILITY home 2.29632e-007
LAPTOP#USABILITY premium 5.72465e-007
LAPTOP#USABILITY professional 2.0372e-005
POSITIVE premium 0.000271977
LAPTOP#MISCELLANEOUS cd 1.91402e-006
; premium 0.000248623
LAPTOP#USABILITY accomplish 0.00330282
LAPTOP#USABILITY necessary 0.00969236
POSITIVE both 0.00021119
POSITIVE quickly 3.79407e-005
POSITIVE accomplish 2.37517e-007
POSITIVE necessary 1.54807e-005
; quickly 1.05676e-007
LAPTOP#DESIGN_FEATURES other 0.0374301
LAPTOP#DESIGN_FEATURES such 8.32457e-005
LAPTOP#DESIGN_FEATURES software 3.53327e-005
LAPTOP#DESIGN_FEATURES attractive 0.00256729
POSITIVE certain 6.13778e-007
; install 1.19572e-005
; certain 1.75234e-007
MOUSE#GENERAL change 0.28324
LAPTOP#QUALITY constant 0.00679363
LAPTOP#QUALITY downs 0.00232116
OS#GENERAL openoffice 0.0266302
NEGATIVE experience 3.7063e-006
NEGATIVE constant 1.6893e-005
NEGATIVE receive 0.00016451
NEGATIVE phone 0.00180966
SUPPORT#QUALITY nothing 2.14758e-007
SUPPORT#QUALITY over 3.57383e-006
LAPTOP#QUALITY constantly 0.0115343
NEGATIVE constantly 7.11466e-006
NEGATIVE every 1.47009e-005
; always 1.18255e-005
SUPPORT#QUALITY seem 0.000647913
SUPPORT#QUALITY indirectly 0.00175791
SUPPORT#QUALITY country 0.00515466
OS#QUALITY reinstall 0.515013
SUPPORT#QUALITY another 1.06569e-006
SUPPORT#QUALITY story 0.000382829
SUPPORT#QUALITY history 0.00165529
SUPPORT#QUALITY list 0.00397836
NEGATIVE by 0.00482826
NEGATIVE country 1.56373e-005
NEGATIVE else 0.00134225
NEGATIVE try 0.00290891
NEGATIVE story 0.000411429
NEGATIVE again 0.000249436
NEGATIVE history 1.34764e-005
NEGATIVE list 0.000170111
NEGATIVE right 9.13809e-005
NEGATIVE front 0.000306766
SOFTWARE#MISCELLANEOUS there 7.10662e-005
; else 6.55777e-007
SUPPORT#QUALITY tirr 0.00175791
MOUSE#USABILITY external 1.28349e-005
NEGATIVE plan 0.000692297
NEGATIVE give 0.000854609
SUPPORT#QUALITY blame 0.00175789
NEGATIVE blame 3.14761e-009
NEGATIVE stick 0.000703168
NEGATIVE recomend 8.95455e-007
; memory 1.47818e-008
; stick 8.33201e-009
MOUSE#GENERAL key 0.00016259
OS#GENERAL almost 0.000452366
LAPTOP#QUALITY many 0.000560511
OS#GENERAL snow 3.49092e-005
LAPTOP#QUALITY crapy 0.00232116
LAPTOP#QUALITY extension 0.00232116
LAPTOP#QUALITY complaint 1.90112e-006
NEGATIVE short 0.000100624
NEGATIVE many 0.000108811
NEGATIVE refund 0.000359942
NEGATIVE complaint 1.46942e-007
NEGATIVE finally 0.000876451
; short 3.24137e-005
; finally 2.21449e-006
SUPPORT#QUALITY ask 0.00336663
SUPPORT#QUALITY finally 0.00689718
NEGATIVE relate 0.000230851
NEGATIVE ? 0.000112642
; ? 0.000624259
COMPANY#GENERAL rather 0.00116646
COMPANY#GENERAL date 0.00752345
COMPANY#GENERAL spend 1.41905e-007
NEGATIVE date 1.51681e-006
COMPANY#GENERAL remember 0.00377413
COMPANY#GENERAL research 0.00979215
NEGATIVE research 9.35134e-005
NEGATIVE consider 0.000922873
; research 5.12729e-008
; consider 5.16516e-008
LAPTOP#QUALITY hands 1.72258e-005
LAPTOP#GENERAL w-o-w 0.000365849
POSITIVE w-o-w 8.07125e-008
LAPTOP#GENERAL insane 0.00036524
POSITIVE insane 4.56748e-007
KEYBOARD#USABILITY type 0.251572
GRAPHICS#QUALITY realistic 0.0436254
KEYBOARD#OPERATION_PERFORMANCE protector 0.0572582
KEYBOARD#OPERATION_PERFORMANCE key 0.000396174
POSITIVE pad 7.70855e-006
POSITIVE expert 1.78494e-005
MOUSE#DESIGN_FEATURES mouse 1.69601e-005
POSITIVE presentation 4.03676e-009
POSITIVE designer 3.44555e-009
MOUSE#DESIGN_FEATURES full 1.01216e-005
POSITIVE iphotos 1.17932e-008
MOUSE#DESIGN_FEATURES instead 0.194108
POSITIVE responsive 1.25753e-005
NEUTRAL mouse 6.04941e-007
NEUTRAL flat 0.00281445
NEUTRAL panel 0.00238081
NEUTRAL bar 0.000618621
NEUTRAL instead 1.37941e-006
NEUTRAL separate 0.00238075
POSITIVE aluminum 2.59411e-007
POSITIVE update 3.5335e-006
POSITIVE face 0.000187801
MOUSE#USABILITY two 0.177781
MOUSE#USABILITY separate 6.51329e-007
MOUSE#USABILITY click 0.164868
LAPTOP#MISCELLANEOUS certain 0.018174
LAPTOP#MISCELLANEOUS promotion/offer 0.00363769
LAPTOP#DESIGN_FEATURES place 0.0104554
POSITIVE course 0.000632799
; course 0.000164899
LAPTOP#GENERAL array 1.60235e-007
LAPTOP#GENERAL fantastic 0.000330694
LAPTOP#GENERAL choose 0.00171749
POSITIVE keeper 0.000208518
LAPTOP#DESIGN_FEATURES fully 0.00513458
POSITIVE yet 3.29709e-006
POSITIVE stylish 2.45944e-008
POSITIVE array 3.90642e-006
MULTIMEDIA_DEVICES#QUALITY cheapest 0.0240224
POSITIVE fantastic 2.85799e-005
MULTIMEDIA_DEVICES#QUALITY planning 0.0334694
POSITIVE choose 6.86544e-005
; keeper 1.06007e-005
; fantastic 2.67933e-009
LAPTOP#DESIGN_FEATURES simple 9.79114e-008
LAPTOP#DESIGN_FEATURES stylish 0.0102689
LAPTOP#DESIGN_FEATURES array 0.00252185
LAPTOP#DESIGN_FEATURES fantastic 4.35647e-006
LAPTOP#DESIGN_FEATURES color 0.000137003
SUPPORT#QUALITY team 0.00175791
SUPPORT#QUALITY assist 0.00351583
LAPTOP#GENERAL obviously 2.44887e-006
LAPTOP#GENERAL p-e-r-f-e-c-t 0.000248793
LAPTOP#GENERAL easy-to-function 0.000182507
POSITIVE obviously 0.000367242
POSITIVE p-e-r-f-e-c-t 7.24522e-005
POSITIVE because 1.53702e-005
; obviously 9.34026e-006
LAPTOP#USABILITY obviously 4.33368e-006
LAPTOP#USABILITY easy-to-function 0.00165751
LAPTOP#GENERAL bit 3.47935e-007
LAPTOP#GENERAL job 0.000905209
LAPTOP#DESIGN_FEATURES bus 0.00324042
POSITIVE bit 3.02585e-007
POSITIVE job 2.1706e-007
COMPANY#GENERAL why 6.36551e-006
LAPTOP#OPERATION_PERFORMANCE job 1.16697e-007
NEUTRAL job 0.00125136
DISPLAY#QUALITY lcd 0.00694423
POSITIVE reader 4.58295e-005
NEGATIVE mine 0.000255779
DISPLAY#OPERATION_PERFORMANCE lcd 0.0110099
NEUTRAL impressed 0.00322904
SUPPORT#MISCELLANEOUS actual 0.149845
HARD_DISC#DESIGN_FEATURES gig 0.0407836
SUPPORT#MISCELLANEOUS chat 0.126633
NEGATIVE find 0.00408812
NEGATIVE result 0.000692554
NEGATIVE chat 0.000478397
SUPPORT#QUALITY serial 0.00336416
SUPPORT#QUALITY thing 5.59084e-007
SUPPORT#QUALITY repair 5.32784e-006
SUPPORT#QUALITY though 1.81557e-006
SUPPORT#QUALITY receipt 0.00527374
SUPPORT#QUALITY prove 0.00351583
SUPPORT#QUALITY 2 1.74937e-007
NEGATIVE serial 1.99167e-005
NEGATIVE though 0.00324965
SUPPORT#QUALITY drone 0.00175786
SUPPORT#QUALITY end 0.000855444
SUPPORT#QUALITY chat 0.000145185
SUPPORT#QUALITY sheer 0.00175791
NEGATIVE drone 6.59525e-009
NEGATIVE end 0.000195574
NEGATIVE torture 0.000290202
; end 9.21696e-005
SUPPORT#QUALITY must 0.00343759
SUPPORT#QUALITY he 1.81146e-005
SUPPORT#QUALITY third 1.18555e-005
SUPPORT#QUALITY language 0.00357547
NEGATIVE english 3.41213e-007
NEGATIVE must 1.02745e-005
NEGATIVE he 0.0029957
NEGATIVE third 0.000229294
NEGATIVE language 0.000223019
SUPPORT#QUALITY swear 0.00350807
SUPPORT#QUALITY turing 0.00175771
SUPPORT#QUALITY test 0.000207873
NEGATIVE swear 7.71632e-007
NEGATIVE turing 2.67531e-008
NEGATIVE test 0.000314325
SUPPORT#QUALITY disconnect 0.00175791
SUPPORT#QUALITY deny 0.000288747
SUPPORT#QUALITY 6 0.00285957
SUPPORT#QUALITY manage 6.7865e-005
NEGATIVE deny 0.000423784
NEGATIVE 6 1.11903e-006
NEGATIVE once 0.00218007
NEGATIVE manage 0.00045279
NEGATIVE through 0.000593681
NEGATIVE scan 0.000460671
LAPTOP#MISCELLANEOUS 30 0.0101092
SUPPORT#QUALITY hoop 0.00175791
SUPPORT#QUALITY find 0.000208756
SUPPORT#QUALITY invalidate 6.9206e-008
NEGATIVE way 0.00269648
NEGATIVE invalidate 0.000230842
SUPPORT#QUALITY courier 0.00174992
SUPPORT#QUALITY post 0.00175791
SUPPORT#QUALITY specific 0.00147932
SUPPORT#QUALITY packaging 0.00133269
SUPPORT#QUALITY follow 0.000876251
NEGATIVE courier 1.04903e-006
POSITIVE clip 0.000221468
NEGATIVE specific 3.65854e-005
NEGATIVE packaging 5.58411e-005
NEGATIVE follow 0.000115781
; office 7.35372e-006
SUPPORT#QUALITY screw 0.0052663
NEGATIVE screw 9.76783e-007
; scream 9.81109e-007
SUPPORT#GENERAL world 0.355937
; recall 3.61142e-006
; shop 7.09507e-008
SUPPORT#GENERAL repair 4.81429e-006
; world 7.94664e-009
LAPTOP#QUALITY hot 0.0176356
LAPTOP#QUALITY down 0.00928457
NEGATIVE shut 1.70151e-006
NEGATIVE down 2.7145e-006
LAPTOP#QUALITY ideal 0.000803617
LAPTOP#QUALITY child 0.00913331
LAPTOP#QUALITY temp 2.14329e-005
NEGATIVE ideal 2.75419e-007
NEGATIVE child 1.30134e-005
NEGATIVE temp 1.11276e-006
; child 1.05029e-008
LAPTOP#MISCELLANEOUS child 6.155e-006
DISPLAY#QUALITY crystal 0.000150944
LAPTOP#MISCELLANEOUS temp 0.00358656
SUPPORT#QUALITY situation 0.00175753
SUPPORT#QUALITY excuse 0.00166114
NEGATIVE situation 4.97091e-008
NEGATIVE excuse 1.27083e-005
COMPANY#GENERAL never 0.011878
COMPANY#GENERAL 's 0.0261105
LAPTOP#DESIGN_FEATURES mention 0.00140156
POSITIVE let 1.00766e-007
LAPTOP#USABILITY turn 0.0090812
LAPTOP#USABILITY work 6.38548e-007
COMPANY#GENERAL jobs 0.00377413
LAPTOP#OPERATION_PERFORMANCE turn 0.0267
LAPTOP#QUALITY rough 0.00232116
KEYBOARD#QUALITY issue 4.39122e-005
LAPTOP#QUALITY reprecution 0.00232116
LAPTOP#QUALITY yet 9.84557e-006
POSITIVE pretty 0.000196951
DISPLAY#QUALITY reflectiveness 0.00689036
LAPTOP#MISCELLANEOUS write 0.0140038
LAPTOP#MISCELLANEOUS papers 3.13904e-006
LAPTOP#MISCELLANEOUS check 0.014913
LAPTOP#MISCELLANEOUS mail 0.00416066
LAPTOP#MISCELLANEOUS play 0.0727146
LAPTOP#MISCELLANEOUS field 0.00727525
NEUTRAL stuff 0.0113926
NEUTRAL just 6.30448e-006
NEUTRAL papers 0.00475957
NEUTRAL check 0.000504413
NEUTRAL mail 0.00761722
NEUTRAL field 7.76374e-008
; check 1.79436e-005
LAPTOP#QUALITY four 0.00696349
LAPTOP#QUALITY never 6.88317e-006
LAPTOP#QUALITY once 0.00813393
POSITIVE never 0.00383315
; man 1.7705e-005
SOFTWARE#MISCELLANEOUS trial 0.0784853
; paper 1.40243e-005
SOFTWARE#DESIGN_FEATURES caveat 0.0681054
BATTERY#QUALITY couple 0.18588
; inept 1.52433e-008
SOFTWARE#MISCELLANEOUS site 0.000362765
BATTERY#QUALITY since 0.000467179
NEUTRAL once 3.59777e-005
NEUTRAL couple 5.23477e-005
NEUTRAL ago 6.12614e-005
NEUTRAL since 2.91872e-005
BATTERY#OPERATION_PERFORMANCE couple 0.000611804
BATTERY#OPERATION_PERFORMANCE ago 3.80499e-006
BATTERY#OPERATION_PERFORMANCE since 2.88879e-005
POSITIVE market 0.00044556
LAPTOP#DESIGN_FEATURES complete 9.87113e-007
POSITIVE fun 5.34852e-007
; market 1.07301e-007
KEYBOARD#QUALITY paint 0.0326474
LAPTOP#GENERAL market 0.000742975
LAPTOP#GENERAL fun 0.000731422
LAPTOP#GENERAL awesome 2.33386e-007
LAPTOP#QUALITY who 1.45145e-006
LAPTOP#QUALITY reliable 0.00928465
LAPTOP#PRICE along 0.00683877
POSITIVE along 1.19838e-005
POSITIVE newer 4.34124e-005
; newer 2.8162e-005
LAPTOP#DESIGN_FEATURES newer 5.03199e-006
DISPLAY#QUALITY bright 0.0413361
POSITIVE bright 4.57072e-008
NEGATIVE usual 1.74937e-007
KEYBOARD#DESIGN_FEATURES myself 0.0996042
KEYBOARD#DESIGN_FEATURES 10-key 2.87342e-006
POSITIVE myself 3.21698e-005
KEYBOARD#USABILITY myself 8.53855e-005
KEYBOARD#USABILITY 10-key 0.062886
BATTERY#OPERATION_PERFORMANCE 6 0.000403534
BATTERY#OPERATION_PERFORMANCE football 0.00166295
BATTERY#OPERATION_PERFORMANCE youtube 0.00185467
NEUTRAL 6 0.000696396
NEUTRAL surf 1.63144e-006
NEUTRAL sundays 0.00238081
NEUTRAL football 0.00163549
NEUTRAL score 0.00238081
NEUTRAL funny 0.00238081
NEUTRAL youtube 0.00154956
LAPTOP#QUALITY those 0.0108763
LAPTOP#QUALITY care 2.28818e-007
LAPTOP#QUALITY noise 0.00232116
POSITIVE those 9.99673e-007
LAPTOP#OPERATION_PERFORMANCE scratch 0.00229929
CPU#QUALITY i3 0.36443
CPU#QUALITY processor 0.0206578
CPU#QUALITY fan 0.614896
CPU#QUALITY rarely 1.53311e-005
LAPTOP#OPERATION_PERFORMANCE yahoo 0.00235983
SOFTWARE#USABILITY easily 1.48024e-006
POSITIVE rarely 0.00066149
LAPTOP#DESIGN_FEATURES because 0.000240116
NEGATIVE junk 0.00092258
; junk 2.09302e-007
SOFTWARE#GENERAL junk 2.70586e-005
LAPTOP#DESIGN_FEATURES wish 0.0229381
LAPTOP#DESIGN_FEATURES select 0.00256729
LAPTOP#DESIGN_FEATURES setup 0.00769224
LAPTOP#CONNECTIVITY aspire 0.0123736
LAPTOP#DESIGN_FEATURES stuff 0.000544473
NEGATIVE boot 8.63255e-009
NEGATIVE os 0.00130587
NEGATIVE setup 8.66652e-007
NEGATIVE remove 0.000677944
NEGATIVE unnecessary 0.000680304
NEGATIVE stuff 9.63604e-008
; unnecessary 2.14675e-006
SOFTWARE#GENERAL remove 0.000829905
LAPTOP#OPERATION_PERFORMANCE once 2.10448e-006
LAPTOP#OPERATION_PERFORMANCE seconds 0.00712265
NEUTRAL 15-20 0.00238081
NEUTRAL seconds 3.40601e-007
LAPTOP#MISCELLANEOUS serious 9.39975e-005
LAPTOP#MISCELLANEOUS gaming 0.0363762
LAPTOP#MISCELLANEOUS media 0.0145468
MEMORY#DESIGN_FEATURES kinda 3.93337e-006
NEGATIVE serious 0.000686537
NEGATIVE media 2.52109e-008
; serious 3.0993e-008
; media 6.37237e-008
LAPTOP#MISCELLANEOUS niece 0.00363725
LAPTOP#MISCELLANEOUS nephew 6.92464e-007
LAPTOP#MISCELLANEOUS video 6.07414e-007
NEUTRAL niece 2.86159e-007
NEUTRAL nephew 0.00476117
NEUTRAL require 1.03753e-006
NEUTRAL dedicated 5.14921e-008
NEUTRAL card 3.778e-005
LAPTOP#USABILITY tire 0.00330629
GRAPHICS#DESIGN_FEATURES dedicated 0.333714
NEUTRAL money 0.0173772
LAPTOP#DESIGN_FEATURES right 6.68466e-006
LAPTOP#USABILITY upgradable 0.00661257
NEGATIVE longer 0.00115426
BATTERY#OPERATION_PERFORMANCE .0 0.000119078
BATTERY#OPERATION_PERFORMANCE hr 0.0317828
NEGATIVE downfall 3.18635e-005
NEGATIVE 1.5-2 0.000230851
NEGATIVE .0 0.000225676
NEGATIVE hr 3.88812e-006
NEGATIVE plug 0.00151898
; plug 4.73343e-008
BATTERY#OPERATION_PERFORMANCE least 0.00304198
NEGATIVE least 0.00102182
; least 1.41681e-007
LAPTOP#DESIGN_FEATURES otherwise 5.20889e-007
; transition 1.61662e-009
LAPTOP#MISCELLANEOUS transition 0.00363764
LAPTOP#MISCELLANEOUS pc 9.21713e-006
LAPTOP#QUALITY been 0.00463303
LAPTOP#QUALITY headache 0.00362083
LAPTOP#QUALITY purchased 0.00175498
NEGATIVE been 9.24436e-007
NEGATIVE headache 9.65996e-007
NEGATIVE purchased 5.63094e-005
LAPTOP#MISCELLANEOUS refurbish 0.00363769
LAPTOP#MISCELLANEOUS cae 0.00016447
NEGATIVE cae 0.000220414
LAPTOP#GENERAL waste 0.00109744
LAPTOP#GENERAL 0 0.000355919
LAPTOP#GENERAL imo 0.000152115
NEGATIVE 0 6.34583e-006
; imo 7.84213e-005
COMPANY#GENERAL summary 3.87562e-005
; dont 9.81241e-009
COMPANY#GENERAL major 1.2114e-007
COMPANY#GENERAL prolem 0.00213551
NEGATIVE prolem 0.000100229
NEGATIVE decision 9.77748e-005
; decision 1.3082e-006
LAPTOP#QUALITY think 0.0194832
DISPLAY#QUALITY completely 0.00400809
DISPLAY#QUALITY die 0.032265
NEGATIVE than 8.80066e-005
NEGATIVE die 0.00084457
LAPTOP#DESIGN_FEATURES advance 7.17029e-005
POSITIVE open 2.14511e-005
POSITIVE world 9.96722e-005
LAPTOP#DESIGN_FEATURES 13.3 9.87123e-006
POSITIVE macbooks 4.40067e-005
SOFTWARE#USABILITY program 2.13036e-005
POSITIVE technological 0.000225635
LAPTOP#DESIGN_FEATURES aesthetics 0.00256715
POSITIVE associate 2.00351e-006
; open 3.1872e-005
LAPTOP#MISCELLANEOUS 13.3 4.59319e-006
LAPTOP#MISCELLANEOUS z0j80001 0.00597019
LAPTOP#MISCELLANEOUS integral 0.00362605
LAPTOP#MISCELLANEOUS blog 0.0025874
; technological 3.29393e-007
LAPTOP#GENERAL fall 0.000150481
POSITIVE music 0.00248366
; music 3.12896e-006
POSITIVE believer 6.79659e-005
LAPTOP#QUALITY capable 0.00154239
LAPTOP#GENERAL netboook 0.000347731
POSITIVE netboook 1.12825e-005
POSITIVE teaching 2.05026e-007
POSITIVE skip 0.000226273
LAPTOP#MISCELLANEOUS classroom 0.00363769
LAPTOP#MISCELLANEOUS term 1.75078e-005
POSITIVE amaze 2.47468e-006
MULTIMEDIA_DEVICES#OPERATION_PERFORMANCE right 0.841799
POSITIVE she 0.00226172
POSITIVE focus 0.000111753
POSITIVE activity 0.000120102
POSITIVE mail 3.92068e-005
POSITIVE etc. 7.45457e-008
LAPTOP#MISCELLANEOUS spectrum 0.00363769
LAPTOP#MISCELLANEOUS starcraft 7.52884e-005
; she 5.9727e-007
LAPTOP#MISCELLANEOUS ii 0.000119461
LAPTOP#MISCELLANEOUS comparable 0.00363758
LAPTOP#DESIGN_FEATURES : 1.89053e-006
LAPTOP#OPERATION_PERFORMANCE response 0.00237433
LAPTOP#MISCELLANEOUS etc. 8.01578e-006
POSITIVE else 3.68912e-005
; unit 6.83377e-007
LAPTOP#GENERAL else 2.86823e-008
NEUTRAL massive 3.29506e-008
NEUTRAL graphics-intensive 0.00238081
NEUTRAL aim 0.00238081
LAPTOP#GENERAL blog 0.000105667
LAPTOP#GENERAL hardly 0.000365834
POSITIVE osx 6.32765e-007
POSITIVE clean 0.00036304
POSITIVE smooth 4.73272e-005
; clean 0.000310971
; smooth 1.19101e-008
OS#OPERATION_PERFORMANCE osx 0.185991
OS#OPERATION_PERFORMANCE clean 0.00803909
OS#OPERATION_PERFORMANCE operating 0.307181
OS#OPERATION_PERFORMANCE system 2.41567e-005
BATTERY#OPERATION_PERFORMANCE test 0.00443114
NEUTRAL test 0.00163321
POWER_SUPPLY#DESIGN_FEATURES accident 0.117616
LAPTOP#GENERAL probably 1.73568e-006
LAPTOP#QUALITY whim 0.00232116
LAPTOP#GENERAL unexpected 0.00017187
POSITIVE probably 5.41447e-006
LAPTOP#DESIGN_FEATURES push 2.73292e-006
SOFTWARE#USABILITY friendly 0.113801
; probably 2.89789e-007
LAPTOP#DESIGN_FEATURES get 0.000332499
LAPTOP#DESIGN_FEATURES plus 0.0017573
LAPTOP#PORTABILITY exceed 3.23586e-005
NEUTRAL magnetically 0.00219551
LAPTOP#DESIGN_FEATURES lid 0.00256729
POSITIVE exceed 0.000137247
LAPTOP#DESIGN_FEATURES magnetically 0.000199819
POSITIVE compact 5.74182e-008
POSITIVE device 0.000611177
; exceed 6.13979e-007
LAPTOP#USABILITY device 6.20611e-007
BATTERY#OPERATION_PERFORMANCE impress 0.00530452
LAPTOP#DESIGN_FEATURES indent 0.00256702
LAPTOP#DESIGN_FEATURES razor 5.90432e-007
POSITIVE memory 1.00022e-005
MEMORY#DESIGN_FEATURES impress 1.68889e-005
MEMORY#DESIGN_FEATURES amount 2.77609e-005
MEMORY#DESIGN_FEATURES memory 0.464328
NEUTRAL small 0.0248811
NEUTRAL amount 0.00951759
LAPTOP#DESIGN_FEATURES understand 8.2145e-007
SUPPORT#PRICE cost 0.460444
NEGATIVE why 7.33886e-006
POSITIVE theapple 0.000226273
; why 2.95188e-005
; include 1.63044e-008
POSITIVE strong 0.000565742
POSITIVE sense 0.000106577
POSITIVE era 6.51597e-007
; strong 0.000201864
; era 0.000137955
LAPTOP#GENERAL device 0.001185
LAPTOP#GENERAL modern 0.000350122
POSITIVE modern 9.80382e-006
POSITIVE requirement 1.08473e-007
POSITIVE useful 0.000397361
; useful 4.86467e-005
LAPTOP#OPERATION_PERFORMANCE enjoy 2.25345e-006
LAPTOP#OPERATION_PERFORMANCE toshib 5.47652e-005
LAPTOP#OPERATION_PERFORMANCE durability 0.00120036
POSITIVE toshib 0.000189622
POSITIVE force 3.72855e-007
POSITIVE durability 1.78814e-008
POSITIVE unparalleled 1.0799e-005
; unparalleled 0.000131684
BATTERY#OPERATION_PERFORMANCE lasting 0.00531089
NEGATIVE lasting 4.97462e-008
LAPTOP#GENERAL dv4-1222nr 0.000352264
